<?xml version="1.0"?>
<opencv_storage>
<stage13>
  <maxWeakCount>10</maxWeakCount>
  <stageThreshold>-1.0020281076431274e+00</stageThreshold>
  <weakClassifiers>
    <_>
      <internalNodes>
        0 -1 394099 -8452345 -1106241789 -268483817 -10344894 1163757023
        672012238 1240416587 -319921138</internalNodes>
      <leafValues>
        -3.8553914427757263e-01 3.6675098538398743e-01</leafValues></_>
    <_>
      <internalNodes>
        0 -1 645270 2134364544 1065287089 -1577585164 -1644201029
        -1073770612 -860508530 -1833524096 -1410666609</internalNodes>
      <leafValues>
        -3.8575789332389832e-01 3.5809209942817688e-01</leafValues></_>
    <_>
      <internalNodes>
        0 -1 452188 -1214229032 -174039839 -1338805272 -613482374
        -1112408504 121012095 876345000 938155387</internalNodes>
      <leafValues>
        -6.1144083738327026e-01 2.2532027959823608e-01</leafValues></_>
    <_>
      <internalNodes>
        0 -1 475541 -124775206 904987594 977086394 536687410 2067477263
        1324265983 589886718 -1073748017</internalNodes>
      <leafValues>
        -5.4890918731689453e-01 2.5598829984664917e-01</leafValues></_>
    <_>
      <internalNodes>
        0 -1 650891 -1057490301 -1066085517 67079041 -1337923014
        1631388935 526233463 -1242060849 -1722287358</internalNodes>
      <leafValues>
        -4.1862541437149048e-01 3.3053830265998840e-01</leafValues></_>
    <_>
      <internalNodes>
        0 -1 250235 -650508929 2147438238 271585278 840801368 505939759
        -8442065 1610419455 -571234570</internalNodes>
      <leafValues>
        -3.5949781537055969e-01 4.0144896507263184e-01</leafValues></_>
    <_>
      <internalNodes>
        0 -1 468095 -1074827777 -156326162 -688122376 2003649652
        -8527984 -44519208 -1885274182 -18142095</internalNodes>
      <leafValues>
        -3.4713503718376160e-01 4.3057292699813843e-01</leafValues></_>
    <_>
      <internalNodes>
        0 -1 386037 -1287924241 -609808658 444589823 1610567671
        -1088686714 -1660962057 -1101007176 -385899905</internalNodes>
      <leafValues>
        -3.7309855222702026e-01 4.0544968843460083e-01</leafValues></_>
    <_>
      <internalNodes>
        0 -1 716744 1759291391 16580357 -1 -1191379872 2130705783
        -1057292305 -17825794 -1460605194</internalNodes>
      <leafValues>
        -3.2758051156997681e-01 4.5743140578269958e-01</leafValues></_>
    <_>
      <internalNodes>
        0 -1 369953 2113509205 -1191236901 2046656254 1439558380
        738015197 -321159203 2028829438 -55705696</internalNodes>
      <leafValues>
        -2.9464501142501831e-01 4.8747366666793823e-01</leafValues></_></weakClassifiers></stage13>
</opencv_storage>
