<?xml version="1.0"?>
<opencv_storage>
<cascade>
  <stageType>BOOST</stageType>
  <featureType>LBP</featureType>
  <height>72</height>
  <width>72</width>
  <stageParams>
    <boostType>GAB</boostType>
    <minHitRate>9.9500000476837158e-01</minHitRate>
    <maxFalseAlarm>5.0000000000000000e-01</maxFalseAlarm>
    <weightTrimRate>9.4999999999999996e-01</weightTrimRate>
    <maxDepth>1</maxDepth>
    <maxWeakCount>100</maxWeakCount></stageParams>
  <featureParams>
    <maxCatCount>256</maxCatCount>
    <featSize>1</featSize></featureParams>
  <stageNum>20</stageNum>
  <stages>
    <!-- stage 0 -->
    <_>
      <maxWeakCount>6</maxWeakCount>
      <stageThreshold>-1.1807675361633301e+00</stageThreshold>
      <weakClassifiers>
        <_>
          <internalNodes>
            0 -1 225 766793597 -65537 -1 -196612 -720899 -1 -196612
            -1398797312</internalNodes>
          <leafValues>
            -4.7430381178855896e-01 6.4605289697647095e-01</leafValues></_>
        <_>
          <internalNodes>
            0 -1 10 -268484817 787480575 -154 -285278226 2004840213
            2004344695 -559356 -151716044</internalNodes>
          <leafValues>
            -5.0271403789520264e-01 5.6184822320938110e-01</leafValues></_>
        <_>
          <internalNodes>
            0 -1 282 754458421 784285685 -1 -1090633729 1073495933
            -33570817 -1073774667 -1359200260</internalNodes>
          <leafValues>
            -5.1602149009704590e-01 5.2261084318161011e-01</leafValues></_>
        <_>
          <internalNodes>
            0 -1 0 661663541 805179263 -16777217 -1342390276 -114827
            -655489 -200908 754196284</internalNodes>
          <leafValues>
            -6.0864192247390747e-01 4.4558164477348328e-01</leafValues></_>
        <_>
          <internalNodes>
            0 -1 7 -1359003865 -1074855953 -16777310 -353443858 -8421609
            2030042999 -8521920 -135791020</internalNodes>
          <leafValues>
            -5.5278772115707397e-01 4.7904214262962341e-01</leafValues></_>
        <_>
          <internalNodes>
            0 -1 319 137365269 -1393525249 -67586 -1359200523
            -1078562953 -131329 -1124184523 753942064</internalNodes>
          <leafValues>
            -6.2949317693710327e-01 4.3781223893165588e-01</leafValues></_></weakClassifiers></_>
    <!-- stage 1 -->
    <_>
      <maxWeakCount>6</maxWeakCount>
      <stageThreshold>-1.0310574769973755e+00</stageThreshold>
      <weakClassifiers>
        <_>
          <internalNodes>
            0 -1 192 233865085 -65537 -1 -65540 -131203 -1 -65548
            -1128260560</internalNodes>
          <leafValues>
            -4.7256636619567871e-01 6.6788470745086670e-01</leafValues></_>
        <_>
          <internalNodes>
            0 -1 163 78647157 1073627127 -1073741825 -1140965379
            771637247 -1 -1074315267 -1090633739</internalNodes>
          <leafValues>
            -5.1764333248138428e-01 5.9705245494842529e-01</leafValues></_>
        <_>
          <internalNodes>
            0 -1 291 180100405 804552639 -1073905665 -1143029763
            670449655 -268582913 -268649091 -1090765068</internalNodes>
          <leafValues>
            -5.1032656431198120e-01 5.4991936683654785e-01</leafValues></_>
        <_>
          <internalNodes>
            0 -1 20 805306151 -1358954689 -16777566 -286589190
            2013083461 1463287799 1744791392 -168427676</internalNodes>
          <leafValues>
            -5.5795401334762573e-01 5.0367724895477295e-01</leafValues></_>
        <_>
          <internalNodes>
            0 -1 275 804536245 -1073823745 -1 -268500995 -1077936131
            -721921 -73731 -1397737264</internalNodes>
          <leafValues>
            -5.2678817510604858e-01 5.5812048912048340e-01</leafValues></_>
        <_>
          <internalNodes>
            0 -1 6 620502901 721289053 -1073774601 -1392754691
            1072963381 -33685505 -549003 753929844</internalNodes>
          <leafValues>
            -5.8922499418258667e-01 4.9258974194526672e-01</leafValues></_></weakClassifiers></_>
    <!-- stage 2 -->
    <_>
      <maxWeakCount>3</maxWeakCount>
      <stageThreshold>-8.7689262628555298e-01</stageThreshold>
      <weakClassifiers>
        <_>
          <internalNodes>
            0 -1 306 2048 2064 4194304 2097192 278528 8464 0 -2147483648</internalNodes>
          <leafValues>
            -7.3599386215209961e-01 7.2801154851913452e-01</leafValues></_>
        <_>
          <internalNodes>
            0 -1 91 538968064 570433632 538968576 807415856 1311744
            403712789 2097156 -2147216128</internalNodes>
          <leafValues>
            -7.6066702604293823e-01 6.0134047269821167e-01</leafValues></_>
        <_>
          <internalNodes>
            0 -1 110 -1837849196 1544610973 831526900 -109010560
            -2122301004 -131063608 -2134896228 -1266663424</internalNodes>
          <leafValues>
            -6.6983401775360107e-01 6.1976826190948486e-01</leafValues></_></weakClassifiers></_>
    <!-- stage 3 -->
    <_>
      <maxWeakCount>3</maxWeakCount>
      <stageThreshold>-9.0528500080108643e-01</stageThreshold>
      <weakClassifiers>
        <_>
          <internalNodes>
            0 -1 191 0 8390656 204475392 1024 1024 2102304 1056
            -2145386496</internalNodes>
          <leafValues>
            -7.5765115022659302e-01 7.7372395992279053e-01</leafValues></_>
        <_>
          <internalNodes>
            0 -1 249 0 1073741824 32 524288 0 100663296 128 -2147482496</internalNodes>
          <leafValues>
            -7.3080527782440186e-01 6.8427890539169312e-01</leafValues></_>
        <_>
          <internalNodes>
            0 -1 126 2097152 1073741824 8388608 0 1152 262160 8650880
            -2130313152</internalNodes>
          <leafValues>
            -6.9322091341018677e-01 5.8317142724990845e-01</leafValues></_></weakClassifiers></_>
    <!-- stage 4 -->
    <_>
      <maxWeakCount>6</maxWeakCount>
      <stageThreshold>-1.1556215286254883e+00</stageThreshold>
      <weakClassifiers>
        <_>
          <internalNodes>
            0 -1 1 -751700489 880638775 790310717 262512683 1148293559
            1894790518 157748495 16974097</internalNodes>
          <leafValues>
            -5.7120662927627563e-01 6.0171920061111450e-01</leafValues></_>
        <_>
          <internalNodes>
            0 -1 262 -2138013696 270011432 -1435998976 287318588 7834820
            17356 922035848 -1597896692</internalNodes>
          <leafValues>
            -5.7155030965805054e-01 5.0392097234725952e-01</leafValues></_>
        <_>
          <internalNodes>
            0 -1 209 70257152 885788540 -441030780 -1088265088
            -1105781328 -724964220 -537897592 -2139095040</internalNodes>
          <leafValues>
            -5.3480935096740723e-01 4.2090252041816711e-01</leafValues></_>
        <_>
          <internalNodes>
            0 -1 137 -1037434240 -670940064 70788640 -1745186770
            21512840 1124886369 1741432968 -1825348593</internalNodes>
          <leafValues>
            -4.9458050727844238e-01 4.1371977329254150e-01</leafValues></_>
        <_>
          <internalNodes>
            0 -1 121 -1929902235 250903669 -802827 -1669956108
            1073659285 -184942601 -1762513160 -1400357612</internalNodes>
          <leafValues>
            -3.6954852938652039e-01 4.9659159779548645e-01</leafValues></_>
        <_>
          <internalNodes>
            0 -1 62 -1608051931 -70238425 -302289084 -109803760
            1475299297 131358193 -268880472 -1259909072</internalNodes>
          <leafValues>
            -4.1319057345390320e-01 4.7777351737022400e-01</leafValues></_></weakClassifiers></_>
    <!-- stage 5 -->
    <_>
      <maxWeakCount>8</maxWeakCount>
      <stageThreshold>-1.3981713056564331e+00</stageThreshold>
      <weakClassifiers>
        <_>
          <internalNodes>
            0 -1 26 -1905318142 183434511 -1363775968 -1561395990
            2004161349 1635123025 -1270958336 -453706716</internalNodes>
          <leafValues>
            -5.2314251661300659e-01 4.6608245372772217e-01</leafValues></_>
        <_>
          <internalNodes>
            0 -1 278 112201524 -2130804899 -114755 -1363378292
            -1082884259 -1142095883 -1342406795 -1363657424</internalNodes>
          <leafValues>
            -5.3414821624755859e-01 3.8519304990768433e-01</leafValues></_>
        <_>
          <internalNodes>
            0 -1 22 1978924927 1978924639 -1077151425 -1391634510
            -604186627 -117559307 1820181805 6301459</internalNodes>
          <leafValues>
            -5.4433131217956543e-01 3.7685331702232361e-01</leafValues></_>
        <_>
          <internalNodes>
            0 -1 305 539963142 183168878 -1360239486 552218030 368514821
            74579829 -176197312 -1057685904</internalNodes>
          <leafValues>
            -5.7072126865386963e-01 3.3382746577262878e-01</leafValues></_>
        <_>
          <internalNodes>
            0 -1 261 -1067537489 14718523 -1431982577 -2010477906
            -304124103 -1342898693 -1430825039 -1459639374</internalNodes>
          <leafValues>
            -4.1375023126602173e-01 3.9966788887977600e-01</leafValues></_>
        <_>
          <internalNodes>
            0 -1 283 -1560318426 304741743 -755061588 820022958
            2122274580 73072494 -152045832 -261820780</internalNodes>
          <leafValues>
            -4.6278691291809082e-01 3.3897149562835693e-01</leafValues></_>
        <_>
          <internalNodes>
            0 -1 102 40894516 1987862393 -180805 -84398276 955658749
            -6393869 209192444 -1133114510</internalNodes>
          <leafValues>
            -4.9744257330894470e-01 3.3889636397361755e-01</leafValues></_>
        <_>
          <internalNodes>
            0 -1 193 68684900 248508277 803123119 980717052 1031548853
            -20123649 -1428127996 -2021651456</internalNodes>
          <leafValues>
            -5.9859681129455566e-01 2.4484555423259735e-01</leafValues></_></weakClassifiers></_>
    <!-- stage 6 -->
    <_>
      <maxWeakCount>9</maxWeakCount>
      <stageThreshold>-1.1343250274658203e+00</stageThreshold>
      <weakClassifiers>
        <_>
          <internalNodes>
            0 -1 112 606088501 -1367539715 -1 -17006596 -1082294283 -4
            -229452 -1396699872</internalNodes>
          <leafValues>
            -4.2091009020805359e-01 4.7062912583351135e-01</leafValues></_>
        <_>
          <internalNodes>
            0 -1 297 -1358960849 49282991 -285741406 -1561399322
            -134250745 1191182295 -33558588 -454754332</internalNodes>
          <leafValues>
            -4.5196646451950073e-01 4.1631153225898743e-01</leafValues></_>
        <_>
          <internalNodes>
            0 -1 154 766773045 779894655 -1879638145 -1393657865
            922632053 -98563 -1074102284 -1078453196</internalNodes>
          <leafValues>
            -4.6572068333625793e-01 3.8161841034889221e-01</leafValues></_>
        <_>
          <internalNodes>
            0 -1 47 -453740683 913637236 -180296 -34300014 -570679823
            -34279983 -4785288 -143166379</internalNodes>
          <leafValues>
            -3.3341267704963684e-01 4.7105520963668823e-01</leafValues></_>
        <_>
          <internalNodes>
            0 -1 318 251142133 251407353 -33603585 -1359024484
            -1652670659 -16777473 -409731 -1430774416</internalNodes>
          <leafValues>
            -4.6571856737136841e-01 3.4693855047225952e-01</leafValues></_>
        <_>
          <internalNodes>
            0 -1 241 -1413741023 615284597 -33652960 -1572815367
            477187669 -285347978 -3525019 -328978506</internalNodes>
          <leafValues>
            -3.2496783137321472e-01 4.6632382273674011e-01</leafValues></_>
        <_>
          <internalNodes>
            0 -1 57 -1342226653 -1343816705 -16777332 -1157960850
            1432180567 1467875190 -887548 -184616649</internalNodes>
          <leafValues>
            -3.8002431392669678e-01 4.0998730063438416e-01</leafValues></_>
        <_>
          <internalNodes>
            0 -1 257 -1057165571 8842814 -1942243415 -1996571110 -524357
            -1392771655 -1343441102 -1560835405</internalNodes>
          <leafValues>
            -3.6332365870475769e-01 4.4258761405944824e-01</leafValues></_>
        <_>
          <internalNodes>
            0 -1 307 -1900671723 612040703 -1342194739 -1365966986
            1610495605 -285343753 -1082519996 -2018498784</internalNodes>
          <leafValues>
            -3.7828862667083740e-01 3.9877602458000183e-01</leafValues></_></weakClassifiers></_>
    <!-- stage 7 -->
    <_>
      <maxWeakCount>11</maxWeakCount>
      <stageThreshold>-1.3719134330749512e+00</stageThreshold>
      <weakClassifiers>
        <_>
          <internalNodes>
            0 -1 280 -1358985458 49131439 -822344126 -2131958744
            1441990405 16773981 -167785344 -1058865168</internalNodes>
          <leafValues>
            -4.4497936964035034e-01 3.7442642450332642e-01</leafValues></_>
        <_>
          <internalNodes>
            0 -1 5 -547387643 -12597313 -142663411 -721490785 1065047297
            -402793473 -418054144 -45562</internalNodes>
          <leafValues>
            -3.5286584496498108e-01 4.0434744954109192e-01</leafValues></_>
        <_>
          <internalNodes>
            0 -1 105 207101237 545005533 -4440129 -1347666828 930889301
            -302188705 -1091420172 -1393280992</internalNodes>
          <leafValues>
            -4.4301822781562805e-01 3.0492237210273743e-01</leafValues></_>
        <_>
          <internalNodes>
            0 -1 284 -937390960 314049556 -760224275 -1180136536
            -1224956068 -1094402580 -419519096 -1465706462</internalNodes>
          <leafValues>
            -3.8212189078330994e-01 3.5752514004707336e-01</leafValues></_>
        <_>
          <internalNodes>
            0 -1 95 574300160 273197856 1037905423 397324067 34931872
            960249581 617426860 -72499495</internalNodes>
          <leafValues>
            -4.5839399099349976e-01 2.7829045057296753e-01</leafValues></_>
        <_>
          <internalNodes>
            0 -1 320 1240735613 -1427341315 -18022913 -1191264819
            1610375037 -573244433 -1342947599 -1396954304</internalNodes>
          <leafValues>
            -3.5132613778114319e-01 3.6324581503868103e-01</leafValues></_>
        <_>
          <internalNodes>
            0 -1 85 -1174475003 -1263108816 -269484172 -1612546228
            2104973269 -1216479243 -1401749624 -196676032</internalNodes>
          <leafValues>
            -2.9363781213760376e-01 4.2697098851203918e-01</leafValues></_>
        <_>
          <internalNodes>
            0 -1 135 -1472984576 43911293 -1407406224 653678216
            251580549 175362405 647252096 -2145236920</internalNodes>
          <leafValues>
            -4.6411544084548950e-01 2.5827667117118835e-01</leafValues></_>
        <_>
          <internalNodes>
            0 -1 16 926760791 143774195 1773460813 96448492 255702205
            552668670 996078355 949769517</internalNodes>
          <leafValues>
            -4.8201984167098999e-01 2.4457931518554688e-01</leafValues></_>
        <_>
          <internalNodes>
            0 -1 246 -2130720989 -1132036416 1324848054 -242727636
            541016469 1618783294 1987343936 -196684636</internalNodes>
          <leafValues>
            -3.2807368040084839e-01 3.7448349595069885e-01</leafValues></_>
        <_>
          <internalNodes>
            0 -1 288 243010837 -1086365857 -285949961 -1091031392
            -1885569163 -16912401 -573476 -1464333292</internalNodes>
          <leafValues>
            -4.0219926834106445e-01 3.0257773399353027e-01</leafValues></_></weakClassifiers></_>
    <!-- stage 8 -->
    <_>
      <maxWeakCount>13</maxWeakCount>
      <stageThreshold>-1.1759026050567627e+00</stageThreshold>
      <weakClassifiers>
        <_>
          <internalNodes>
            0 -1 80 -889258017 -218694673 -1479544833 -273865233
            -388101633 -1090592771 619586091 2522731</internalNodes>
          <leafValues>
            -3.1096562743186951e-01 3.9688581228256226e-01</leafValues></_>
        <_>
          <internalNodes>
            0 -1 60 -499128543 69877359 -268474578 -1126647816
            1060533573 1716805495 -25938460 -520146894</internalNodes>
          <leafValues>
            -2.9884558916091919e-01 3.8277873396873474e-01</leafValues></_>
        <_>
          <internalNodes>
            0 -1 310 -1910764171 750525436 528449527 -1094966312
            947811701 2045545591 2096397877 -1935655648</internalNodes>
          <leafValues>
            -4.0320646762847900e-01 2.8753593564033508e-01</leafValues></_>
        <_>
          <internalNodes>
            0 -1 159 -554705854 874970592 -1561337152 -1280924436
            1450694340 74800961 -234895672 -406388911</internalNodes>
          <leafValues>
            -3.5589411854743958e-01 3.1442508101463318e-01</leafValues></_>
        <_>
          <internalNodes>
            0 -1 296 -995062764 -1611387819 -67371009 -1125381968
            -1078190819 -1347911823 -1427465439 -1918304208</internalNodes>
          <leafValues>
            -4.3735560774803162e-01 2.2972546517848969e-01</leafValues></_>
        <_>
          <internalNodes>
            0 -1 230 1617208975 2631463 157265671 296812335 1916589559
            1073593898 -142107894 586271519</internalNodes>
          <leafValues>
            -3.6326205730438232e-01 3.0045720934867859e-01</leafValues></_>
        <_>
          <internalNodes>
            0 -1 321 204739861 1223187965 -165897 -1359020050 2136897393
            -151142401 -1077936906 -1364183760</internalNodes>
          <leafValues>
            -3.6916473507881165e-01 2.9177150130271912e-01</leafValues></_>
        <_>
          <internalNodes>
            0 -1 44 -513295104 -1361324495 -361162762 -565212606
            -1250315888 -1556556333 -37658448 -73173438</internalNodes>
          <leafValues>
            -3.6900648474693298e-01 2.9434090852737427e-01</leafValues></_>
        <_>
          <internalNodes>
            0 -1 125 -1573048314 -1098451294 1242210600 -773129692
            1176061780 1089601527 -722016312 -521669197</internalNodes>
          <leafValues>
            -3.4703496098518372e-01 2.9393553733825684e-01</leafValues></_>
        <_>
          <internalNodes>
            0 -1 153 -1531736441 15089382 -160945760 -1443983380
            1618446209 1087700821 -1669140 -1058572302</internalNodes>
          <leafValues>
            -2.9222869873046875e-01 3.3393743634223938e-01</leafValues></_>
        <_>
          <internalNodes>
            0 -1 133 -1485033537 406071805 -576195 1064643111 1734204351
            1000318879 -206405970 -1377089</internalNodes>
          <leafValues>
            -2.6711857318878174e-01 3.8238883018493652e-01</leafValues></_>
        <_>
          <internalNodes>
            0 -1 29 687730503 653721295 -20986138 721223038 2117500791
            1987902811 -143043536 -453231120</internalNodes>
          <leafValues>
            -3.7088060379028320e-01 2.7948379516601562e-01</leafValues></_>
        <_>
          <internalNodes>
            0 -1 171 -1071608812 532030941 -1107984769 -1211519052
            -1611265542 -1419855618 -1432241224 -1380252629</internalNodes>
          <leafValues>
            -3.1814268231391907e-01 3.3583360910415649e-01</leafValues></_></weakClassifiers></_>
    <!-- stage 9 -->
    <_>
      <maxWeakCount>15</maxWeakCount>
      <stageThreshold>-1.0129306316375732e+00</stageThreshold>
      <weakClassifiers>
        <_>
          <internalNodes>
            0 -1 188 1904077631 590409591 -1342196433 199606067
            1342168831 533585911 -838864969 -1052985</internalNodes>
          <leafValues>
            -1.3865546882152557e-01 5.2115690708160400e-01</leafValues></_>
        <_>
          <internalNodes>
            0 -1 75 587018031 745471999 -285219290 -1560346626
            2046776133 1174404927 -135301788 -186319264</internalNodes>
          <leafValues>
            -4.0039181709289551e-01 2.7430284023284912e-01</leafValues></_>
        <_>
          <internalNodes>
            0 -1 48 -680007883 -67371593 -1192806410 -134750450
            2002088209 2013221749 1864696860 -26792154</internalNodes>
          <leafValues>
            -2.9393109679222107e-01 3.3047443628311157e-01</leafValues></_>
        <_>
          <internalNodes>
            0 -1 208 -285245913 -207159305 -629242332 -743703060
            1711228677 1464684307 -687917300 -194511130</internalNodes>
          <leafValues>
            -2.7455812692642212e-01 3.3756536245346069e-01</leafValues></_>
        <_>
          <internalNodes>
            0 -1 300 1690215175 452919039 -438309088 -1308950544
            -144740668 81592307 -353640678 -520622662</internalNodes>
          <leafValues>
            -2.6727971434593201e-01 3.4812849760055542e-01</leafValues></_>
        <_>
          <internalNodes>
            0 -1 8 212861749 -1367592971 -54640641 -1363387100
            1845321557 -139329 -8630940 754460804</internalNodes>
          <leafValues>
            -4.9421325325965881e-01 2.0382039248943329e-01</leafValues></_>
        <_>
          <internalNodes>
            0 -1 266 -1002929020 2086149048 -419614753 -1229821082
            45889109 -1376063567 -1880091316 -1595728334</internalNodes>
          <leafValues>
            -3.4930482506752014e-01 2.7614989876747131e-01</leafValues></_>
        <_>
          <internalNodes>
            0 -1 93 -380213500 942729264 1993234030 -1210515776
            1668798428 -10618508 -444861304 -1875380224</internalNodes>
          <leafValues>
            -3.5166624188423157e-01 2.7143701910972595e-01</leafValues></_>
        <_>
          <internalNodes>
            0 -1 279 -702616809 900472379 -1090785482 968413183
            1047969333 -270205041 -285252434 -2004111734</internalNodes>
          <leafValues>
            -2.4029140174388885e-01 3.9621934294700623e-01</leafValues></_>
        <_>
          <internalNodes>
            0 -1 274 218083119 82730990 708833122 -453574870 1449099029
            1207954807 -1393203436 -453722252</internalNodes>
          <leafValues>
            -3.7848955392837524e-01 2.3776006698608398e-01</leafValues></_>
        <_>
          <internalNodes>
            0 -1 73 41355299 1963527471 -1094783113 1018096639 833824943
            1572694971 1996050093 -51400491</internalNodes>
          <leafValues>
            -2.9261651635169983e-01 3.2869583368301392e-01</leafValues></_>
        <_>
          <internalNodes>
            0 -1 11 -1255983840 396515110 -341873380 -1360744864
            1911761828 2077544445 -394302564 -470338253</internalNodes>
          <leafValues>
            -3.4978649020195007e-01 2.6519486308097839e-01</leafValues></_>
        <_>
          <internalNodes>
            0 -1 64 1862843652 -427498298 -559044956 -1572170141
            843407188 1732018024 661673600 -499009742</internalNodes>
          <leafValues>
            -3.7969207763671875e-01 2.5778490304946899e-01</leafValues></_>
        <_>
          <internalNodes>
            0 -1 158 -88240346 1894686538 -1562121598 -1443964242
            -1367391867 1156996759 -215616242 -464062682</internalNodes>
          <leafValues>
            -3.4431692957878113e-01 2.7724799513816833e-01</leafValues></_>
        <_>
          <internalNodes>
            0 -1 181 1076407041 445454709 -1359004685 289212580
            -592429279 -1381613697 -486951444 -1920794282</internalNodes>
          <leafValues>
            -2.6968297362327576e-01 3.5389053821563721e-01</leafValues></_></weakClassifiers></_>
    <!-- stage 10 -->
    <_>
      <maxWeakCount>20</maxWeakCount>
      <stageThreshold>-9.4346827268600464e-01</stageThreshold>
      <weakClassifiers>
        <_>
          <internalNodes>
            0 -1 4 2138562047 -34095969 -308421673 -407552519 2080202751
            -19399427 -320750081 490044127</internalNodes>
          <leafValues>
            -2.1468400955200195e-01 4.0412291884422302e-01</leafValues></_>
        <_>
          <internalNodes>
            0 -1 106 1535081845 456082124 39278719 192744657 1061097548
            -1361046338 776853546 -1360332752</internalNodes>
          <leafValues>
            -2.6252174377441406e-01 3.1385973095893860e-01</leafValues></_>
        <_>
          <internalNodes>
            0 -1 324 750522133 708018175 -270536705 -407207948
            2125544789 -155353217 2130589684 -1361572172</internalNodes>
          <leafValues>
            -3.2929772138595581e-01 2.3906125128269196e-01</leafValues></_>
        <_>
          <internalNodes>
            0 -1 200 -1734160214 -249032538 590833462 1460684722
            -2111119174 -1977034805 557416414 1594840479</internalNodes>
          <leafValues>
            -3.2852298021316528e-01 2.2871252894401550e-01</leafValues></_>
        <_>
          <internalNodes>
            0 -1 317 705693477 612145244 2113764199 -1560395796
            939076981 670040055 -1350935195 212864372</internalNodes>
          <leafValues>
            -6.0929024219512939e-01 8.4003500640392303e-02</leafValues></_>
        <_>
          <internalNodes>
            0 -1 58 -2034289364 -1503482190 -1526797556 -169151582
            1278571779 1398044518 1146352660 -194775771</internalNodes>
          <leafValues>
            -3.6221447587013245e-01 2.0126645267009735e-01</leafValues></_>
        <_>
          <internalNodes>
            0 -1 263 -789126430 315919470 -1495204708 821607285
            -1929451588 759959422 -1095906628 -2138377586</internalNodes>
          <leafValues>
            -2.9861122369766235e-01 2.5735118985176086e-01</leafValues></_>
        <_>
          <internalNodes>
            0 -1 210 1212072223 -555032722 -508625184 -69142044
            -1526733344 -59449436 -189520440 -1057560034</internalNodes>
          <leafValues>
            -2.7185741066932678e-01 2.7791455388069153e-01</leafValues></_>
        <_>
          <internalNodes>
            0 -1 136 135302416 485506424 -1157694715 -1120846184
            246857591 -1984218544 989542360 -1926822560</internalNodes>
          <leafValues>
            -3.5816696286201477e-01 1.9476711750030518e-01</leafValues></_>
        <_>
          <internalNodes>
            0 -1 243 -644687425 -1214185541 -155791 -1107509854
            -1363488803 -1348035748 -1080198005 -1651792117</internalNodes>
          <leafValues>
            -1.6924560070037842e-01 4.2804482579231262e-01</leafValues></_>
        <_>
          <internalNodes>
            0 -1 3 17827925 725888413 -38945217 -1091027112 -1921226467
            1952070447 -55872156 578829536</internalNodes>
          <leafValues>
            -5.1345574855804443e-01 1.4020071923732758e-01</leafValues></_>
        <_>
          <internalNodes>
            0 -1 68 628470707 1031130921 662378447 868743515 341167521
            2119851592 825267352 1554378735</internalNodes>
          <leafValues>
            -2.9296654462814331e-01 2.5406476855278015e-01</leafValues></_>
        <_>
          <internalNodes>
            0 -1 162 -4204069 -98343582 1890836730 -9228048 -1515663202
            208027151 602600344 -8390149</internalNodes>
          <leafValues>
            -1.6344049572944641e-01 4.3571078777313232e-01</leafValues></_>
        <_>
          <internalNodes>
            0 -1 53 -1019216047 -350017979 -1091146732 -22109182
            -97140756 -1890390439 -939759952 -140295097</internalNodes>
          <leafValues>
            -2.4232472479343414e-01 2.9953330755233765e-01</leafValues></_>
        <_>
          <internalNodes>
            0 -1 51 257222000 615785810 1546744800 -1725942144 684431332
            -1346495747 -1262815320 -985504719</internalNodes>
          <leafValues>
            -3.5607221722602844e-01 2.0798420906066895e-01</leafValues></_>
        <_>
          <internalNodes>
            0 -1 82 -350493150 -1324700144 -1434483140 -8527274
            -683987027 138858372 1879003368 -696310692</internalNodes>
          <leafValues>
            -2.5934630632400513e-01 2.9118400812149048e-01</leafValues></_>
        <_>
          <internalNodes>
            0 -1 122 607989254 1827322895 -832627168 585923550 815230309
            1113579493 1979069200 1681974357</internalNodes>
          <leafValues>
            -6.9586908817291260e-01 9.5295086503028870e-02</leafValues></_>
        <_>
          <internalNodes>
            0 -1 183 -869292494 -1708126763 -789178562 -1316052472
            32961692 -1325393247 405228795 -1698757378</internalNodes>
          <leafValues>
            -2.3965741693973541e-01 3.1854397058486938e-01</leafValues></_>
        <_>
          <internalNodes>
            0 -1 39 -1526741755 1048009885 -545562883 -1781729402
            336600729 -1124506371 33383886 -1326067746</internalNodes>
          <leafValues>
            -2.1941751241683960e-01 3.4002348780632019e-01</leafValues></_>
        <_>
          <internalNodes>
            0 -1 99 -646200883 1596795836 -1224862993 1973207566
            -797568787 -416995381 1035773612 -983046497</internalNodes>
          <leafValues>
            -1.9243785738945007e-01 3.8120421767234802e-01</leafValues></_></weakClassifiers></_>
    <!-- stage 11 -->
    <_>
      <maxWeakCount>19</maxWeakCount>
      <stageThreshold>-9.9599993228912354e-01</stageThreshold>
      <weakClassifiers>
        <_>
          <internalNodes>
            0 -1 213 1222115279 5274431 1340054791 730902383 -537178113
            1073543487 -67649601 -268566657</internalNodes>
          <leafValues>
            -1.3019694387912750e-01 4.7147905826568604e-01</leafValues></_>
        <_>
          <internalNodes>
            0 -1 56 -344463615 388202039 -17027529 -25329870 2138903605
            -277514912 1643988444 -268484837</internalNodes>
          <leafValues>
            -2.2481222450733185e-01 3.2862871885299683e-01</leafValues></_>
        <_>
          <internalNodes>
            0 -1 150 -427823350 1525608207 -387013088 380288554
            -1671752315 74970935 -201870076 -454754702</internalNodes>
          <leafValues>
            -3.3835387229919434e-01 2.1734385192394257e-01</leafValues></_>
        <_>
          <internalNodes>
            0 -1 81 -877422795 2113855411 -2013282436 -854404 770218973
            -1629653316 -34087720 -181144239</internalNodes>
          <leafValues>
            -2.2131991386413574e-01 3.2962331175804138e-01</leafValues></_>
        <_>
          <internalNodes>
            0 -1 217 -365392427 733517821 1073542653 -891015696
            435691409 -35062276 820526388 -1174586326</internalNodes>
          <leafValues>
            -2.5259706377983093e-01 2.9428285360336304e-01</leafValues></_>
        <_>
          <internalNodes>
            0 -1 35 135798128 -1332183235 -100794481 -1161003552
            -1217301159 -4203539 -76411556 740298084</internalNodes>
          <leafValues>
            -6.1760222911834717e-01 1.3391466438770294e-01</leafValues></_>
        <_>
          <internalNodes>
            0 -1 199 -1004499696 -1699215312 -1528160259 462432780
            -1049615184 213778772 -282845444 -2008326126</internalNodes>
          <leafValues>
            -3.4122768044471741e-01 2.1835379302501678e-01</leafValues></_>
        <_>
          <internalNodes>
            0 -1 146 1542681591 1536051775 55140383 530745390 -215460326
            -1398745314 1667037950 -653539288</internalNodes>
          <leafValues>
            -2.2931663691997528e-01 3.3007717132568359e-01</leafValues></_>
        <_>
          <internalNodes>
            0 -1 165 -995442383 497078260 737931255 -1355237296
            1064273916 -272760993 1027579581 -2001516329</internalNodes>
          <leafValues>
            -1.9519321620464325e-01 3.4672892093658447e-01</leafValues></_>
        <_>
          <internalNodes>
            0 -1 33 2138547719 1023160311 1845427119 -707002449
            961378223 2104328883 1198803294 -5825614</internalNodes>
          <leafValues>
            -2.4001717567443848e-01 3.0294540524482727e-01</leafValues></_>
        <_>
          <internalNodes>
            0 -1 128 2663696 377777237 467614013 -1768935052 791715314
            -42609633 212604156 -1334223210</internalNodes>
          <leafValues>
            -2.9624962806701660e-01 2.4714879691600800e-01</leafValues></_>
        <_>
          <internalNodes>
            0 -1 289 585960738 640678981 -1143473496 -2131591204
            1073026833 629002135 -302025372 1154807364</internalNodes>
          <leafValues>
            -6.3822376728057861e-01 9.2374905943870544e-02</leafValues></_>
        <_>
          <internalNodes>
            0 -1 176 -495549782 1584374521 772149032 1698179703
            124715170 2096650777 1831077902 647014327</internalNodes>
          <leafValues>
            -3.5846531391143799e-01 2.0586621761322021e-01</leafValues></_>
        <_>
          <internalNodes>
            0 -1 242 -670531428 422219228 -1771036 934440268 -1237865814
            -1397220332 -1663439345 195795592</internalNodes>
          <leafValues>
            -3.3235520124435425e-01 2.2316043078899384e-01</leafValues></_>
        <_>
          <internalNodes>
            0 -1 189 -374679629 -576585694 1664185269 1534922378
            -1559044710 -1905983987 236513599 -572697854</internalNodes>
          <leafValues>
            -2.1428601443767548e-01 3.3772146701812744e-01</leafValues></_>
        <_>
          <internalNodes>
            0 -1 185 549273379 1660714991 -25292896 -974672385
            1063214913 569223983 -940477615 -420937738</internalNodes>
          <leafValues>
            -3.1809231638908386e-01 2.3209020495414734e-01</leafValues></_>
        <_>
          <internalNodes>
            0 -1 211 2069517471 -1083820209 -1149371002 -137434704
            -1075891779 -1175181576 -3404152 -2138938841</internalNodes>
          <leafValues>
            -2.2782225906848907e-01 3.2360762357711792e-01</leafValues></_>
        <_>
          <internalNodes>
            0 -1 152 -2144484064 -1845336154 -1402040544 900308628
            565507505 -526165019 1814190220 -1964806705</internalNodes>
          <leafValues>
            -2.8171202540397644e-01 2.6877841353416443e-01</leafValues></_>
        <_>
          <internalNodes>
            0 -1 268 -254931706 1755091439 -1835038048 -1068194396
            342822179 885534524 -891119478 -1460724714</internalNodes>
          <leafValues>
            -3.3071574568748474e-01 2.3056149482727051e-01</leafValues></_></weakClassifiers></_>
    <!-- stage 12 -->
    <_>
      <maxWeakCount>22</maxWeakCount>
      <stageThreshold>-1.1246451139450073e+00</stageThreshold>
      <weakClassifiers>
        <_>
          <internalNodes>
            0 -1 19 1701838335 -43009 -306333705 -3653 1496668061
            1589112573 1941843677 -68157441</internalNodes>
          <leafValues>
            -8.8962107896804810e-02 5.0177723169326782e-01</leafValues></_>
        <_>
          <internalNodes>
            0 -1 2 171187509 -1413664131 -2261507 -1627865111 -235645836
            -293735937 -1073970076 79170840</internalNodes>
          <leafValues>
            -4.5309099555015564e-01 1.6894555091857910e-01</leafValues></_>
        <_>
          <internalNodes>
            0 -1 147 -545261605 -548762408 53695099 1476331564 -13372470
            -1920041075 2050144394 -5250918</internalNodes>
          <leafValues>
            -1.8126018345355988e-01 3.7921127676963806e-01</leafValues></_>
        <_>
          <internalNodes>
            0 -1 285 -865955953 235589227 -570967253 -1464031068
            -1544330243 717815807 -17330382 -1426411902</internalNodes>
          <leafValues>
            -3.1324949860572815e-01 2.1133987605571747e-01</leafValues></_>
        <_>
          <internalNodes>
            0 -1 28 -1553190395 639786879 -318968126 585526196
            1909147479 573435767 1374762548 1625569380</internalNodes>
          <leafValues>
            -4.3657621741294861e-01 1.7977631092071533e-01</leafValues></_>
        <_>
          <internalNodes>
            0 -1 117 1527238813 -1614067609 34167679 465520891
            -1219766904 -92859763 159053934 -545263937</internalNodes>
          <leafValues>
            -2.0415844023227692e-01 3.4202265739440918e-01</leafValues></_>
        <_>
          <internalNodes>
            0 -1 41 146541887 241843038 1073692452 -285282373 799003735
            -1107305890 -84117516 -1938358700</internalNodes>
          <leafValues>
            -2.5887739658355713e-01 2.6111215353012085e-01</leafValues></_>
        <_>
          <internalNodes>
            0 -1 52 1748133713 -638124100 -669132916 -317273044
            -287014991 -1922059147 -73184164 1366639617</internalNodes>
          <leafValues>
            -3.1868052482604980e-01 2.1798782050609589e-01</leafValues></_>
        <_>
          <internalNodes>
            0 -1 258 -803681125 -661123074 -135282857 -552534217
            -677209956 -1090959367 -1167917385 -1221096574</internalNodes>
          <leafValues>
            -2.1444498002529144e-01 3.0611309409141541e-01</leafValues></_>
        <_>
          <internalNodes>
            0 -1 42 128066095 148880839 -67137802 -1596145952 1473998597
            1685780524 -1065074092 1958018144</internalNodes>
          <leafValues>
            -4.4123563170433044e-01 1.4055748283863068e-01</leafValues></_>
        <_>
          <internalNodes>
            0 -1 215 -1976530912 -727701460 -1330603343 923814000
            909951372 760943238 -2011930216 -2121838393</internalNodes>
          <leafValues>
            -2.7742019295692444e-01 2.4266655743122101e-01</leafValues></_>
        <_>
          <internalNodes>
            0 -1 260 -926955545 1397743199 -1434474051 432858316
            -1406280003 -1242501185 -1378908534 -1463419153</internalNodes>
          <leafValues>
            -1.7161074280738831e-01 3.6941641569137573e-01</leafValues></_>
        <_>
          <internalNodes>
            0 -1 113 -172772538 2061163511 -240459550 -2014655544
            1207813440 -251306163 -1025120180 -1015556225</internalNodes>
          <leafValues>
            -2.7704751491546631e-01 2.3246334493160248e-01</leafValues></_>
        <_>
          <internalNodes>
            0 -1 127 -131091549 -1701793872 -1128338954 -1718749486
            -1839219238 -1473527362 -1487494152 -991173437</internalNodes>
          <leafValues>
            -1.7672516405582428e-01 3.5943892598152161e-01</leafValues></_>
        <_>
          <internalNodes>
            0 -1 46 57674045 644904755 2138223428 246836064 2113213813
            1341701991 1039953424 610286624</internalNodes>
          <leafValues>
            -5.4504251480102539e-01 1.1741058528423309e-01</leafValues></_>
        <_>
          <internalNodes>
            0 -1 233 -827408380 -713014990 -1360029208 355485756
            -1725149032 -1703635380 -1573337907 -1962716914</internalNodes>
          <leafValues>
            -2.6382830739021301e-01 2.6957482099533081e-01</leafValues></_>
        <_>
          <internalNodes>
            0 -1 66 359597115 -1885229423 -1219031745 732925449
            1976767549 146349329 2145846563 573469769</internalNodes>
          <leafValues>
            -3.9752936363220215e-01 1.7760054767131805e-01</leafValues></_>
        <_>
          <internalNodes>
            0 -1 224 -530366302 1346522833 1968594260 1365633872
            -499114405 10015446 -35774964 2153766</internalNodes>
          <leafValues>
            -4.0259829163551331e-01 1.5662364661693573e-01</leafValues></_>
        <_>
          <internalNodes>
            0 -1 13 196937569 -1361167383 -278550712 -2110105268
            1302751044 1095761749 1878561058 1618304628</internalNodes>
          <leafValues>
            -4.7012987732887268e-01 1.5105487406253815e-01</leafValues></_>
        <_>
          <internalNodes>
            0 -1 207 -1054682959 -442361074 -352436553 -247519626
            588439000 1265766271 523240859 -543472487</internalNodes>
          <leafValues>
            -2.2060008347034454e-01 3.1790384650230408e-01</leafValues></_>
        <_>
          <internalNodes>
            0 -1 101 -698629952 -743826226 196772040 -721566656
            -1803495970 2082037701 1704670382 352662926</internalNodes>
          <leafValues>
            -3.2187718152999878e-01 2.1798510849475861e-01</leafValues></_>
        <_>
          <internalNodes>
            0 -1 315 763110401 -1943257251 -1359812737 -1342697615
            253042005 -1115840578 -1932241116 143658224</internalNodes>
          <leafValues>
            -5.1959562301635742e-01 1.3096514344215393e-01</leafValues></_></weakClassifiers></_>
    <!-- stage 13 -->
    <_>
      <maxWeakCount>23</maxWeakCount>
      <stageThreshold>-9.5560246706008911e-01</stageThreshold>
      <weakClassifiers>
        <_>
          <internalNodes>
            0 -1 98 -1024463873 48423607 -269484161 267386202 1841249243
            318107629 -277115429 182059007</internalNodes>
          <leafValues>
            -1.9064565002918243e-01 3.4542816877365112e-01</leafValues></_>
        <_>
          <internalNodes>
            0 -1 151 -79965253 -212124054 439570803 528418930 -47321462
            -2042041070 1965812410 -1350</internalNodes>
          <leafValues>
            -1.6151481866836548e-01 3.7962979078292847e-01</leafValues></_>
        <_>
          <internalNodes>
            0 -1 49 -214976713 -605445581 -437084102 -2887898 2069046597
            603420016 1597330336 -17339648</internalNodes>
          <leafValues>
            -2.4825574457645416e-01 2.4898134171962738e-01</leafValues></_>
        <_>
          <internalNodes>
            0 -1 31 680529188 1281113589 620396413 -1460624967
            -1610869195 -268472505 -1083293892 539245824</internalNodes>
          <leafValues>
            -6.6220355033874512e-01 5.0733178853988647e-02</leafValues></_>
        <_>
          <internalNodes>
            0 -1 270 1221783263 416343278 -558953172 -1714099649
            419169689 -936050740 240503944 -2135504342</internalNodes>
          <leafValues>
            -2.0809310674667358e-01 2.8672829270362854e-01</leafValues></_>
        <_>
          <internalNodes>
            0 -1 169 -72646486 -542502968 490157875 165620841
            -2042647917 1162542363 622273231 -67132701</internalNodes>
          <leafValues>
            -2.2706764936447144e-01 2.7056717872619629e-01</leafValues></_>
        <_>
          <internalNodes>
            0 -1 205 717039367 1723309711 -1145399386 -1967992846
            -840990857 1702229831 -994640108 -155013296</internalNodes>
          <leafValues>
            -2.8886786103248596e-01 1.8930208683013916e-01</leafValues></_>
        <_>
          <internalNodes>
            0 -1 161 497357843 1037301341 2095525742 799665535
            -940671979 1036558063 -776667234 -1077948995</internalNodes>
          <leafValues>
            -2.1834592521190643e-01 2.7494055032730103e-01</leafValues></_>
        <_>
          <internalNodes>
            0 -1 124 -627326768 -1624306640 369033337 1441597689
            1430603243 -1452744889 1560267118 -582637590</internalNodes>
          <leafValues>
            -2.2043141722679138e-01 2.8056719899177551e-01</leafValues></_>
        <_>
          <internalNodes>
            0 -1 276 -1010830381 -1613883970 -1146116619 1032892283
            -260449707 -1476870383 -37768580 -1463700225</internalNodes>
          <leafValues>
            -1.9866004586219788e-01 3.3351793885231018e-01</leafValues></_>
        <_>
          <internalNodes>
            0 -1 323 35130644 652753838 -272900105 240667573 422844796
            -839009793 1030518896 603981840</internalNodes>
          <leafValues>
            -6.5897417068481445e-01 1.1276678740978241e-01</leafValues></_>
        <_>
          <internalNodes>
            0 -1 109 -462106860 -224390548 -1610809355 991169580
            525915849 743911292 -90699619 -1118085722</internalNodes>
          <leafValues>
            -2.3143365979194641e-01 2.7544474601745605e-01</leafValues></_>
        <_>
          <internalNodes>
            0 -1 89 1437329059 -131309902 -957348886 1105117266
            505185001 38400940 70116128 1206511458</internalNodes>
          <leafValues>
            -2.9473176598548889e-01 2.0197856426239014e-01</leafValues></_>
        <_>
          <internalNodes>
            0 -1 221 -902657004 1949441596 -488638408 1406158974
            -1401385752 -1163658734 -1066127736 -861715454</internalNodes>
          <leafValues>
            -2.4057698249816895e-01 2.5262808799743652e-01</leafValues></_>
        <_>
          <internalNodes>
            0 -1 67 -78731419 -1099976717 -1790957962 -571785552
            -423633159 -1184979233 1992110172 -169741794</internalNodes>
          <leafValues>
            -1.9083584845066071e-01 3.2506680488586426e-01</leafValues></_>
        <_>
          <internalNodes>
            0 -1 250 -663928084 -706804962 -546346308 826619476
            -537489988 -756076996 -205862499 -1308543089</internalNodes>
          <leafValues>
            -2.2544160485267639e-01 2.8040856122970581e-01</leafValues></_>
        <_>
          <internalNodes>
            0 -1 304 612173094 552269614 -872701338 586296632 1951229733
            22724220 -1927872256 1079047780</internalNodes>
          <leafValues>
            -6.2699151039123535e-01 9.1895639896392822e-02</leafValues></_>
        <_>
          <internalNodes>
            0 -1 131 -744298872 2032331470 -1162297256 -842079296
            1982892032 1764056935 951074008 1615587034</internalNodes>
          <leafValues>
            -3.5291135311126709e-01 1.7235523462295532e-01</leafValues></_>
        <_>
          <internalNodes>
            0 -1 214 1344860874 853563050 335557461 264045090 -896862574
            -1987786540 1159262331 227345901</internalNodes>
          <leafValues>
            -3.5006940364837646e-01 1.8270824849605560e-01</leafValues></_>
        <_>
          <internalNodes>
            0 -1 36 252184192 11186022 -489431760 211869689 401698388
            218093439 1920361509 150222436</internalNodes>
          <leafValues>
            -5.8098798990249634e-01 1.1232519149780273e-01</leafValues></_>
        <_>
          <internalNodes>
            0 -1 83 1718312706 1445088106 -633640892 -806903152
            -1288730879 3421494 -737684854 348517700</internalNodes>
          <leafValues>
            -3.9536595344543457e-01 1.4764909446239471e-01</leafValues></_>
        <_>
          <internalNodes>
            0 -1 292 1085248258 269225604 971943572 270040636
            -1366290607 -565742051 -979458710 -2115169137</internalNodes>
          <leafValues>
            -2.9522404074668884e-01 2.1667435765266418e-01</leafValues></_>
        <_>
          <internalNodes>
            0 -1 138 -296450272 875567184 -1649540075 183851986
            1888823427 1926426247 1063822974 -824347</internalNodes>
          <leafValues>
            -2.9026561975479126e-01 2.2083762288093567e-01</leafValues></_></weakClassifiers></_>
    <!-- stage 14 -->
    <_>
      <maxWeakCount>24</maxWeakCount>
      <stageThreshold>-9.0831440687179565e-01</stageThreshold>
      <weakClassifiers>
        <_>
          <internalNodes>
            0 -1 92 -1082524673 -807543201 -809762929 -1406668859
            -1883374101 -1112582151 -1157991129 673844231</internalNodes>
          <leafValues>
            -2.3611922562122345e-01 3.2569721341133118e-01</leafValues></_>
        <_>
          <internalNodes>
            0 -1 144 -99623778 -544600601 37552767 1540181691
            -1758083878 -838070443 179796619 -545784241</internalNodes>
          <leafValues>
            -2.0191216468811035e-01 3.1621098518371582e-01</leafValues></_>
        <_>
          <internalNodes>
            0 -1 237 -901123105 1255434933 -1603711173 552402443
            2093786535 -22089857 -326415674 550813562</internalNodes>
          <leafValues>
            -2.7841928601264954e-01 2.1939870715141296e-01</leafValues></_>
        <_>
          <internalNodes>
            0 -1 157 -11299878 -181401594 1512260343 1902055504
            -1161118326 254552901 12251902 1609558234</internalNodes>
          <leafValues>
            -2.4451707303524017e-01 2.3940949141979218e-01</leafValues></_>
        <_>
          <internalNodes>
            0 -1 97 442219293 -613420869 47923963 1810758312 724115735
            -1432139640 1752463544 -389881327</internalNodes>
          <leafValues>
            -2.5126391649246216e-01 2.2067463397979736e-01</leafValues></_>
        <_>
          <internalNodes>
            0 -1 216 -333280222 1555451194 1591976193 -1217820592
            44606877 136512552 36902284 -2114727158</internalNodes>
          <leafValues>
            -2.0669086277484894e-01 2.6073929667472839e-01</leafValues></_>
        <_>
          <internalNodes>
            0 -1 32 211921152 736929659 -30691994 -1648446757 -3843835
            869592704 -2008795600 -1476641592</internalNodes>
          <leafValues>
            -3.5453870892524719e-01 1.4707657694816589e-01</leafValues></_>
        <_>
          <internalNodes>
            0 -1 303 785653508 -2020717721 -487080920 10842002 895442245
            400732645 -19774636 1099988576</internalNodes>
          <leafValues>
            -5.0356996059417725e-01 1.2535400688648224e-01</leafValues></_>
        <_>
          <internalNodes>
            0 -1 204 -937112544 -1162837736 715313184 323528944
            548965828 138348293 39847576 -1422990958</internalNodes>
          <leafValues>
            -2.8926253318786621e-01 2.0277756452560425e-01</leafValues></_>
        <_>
          <internalNodes>
            0 -1 141 -650391329 -1685334660 -1975543433 1533477113
            -12714325 -873952182 -1372325398 -613744988</internalNodes>
          <leafValues>
            -1.4645360410213470e-01 3.8502717018127441e-01</leafValues></_>
        <_>
          <internalNodes>
            0 -1 256 -1106106505 -1147285523 -1627818466 561174564
            1761151541 -2100746 -124875122 -1503504781</internalNodes>
          <leafValues>
            -2.1887154877185822e-01 2.6158666610717773e-01</leafValues></_>
        <_>
          <internalNodes>
            0 -1 238 -791752967 -582935742 -84020105 1395727376
            1287374493 -1616640971 1912249019 -283140453</internalNodes>
          <leafValues>
            -1.3799849152565002e-01 3.6814489960670471e-01</leafValues></_>
        <_>
          <internalNodes>
            0 -1 63 -1545149659 1426512371 996136982 -41829464
            -1780674651 -941910811 -1209837664 -311074736</internalNodes>
          <leafValues>
            -2.7629479765892029e-01 2.0777742564678192e-01</leafValues></_>
        <_>
          <internalNodes>
            0 -1 196 -529365982 911097740 -1335651068 1030888984
            -26348739 -1113023685 -330044068 -1597058996</internalNodes>
          <leafValues>
            -2.8017112612724304e-01 2.0742647349834442e-01</leafValues></_>
        <_>
          <internalNodes>
            0 -1 198 -2010991600 1594557463 -5616456 -1310665326
            -221203275 89155344 -256616532 -900787617</internalNodes>
          <leafValues>
            -2.2508630156517029e-01 2.6428064703941345e-01</leafValues></_>
        <_>
          <internalNodes>
            0 -1 174 -803158716 1109545733 -2047223234 760579698
            -2037383604 -2061028581 -2074504508 1559703687</internalNodes>
          <leafValues>
            -2.8994819521903992e-01 2.1005873382091522e-01</leafValues></_>
        <_>
          <internalNodes>
            0 -1 70 658834722 -1435361496 1918854318 -488461154
            2038261572 762707909 -155251616 820574324</internalNodes>
          <leafValues>
            -5.4076892137527466e-01 1.1843063682317734e-01</leafValues></_>
        <_>
          <internalNodes>
            0 -1 27 1337532960 1720882359 -323357732 -1948600913
            -751238474 699436374 1989416360 -1260174012</internalNodes>
          <leafValues>
            -3.2025709748268127e-01 1.7337454855442047e-01</leafValues></_>
        <_>
          <internalNodes>
            0 -1 206 -880650006 -662550618 -1288691370 532877346
            -1976399416 -2079602213 -1854734272 490951053</internalNodes>
          <leafValues>
            -3.1967294216156006e-01 1.8691201508045197e-01</leafValues></_>
        <_>
          <internalNodes>
            0 -1 271 1215619200 523535238 -758010144 1028680760
            -764809972 363910492 -1862272446 584638894</internalNodes>
          <leafValues>
            -3.5109823942184448e-01 1.7161023616790771e-01</leafValues></_>
        <_>
          <internalNodes>
            0 -1 94 1228078033 -121898768 -826884385 872890548 570472342
            -1356179876 763657610 1432170818</internalNodes>
          <leafValues>
            -2.9041042923927307e-01 1.9937402009963989e-01</leafValues></_>
        <_>
          <internalNodes>
            0 -1 77 52316677 10817314 -346389182 737672450 427102213
            259460915 568162091 166225685</internalNodes>
          <leafValues>
            -4.1803762316703796e-01 1.3892285525798798e-01</leafValues></_>
        <_>
          <internalNodes>
            0 -1 156 1990624400 -332616816 -1183453228 13356400
            1683566424 -812966923 155553416 -2004155278</internalNodes>
          <leafValues>
            -2.7942979335784912e-01 2.1923218667507172e-01</leafValues></_>
        <_>
          <internalNodes>
            0 -1 25 716710709 11279483 1005485320 736512215 2011000645
            1704655332 1855112804 717247504</internalNodes>
          <leafValues>
            -4.3904614448547363e-01 1.6045443713665009e-01</leafValues></_></weakClassifiers></_>
    <!-- stage 15 -->
    <_>
      <maxWeakCount>25</maxWeakCount>
      <stageThreshold>-9.5598834753036499e-01</stageThreshold>
      <weakClassifiers>
        <_>
          <internalNodes>
            0 -1 23 -159924703 -789090316 -1376583826 -59572608
            1584856049 -16917460 -721095 -178817231</internalNodes>
          <leafValues>
            -1.6078984737396240e-01 3.5400617122650146e-01</leafValues></_>
        <_>
          <internalNodes>
            0 -1 132 -612371489 1594600190 38820607 1305954550 -15508533
            -823662145 1802565800 -67374342</internalNodes>
          <leafValues>
            -1.4885927736759186e-01 3.8594570755958557e-01</leafValues></_>
        <_>
          <internalNodes>
            0 -1 55 1463938823 750498611 2047174532 -1879581517
            274275613 1575026031 870388821 2146257570</internalNodes>
          <leafValues>
            -2.8111600875854492e-01 1.9947506487369537e-01</leafValues></_>
        <_>
          <internalNodes>
            0 -1 281 1089131148 179472536 736615327 431527230 -319602812
            -2425780 -1762534722 -1428312542</internalNodes>
          <leafValues>
            -3.3082944154739380e-01 1.4307618141174316e-01</leafValues></_>
        <_>
          <internalNodes>
            0 -1 59 -1353897809 652357487 -747409688 -1028850323
            1773498181 97994586 -1023461804 1952755380</internalNodes>
          <leafValues>
            -4.3970361351966858e-01 1.4109222590923309e-01</leafValues></_>
        <_>
          <internalNodes>
            0 -1 164 -494345024 1395313194 779798228 970991584
            -2105815540 -2090281187 -930951258 -486706305</internalNodes>
          <leafValues>
            -2.4448959529399872e-01 2.4749737977981567e-01</leafValues></_>
        <_>
          <internalNodes>
            0 -1 302 -924398803 280821485 -343956445 62656486 1834577327
            1065222143 -822351338 -1151923129</internalNodes>
          <leafValues>
            -2.0817768573760986e-01 2.6674202084541321e-01</leafValues></_>
        <_>
          <internalNodes>
            0 -1 170 -1388352122 -383646165 -1134383054 2064756992
            134159896 78462583 16285884 896230733</internalNodes>
          <leafValues>
            -3.4803506731987000e-01 1.5035700798034668e-01</leafValues></_>
        <_>
          <internalNodes>
            0 -1 14 706217252 711778109 2137963695 -1367786792 267747136
            1861218279 -1244103120 76554240</internalNodes>
          <leafValues>
            -5.9181874990463257e-01 9.5093615353107452e-02</leafValues></_>
        <_>
          <internalNodes>
            0 -1 187 1285862002 -53474571 268040952 -545527686
            -1021525328 -999480443 -822602912 86298642</internalNodes>
          <leafValues>
            -3.4172308444976807e-01 1.6739803552627563e-01</leafValues></_>
        <_>
          <internalNodes>
            0 -1 244 75433473 1540108115 -433121666 -1910968644
            -1739584180 -129365001 -1468920372 -93099813</internalNodes>
          <leafValues>
            -2.4195051193237305e-01 2.3154976963996887e-01</leafValues></_>
        <_>
          <internalNodes>
            0 -1 172 -1060207104 -1671102440 -1810374851 -1722224620
            -539256002 -1079498518 -1909166892 -1058569725</internalNodes>
          <leafValues>
            -2.3655033111572266e-01 2.3726792633533478e-01</leafValues></_>
        <_>
          <internalNodes>
            0 -1 309 613941532 780688508 173401838 -1933832550
            1551122295 1793321901 750042160 135276900</internalNodes>
          <leafValues>
            -5.6240552663803101e-01 1.2014963477849960e-01</leafValues></_>
        <_>
          <internalNodes>
            0 -1 134 -98316069 1538074266 326686391 329083631
            -1612713330 -883814396 -1573721442 -68424962</internalNodes>
          <leafValues>
            -1.7531353235244751e-01 3.5204410552978516e-01</leafValues></_>
        <_>
          <internalNodes>
            0 -1 155 -145228646 2005884586 736329880 -1214208852
            -1563992404 1142185589 1928700107 4712263</internalNodes>
          <leafValues>
            -3.0596211552619934e-01 1.8895480036735535e-01</leafValues></_>
        <_>
          <internalNodes>
            0 -1 259 -59236331 401349459 870608887 1005064056
            -1640232300 -1090831173 -1231249684 -1845133102</internalNodes>
          <leafValues>
            -2.2919088602066040e-01 2.6526758074760437e-01</leafValues></_>
        <_>
          <internalNodes>
            0 -1 167 -701763109 1405242107 -411082121 -335732174
            -1213224573 -1345162347 654878389 -4335373</internalNodes>
          <leafValues>
            -1.6440458595752716e-01 3.7133094668388367e-01</leafValues></_>
        <_>
          <internalNodes>
            0 -1 96 53421605 586113917 -1095933374 -1528407658 930370429
            100482745 1939088484 620662653</internalNodes>
          <leafValues>
            -4.1095203161239624e-01 1.5976640582084656e-01</leafValues></_>
        <_>
          <internalNodes>
            0 -1 232 -455950897 -1149684490 -588657955 -1394314007
            -596800641 -573751681 -571087739 -2063597569</internalNodes>
          <leafValues>
            -2.1754793822765350e-01 2.8704926371574402e-01</leafValues></_>
        <_>
          <internalNodes>
            0 -1 12 -299433675 -1172705419 704113529 -370707289
            1697764321 -462063724 1802588584 -76289803</internalNodes>
          <leafValues>
            -2.0175386965274811e-01 3.1632241606712341e-01</leafValues></_>
        <_>
          <internalNodes>
            0 -1 273 -2140288101 -1802211537 985146925 1031006819
            -1331854870 81907684 821870248 -1193301318</internalNodes>
          <leafValues>
            -1.9538082182407379e-01 3.1878128647804260e-01</leafValues></_>
        <_>
          <internalNodes>
            0 -1 120 -1465481088 330457622 -2098714420 824428817
            905881989 7304896 -2005466755 -1372191743</internalNodes>
          <leafValues>
            -2.9200026392936707e-01 2.1156130731105804e-01</leafValues></_>
        <_>
          <internalNodes>
            0 -1 78 1783522118 786608887 -838883547 -9568758 759164785
            -1542234330 1578438712 1145319776</internalNodes>
          <leafValues>
            -3.7101662158966064e-01 1.7410610616207123e-01</leafValues></_>
        <_>
          <internalNodes>
            0 -1 226 -2101179183 347250411 -185600668 -303500806
            205363527 2096488149 -664405248 -1058457296</internalNodes>
          <leafValues>
            -2.7074533700942993e-01 2.2265617549419403e-01</leafValues></_>
        <_>
          <internalNodes>
            0 -1 287 -1206770430 1067458099 -559109020 824881392
            607208580 1185953540 348656772 -1699083838</internalNodes>
          <leafValues>
            -3.0774360895156860e-01 2.0322379469871521e-01</leafValues></_></weakClassifiers></_>
    <!-- stage 16 -->
    <_>
      <maxWeakCount>27</maxWeakCount>
      <stageThreshold>-1.0427128076553345e+00</stageThreshold>
      <weakClassifiers>
        <_>
          <internalNodes>
            0 -1 24 -1860337835 2040252031 1994319791 -221417590
            -59779148 -1750228995 -172707 1945593169</internalNodes>
          <leafValues>
            -1.7564167082309723e-01 3.3845028281211853e-01</leafValues></_>
        <_>
          <internalNodes>
            0 -1 194 2110248959 256374579 -579345107 1069023039
            1274798079 2146238324 -134312026 -20985889</internalNodes>
          <leafValues>
            -1.7013546824455261e-01 3.4363394975662231e-01</leafValues></_>
        <_>
          <internalNodes>
            0 -1 203 -1330982222 -1048182046 -206406657 1539245568
            591037210 -900134053 61077213 1561936142</internalNodes>
          <leafValues>
            -2.9492211341857910e-01 1.9050218164920807e-01</leafValues></_>
        <_>
          <internalNodes>
            0 -1 100 -605334713 266848865 138993279 158431250
            -1222807471 1621795582 1483007570 -320683408</internalNodes>
          <leafValues>
            -2.3931698501110077e-01 2.1500401198863983e-01</leafValues></_>
        <_>
          <internalNodes>
            0 -1 178 -112737381 -48083555 1899196785 -138061598
            -549802514 -1895256321 1899224318 -583278945</internalNodes>
          <leafValues>
            -1.7279757559299469e-01 3.3182859420776367e-01</leafValues></_>
        <_>
          <internalNodes>
            0 -1 15 69731636 179851065 -395675145 -1938154276 332427089
            -287794692 -1074129600 68159552</internalNodes>
          <leafValues>
            -6.1620146036148071e-01 1.1418183147907257e-01</leafValues></_>
        <_>
          <internalNodes>
            0 -1 220 -869194732 1032865020 -1814533323 288551976
            -1305344816 1255860748 880970442 -1289814006</internalNodes>
          <leafValues>
            -2.4113072454929352e-01 2.1046730875968933e-01</leafValues></_>
        <_>
          <internalNodes>
            0 -1 143 -1442885761 -685101853 133394936 -608505728
            -1942500146 41682783 -2133071382 -68487843</internalNodes>
          <leafValues>
            -1.7999708652496338e-01 2.9552787542343140e-01</leafValues></_>
        <_>
          <internalNodes>
            0 -1 65 -570979838 -1204857342 -218220598 -1465743550
            2030389064 1326209868 -161405244 -142661493</internalNodes>
          <leafValues>
            -2.3968769609928131e-01 2.1631720662117004e-01</leafValues></_>
        <_>
          <internalNodes>
            0 -1 255 -1065491819 1522805487 -1342852721 104443550
            809830581 1512053437 485823963 -1409486929</internalNodes>
          <leafValues>
            -2.1546828746795654e-01 2.4857641756534576e-01</leafValues></_>
        <_>
          <internalNodes>
            0 -1 123 -504968554 -911969558 1052322542 -840910292
            -788719038 1275729506 1953204296 1158989632</internalNodes>
          <leafValues>
            -3.4696388244628906e-01 1.6496585309505463e-01</leafValues></_>
        <_>
          <internalNodes>
            0 -1 254 -959442864 2117477851 1920493410 438602226
            1918045876 -909172133 -1410965368 170009174</internalNodes>
          <leafValues>
            -3.8259196281433105e-01 1.2242560833692551e-01</leafValues></_>
        <_>
          <internalNodes>
            0 -1 79 1086268199 330367868 -6851217 788811119 427989439
            -1166620050 1440328091 -43567957</internalNodes>
          <leafValues>
            -1.9805867969989777e-01 2.5693637132644653e-01</leafValues></_>
        <_>
          <internalNodes>
            0 -1 86 644314711 -594174983 -286159056 -232587406 52940532
            -34219052 -289615036 -1256798960</internalNodes>
          <leafValues>
            -2.5951811671257019e-01 2.1207787096500397e-01</leafValues></_>
        <_>
          <internalNodes>
            0 -1 239 -1024785207 -71750844 -758415735 2016490548
            1649609996 -65394332 1172634732 1404537483</internalNodes>
          <leafValues>
            -2.4966989457607269e-01 2.0645938813686371e-01</leafValues></_>
        <_>
          <internalNodes>
            0 -1 88 1102107888 -266051528 1082047446 -943067173
            912859381 -1911403464 2120567355 653206342</internalNodes>
          <leafValues>
            -3.0492305755615234e-01 1.7488144338130951e-01</leafValues></_>
        <_>
          <internalNodes>
            0 -1 311 677645604 9367430 -961390622 214060176 201083153
            926233373 93667072 70264180</internalNodes>
          <leafValues>
            -6.1972451210021973e-01 9.7285494208335876e-02</leafValues></_>
        <_>
          <internalNodes>
            0 -1 231 -610171392 -677479168 1622897463 1400841384
            1622426284 1556376080 304914586 -1828236145</internalNodes>
          <leafValues>
            -2.3141400516033173e-01 2.3830294609069824e-01</leafValues></_>
        <_>
          <internalNodes>
            0 -1 54 696761109 741180188 -1075085533 1610254178
            -444387427 282488821 1836032989 -1319832009</internalNodes>
          <leafValues>
            -2.2245137393474579e-01 2.4334344267845154e-01</leafValues></_>
        <_>
          <internalNodes>
            0 -1 115 -211857165 -824506275 13032689 1538083065
            -130642036 -545899153 1054855142 -649791570</internalNodes>
          <leafValues>
            -1.6502651572227478e-01 3.1667298078536987e-01</leafValues></_>
        <_>
          <internalNodes>
            0 -1 234 -935950719 2083561400 -681806582 -209958856
            -574448187 -394664521 -8547560 -507308405</internalNodes>
          <leafValues>
            -1.8849901854991913e-01 2.9434764385223389e-01</leafValues></_>
        <_>
          <internalNodes>
            0 -1 227 -1691181936 234885008 -399393192 1061162496
            -2034580346 -378193922 3494131 166792448</internalNodes>
          <leafValues>
            -3.9062771201133728e-01 1.4877954125404358e-01</leafValues></_>
        <_>
          <internalNodes>
            0 -1 312 89917184 -1371142308 1937374880 2670460 -1139804387
            645082931 -504626412 551049308</internalNodes>
          <leafValues>
            -4.8196768760681152e-01 1.0893043875694275e-01</leafValues></_>
        <_>
          <internalNodes>
            0 -1 104 -833698767 -736547051 216755544 -739410774
            -1640458363 743267188 -1385089399 -1354931726</internalNodes>
          <leafValues>
            -2.1232734620571136e-01 2.7482080459594727e-01</leafValues></_>
        <_>
          <internalNodes>
            0 -1 74 835018037 1411465075 208483609 -86771217 1547289572
            1515319286 -1543739438 -7434874</internalNodes>
          <leafValues>
            -1.8128651380538940e-01 3.0922162532806396e-01</leafValues></_>
        <_>
          <internalNodes>
            0 -1 252 -155654676 2095641907 636280502 407629216
            1697067040 561062247 -1788417656 -1874759665</internalNodes>
          <leafValues>
            -2.6360574364662170e-01 2.0751453936100006e-01</leafValues></_>
        <_>
          <internalNodes>
            0 -1 253 -665672994 399130542 -780421234 -1852424852
            408046111 -1362863584 -69342232 715316350</internalNodes>
          <leafValues>
            -2.7296146750450134e-01 2.0745460689067841e-01</leafValues></_></weakClassifiers></_>
    <!-- stage 17 -->
    <_>
      <maxWeakCount>27</maxWeakCount>
      <stageThreshold>-9.5514380931854248e-01</stageThreshold>
      <weakClassifiers>
        <_>
          <internalNodes>
            0 -1 212 1568407535 165411699 -101198257 152889127 -33701889
            -536895489 -303300702 -2097465</internalNodes>
          <leafValues>
            -5.5680721998214722e-02 4.6410891413688660e-01</leafValues></_>
        <_>
          <internalNodes>
            0 -1 166 -647759405 -551416390 1127477625 -75542289
            -635248946 -819830817 -627059506 -546318433</internalNodes>
          <leafValues>
            -1.3692499697208405e-01 4.0944784879684448e-01</leafValues></_>
        <_>
          <internalNodes>
            0 -1 72 1121420495 -1432478979 -1241668292 -3604906
            -210144835 -1894924943 -303675556 -193595792</internalNodes>
          <leafValues>
            -2.6469421386718750e-01 2.0469303429126740e-01</leafValues></_>
        <_>
          <internalNodes>
            0 -1 90 -1299322752 1370000129 -1943662840 1131760946
            1231991989 100715703 40188975 1945477513</internalNodes>
          <leafValues>
            -2.9726535081863403e-01 1.6922767460346222e-01</leafValues></_>
        <_>
          <internalNodes>
            0 -1 50 -545364195 -578966597 -17903969 1646759078
            -1754524299 -160156559 -906685012 -222924931</internalNodes>
          <leafValues>
            -2.0278745889663696e-01 2.3565872013568878e-01</leafValues></_>
        <_>
          <internalNodes>
            0 -1 286 -1034502130 389398558 -1664813482 1067228414
            1912464584 1565572997 -526542516 -1594705170</internalNodes>
          <leafValues>
            -2.4456442892551422e-01 2.0266978442668915e-01</leafValues></_>
        <_>
          <internalNodes>
            0 -1 267 255411968 784074271 -514879518 546750453 1147618069
            1128529891 929162548 653833845</internalNodes>
          <leafValues>
            -5.1827007532119751e-01 1.0830813646316528e-01</leafValues></_>
        <_>
          <internalNodes>
            0 -1 142 -1615078757 -540055313 41245693 1596801677
            -613163383 -886141603 -1238242561 -211851633</internalNodes>
          <leafValues>
            -1.3568662106990814e-01 3.5982570052146912e-01</leafValues></_>
        <_>
          <internalNodes>
            0 -1 298 1823937860 -1275161729 594847918 -2022537584
            1924205220 612748793 -1762128164 -2138749900</internalNodes>
          <leafValues>
            -2.9456549882888794e-01 1.7594331502914429e-01</leafValues></_>
        <_>
          <internalNodes>
            0 -1 107 -118138440 -1154978504 2113687658 -3469940
            288698869 -1654310633 732607466 -513705349</internalNodes>
          <leafValues>
            -2.1598011255264282e-01 2.4617910385131836e-01</leafValues></_>
        <_>
          <internalNodes>
            0 -1 308 787812261 12463913 -1266687966 775212016 1046887797
            1863825789 1630499888 70516833</internalNodes>
          <leafValues>
            -4.4631290435791016e-01 1.2370233982801437e-01</leafValues></_>
        <_>
          <internalNodes>
            0 -1 168 -366784102 -844479379 1932726833 1987772528
            616084056 242505532 880783578 1652510570</internalNodes>
          <leafValues>
            -2.8908798098564148e-01 1.7765474319458008e-01</leafValues></_>
        <_>
          <internalNodes>
            0 -1 277 16688459 -1291666313 1652052537 700282849 -69360425
            -1283096757 -287625992 -1461825922</internalNodes>
          <leafValues>
            -2.1337056159973145e-01 2.5514572858810425e-01</leafValues></_>
        <_>
          <internalNodes>
            0 -1 145 -367657543 413018152 2070434017 1439610752
            -90712903 -1984716359 1127559915 -304101486</internalNodes>
          <leafValues>
            -1.4840696752071381e-01 3.4635600447654724e-01</leafValues></_>
        <_>
          <internalNodes>
            0 -1 139 -1639515916 1505701463 955006517 -387847588
            1630957239 -5752015 -637735424 4661776</internalNodes>
          <leafValues>
            -3.8822880387306213e-01 1.3542652130126953e-01</leafValues></_>
        <_>
          <internalNodes>
            0 -1 103 -2064866656 1543923488 775599862 1597914144
            24633752 178962937 758710981 1722537959</internalNodes>
          <leafValues>
            -2.9694586992263794e-01 1.8577387928962708e-01</leafValues></_>
        <_>
          <internalNodes>
            0 -1 148 -697896882 1392704818 824933602 -1574808078
            -428146930 1076066053 -1263883319 -793916406</internalNodes>
          <leafValues>
            -2.5864678621292114e-01 2.1256507933139801e-01</leafValues></_>
        <_>
          <internalNodes>
            0 -1 236 1388045862 1434083188 -1469177645 494946288
            -383318568 -894515835 -1731800179 -1713827542</internalNodes>
          <leafValues>
            -2.2571378946304321e-01 2.4691076576709747e-01</leafValues></_>
        <_>
          <internalNodes>
            0 -1 45 679492608 141126703 -1973698880 706885412 129983508
            -721950337 351860016 1602592</internalNodes>
          <leafValues>
            -5.8822560310363770e-01 1.1676409095525742e-01</leafValues></_>
        <_>
          <internalNodes>
            0 -1 37 -319848419 220094854 86384101 -788589538 401543064
            985736853 1880425365 -1124650424</internalNodes>
          <leafValues>
            -2.7418875694274902e-01 1.9926103949546814e-01</leafValues></_>
        <_>
          <internalNodes>
            0 -1 218 -630010236 -730818443 1353932732 -1177857586
            -1465447244 1033381281 -1456981798 -1793389934</internalNodes>
          <leafValues>
            -2.1657529473304749e-01 2.5917959213256836e-01</leafValues></_>
        <_>
          <internalNodes>
            0 -1 84 -1191121238 -72821920 1656110072 -2030541408
            91267285 530113790 1704162187 -847265273</internalNodes>
          <leafValues>
            -2.1095402538776398e-01 2.6763799786567688e-01</leafValues></_>
        <_>
          <internalNodes>
            0 -1 76 782506281 197383504 1772067649 656734807 -405976769
            1316041891 704342815 731969461</internalNodes>
          <leafValues>
            -3.3360323309898376e-01 1.6941177845001221e-01</leafValues></_>
        <_>
          <internalNodes>
            0 -1 251 -836328093 -668276888 -85181514 514208857 378805524
            -677005609 -1713232092 -534494086</internalNodes>
          <leafValues>
            -2.4488525092601776e-01 2.3205490410327911e-01</leafValues></_>
        <_>
          <internalNodes>
            0 -1 295 539241732 210387747 2087663401 176995433 232543509
            -1931349508 753228592 77608032</internalNodes>
          <leafValues>
            -5.7933491468429565e-01 1.0916261374950409e-01</leafValues></_>
        <_>
          <internalNodes>
            0 -1 173 1218882992 303186996 -790928272 -1689391488
            -1496597091 1084643433 2073899518 -1809595454</internalNodes>
          <leafValues>
            -2.5442332029342651e-01 2.2394879162311554e-01</leafValues></_>
        <_>
          <internalNodes>
            0 -1 202 -1289008580 1802766700 -959407504 -1288634336
            -1368884208 -1034596535 -1007577646 1130186188</internalNodes>
          <leafValues>
            -3.2436618208885193e-01 1.8046347796916962e-01</leafValues></_></weakClassifiers></_>
    <!-- stage 18 -->
    <_>
      <maxWeakCount>29</maxWeakCount>
      <stageThreshold>-9.3708950281143188e-01</stageThreshold>
      <weakClassifiers>
        <_>
          <internalNodes>
            0 -1 111 -1111543809 -1175112257 -1482797833 -1415541217
            -1086910112 -1450496338 -340380295 -1364314347</internalNodes>
          <leafValues>
            -1.5964740514755249e-01 3.3681461215019226e-01</leafValues></_>
        <_>
          <internalNodes>
            0 -1 272 -1033703473 59436911 -344493641 800320883
            -1615334465 -322439521 -1125496004 -1494308104</internalNodes>
          <leafValues>
            -1.9896912574768066e-01 2.6734811067581177e-01</leafValues></_>
        <_>
          <internalNodes>
            0 -1 140 -546048033 -45825 2067231359 -541603605 -97785189
            -542473761 1932786427 -1311749</internalNodes>
          <leafValues>
            -1.0006570816040039e-01 5.3621953725814819e-01</leafValues></_>
        <_>
          <internalNodes>
            0 -1 9 -15990913 -386150421 -33986298 -205800211 1333394413
            744286460 2025146939 -4363777</internalNodes>
          <leafValues>
            -1.8777061998844147e-01 2.8746977448463440e-01</leafValues></_>
        <_>
          <internalNodes>
            0 -1 316 644615969 -1502855297 -679624841 -412067636
            936326516 1726410743 668009029 -1510990768</internalNodes>
          <leafValues>
            -2.8812754154205322e-01 1.7325296998023987e-01</leafValues></_>
        <_>
          <internalNodes>
            0 -1 197 -838889244 1157113471 -37547943 895815718
            1273490360 -1012048396 -647499638 -878454861</internalNodes>
          <leafValues>
            -1.9751720130443573e-01 2.4440233409404755e-01</leafValues></_>
        <_>
          <internalNodes>
            0 -1 229 -199048564 -2058596532 -243335115 520497446
            36100761 262856475 379638730 252922071</internalNodes>
          <leafValues>
            -2.7462971210479736e-01 1.8403732776641846e-01</leafValues></_>
        <_>
          <internalNodes>
            0 -1 130 562397599 578068886 -303069478 -689766524 433815764
            -1376586381 -1160371648 -1522475966</internalNodes>
          <leafValues>
            -2.9366663098335266e-01 1.5868607163429260e-01</leafValues></_>
        <_>
          <internalNodes>
            0 -1 160 1562039327 -412403618 275911417 -21430088
            -1422103015 727865158 171854522 1071248122</internalNodes>
          <leafValues>
            -2.0743978023529053e-01 2.4052904546260834e-01</leafValues></_>
        <_>
          <internalNodes>
            0 -1 247 -751850749 2058817974 -25362697 -895046122
            1487668805 779102078 649875230 -457845014</internalNodes>
          <leafValues>
            -1.9567349553108215e-01 2.5632837414741516e-01</leafValues></_>
        <_>
          <internalNodes>
            0 -1 43 -1967373520 -966665566 -1448897827 -71937448
            1805814329 -832213011 -1163420940 -406847213</internalNodes>
          <leafValues>
            -2.5398546457290649e-01 2.1190406382083893e-01</leafValues></_>
        <_>
          <internalNodes>
            0 -1 118 -1744635940 -749770354 406845022 1396537907
            -280505713 -205036307 651700810 -218652545</internalNodes>
          <leafValues>
            -1.9686283171176910e-01 2.6373684406280518e-01</leafValues></_>
        <_>
          <internalNodes>
            0 -1 195 -163853390 893535953 -151322495 168146864
            -493818219 -1679643483 862501019 -1612725301</internalNodes>
          <leafValues>
            -1.6066895425319672e-01 3.0194991827011108e-01</leafValues></_>
        <_>
          <internalNodes>
            0 -1 21 581764132 183393674 1055045314 720923784 1905208141
            1955424567 1987221028 8657968</internalNodes>
          <leafValues>
            -5.5036813020706177e-01 9.3812607228755951e-02</leafValues></_>
        <_>
          <internalNodes>
            0 -1 222 -863591370 1977107732 -1939042243 -1625616358
            -898203423 -2008527717 1764789658 -1087663062</internalNodes>
          <leafValues>
            -2.0137979090213776e-01 2.6289674639701843e-01</leafValues></_>
        <_>
          <internalNodes>
            0 -1 34 955060063 -139438240 -286733553 -105304068 921557661
            1708348477 1457068647 -1464104204</internalNodes>
          <leafValues>
            -1.8658122420310974e-01 2.7490454912185669e-01</leafValues></_>
        <_>
          <internalNodes>
            0 -1 264 1085987028 323092404 1692199629 807942736
            -729297130 1087437704 -1429413994 138570680</internalNodes>
          <leafValues>
            -3.5822910070419312e-01 1.4393258094787598e-01</leafValues></_>
        <_>
          <internalNodes>
            0 -1 61 1003818357 -1942084216 -309121164 -1897341792
            1870700031 -298529035 -487225473 770273548</internalNodes>
          <leafValues>
            -2.7572873234748840e-01 1.9536262750625610e-01</leafValues></_>
        <_>
          <internalNodes>
            0 -1 314 148637569 1181899754 -23508794 603497283 112608582
            1265577917 1990938704 1893785180</internalNodes>
          <leafValues>
            -3.9832586050033569e-01 1.2331479042768478e-01</leafValues></_>
        <_>
          <internalNodes>
            0 -1 175 -736933150 -157807562 1698965796 -518403423
            1723927688 1646594835 1145326127 1681519267</internalNodes>
          <leafValues>
            -2.9668667912483215e-01 1.8318055570125580e-01</leafValues></_>
        <_>
          <internalNodes>
            0 -1 228 -1025466780 -385297980 -1358998913 2007624016
            -635197258 804578443 -949404998 -733748862</internalNodes>
          <leafValues>
            -2.1246929466724396e-01 2.5861892104148865e-01</leafValues></_>
        <_>
          <internalNodes>
            0 -1 69 -1166608329 922119145 -1103875713 -568328525
            1052181477 2020621332 1682437968 2052163139</internalNodes>
          <leafValues>
            -2.5623187422752380e-01 2.1365535259246826e-01</leafValues></_>
        <_>
          <internalNodes>
            0 -1 18 2008752788 -443164578 -1365737626 -467229370
            -1925425419 608986623 -26867652 1978792491</internalNodes>
          <leafValues>
            -2.7777388691902161e-01 1.9250853359699249e-01</leafValues></_>
        <_>
          <internalNodes>
            0 -1 190 -186937625 806710263 -1951134373 -1280923478
            1349978193 2145447933 -302207625 -1242860625</internalNodes>
          <leafValues>
            -1.7061795294284821e-01 3.1515523791313171e-01</leafValues></_>
        <_>
          <internalNodes>
            0 -1 108 742823745 2009294327 -1163520392 1924724450
            -1445410616 1848246119 -1661475402 -924646074</internalNodes>
          <leafValues>
            -2.2341902554035187e-01 2.4945566058158875e-01</leafValues></_>
        <_>
          <internalNodes>
            0 -1 17 82845036 -1029473921 -823679132 917824972
            -1490323247 -243450013 -1346615984 1953631867</internalNodes>
          <leafValues>
            -3.2735139131546021e-01 1.7861667275428772e-01</leafValues></_>
        <_>
          <internalNodes>
            0 -1 219 1678506227 -608632897 -150021129 -48001870
            -1892503169 -1926833185 -618489941 -536874165</internalNodes>
          <leafValues>
            -1.4220829308032990e-01 4.2223489284515381e-01</leafValues></_>
        <_>
          <internalNodes>
            0 -1 114 1126781464 1830290534 1919256620 1500206536
            -1801988014 84347981 1343961624 1361340400</internalNodes>
          <leafValues>
            -3.7908479571342468e-01 1.5562263131141663e-01</leafValues></_>
        <_>
          <internalNodes>
            0 -1 294 50072689 204404524 2086373291 -333291352 -961405595
            -1208558815 -332660364 549857588</internalNodes>
          <leafValues>
            -4.1242071986198425e-01 1.3601288199424744e-01</leafValues></_></weakClassifiers></_>
    <!-- stage 19 -->
    <_>
      <maxWeakCount>29</maxWeakCount>
      <stageThreshold>-9.3021416664123535e-01</stageThreshold>
      <weakClassifiers>
        <_>
          <internalNodes>
            0 -1 87 -1281470251 803991135 175042495 200015725 -340769452
            901590879 -371388101 -1594215841</internalNodes>
          <leafValues>
            -1.3756854832172394e-01 3.4635108709335327e-01</leafValues></_>
        <_>
          <internalNodes>
            0 -1 116 -608485312 1562920040 1088176376 -538061623
            -332036132 -1925945057 1426963871 1099398063</internalNodes>
          <leafValues>
            -2.7226451039314270e-01 1.9094127416610718e-01</leafValues></_>
        <_>
          <internalNodes>
            0 -1 269 -51539009 -1245970561 -176308758 -1633615992
            -152045665 1600913389 -1428766836 -1362641009</internalNodes>
          <leafValues>
            -1.5852914750576019e-01 3.2170927524566650e-01</leafValues></_>
        <_>
          <internalNodes>
            0 -1 179 -132394021 -123581470 107884895 536554742
            1601779521 -341296646 2134900221 -1882348609</internalNodes>
          <leafValues>
            -1.6836982965469360e-01 2.9116985201835632e-01</leafValues></_>
        <_>
          <internalNodes>
            0 -1 301 -1632008273 687619111 732383490 -1997091983
            1539129173 1160372221 -304405228 -1263229136</internalNodes>
          <leafValues>
            -2.9352140426635742e-01 1.5862715244293213e-01</leafValues></_>
        <_>
          <internalNodes>
            0 -1 40 -1111425259 5494249 -435267257 -430839020 1681878463
            -320001769 -52250656 1346523923</internalNodes>
          <leafValues>
            -2.5467905402183533e-01 1.9660137593746185e-01</leafValues></_>
        <_>
          <internalNodes>
            0 -1 38 -823303372 1008586197 -1420394538 -511775234
            10557065 -286152235 818881225 -272961943</internalNodes>
          <leafValues>
            -2.3143620789051056e-01 2.1278978884220123e-01</leafValues></_>
        <_>
          <internalNodes>
            0 -1 180 -357840911 1181660899 310008831 -335711106
            -1556562634 -1434927567 112521522 -345157544</internalNodes>
          <leafValues>
            -1.5890172123908997e-01 2.8797978162765503e-01</leafValues></_>
        <_>
          <internalNodes>
            0 -1 149 -957350785 -81048781 -604019116 -542428812
            125742813 -312545921 -53549604 -788807781</internalNodes>
          <leafValues>
            -1.4833123981952667e-01 3.4293636679649353e-01</leafValues></_>
        <_>
          <internalNodes>
            0 -1 186 6459452 -1941117002 -235573746 -978518048
            2101621908 -592110225 -546609250 8451912</internalNodes>
          <leafValues>
            -3.7656149268150330e-01 1.3118223845958710e-01</leafValues></_>
        <_>
          <internalNodes>
            0 -1 265 741754407 1593450263 -594075823 453376184
            -596283708 -923891815 -455901814 -1413546005</internalNodes>
          <leafValues>
            -1.6045948863029480e-01 2.9794648289680481e-01</leafValues></_>
        <_>
          <internalNodes>
            0 -1 240 -626075395 2045929467 364414923 233700808 658318841
            813324792 -805723179 -13641089</internalNodes>
          <leafValues>
            -1.7205108702182770e-01 3.0247208476066589e-01</leafValues></_>
        <_>
          <internalNodes>
            0 -1 177 -559365672 -1162322504 1790473342 -672821511
            -722140944 586590164 1067691737 -69447946</internalNodes>
          <leafValues>
            -2.0765900611877441e-01 2.5455394387245178e-01</leafValues></_>
        <_>
          <internalNodes>
            0 -1 235 1352663568 462030674 1115909236 2067212240
            -1868511567 -31568422 -1170642567 391709710</internalNodes>
          <leafValues>
            -3.7416765093803406e-01 1.4537401497364044e-01</leafValues></_>
        <_>
          <internalNodes>
            0 -1 245 -923212627 1216168229 -1699055028 1756330486
            -1396250201 956183894 488999942 1223223894</internalNodes>
          <leafValues>
            -2.5793132185935974e-01 2.0143575966358185e-01</leafValues></_>
        <_>
          <internalNodes>
            0 -1 290 2015146274 448278263 -424737148 547535988
            -2039101941 -160552035 -554385358 -1467291006</internalNodes>
          <leafValues>
            -2.8040730953216553e-01 1.8022568523883820e-01</leafValues></_>
        <_>
          <internalNodes>
            0 -1 30 -47739083 -1271671249 1841298902 -1375745012
            1836564089 1744005737 -747362112 -197587446</internalNodes>
          <leafValues>
            -2.5090208649635315e-01 2.0961941778659821e-01</leafValues></_>
        <_>
          <internalNodes>
            0 -1 129 -1879170265 19167083 1861074912 -1502582459
            2119478277 1079780653 -537635466 1960485474</internalNodes>
          <leafValues>
            -3.7360772490501404e-01 1.6041128337383270e-01</leafValues></_>
        <_>
          <internalNodes>
            0 -1 201 1349686480 -492809040 -1151050591 -4910012 86551492
            -1426037563 -1723160423 -1651566557</internalNodes>
          <leafValues>
            -2.3380006849765778e-01 2.2976286709308624e-01</leafValues></_>
        <_>
          <internalNodes>
            0 -1 119 -1331402492 2099804705 -1784365024 -948978144
            75506832 -1941825622 753249327 1095906327</internalNodes>
          <leafValues>
            -3.4580430388450623e-01 1.5840402245521545e-01</leafValues></_>
        <_>
          <internalNodes>
            0 -1 299 -2072370402 -795584835 -1182893066 435699405
            -2147411758 -2073748177 1811886384 -506417565</internalNodes>
          <leafValues>
            -2.3302738368511200e-01 2.3312443494796753e-01</leafValues></_>
        <_>
          <internalNodes>
            0 -1 223 -195592172 -708263520 1223974121 856622337
            -1023370156 365229094 -1766152034 -604526961</internalNodes>
          <leafValues>
            -1.9312547147274017e-01 2.7843058109283447e-01</leafValues></_>
        <_>
          <internalNodes>
            0 -1 184 -995179092 -1041746042 400013540 1679422083
            -2065055212 -851880655 -1373560850 -25762392</internalNodes>
          <leafValues>
            -2.3390457034111023e-01 2.3290768265724182e-01</leafValues></_>
        <_>
          <internalNodes>
            0 -1 71 638588501 636530509 1302216172 -123048212 -549488386
            -71713547 477875241 1693469812</internalNodes>
          <leafValues>
            -3.2839497923851013e-01 1.7599494755268097e-01</leafValues></_>
        <_>
          <internalNodes>
            0 -1 182 -2052853522 -399610582 1999790209 1862668706
            640351488 -1909961890 840945844 303584284</internalNodes>
          <leafValues>
            -3.9138072729110718e-01 1.3386110961437225e-01</leafValues></_>
        <_>
          <internalNodes>
            0 -1 313 758911754 738590334 651887170 42105744 670905604
            937802559 -999010542 15996656</internalNodes>
          <leafValues>
            -5.6172728538513184e-01 1.0354351997375488e-01</leafValues></_>
        <_>
          <internalNodes>
            0 -1 293 1782096010 1265118452 -152485968 290603246
            862894928 1210177086 316190872 12824490</internalNodes>
          <leafValues>
            -3.5604637861251831e-01 1.5890954434871674e-01</leafValues></_>
        <_>
          <internalNodes>
            0 -1 322 105385762 3426166 -1264064602 134804640 799462416
            662599024 83099652 1061988</internalNodes>
          <leafValues>
            -7.0004910230636597e-01 8.1472821533679962e-02</leafValues></_>
        <_>
          <internalNodes>
            0 -1 248 -534711841 2111864210 -1412707401 -1113883105
            -131005999 -579222564 -429286778 -1359361861</internalNodes>
          <leafValues>
            -1.7684070765972137e-01 3.3289274573326111e-01</leafValues></_></weakClassifiers></_></stages>
  <features>
    <_>
      <rect>
        0 1 1 6</rect></_>
    <_>
      <rect>
        0 11 22 13</rect></_>
    <_>
      <rect>
        0 19 1 5</rect></_>
    <_>
      <rect>
        0 57 1 5</rect></_>
    <_>
      <rect>
        1 0 23 20</rect></_>
    <_>
      <rect>
        1 22 9 11</rect></_>
    <_>
      <rect>
        1 24 1 4</rect></_>
    <_>
      <rect>
        1 24 10 1</rect></_>
    <_>
      <rect>
        1 28 1 6</rect></_>
    <_>
      <rect>
        1 28 14 10</rect></_>
    <_>
      <rect>
        1 36 8 1</rect></_>
    <_>
      <rect>
        2 11 11 7</rect></_>
    <_>
      <rect>
        2 31 10 4</rect></_>
    <_>
      <rect>
        2 36 3 1</rect></_>
    <_>
      <rect>
        2 51 1 4</rect></_>
    <_>
      <rect>
        3 2 1 4</rect></_>
    <_>
      <rect>
        3 9 23 18</rect></_>
    <_>
      <rect>
        3 11 3 6</rect></_>
    <_>
      <rect>
        3 23 12 5</rect></_>
    <_>
      <rect>
        3 25 14 13</rect></_>
    <_>
      <rect>
        3 28 8 1</rect></_>
    <_>
      <rect>
        3 46 2 1</rect></_>
    <_>
      <rect>
        4 7 21 14</rect></_>
    <_>
      <rect>
        4 10 13 7</rect></_>
    <_>
      <rect>
        4 10 14 10</rect></_>
    <_>
      <rect>
        4 26 1 2</rect></_>
    <_>
      <rect>
        4 26 5 1</rect></_>
    <_>
      <rect>
        4 35 6 5</rect></_>
    <_>
      <rect>
        4 54 3 1</rect></_>
    <_>
      <rect>
        4 61 7 1</rect></_>
    <_>
      <rect>
        5 21 6 8</rect></_>
    <_>
      <rect>
        5 24 1 6</rect></_>
    <_>
      <rect>
        5 31 4 5</rect></_>
    <_>
      <rect>
        5 32 14 9</rect></_>
    <_>
      <rect>
        5 35 17 9</rect></_>
    <_>
      <rect>
        6 0 1 8</rect></_>
    <_>
      <rect>
        6 22 1 1</rect></_>
    <_>
      <rect>
        6 22 6 16</rect></_>
    <_>
      <rect>
        6 39 7 6</rect></_>
    <_>
      <rect>
        6 46 11 7</rect></_>
    <_>
      <rect>
        7 0 10 16</rect></_>
    <_>
      <rect>
        7 6 1 1</rect></_>
    <_>
      <rect>
        7 8 5 1</rect></_>
    <_>
      <rect>
        7 8 9 9</rect></_>
    <_>
      <rect>
        7 12 6 9</rect></_>
    <_>
      <rect>
        7 33 1 1</rect></_>
    <_>
      <rect>
        7 63 1 3</rect></_>
    <_>
      <rect>
        8 9 12 8</rect></_>
    <_>
      <rect>
        8 25 7 9</rect></_>
    <_>
      <rect>
        8 27 6 7</rect></_>
    <_>
      <rect>
        8 28 5 8</rect></_>
    <_>
      <rect>
        9 6 14 8</rect></_>
    <_>
      <rect>
        9 10 12 9</rect></_>
    <_>
      <rect>
        9 16 6 7</rect></_>
    <_>
      <rect>
        9 17 4 5</rect></_>
    <_>
      <rect>
        9 29 9 10</rect></_>
    <_>
      <rect>
        9 30 5 8</rect></_>
    <_>
      <rect>
        9 34 3 1</rect></_>
    <_>
      <rect>
        9 38 3 1</rect></_>
    <_>
      <rect>
        10 0 14 1</rect></_>
    <_>
      <rect>
        10 27 3 5</rect></_>
    <_>
      <rect>
        11 10 14 12</rect></_>
    <_>
      <rect>
        12 18 5 4</rect></_>
    <_>
      <rect>
        12 19 5 4</rect></_>
    <_>
      <rect>
        12 31 3 4</rect></_>
    <_>
      <rect>
        12 34 3 4</rect></_>
    <_>
      <rect>
        13 11 14 18</rect></_>
    <_>
      <rect>
        13 22 5 3</rect></_>
    <_>
      <rect>
        13 29 8 8</rect></_>
    <_>
      <rect>
        13 39 6 2</rect></_>
    <_>
      <rect>
        13 65 6 1</rect></_>
    <_>
      <rect>
        14 12 11 8</rect></_>
    <_>
      <rect>
        14 17 6 4</rect></_>
    <_>
      <rect>
        14 30 13 12</rect></_>
    <_>
      <rect>
        14 43 13 7</rect></_>
    <_>
      <rect>
        14 67 9 1</rect></_>
    <_>
      <rect>
        15 15 15 12</rect></_>
    <_>
      <rect>
        15 20 14 9</rect></_>
    <_>
      <rect>
        15 22 6 3</rect></_>
    <_>
      <rect>
        15 33 15 8</rect></_>
    <_>
      <rect>
        16 5 17 14</rect></_>
    <_>
      <rect>
        16 14 7 4</rect></_>
    <_>
      <rect>
        16 28 4 3</rect></_>
    <_>
      <rect>
        16 28 6 1</rect></_>
    <_>
      <rect>
        16 32 3 3</rect></_>
    <_>
      <rect>
        17 12 8 4</rect></_>
    <_>
      <rect>
        17 14 10 3</rect></_>
    <_>
      <rect>
        17 17 9 11</rect></_>
    <_>
      <rect>
        17 24 4 6</rect></_>
    <_>
      <rect>
        17 34 4 3</rect></_>
    <_>
      <rect>
        17 39 10 4</rect></_>
    <_>
      <rect>
        17 40 1 1</rect></_>
    <_>
      <rect>
        18 3 11 17</rect></_>
    <_>
      <rect>
        18 11 7 5</rect></_>
    <_>
      <rect>
        18 29 3 6</rect></_>
    <_>
      <rect>
        18 31 11 7</rect></_>
    <_>
      <rect>
        19 6 4 1</rect></_>
    <_>
      <rect>
        19 20 10 5</rect></_>
    <_>
      <rect>
        19 22 17 5</rect></_>
    <_>
      <rect>
        19 23 6 4</rect></_>
    <_>
      <rect>
        19 23 10 5</rect></_>
    <_>
      <rect>
        19 26 5 5</rect></_>
    <_>
      <rect>
        19 38 1 7</rect></_>
    <_>
      <rect>
        19 39 3 2</rect></_>
    <_>
      <rect>
        19 45 2 2</rect></_>
    <_>
      <rect>
        19 52 1 5</rect></_>
    <_>
      <rect>
        20 20 9 7</rect></_>
    <_>
      <rect>
        20 23 5 4</rect></_>
    <_>
      <rect>
        20 41 1 1</rect></_>
    <_>
      <rect>
        20 44 1 2</rect></_>
    <_>
      <rect>
        21 6 9 7</rect></_>
    <_>
      <rect>
        21 7 9 18</rect></_>
    <_>
      <rect>
        21 10 1 6</rect></_>
    <_>
      <rect>
        21 19 7 2</rect></_>
    <_>
      <rect>
        21 23 6 5</rect></_>
    <_>
      <rect>
        21 24 6 6</rect></_>
    <_>
      <rect>
        21 25 5 5</rect></_>
    <_>
      <rect>
        21 25 7 6</rect></_>
    <_>
      <rect>
        21 27 8 6</rect></_>
    <_>
      <rect>
        21 31 4 3</rect></_>
    <_>
      <rect>
        21 38 1 1</rect></_>
    <_>
      <rect>
        21 59 1 4</rect></_>
    <_>
      <rect>
        21 64 8 1</rect></_>
    <_>
      <rect>
        22 19 7 3</rect></_>
    <_>
      <rect>
        22 25 4 6</rect></_>
    <_>
      <rect>
        22 26 5 1</rect></_>
    <_>
      <rect>
        22 29 1 1</rect></_>
    <_>
      <rect>
        22 37 2 2</rect></_>
    <_>
      <rect>
        22 40 1 2</rect></_>
    <_>
      <rect>
        23 4 5 1</rect></_>
    <_>
      <rect>
        23 13 8 4</rect></_>
    <_>
      <rect>
        23 22 6 3</rect></_>
    <_>
      <rect>
        23 23 8 5</rect></_>
    <_>
      <rect>
        23 23 14 13</rect></_>
    <_>
      <rect>
        23 28 6 6</rect></_>
    <_>
      <rect>
        23 37 1 1</rect></_>
    <_>
      <rect>
        23 37 1 3</rect></_>
    <_>
      <rect>
        23 37 9 3</rect></_>
    <_>
      <rect>
        23 45 8 4</rect></_>
    <_>
      <rect>
        24 10 8 10</rect></_>
    <_>
      <rect>
        24 21 7 5</rect></_>
    <_>
      <rect>
        24 26 6 5</rect></_>
    <_>
      <rect>
        24 27 6 6</rect></_>
    <_>
      <rect>
        24 28 6 3</rect></_>
    <_>
      <rect>
        24 29 7 5</rect></_>
    <_>
      <rect>
        24 38 2 2</rect></_>
    <_>
      <rect>
        25 21 8 5</rect></_>
    <_>
      <rect>
        25 22 7 5</rect></_>
    <_>
      <rect>
        25 23 5 3</rect></_>
    <_>
      <rect>
        25 26 4 3</rect></_>
    <_>
      <rect>
        25 43 7 1</rect></_>
    <_>
      <rect>
        26 23 6 6</rect></_>
    <_>
      <rect>
        26 27 2 1</rect></_>
    <_>
