<?xml version="1.0"?>
<opencv_storage>
<stage15>
  <maxWeakCount>25</maxWeakCount>
  <stageThreshold>-9.5598834753036499e-01</stageThreshold>
  <weakClassifiers>
    <_>
      <internalNodes>
        0 -1 84366 -159924703 -789090316 -1376583826 -59572608
        1584856049 -16917460 -721095 -178817231</internalNodes>
      <leafValues>
        -1.6078984737396240e-01 3.5400617122650146e-01</leafValues></_>
    <_>
      <internalNodes>
        0 -1 399396 -612371489 1594600190 38820607 1305954550 -15508533
        -823662145 1802565800 -67374342</internalNodes>
      <leafValues>
        -1.4885927736759186e-01 3.8594570755958557e-01</leafValues></_>
    <_>
      <internalNodes>
        0 -1 182944 1463938823 750498611 2047174532 -1879581517
        274275613 1575026031 870388821 2146257570</internalNodes>
      <leafValues>
        -2.8111600875854492e-01 1.9947506487369537e-01</leafValues></_>
    <_>
      <internalNodes>
        0 -1 644675 1089131148 179472536 736615327 431527230 -319602812
        -2425780 -1762534722 -1428312542</internalNodes>
      <leafValues>
        -3.3082944154739380e-01 1.4307618141174316e-01</leafValues></_>
    <_>
      <internalNodes>
        0 -1 189456 -1353897809 652357487 -747409688 -1028850323
        1773498181 97994586 -1023461804 1952755380</internalNodes>
      <leafValues>
        -4.3970361351966858e-01 1.4109222590923309e-01</leafValues></_>
    <_>
      <internalNodes>
        0 -1 454437 -494345024 1395313194 779798228 970991584
        -2105815540 -2090281187 -930951258 -486706305</internalNodes>
      <leafValues>
        -2.4448959529399872e-01 2.4749737977981567e-01</leafValues></_>
    <_>
      <internalNodes>
        0 -1 686479 -924398803 280821485 -343956445 62656486 1834577327
        1065222143 -822351338 -1151923129</internalNodes>
      <leafValues>
        -2.0817768573760986e-01 2.6674202084541321e-01</leafValues></_>
    <_>
      <internalNodes>
        0 -1 465100 -1388352122 -383646165 -1134383054 2064756992
        134159896 78462583 16285884 896230733</internalNodes>
      <leafValues>
        -3.4803506731987000e-01 1.5035700798034668e-01</leafValues></_>
    <_>
      <internalNodes>
        0 -1 58033 706217252 711778109 2137963695 -1367786792 267747136
        1861218279 -1244103120 76554240</internalNodes>
      <leafValues>
        -5.9181874990463257e-01 9.5093615353107452e-02</leafValues></_>
    <_>
      <internalNodes>
        0 -1 497568 1285862002 -53474571 268040952 -545527686
        -1021525328 -999480443 -822602912 86298642</internalNodes>
      <leafValues>
        -3.4172308444976807e-01 1.6739803552627563e-01</leafValues></_>
    <_>
      <internalNodes>
        0 -1 591401 75433473 1540108115 -433121666 -1910968644
        -1739584180 -129365001 -1468920372 -93099813</internalNodes>
      <leafValues>
        -2.4195051193237305e-01 2.3154976963996887e-01</leafValues></_>
    <_>
      <internalNodes>
        0 -1 476341 -1060207104 -1671102440 -1810374851 -1722224620
        -539256002 -1079498518 -1909166892 -1058569725</internalNodes>
      <leafValues>
        -2.3655033111572266e-01 2.3726792633533478e-01</leafValues></_>
    <_>
      <internalNodes>
        0 -1 700346 613941532 780688508 173401838 -1933832550 1551122295
        1793321901 750042160 135276900</internalNodes>
      <leafValues>
        -5.6240552663803101e-01 1.2014963477849960e-01</leafValues></_>
    <_>
      <internalNodes>
        0 -1 400587 -98316069 1538074266 326686391 329083631 -1612713330
        -883814396 -1573721442 -68424962</internalNodes>
      <leafValues>
        -1.7531353235244751e-01 3.5204410552978516e-01</leafValues></_>
    <_>
      <internalNodes>
        0 -1 450726 -145228646 2005884586 736329880 -1214208852
        -1563992404 1142185589 1928700107 4712263</internalNodes>
      <leafValues>
        -3.0596211552619934e-01 1.8895480036735535e-01</leafValues></_>
    <_>
      <internalNodes>
        0 -1 615583 -59236331 401349459 870608887 1005064056 -1640232300
        -1090831173 -1231249684 -1845133102</internalNodes>
      <leafValues>
        -2.2919088602066040e-01 2.6526758074760437e-01</leafValues></_>
    <_>
      <internalNodes>
        0 -1 464507 -701763109 1405242107 -411082121 -335732174
        -1213224573 -1345162347 654878389 -4335373</internalNodes>
      <leafValues>
        -1.6440458595752716e-01 3.7133094668388367e-01</leafValues></_>
    <_>
      <internalNodes>
        0 -1 337231 53421605 586113917 -1095933374 -1528407658 930370429
        100482745 1939088484 620662653</internalNodes>
      <leafValues>
        -4.1095203161239624e-01 1.5976640582084656e-01</leafValues></_>
    <_>
      <internalNodes>
        0 -1 568738 -455950897 -1149684490 -588657955 -1394314007
        -596800641 -573751681 -571087739 -2063597569</internalNodes>
      <leafValues>
        -2.1754793822765350e-01 2.8704926371574402e-01</leafValues></_>
    <_>
      <internalNodes>
        0 -1 53481 -299433675 -1172705419 704113529 -370707289
        1697764321 -462063724 1802588584 -76289803</internalNodes>
      <leafValues>
        -2.0175386965274811e-01 3.1632241606712341e-01</leafValues></_>
    <_>
      <internalNodes>
        0 -1 631498 -2140288101 -1802211537 985146925 1031006819
        -1331854870 81907684 821870248 -1193301318</internalNodes>
      <leafValues>
        -1.9538082182407379e-01 3.1878128647804260e-01</leafValues></_>
    <_>
      <internalNodes>
        0 -1 375109 -1465481088 330457622 -2098714420 824428817
        905881989 7304896 -2005466755 -1372191743</internalNodes>
      <leafValues>
        -2.9200026392936707e-01 2.1156130731105804e-01</leafValues></_>
    <_>
      <internalNodes>
        0 -1 281158 1783522118 786608887 -838883547 -9568758 759164785
        -1542234330 1578438712 1145319776</internalNodes>
      <leafValues>
        -3.7101662158966064e-01 1.7410610616207123e-01</leafValues></_>
    <_>
      <internalNodes>
        0 -1 559711 -2101179183 347250411 -185600668 -303500806
        205363527 2096488149 -664405248 -1058457296</internalNodes>
      <leafValues>
        -2.7074533700942993e-01 2.2265617549419403e-01</leafValues></_>
    <_>
      <internalNodes>
        0 -1 653016 -1206770430 1067458099 -559109020 824881392
        607208580 1185953540 348656772 -1699083838</internalNodes>
      <leafValues>
        -3.0774360895156860e-01 2.0322379469871521e-01</leafValues></_></weakClassifiers></stage15>
</opencv_storage>
