<?xml version="1.0"?>
<opencv_storage>
<stage8>
  <maxWeakCount>13</maxWeakCount>
  <stageThreshold>-1.1759026050567627e+00</stageThreshold>
  <weakClassifiers>
    <_>
      <internalNodes>
        0 -1 291263 -889258017 -218694673 -1479544833 -273865233
        -388101633 -1090592771 619586091 2522731</internalNodes>
      <leafValues>
        -3.1096562743186951e-01 3.9688581228256226e-01</leafValues></_>
    <_>
      <internalNodes>
        0 -1 199618 -499128543 69877359 -268474578 -1126647816
        1060533573 1716805495 -25938460 -520146894</internalNodes>
      <leafValues>
        -2.9884558916091919e-01 3.8277873396873474e-01</leafValues></_>
    <_>
      <internalNodes>
        0 -1 703324 -1910764171 750525436 528449527 -1094966312
        947811701 2045545591 2096397877 -1935655648</internalNodes>
      <leafValues>
        -4.0320646762847900e-01 2.8753593564033508e-01</leafValues></_>
    <_>
      <internalNodes>
        0 -1 451965 -554705854 874970592 -1561337152 -1280924436
        1450694340 74800961 -234895672 -406388911</internalNodes>
      <leafValues>
        -3.5589411854743958e-01 3.1442508101463318e-01</leafValues></_>
    <_>
      <internalNodes>
        0 -1 669379 -995062764 -1611387819 -67371009 -1125381968
        -1078190819 -1347911823 -1427465439 -1918304208</internalNodes>
      <leafValues>
        -4.3735560774803162e-01 2.2972546517848969e-01</leafValues></_>
    <_>
      <internalNodes>
        0 -1 562915 1617208975 2631463 157265671 296812335 1916589559
        1073593898 -142107894 586271519</internalNodes>
      <leafValues>
        -3.6326205730438232e-01 3.0045720934867859e-01</leafValues></_>
    <_>
      <internalNodes>
        0 -1 724598 204739861 1223187965 -165897 -1359020050 2136897393
        -151142401 -1077936906 -1364183760</internalNodes>
      <leafValues>
        -3.6916473507881165e-01 2.9177150130271912e-01</leafValues></_>
    <_>
      <internalNodes>
        0 -1 141078 -513295104 -1361324495 -361162762 -565212606
        -1250315888 -1556556333 -37658448 -73173438</internalNodes>
      <leafValues>
        -3.6900648474693298e-01 2.9434090852737427e-01</leafValues></_>
    <_>
      <internalNodes>
        0 -1 386460 -1573048314 -1098451294 1242210600 -773129692
        1176061780 1089601527 -722016312 -521669197</internalNodes>
      <leafValues>
        -3.4703496098518372e-01 2.9393553733825684e-01</leafValues></_>
    <_>
      <internalNodes>
        0 -1 442289 -1531736441 15089382 -160945760 -1443983380
        1618446209 1087700821 -1669140 -1058572302</internalNodes>
      <leafValues>
        -2.9222869873046875e-01 3.3393743634223938e-01</leafValues></_>
    <_>
      <internalNodes>
        0 -1 399500 -1485033537 406071805 -576195 1064643111 1734204351
        1000318879 -206405970 -1377089</internalNodes>
      <leafValues>
        -2.6711857318878174e-01 3.8238883018493652e-01</leafValues></_>
    <_>
      <internalNodes>
        0 -1 97602 687730503 653721295 -20986138 721223038 2117500791
        1987902811 -143043536 -453231120</internalNodes>
      <leafValues>
        -3.7088060379028320e-01 2.7948379516601562e-01</leafValues></_>
    <_>
      <internalNodes>
        0 -1 465242 -1071608812 532030941 -1107984769 -1211519052
        -1611265542 -1419855618 -1432241224 -1380252629</internalNodes>
      <leafValues>
        -3.1814268231391907e-01 3.3583360910415649e-01</leafValues></_></weakClassifiers></stage8>
</opencv_storage>
