<?xml version="1.0"?>
<opencv_storage>
<stage9>
  <maxWeakCount>15</maxWeakCount>
  <stageThreshold>-1.0129306316375732e+00</stageThreshold>
  <weakClassifiers>
    <_>
      <internalNodes>
        0 -1 498822 1904077631 590409591 -1342196433 199606067
        1342168831 533585911 -838864969 -1052985</internalNodes>
      <leafValues>
        -1.3865546882152557e-01 5.2115690708160400e-01</leafValues></_>
    <_>
      <internalNodes>
        0 -1 272591 587018031 745471999 -285219290 -1560346626
        2046776133 1174404927 -135301788 -186319264</internalNodes>
      <leafValues>
        -4.0039181709289551e-01 2.7430284023284912e-01</leafValues></_>
    <_>
      <internalNodes>
        0 -1 163790 -680007883 -67371593 -1192806410 -134750450
        2002088209 2013221749 1864696860 -26792154</internalNodes>
      <leafValues>
        -2.9393109679222107e-01 3.3047443628311157e-01</leafValues></_>
    <_>
      <internalNodes>
        0 -1 534703 -285245913 -207159305 -629242332 -743703060
        1711228677 1464684307 -687917300 -194511130</internalNodes>
      <leafValues>
        -2.7455812692642212e-01 3.3756536245346069e-01</leafValues></_>
    <_>
      <internalNodes>
        0 -1 676104 1690215175 452919039 -438309088 -1308950544
        -144740668 81592307 -353640678 -520622662</internalNodes>
      <leafValues>
        -2.6727971434593201e-01 3.4812849760055542e-01</leafValues></_>
    <_>
      <internalNodes>
        0 -1 32804 212861749 -1367592971 -54640641 -1363387100
        1845321557 -139329 -8630940 754460804</internalNodes>
      <leafValues>
        -4.9421325325965881e-01 2.0382039248943329e-01</leafValues></_>
    <_>
      <internalNodes>
        0 -1 624916 -1002929020 2086149048 -419614753 -1229821082
        45889109 -1376063567 -1880091316 -1595728334</internalNodes>
      <leafValues>
        -3.4930482506752014e-01 2.7614989876747131e-01</leafValues></_>
    <_>
      <internalNodes>
        0 -1 323980 -380213500 942729264 1993234030 -1210515776
        1668798428 -10618508 -444861304 -1875380224</internalNodes>
      <leafValues>
        -3.5166624188423157e-01 2.7143701910972595e-01</leafValues></_>
    <_>
      <internalNodes>
        0 -1 644022 -702616809 900472379 -1090785482 968413183
        1047969333 -270205041 -285252434 -2004111734</internalNodes>
      <leafValues>
        -2.4029140174388885e-01 3.9621934294700623e-01</leafValues></_>
    <_>
      <internalNodes>
        0 -1 634032 218083119 82730990 708833122 -453574870 1449099029
        1207954807 -1393203436 -453722252</internalNodes>
      <leafValues>
        -3.7848955392837524e-01 2.3776006698608398e-01</leafValues></_>
    <_>
      <internalNodes>
        0 -1 267366 41355299 1963527471 -1094783113 1018096639 833824943
        1572694971 1996050093 -51400491</internalNodes>
      <leafValues>
        -2.9261651635169983e-01 3.2869583368301392e-01</leafValues></_>
    <_>
      <internalNodes>
        0 -1 45816 -1255983840 396515110 -341873380 -1360744864
        1911761828 2077544445 -394302564 -470338253</internalNodes>
      <leafValues>
        -3.4978649020195007e-01 2.6519486308097839e-01</leafValues></_>
    <_>
      <internalNodes>
        0 -1 234833 1862843652 -427498298 -559044956 -1572170141
        843407188 1732018024 661673600 -499009742</internalNodes>
      <leafValues>
        -3.7969207763671875e-01 2.5778490304946899e-01</leafValues></_>
    <_>
      <internalNodes>
        0 -1 451500 -88240346 1894686538 -1562121598 -1443964242
        -1367391867 1156996759 -215616242 -464062682</internalNodes>
      <leafValues>
        -3.4431692957878113e-01 2.7724799513816833e-01</leafValues></_>
    <_>
      <internalNodes>
        0 -1 488045 1076407041 445454709 -1359004685 289212580
        -592429279 -1381613697 -486951444 -1920794282</internalNodes>
      <leafValues>
        -2.6968297362327576e-01 3.5389053821563721e-01</leafValues></_></weakClassifiers></stage9>
</opencv_storage>
