<?xml version="1.0"?>
<opencv_storage>
<stage14>
  <maxWeakCount>24</maxWeakCount>
  <stageThreshold>-9.0831440687179565e-01</stageThreshold>
  <weakClassifiers>
    <_>
      <internalNodes>
        0 -1 321006 -1082524673 -807543201 -809762929 -1406668859
        -1883374101 -1112582151 -1157991129 673844231</internalNodes>
      <leafValues>
        -2.3611922562122345e-01 3.2569721341133118e-01</leafValues></_>
    <_>
      <internalNodes>
        0 -1 414456 -99623778 -544600601 37552767 1540181691 -1758083878
        -838070443 179796619 -545784241</internalNodes>
      <leafValues>
        -2.0191216468811035e-01 3.1621098518371582e-01</leafValues></_>
    <_>
      <internalNodes>
        0 -1 582118 -901123105 1255434933 -1603711173 552402443
        2093786535 -22089857 -326415674 550813562</internalNodes>
      <leafValues>
        -2.7841928601264954e-01 2.1939870715141296e-01</leafValues></_>
    <_>
      <internalNodes>
        0 -1 451472 -11299878 -181401594 1512260343 1902055504
        -1161118326 254552901 12251902 1609558234</internalNodes>
      <leafValues>
        -2.4451707303524017e-01 2.3940949141979218e-01</leafValues></_>
    <_>
      <internalNodes>
        0 -1 341963 442219293 -613420869 47923963 1810758312 724115735
        -1432139640 1752463544 -389881327</internalNodes>
      <leafValues>
        -2.5126391649246216e-01 2.2067463397979736e-01</leafValues></_>
    <_>
      <internalNodes>
        0 -1 543540 -333280222 1555451194 1591976193 -1217820592
        44606877 136512552 36902284 -2114727158</internalNodes>
      <leafValues>
        -2.0669086277484894e-01 2.6073929667472839e-01</leafValues></_>
    <_>
      <internalNodes>
        0 -1 110761 211921152 736929659 -30691994 -1648446757 -3843835
        869592704 -2008795600 -1476641592</internalNodes>
      <leafValues>
        -3.5453870892524719e-01 1.4707657694816589e-01</leafValues></_>
    <_>
      <internalNodes>
        0 -1 691776 785653508 -2020717721 -487080920 10842002 895442245
        400732645 -19774636 1099988576</internalNodes>
      <leafValues>
        -5.0356996059417725e-01 1.2535400688648224e-01</leafValues></_>
    <_>
      <internalNodes>
        0 -1 522805 -937112544 -1162837736 715313184 323528944 548965828
        138348293 39847576 -1422990958</internalNodes>
      <leafValues>
        -2.8926253318786621e-01 2.0277756452560425e-01</leafValues></_>
    <_>
      <internalNodes>
        0 -1 413743 -650391329 -1685334660 -1975543433 1533477113
        -12714325 -873952182 -1372325398 -613744988</internalNodes>
      <leafValues>
        -1.4645360410213470e-01 3.8502717018127441e-01</leafValues></_>
    <_>
      <internalNodes>
        0 -1 614228 -1106106505 -1147285523 -1627818466 561174564
        1761151541 -2100746 -124875122 -1503504781</internalNodes>
      <leafValues>
        -2.1887154877185822e-01 2.6158666610717773e-01</leafValues></_>
    <_>
      <internalNodes>
        0 -1 582364 -791752967 -582935742 -84020105 1395727376
        1287374493 -1616640971 1912249019 -283140453</internalNodes>
      <leafValues>
        -1.3799849152565002e-01 3.6814489960670471e-01</leafValues></_>
    <_>
      <internalNodes>
        0 -1 231155 -1545149659 1426512371 996136982 -41829464
        -1780674651 -941910811 -1209837664 -311074736</internalNodes>
      <leafValues>
        -2.7629479765892029e-01 2.0777742564678192e-01</leafValues></_>
    <_>
      <internalNodes>
        0 -1 517721 -529365982 911097740 -1335651068 1030888984
        -26348739 -1113023685 -330044068 -1597058996</internalNodes>
      <leafValues>
        -2.8017112612724304e-01 2.0742647349834442e-01</leafValues></_>
    <_>
      <internalNodes>
        0 -1 521232 -2010991600 1594557463 -5616456 -1310665326
        -221203275 89155344 -256616532 -900787617</internalNodes>
      <leafValues>
        -2.2508630156517029e-01 2.6428064703941345e-01</leafValues></_>
    <_>
      <internalNodes>
        0 -1 477965 -803158716 1109545733 -2047223234 760579698
        -2037383604 -2061028581 -2074504508 1559703687</internalNodes>
      <leafValues>
        -2.8994819521903992e-01 2.1005873382091522e-01</leafValues></_>
    <_>
      <internalNodes>
        0 -1 256329 658834722 -1435361496 1918854318 -488461154
        2038261572 762707909 -155251616 820574324</internalNodes>
      <leafValues>
        -5.4076892137527466e-01 1.1843063682317734e-01</leafValues></_>
    <_>
      <internalNodes>
        0 -1 93160 1337532960 1720882359 -323357732 -1948600913
        -751238474 699436374 1989416360 -1260174012</internalNodes>
      <leafValues>
        -3.2025709748268127e-01 1.7337454855442047e-01</leafValues></_>
    <_>
      <internalNodes>
        0 -1 531732 -880650006 -662550618 -1288691370 532877346
        -1976399416 -2079602213 -1854734272 490951053</internalNodes>
      <leafValues>
        -3.1967294216156006e-01 1.8691201508045197e-01</leafValues></_>
    <_>
      <internalNodes>
        0 -1 631350 1215619200 523535238 -758010144 1028680760
        -764809972 363910492 -1862272446 584638894</internalNodes>
      <leafValues>
        -3.5109823942184448e-01 1.7161023616790771e-01</leafValues></_>
    <_>
      <internalNodes>
        0 -1 329451 1228078033 -121898768 -826884385 872890548 570472342
        -1356179876 763657610 1432170818</internalNodes>
      <leafValues>
        -2.9041042923927307e-01 1.9937402009963989e-01</leafValues></_>
    <_>
      <internalNodes>
        0 -1 280659 52316677 10817314 -346389182 737672450 427102213
        259460915 568162091 166225685</internalNodes>
      <leafValues>
        -4.1803762316703796e-01 1.3892285525798798e-01</leafValues></_>
    <_>
      <internalNodes>
        0 -1 450895 1990624400 -332616816 -1183453228 13356400
        1683566424 -812966923 155553416 -2004155278</internalNodes>
      <leafValues>
        -2.7942979335784912e-01 2.1923218667507172e-01</leafValues></_>
    <_>
      <internalNodes>
        0 -1 90391 716710709 11279483 1005485320 736512215 2011000645
        1704655332 1855112804 717247504</internalNodes>
      <leafValues>
        -4.3904614448547363e-01 1.6045443713665009e-01</leafValues></_></weakClassifiers></stage14>
</opencv_storage>
