<?xml version="1.0"?>
<opencv_storage>
<stage12>
  <maxWeakCount>22</maxWeakCount>
  <stageThreshold>-1.1246451139450073e+00</stageThreshold>
  <weakClassifiers>
    <_>
      <internalNodes>
        0 -1 71163 1701838335 -43009 -306333705 -3653 1496668061
        1589112573 1941843677 -68157441</internalNodes>
      <leafValues>
        -8.8962107896804810e-02 5.0177723169326782e-01</leafValues></_>
    <_>
      <internalNodes>
        0 -1 9436 171187509 -1413664131 -2261507 -1627865111 -235645836
        -293735937 -1073970076 79170840</internalNodes>
      <leafValues>
        -4.5309099555015564e-01 1.6894555091857910e-01</leafValues></_>
    <_>
      <internalNodes>
        0 -1 425944 -545261605 -548762408 53695099 1476331564 -13372470
        -1920041075 2050144394 -5250918</internalNodes>
      <leafValues>
        -1.8126018345355988e-01 3.7921127676963806e-01</leafValues></_>
    <_>
      <internalNodes>
        0 -1 652117 -865955953 235589227 -570967253 -1464031068
        -1544330243 717815807 -17330382 -1426411902</internalNodes>
      <leafValues>
        -3.1324949860572815e-01 2.1133987605571747e-01</leafValues></_>
    <_>
      <internalNodes>
        0 -1 96870 -1553190395 639786879 -318968126 585526196 1909147479
        573435767 1374762548 1625569380</internalNodes>
      <leafValues>
        -4.3657621741294861e-01 1.7977631092071533e-01</leafValues></_>
    <_>
      <internalNodes>
        0 -1 372263 1527238813 -1614067609 34167679 465520891
        -1219766904 -92859763 159053934 -545263937</internalNodes>
      <leafValues>
        -2.0415844023227692e-01 3.4202265739440918e-01</leafValues></_>
    <_>
      <internalNodes>
        0 -1 138345 146541887 241843038 1073692452 -285282373 799003735
        -1107305890 -84117516 -1938358700</internalNodes>
      <leafValues>
        -2.5887739658355713e-01 2.6111215353012085e-01</leafValues></_>
    <_>
      <internalNodes>
        0 -1 176142 1748133713 -638124100 -669132916 -317273044
        -287014991 -1922059147 -73184164 1366639617</internalNodes>
      <leafValues>
        -3.1868052482604980e-01 2.1798782050609589e-01</leafValues></_>
    <_>
      <internalNodes>
        0 -1 615205 -803681125 -661123074 -135282857 -552534217
        -677209956 -1090959367 -1167917385 -1221096574</internalNodes>
      <leafValues>
        -2.1444498002529144e-01 3.0611309409141541e-01</leafValues></_>
    <_>
      <internalNodes>
        0 -1 139332 128066095 148880839 -67137802 -1596145952 1473998597
        1685780524 -1065074092 1958018144</internalNodes>
      <leafValues>
        -4.4123563170433044e-01 1.4055748283863068e-01</leafValues></_>
    <_>
      <internalNodes>
        0 -1 542844 -1976530912 -727701460 -1330603343 923814000
        909951372 760943238 -2011930216 -2121838393</internalNodes>
      <leafValues>
        -2.7742019295692444e-01 2.4266655743122101e-01</leafValues></_>
    <_>
      <internalNodes>
        0 -1 622195 -926955545 1397743199 -1434474051 432858316
        -1406280003 -1242501185 -1378908534 -1463419153</internalNodes>
      <leafValues>
        -1.7161074280738831e-01 3.6941641569137573e-01</leafValues></_>
    <_>
      <internalNodes>
        0 -1 370588 -172772538 2061163511 -240459550 -2014655544
        1207813440 -251306163 -1025120180 -1015556225</internalNodes>
      <leafValues>
        -2.7704751491546631e-01 2.3246334493160248e-01</leafValues></_>
    <_>
      <internalNodes>
        0 -1 388764 -131091549 -1701793872 -1128338954 -1718749486
        -1839219238 -1473527362 -1487494152 -991173437</internalNodes>
      <leafValues>
        -1.7672516405582428e-01 3.5943892598152161e-01</leafValues></_>
    <_>
      <internalNodes>
        0 -1 153110 57674045 644904755 2138223428 246836064 2113213813
        1341701991 1039953424 610286624</internalNodes>
      <leafValues>
        -5.4504251480102539e-01 1.1741058528423309e-01</leafValues></_>
    <_>
      <internalNodes>
        0 -1 572322 -827408380 -713014990 -1360029208 355485756
        -1725149032 -1703635380 -1573337907 -1962716914</internalNodes>
      <leafValues>
        -2.6382830739021301e-01 2.6957482099533081e-01</leafValues></_>
    <_>
      <internalNodes>
        0 -1 245139 359597115 -1885229423 -1219031745 732925449
        1976767549 146349329 2145846563 573469769</internalNodes>
      <leafValues>
        -3.9752936363220215e-01 1.7760054767131805e-01</leafValues></_>
    <_>
      <internalNodes>
        0 -1 553865 -530366302 1346522833 1968594260 1365633872
        -499114405 10015446 -35774964 2153766</internalNodes>
      <leafValues>
        -4.0259829163551331e-01 1.5662364661693573e-01</leafValues></_>
    <_>
      <internalNodes>
        0 -1 54834 196937569 -1361167383 -278550712 -2110105268
        1302751044 1095761749 1878561058 1618304628</internalNodes>
      <leafValues>
        -4.7012987732887268e-01 1.5105487406253815e-01</leafValues></_>
    <_>
      <internalNodes>
        0 -1 532669 -1054682959 -442361074 -352436553 -247519626
        588439000 1265766271 523240859 -543472487</internalNodes>
      <leafValues>
        -2.2060008347034454e-01 3.1790384650230408e-01</leafValues></_>
    <_>
      <internalNodes>
        0 -1 343519 -698629952 -743826226 196772040 -721566656
        -1803495970 2082037701 1704670382 352662926</internalNodes>
      <leafValues>
        -3.2187718152999878e-01 2.1798510849475861e-01</leafValues></_>
    <_>
      <internalNodes>
        0 -1 718878 763110401 -1943257251 -1359812737 -1342697615
        253042005 -1115840578 -1932241116 143658224</internalNodes>
      <leafValues>
        -5.1959562301635742e-01 1.3096514344215393e-01</leafValues></_></weakClassifiers></stage12>
</opencv_storage>
