<?xml version="1.0"?>
<opencv_storage>
<stage15>
  <maxWeakCount>10</maxWeakCount>
  <stageThreshold>-6.7703241109848022e-01</stageThreshold>
  <weakClassifiers>
    <_>
      <internalNodes>
        0 -1 439172 -7318032 -49787800 -1241444102 1564869754
        -1122443768 119635797 20685544 926891515</internalNodes>
      <leafValues>
        -5.6401383876800537e-01 3.4909990429878235e-01</leafValues></_>
    <_>
      <internalNodes>
        0 -1 359057 833746415 -1582870778 -135284550 123207513
        -312054610 -16810097 1145647023 -2097410</internalNodes>
      <leafValues>
        -3.5778108239173889e-01 3.9939928054809570e-01</leafValues></_>
    <_>
      <internalNodes>
        0 -1 638355 1904210816 289365791 939521300 904249262 -142607224
        344780608 -1829259640 -1593837382</internalNodes>
      <leafValues>
        -4.1560453176498413e-01 3.6679100990295410e-01</leafValues></_>
    <_>
      <internalNodes>
        0 -1 87494 142876029 -1074336771 -262177 -1157693572 -1497534475
        -1142030409 -16850955 -1081066192</internalNodes>
      <leafValues>
        -4.6378171443939209e-01 3.3634537458419800e-01</leafValues></_>
    <_>
      <internalNodes>
        0 -1 488573 -1196371750 -719298580 857734130 1978806448
        556511637 -1901936657 359982273 1073442519</internalNodes>
      <leafValues>
        -6.0115176439285278e-01 2.3741295933723450e-01</leafValues></_>
    <_>
      <internalNodes>
        0 -1 341003 1602062301 -1057051905 1215658743 -639767921
        2013085645 -1350816266 2029387006 -286394642</internalNodes>
      <leafValues>
        -3.6851683259010315e-01 4.4044730067253113e-01</leafValues></_>
    <_>
      <internalNodes>
        0 -1 454635 -404697920 -151649278 1286579716 -1247451532
        1982105736 2052921113 1323990107 1610872687</internalNodes>
      <leafValues>
        -6.1940240859985352e-01 2.7604120969772339e-01</leafValues></_>
    <_>
      <internalNodes>
        0 -1 146852 -835541229 1602217182 -1574423306 -1192053200
        202118525 502992421 -827237208 -925905804</internalNodes>
      <leafValues>
        -4.2235451936721802e-01 3.8109976053237915e-01</leafValues></_>
    <_>
      <internalNodes>
        0 -1 101800 -2037019993 -1292420219 759051529 -141336518
        -2006997523 -1482195105 -1996707588 -526446</internalNodes>
      <leafValues>
        -3.5584193468093872e-01 4.4115260243415833e-01</leafValues></_>
    <_>
      <internalNodes>
        0 -1 497810 -114235222 1950376122 -1149517765 1342048462
        -357989494 -1895935939 86348345 308691207</internalNodes>
      <leafValues>
        -5.7916259765625000e-01 2.6977127790451050e-01</leafValues></_></weakClassifiers></stage15>
</opencv_storage>
