<?xml version="1.0"?>
<opencv_storage>
<stage11>
  <maxWeakCount>19</maxWeakCount>
  <stageThreshold>-9.9599993228912354e-01</stageThreshold>
  <weakClassifiers>
    <_>
      <internalNodes>
        0 -1 541438 1222115279 5274431 1340054791 730902383 -537178113
        1073543487 -67649601 -268566657</internalNodes>
      <leafValues>
        -1.3019694387912750e-01 4.7147905826568604e-01</leafValues></_>
    <_>
      <internalNodes>
        0 -1 183180 -344463615 388202039 -17027529 -25329870 2138903605
        -277514912 1643988444 -268484837</internalNodes>
      <leafValues>
        -2.2481222450733185e-01 3.2862871885299683e-01</leafValues></_>
    <_>
      <internalNodes>
        0 -1 429993 -427823350 1525608207 -387013088 380288554
        -1671752315 74970935 -201870076 -454754702</internalNodes>
      <leafValues>
        -3.3835387229919434e-01 2.1734385192394257e-01</leafValues></_>
    <_>
      <internalNodes>
        0 -1 294363 -877422795 2113855411 -2013282436 -854404 770218973
        -1629653316 -34087720 -181144239</internalNodes>
      <leafValues>
        -2.2131991386413574e-01 3.2962331175804138e-01</leafValues></_>
    <_>
      <internalNodes>
        0 -1 545690 -365392427 733517821 1073542653 -891015696 435691409
        -35062276 820526388 -1174586326</internalNodes>
      <leafValues>
        -2.5259706377983093e-01 2.9428285360336304e-01</leafValues></_>
    <_>
      <internalNodes>
        0 -1 116731 135798128 -1332183235 -100794481 -1161003552
        -1217301159 -4203539 -76411556 740298084</internalNodes>
      <leafValues>
        -6.1760222911834717e-01 1.3391466438770294e-01</leafValues></_>
    <_>
      <internalNodes>
        0 -1 521649 -1004499696 -1699215312 -1528160259 462432780
        -1049615184 213778772 -282845444 -2008326126</internalNodes>
      <leafValues>
        -3.4122768044471741e-01 2.1835379302501678e-01</leafValues></_>
    <_>
      <internalNodes>
        0 -1 425712 1542681591 1536051775 55140383 530745390 -215460326
        -1398745314 1667037950 -653539288</internalNodes>
      <leafValues>
        -2.2931663691997528e-01 3.3007717132568359e-01</leafValues></_>
    <_>
      <internalNodes>
        0 -1 454721 -995442383 497078260 737931255 -1355237296
        1064273916 -272760993 1027579581 -2001516329</internalNodes>
      <leafValues>
        -1.9519321620464325e-01 3.4672892093658447e-01</leafValues></_>
    <_>
      <internalNodes>
        0 -1 111181 2138547719 1023160311 1845427119 -707002449
        961378223 2104328883 1198803294 -5825614</internalNodes>
      <leafValues>
        -2.4001717567443848e-01 3.0294540524482727e-01</leafValues></_>
    <_>
      <internalNodes>
        0 -1 389281 2663696 377777237 467614013 -1768935052 791715314
        -42609633 212604156 -1334223210</internalNodes>
      <leafValues>
        -2.9624962806701660e-01 2.4714879691600800e-01</leafValues></_>
    <_>
      <internalNodes>
        0 -1 654318 585960738 640678981 -1143473496 -2131591204
        1073026833 629002135 -302025372 1154807364</internalNodes>
      <leafValues>
        -6.3822376728057861e-01 9.2374905943870544e-02</leafValues></_>
    <_>
      <internalNodes>
        0 -1 479008 -495549782 1584374521 772149032 1698179703 124715170
        2096650777 1831077902 647014327</internalNodes>
      <leafValues>
        -3.5846531391143799e-01 2.0586621761322021e-01</leafValues></_>
    <_>
      <internalNodes>
        0 -1 589480 -670531428 422219228 -1771036 934440268 -1237865814
        -1397220332 -1663439345 195795592</internalNodes>
      <leafValues>
        -3.3235520124435425e-01 2.2316043078899384e-01</leafValues></_>
    <_>
      <internalNodes>
        0 -1 499357 -374679629 -576585694 1664185269 1534922378
        -1559044710 -1905983987 236513599 -572697854</internalNodes>
      <leafValues>
        -2.1428601443767548e-01 3.3772146701812744e-01</leafValues></_>
    <_>
      <internalNodes>
        0 -1 494627 549273379 1660714991 -25292896 -974672385 1063214913
        569223983 -940477615 -420937738</internalNodes>
      <leafValues>
        -3.1809231638908386e-01 2.3209020495414734e-01</leafValues></_>
    <_>
      <internalNodes>
        0 -1 540008 2069517471 -1083820209 -1149371002 -137434704
        -1075891779 -1175181576 -3404152 -2138938841</internalNodes>
      <leafValues>
        -2.2782225906848907e-01 3.2360762357711792e-01</leafValues></_>
    <_>
      <internalNodes>
        0 -1 439809 -2144484064 -1845336154 -1402040544 900308628
        565507505 -526165019 1814190220 -1964806705</internalNodes>
      <leafValues>
        -2.8171202540397644e-01 2.6877841353416443e-01</leafValues></_>
    <_>
      <internalNodes>
        0 -1 627997 -254931706 1755091439 -1835038048 -1068194396
        342822179 885534524 -891119478 -1460724714</internalNodes>
      <leafValues>
        -3.3071574568748474e-01 2.3056149482727051e-01</leafValues></_></weakClassifiers></stage11>
</opencv_storage>
