<?xml version="1.0"?>
<opencv_storage>
<stage13>
  <maxWeakCount>23</maxWeakCount>
  <stageThreshold>-9.5560246706008911e-01</stageThreshold>
  <weakClassifiers>
    <_>
      <internalNodes>
        0 -1 342644 -1024463873 48423607 -269484161 267386202 1841249243
        318107629 -277115429 182059007</internalNodes>
      <leafValues>
        -1.9064565002918243e-01 3.4542816877365112e-01</leafValues></_>
    <_>
      <internalNodes>
        0 -1 438949 -79965253 -212124054 439570803 528418930 -47321462
        -2042041070 1965812410 -1350</internalNodes>
      <leafValues>
        -1.6151481866836548e-01 3.7962979078292847e-01</leafValues></_>
    <_>
      <internalNodes>
        0 -1 164403 -214976713 -605445581 -437084102 -2887898 2069046597
        603420016 1597330336 -17339648</internalNodes>
      <leafValues>
        -2.4825574457645416e-01 2.4898134171962738e-01</leafValues></_>
    <_>
      <internalNodes>
        0 -1 108457 680529188 1281113589 620396413 -1460624967
        -1610869195 -268472505 -1083293892 539245824</internalNodes>
      <leafValues>
        -6.6220355033874512e-01 5.0733178853988647e-02</leafValues></_>
    <_>
      <internalNodes>
        0 -1 631253 1221783263 416343278 -558953172 -1714099649
        419169689 -936050740 240503944 -2135504342</internalNodes>
      <leafValues>
        -2.0809310674667358e-01 2.8672829270362854e-01</leafValues></_>
    <_>
      <internalNodes>
        0 -1 464912 -72646486 -542502968 490157875 165620841 -2042647917
        1162542363 622273231 -67132701</internalNodes>
      <leafValues>
        -2.2706764936447144e-01 2.7056717872619629e-01</leafValues></_>
    <_>
      <internalNodes>
        0 -1 527146 717039367 1723309711 -1145399386 -1967992846
        -840990857 1702229831 -994640108 -155013296</internalNodes>
      <leafValues>
        -2.8886786103248596e-01 1.8930208683013916e-01</leafValues></_>
    <_>
      <internalNodes>
        0 -1 452556 497357843 1037301341 2095525742 799665535 -940671979
        1036558063 -776667234 -1077948995</internalNodes>
      <leafValues>
        -2.1834592521190643e-01 2.7494055032730103e-01</leafValues></_>
    <_>
      <internalNodes>
        0 -1 386210 -627326768 -1624306640 369033337 1441597689
        1430603243 -1452744889 1560267118 -582637590</internalNodes>
      <leafValues>
        -2.2043141722679138e-01 2.8056719899177551e-01</leafValues></_>
    <_>
      <internalNodes>
        0 -1 637071 -1010830381 -1613883970 -1146116619 1032892283
        -260449707 -1476870383 -37768580 -1463700225</internalNodes>
      <leafValues>
        -1.9866004586219788e-01 3.3351793885231018e-01</leafValues></_>
    <_>
      <internalNodes>
        0 -1 725634 35130644 652753838 -272900105 240667573 422844796
        -839009793 1030518896 603981840</internalNodes>
      <leafValues>
        -6.5897417068481445e-01 1.1276678740978241e-01</leafValues></_>
    <_>
      <internalNodes>
        0 -1 361663 -462106860 -224390548 -1610809355 991169580
        525915849 743911292 -90699619 -1118085722</internalNodes>
      <leafValues>
        -2.3143365979194641e-01 2.7544474601745605e-01</leafValues></_>
    <_>
      <internalNodes>
        0 -1 315326 1437329059 -131309902 -957348886 1105117266
        505185001 38400940 70116128 1206511458</internalNodes>
      <leafValues>
        -2.9473176598548889e-01 2.0197856426239014e-01</leafValues></_>
    <_>
      <internalNodes>
        0 -1 553068 -902657004 1949441596 -488638408 1406158974
        -1401385752 -1163658734 -1066127736 -861715454</internalNodes>
      <leafValues>
        -2.4057698249816895e-01 2.5262808799743652e-01</leafValues></_>
    <_>
      <internalNodes>
        0 -1 248766 -78731419 -1099976717 -1790957962 -571785552
        -423633159 -1184979233 1992110172 -169741794</internalNodes>
      <leafValues>
        -1.9083584845066071e-01 3.2506680488586426e-01</leafValues></_>
    <_>
      <internalNodes>
        0 -1 599807 -663928084 -706804962 -546346308 826619476
        -537489988 -756076996 -205862499 -1308543089</internalNodes>
      <leafValues>
        -2.2544160485267639e-01 2.8040856122970581e-01</leafValues></_>
    <_>
      <internalNodes>
        0 -1 692682 612173094 552269614 -872701338 586296632 1951229733
        22724220 -1927872256 1079047780</internalNodes>
      <leafValues>
        -6.2699151039123535e-01 9.1895639896392822e-02</leafValues></_>
    <_>
      <internalNodes>
        0 -1 399106 -744298872 2032331470 -1162297256 -842079296
        1982892032 1764056935 951074008 1615587034</internalNodes>
      <leafValues>
        -3.5291135311126709e-01 1.7235523462295532e-01</leafValues></_>
    <_>
      <internalNodes>
        0 -1 542174 1344860874 853563050 335557461 264045090 -896862574
        -1987786540 1159262331 227345901</internalNodes>
      <leafValues>
        -3.5006940364837646e-01 1.8270824849605560e-01</leafValues></_>
    <_>
      <internalNodes>
        0 -1 126492 252184192 11186022 -489431760 211869689 401698388
        218093439 1920361509 150222436</internalNodes>
      <leafValues>
        -5.8098798990249634e-01 1.1232519149780273e-01</leafValues></_>
    <_>
      <internalNodes>
        0 -1 298564 1718312706 1445088106 -633640892 -806903152
        -1288730879 3421494 -737684854 348517700</internalNodes>
      <leafValues>
        -3.9536595344543457e-01 1.4764909446239471e-01</leafValues></_>
    <_>
      <internalNodes>
        0 -1 663882 1085248258 269225604 971943572 270040636 -1366290607
        -565742051 -979458710 -2115169137</internalNodes>
      <leafValues>
        -2.9522404074668884e-01 2.1667435765266418e-01</leafValues></_>
    <_>
      <internalNodes>
        0 -1 403746 -296450272 875567184 -1649540075 183851986
        1888823427 1926426247 1063822974 -824347</internalNodes>
      <leafValues>
        -2.9026561975479126e-01 2.2083762288093567e-01</leafValues></_></weakClassifiers></stage13>
</opencv_storage>
