<?xml version="1.0"?>
<opencv_storage>
<stage7>
  <maxWeakCount>11</maxWeakCount>
  <stageThreshold>-1.3719134330749512e+00</stageThreshold>
  <weakClassifiers>
    <_>
      <internalNodes>
        0 -1 644336 -1358985458 49131439 -822344126 -2131958744
        1441990405 16773981 -167785344 -1058865168</internalNodes>
      <leafValues>
        -4.4497936964035034e-01 3.7442642450332642e-01</leafValues></_>
    <_>
      <internalNodes>
        0 -1 30798 -547387643 -12597313 -142663411 -721490785 1065047297
        -402793473 -418054144 -45562</internalNodes>
      <leafValues>
        -3.5286584496498108e-01 4.0434744954109192e-01</leafValues></_>
    <_>
      <internalNodes>
        0 -1 348253 207101237 545005533 -4440129 -1347666828 930889301
        -302188705 -1091420172 -1393280992</internalNodes>
      <leafValues>
        -4.4301822781562805e-01 3.0492237210273743e-01</leafValues></_>
    <_>
      <internalNodes>
        0 -1 651476 -937390960 314049556 -760224275 -1180136536
        -1224956068 -1094402580 -419519096 -1465706462</internalNodes>
      <leafValues>
        -3.8212189078330994e-01 3.5752514004707336e-01</leafValues></_>
    <_>
      <internalNodes>
        0 -1 330058 574300160 273197856 1037905423 397324067 34931872
        960249581 617426860 -72499495</internalNodes>
      <leafValues>
        -4.5839399099349976e-01 2.7829045057296753e-01</leafValues></_>
    <_>
      <internalNodes>
        0 -1 724339 1240735613 -1427341315 -18022913 -1191264819
        1610375037 -573244433 -1342947599 -1396954304</internalNodes>
      <leafValues>
        -3.5132613778114319e-01 3.6324581503868103e-01</leafValues></_>
    <_>
      <internalNodes>
        0 -1 309023 -1174475003 -1263108816 -269484172 -1612546228
        2104973269 -1216479243 -1401749624 -196676032</internalNodes>
      <leafValues>
        -2.9363781213760376e-01 4.2697098851203918e-01</leafValues></_>
    <_>
      <internalNodes>
        0 -1 402384 -1472984576 43911293 -1407406224 653678216 251580549
        175362405 647252096 -2145236920</internalNodes>
      <leafValues>
        -4.6411544084548950e-01 2.5827667117118835e-01</leafValues></_>
    <_>
      <internalNodes>
        0 -1 64742 926760791 143774195 1773460813 96448492 255702205
        552668670 996078355 949769517</internalNodes>
      <leafValues>
        -4.8201984167098999e-01 2.4457931518554688e-01</leafValues></_>
    <_>
      <internalNodes>
        0 -1 592404 -2130720989 -1132036416 1324848054 -242727636
        541016469 1618783294 1987343936 -196684636</internalNodes>
      <leafValues>
        -3.2807368040084839e-01 3.7448349595069885e-01</leafValues></_>
    <_>
      <internalNodes>
        0 -1 654060 243010837 -1086365857 -285949961 -1091031392
        -1885569163 -16912401 -573476 -1464333292</internalNodes>
      <leafValues>
        -4.0219926834106445e-01 3.0257773399353027e-01</leafValues></_></weakClassifiers></stage7>
</opencv_storage>
