<?xml version="1.0"?>
<opencv_storage>
<stage16>
  <maxWeakCount>27</maxWeakCount>
  <stageThreshold>-1.0427128076553345e+00</stageThreshold>
  <weakClassifiers>
    <_>
      <internalNodes>
        0 -1 84389 -1860337835 2040252031 1994319791 -221417590
        -59779148 -1750228995 -172707 1945593169</internalNodes>
      <leafValues>
        -1.7564167082309723e-01 3.3845028281211853e-01</leafValues></_>
    <_>
      <internalNodes>
        0 -1 510346 2110248959 256374579 -579345107 1069023039
        1274798079 2146238324 -134312026 -20985889</internalNodes>
      <leafValues>
        -1.7013546824455261e-01 3.4363394975662231e-01</leafValues></_>
    <_>
      <internalNodes>
        0 -1 522310 -1330982222 -1048182046 -206406657 1539245568
        591037210 -900134053 61077213 1561936142</internalNodes>
      <leafValues>
        -2.9492211341857910e-01 1.9050218164920807e-01</leafValues></_>
    <_>
      <internalNodes>
        0 -1 342804 -605334713 266848865 138993279 158431250 -1222807471
        1621795582 1483007570 -320683408</internalNodes>
      <leafValues>
        -2.3931698501110077e-01 2.1500401198863983e-01</leafValues></_>
    <_>
      <internalNodes>
        0 -1 487192 -112737381 -48083555 1899196785 -138061598
        -549802514 -1895256321 1899224318 -583278945</internalNodes>
      <leafValues>
        -1.7279757559299469e-01 3.3182859420776367e-01</leafValues></_>
    <_>
      <internalNodes>
        0 -1 60724 69731636 179851065 -395675145 -1938154276 332427089
        -287794692 -1074129600 68159552</internalNodes>
      <leafValues>
        -6.1620146036148071e-01 1.1418183147907257e-01</leafValues></_>
    <_>
      <internalNodes>
        0 -1 552504 -869194732 1032865020 -1814533323 288551976
        -1305344816 1255860748 880970442 -1289814006</internalNodes>
      <leafValues>
        -2.4113072454929352e-01 2.1046730875968933e-01</leafValues></_>
    <_>
      <internalNodes>
        0 -1 414216 -1442885761 -685101853 133394936 -608505728
        -1942500146 41682783 -2133071382 -68487843</internalNodes>
      <leafValues>
        -1.7999708652496338e-01 2.9552787542343140e-01</leafValues></_>
    <_>
      <internalNodes>
        0 -1 235611 -570979838 -1204857342 -218220598 -1465743550
        2030389064 1326209868 -161405244 -142661493</internalNodes>
      <leafValues>
        -2.3968769609928131e-01 2.1631720662117004e-01</leafValues></_>
    <_>
      <internalNodes>
        0 -1 609377 -1065491819 1522805487 -1342852721 104443550
        809830581 1512053437 485823963 -1409486929</internalNodes>
      <leafValues>
        -2.1546828746795654e-01 2.4857641756534576e-01</leafValues></_>
    <_>
      <internalNodes>
        0 -1 384680 -504968554 -911969558 1052322542 -840910292
        -788719038 1275729506 1953204296 1158989632</internalNodes>
      <leafValues>
        -3.4696388244628906e-01 1.6496585309505463e-01</leafValues></_>
    <_>
      <internalNodes>
        0 -1 609028 -959442864 2117477851 1920493410 438602226
        1918045876 -909172133 -1410965368 170009174</internalNodes>
      <leafValues>
        -3.8259196281433105e-01 1.2242560833692551e-01</leafValues></_>
    <_>
      <internalNodes>
        0 -1 284324 1086268199 330367868 -6851217 788811119 427989439
        -1166620050 1440328091 -43567957</internalNodes>
      <leafValues>
        -1.9805867969989777e-01 2.5693637132644653e-01</leafValues></_>
    <_>
      <internalNodes>
        0 -1 309755 644314711 -594174983 -286159056 -232587406 52940532
        -34219052 -289615036 -1256798960</internalNodes>
      <leafValues>
        -2.5951811671257019e-01 2.1207787096500397e-01</leafValues></_>
    <_>
      <internalNodes>
        0 -1 582650 -1024785207 -71750844 -758415735 2016490548
        1649609996 -65394332 1172634732 1404537483</internalNodes>
      <leafValues>
        -2.4966989457607269e-01 2.0645938813686371e-01</leafValues></_>
    <_>
      <internalNodes>
        0 -1 312785 1102107888 -266051528 1082047446 -943067173
        912859381 -1911403464 2120567355 653206342</internalNodes>
      <leafValues>
        -3.0492305755615234e-01 1.7488144338130951e-01</leafValues></_>
    <_>
      <internalNodes>
        0 -1 706880 677645604 9367430 -961390622 214060176 201083153
        926233373 93667072 70264180</internalNodes>
      <leafValues>
        -6.1972451210021973e-01 9.7285494208335876e-02</leafValues></_>
    <_>
      <internalNodes>
        0 -1 563269 -610171392 -677479168 1622897463 1400841384
        1622426284 1556376080 304914586 -1828236145</internalNodes>
      <leafValues>
        -2.3141400516033173e-01 2.3830294609069824e-01</leafValues></_>
    <_>
      <internalNodes>
        0 -1 178807 696761109 741180188 -1075085533 1610254178
        -444387427 282488821 1836032989 -1319832009</internalNodes>
      <leafValues>
        -2.2245137393474579e-01 2.4334344267845154e-01</leafValues></_>
    <_>
      <internalNodes>
        0 -1 371981 -211857165 -824506275 13032689 1538083065 -130642036
        -545899153 1054855142 -649791570</internalNodes>
      <leafValues>
        -1.6502651572227478e-01 3.1667298078536987e-01</leafValues></_>
    <_>
      <internalNodes>
        0 -1 581012 -935950719 2083561400 -681806582 -209958856
        -574448187 -394664521 -8547560 -507308405</internalNodes>
      <leafValues>
        -1.8849901854991913e-01 2.9434764385223389e-01</leafValues></_>
    <_>
      <internalNodes>
        0 -1 562128 -1691181936 234885008 -399393192 1061162496
        -2034580346 -378193922 3494131 166792448</internalNodes>
      <leafValues>
        -3.9062771201133728e-01 1.4877954125404358e-01</leafValues></_>
    <_>
      <internalNodes>
        0 -1 708834 89917184 -1371142308 1937374880 2670460 -1139804387
        645082931 -504626412 551049308</internalNodes>
      <leafValues>
        -4.8196768760681152e-01 1.0893043875694275e-01</leafValues></_>
    <_>
      <internalNodes>
        0 -1 347341 -833698767 -736547051 216755544 -739410774
        -1640458363 743267188 -1385089399 -1354931726</internalNodes>
      <leafValues>
        -2.1232734620571136e-01 2.7482080459594727e-01</leafValues></_>
    <_>
      <internalNodes>
        0 -1 270189 835018037 1411465075 208483609 -86771217 1547289572
        1515319286 -1543739438 -7434874</internalNodes>
      <leafValues>
        -1.8128651380538940e-01 3.0922162532806396e-01</leafValues></_>
    <_>
      <internalNodes>
        0 -1 601033 -155654676 2095641907 636280502 407629216 1697067040
        561062247 -1788417656 -1874759665</internalNodes>
      <leafValues>
        -2.6360574364662170e-01 2.0751453936100006e-01</leafValues></_>
    <_>
      <internalNodes>
        0 -1 607482 -665672994 399130542 -780421234 -1852424852
        408046111 -1362863584 -69342232 715316350</internalNodes>
      <leafValues>
        -2.7296146750450134e-01 2.0745460689067841e-01</leafValues></_></weakClassifiers></stage16>
</opencv_storage>
