<?xml version="1.0"?>
<opencv_storage>
<stage18>
  <maxWeakCount>29</maxWeakCount>
  <stageThreshold>-9.3708950281143188e-01</stageThreshold>
  <weakClassifiers>
    <_>
      <internalNodes>
        0 -1 366692 -1111543809 -1175112257 -1482797833 -1415541217
        -1086910112 -1450496338 -340380295 -1364314347</internalNodes>
      <leafValues>
        -1.5964740514755249e-01 3.3681461215019226e-01</leafValues></_>
    <_>
      <internalNodes>
        0 -1 631411 -1033703473 59436911 -344493641 800320883
        -1615334465 -322439521 -1125496004 -1494308104</internalNodes>
      <leafValues>
        -1.9896912574768066e-01 2.6734811067581177e-01</leafValues></_>
    <_>
      <internalNodes>
        0 -1 412490 -546048033 -45825 2067231359 -541603605 -97785189
        -542473761 1932786427 -1311749</internalNodes>
      <leafValues>
        -1.0006570816040039e-01 5.3621953725814819e-01</leafValues></_>
    <_>
      <internalNodes>
        0 -1 32990 -15990913 -386150421 -33986298 -205800211 1333394413
        744286460 2025146939 -4363777</internalNodes>
      <leafValues>
        -1.8777061998844147e-01 2.8746977448463440e-01</leafValues></_>
    <_>
      <internalNodes>
        0 -1 721016 644615969 -1502855297 -679624841 -412067636
        936326516 1726410743 668009029 -1510990768</internalNodes>
      <leafValues>
        -2.8812754154205322e-01 1.7325296998023987e-01</leafValues></_>
    <_>
      <internalNodes>
        0 -1 520878 -838889244 1157113471 -37547943 895815718 1273490360
        -1012048396 -647499638 -878454861</internalNodes>
      <leafValues>
        -1.9751720130443573e-01 2.4440233409404755e-01</leafValues></_>
    <_>
      <internalNodes>
        0 -1 562669 -199048564 -2058596532 -243335115 520497446 36100761
        262856475 379638730 252922071</internalNodes>
      <leafValues>
        -2.7462971210479736e-01 1.8403732776641846e-01</leafValues></_>
    <_>
      <internalNodes>
        0 -1 396568 562397599 578068886 -303069478 -689766524 433815764
        -1376586381 -1160371648 -1522475966</internalNodes>
      <leafValues>
        -2.9366663098335266e-01 1.5868607163429260e-01</leafValues></_>
    <_>
      <internalNodes>
        0 -1 452189 1562039327 -412403618 275911417 -21430088
        -1422103015 727865158 171854522 1071248122</internalNodes>
      <leafValues>
        -2.0743978023529053e-01 2.4052904546260834e-01</leafValues></_>
    <_>
      <internalNodes>
        0 -1 592494 -751850749 2058817974 -25362697 -895046122
        1487668805 779102078 649875230 -457845014</internalNodes>
      <leafValues>
        -1.9567349553108215e-01 2.5632837414741516e-01</leafValues></_>
    <_>
      <internalNodes>
        0 -1 139424 -1967373520 -966665566 -1448897827 -71937448
        1805814329 -832213011 -1163420940 -406847213</internalNodes>
      <leafValues>
        -2.5398546457290649e-01 2.1190406382083893e-01</leafValues></_>
    <_>
      <internalNodes>
        0 -1 372788 -1744635940 -749770354 406845022 1396537907
        -280505713 -205036307 651700810 -218652545</internalNodes>
      <leafValues>
        -1.9686283171176910e-01 2.6373684406280518e-01</leafValues></_>
    <_>
      <internalNodes>
        0 -1 511547 -163853390 893535953 -151322495 168146864 -493818219
        -1679643483 862501019 -1612725301</internalNodes>
      <leafValues>
        -1.6066895425319672e-01 3.0194991827011108e-01</leafValues></_>
    <_>
      <internalNodes>
        0 -1 76760 581764132 183393674 1055045314 720923784 1905208141
        1955424567 1987221028 8657968</internalNodes>
      <leafValues>
        -5.5036813020706177e-01 9.3812607228755951e-02</leafValues></_>
    <_>
      <internalNodes>
        0 -1 553428 -863591370 1977107732 -1939042243 -1625616358
        -898203423 -2008527717 1764789658 -1087663062</internalNodes>
      <leafValues>
        -2.0137979090213776e-01 2.6289674639701843e-01</leafValues></_>
    <_>
      <internalNodes>
        0 -1 112040 955060063 -139438240 -286733553 -105304068 921557661
        1708348477 1457068647 -1464104204</internalNodes>
      <leafValues>
        -1.8658122420310974e-01 2.7490454912185669e-01</leafValues></_>
    <_>
      <internalNodes>
        0 -1 623697 1085987028 323092404 1692199629 807942736 -729297130
        1087437704 -1429413994 138570680</internalNodes>
      <leafValues>
        -3.5822910070419312e-01 1.4393258094787598e-01</leafValues></_>
    <_>
      <internalNodes>
        0 -1 210895 1003818357 -1942084216 -309121164 -1897341792
        1870700031 -298529035 -487225473 770273548</internalNodes>
      <leafValues>
        -2.7572873234748840e-01 1.9536262750625610e-01</leafValues></_>
    <_>
      <internalNodes>
        0 -1 717305 148637569 1181899754 -23508794 603497283 112608582
        1265577917 1990938704 1893785180</internalNodes>
      <leafValues>
        -3.9832586050033569e-01 1.2331479042768478e-01</leafValues></_>
    <_>
      <internalNodes>
        0 -1 478831 -736933150 -157807562 1698965796 -518403423
        1723927688 1646594835 1145326127 1681519267</internalNodes>
      <leafValues>
        -2.9668667912483215e-01 1.8318055570125580e-01</leafValues></_>
    <_>
      <internalNodes>
        0 -1 562621 -1025466780 -385297980 -1358998913 2007624016
        -635197258 804578443 -949404998 -733748862</internalNodes>
      <leafValues>
        -2.1246929466724396e-01 2.5861892104148865e-01</leafValues></_>
    <_>
      <internalNodes>
        0 -1 253164 -1166608329 922119145 -1103875713 -568328525
        1052181477 2020621332 1682437968 2052163139</internalNodes>
      <leafValues>
        -2.5623187422752380e-01 2.1365535259246826e-01</leafValues></_>
    <_>
      <internalNodes>
        0 -1 70400 2008752788 -443164578 -1365737626 -467229370
        -1925425419 608986623 -26867652 1978792491</internalNodes>
      <leafValues>
        -2.7777388691902161e-01 1.9250853359699249e-01</leafValues></_>
    <_>
      <internalNodes>
        0 -1 502555 -186937625 806710263 -1951134373 -1280923478
        1349978193 2145447933 -302207625 -1242860625</internalNodes>
      <leafValues>
        -1.7061795294284821e-01 3.1515523791313171e-01</leafValues></_>
    <_>
      <internalNodes>
        0 -1 361169 742823745 2009294327 -1163520392 1924724450
        -1445410616 1848246119 -1661475402 -924646074</internalNodes>
      <leafValues>
        -2.2341902554035187e-01 2.4945566058158875e-01</leafValues></_>
    <_>
      <internalNodes>
        0 -1 65251 82845036 -1029473921 -823679132 917824972 -1490323247
        -243450013 -1346615984 1953631867</internalNodes>
      <leafValues>
        -3.2735139131546021e-01 1.7861667275428772e-01</leafValues></_>
    <_>
      <internalNodes>
        0 -1 552181 1678506227 -608632897 -150021129 -48001870
        -1892503169 -1926833185 -618489941 -536874165</internalNodes>
      <leafValues>
        -1.4220829308032990e-01 4.2223489284515381e-01</leafValues></_>
    <_>
      <internalNodes>
        0 -1 371708 1126781464 1830290534 1919256620 1500206536
        -1801988014 84347981 1343961624 1361340400</internalNodes>
      <leafValues>
        -3.7908479571342468e-01 1.5562263131141663e-01</leafValues></_>
    <_>
      <internalNodes>
        0 -1 666215 50072689 204404524 2086373291 -333291352 -961405595
        -1208558815 -332660364 549857588</internalNodes>
      <leafValues>
        -4.1242071986198425e-01 1.3601288199424744e-01</leafValues></_></weakClassifiers></stage18>
</opencv_storage>
