<?xml version="1.0"?>
<opencv_storage>
<stage0>
  <maxWeakCount>4</maxWeakCount>
  <stageThreshold>-1.2286401987075806e+00</stageThreshold>
  <weakClassifiers>
    <_>
      <internalNodes>
        0 -1 352246 263130975 1065303903 805271551 737619839 183463935
        803958639 233783039 804204287</internalNodes>
      <leafValues>
        -7.4786728620529175e-01 6.0464113950729370e-01</leafValues></_>
    <_>
      <internalNodes>
        0 -1 69860 644882293 -16875523 -1 -1073811459 2147319797 -1
        -172171 -1363394764</internalNodes>
      <leafValues>
        -5.5819183588027954e-01 5.6803518533706665e-01</leafValues></_>
    <_>
      <internalNodes>
        0 -1 557478 498875901 1039990783 -131073 -245763 -53251
        -33685505 -17006595 -1393029964</internalNodes>
      <leafValues>
        -5.1399290561676025e-01 5.8714693784713745e-01</leafValues></_>
    <_>
      <internalNodes>
        0 -1 371225 857753061 667355019 805306367 805306367 2105507727
        -1342177281 -17 -1342177281</internalNodes>
      <leafValues>
        -5.3481519222259521e-01 5.4301780462265015e-01</leafValues></_></weakClassifiers></stage0>
</opencv_storage>
