<?xml version="1.0"?>
<opencv_storage>
<stage4>
  <maxWeakCount>7</maxWeakCount>
  <stageThreshold>-1.3996618986129761e+00</stageThreshold>
  <weakClassifiers>
    <_>
      <internalNodes>
        0 -1 690690 -318771710 11452079 -352394720 -924406042 1476335365
        1148682103 -134252992 -454623388</internalNodes>
      <leafValues>
        -4.5854774117469788e-01 5.2015644311904907e-01</leafValues></_>
    <_>
      <internalNodes>
        0 -1 498300 1378538491 463675307 839070579 1073166335 993768251
        217021431 1063630847 -1074813969</internalNodes>
      <leafValues>
        -4.8466807603836060e-01 4.4929099082946777e-01</leafValues></_>
    <_>
      <internalNodes>
        0 -1 363127 135008061 251535355 -269500417 -1426313284 715669365
        -1346503684 -1627642252 -1361568464</internalNodes>
      <leafValues>
        -4.9523124098777771e-01 4.4164770841598511e-01</leafValues></_>
    <_>
      <internalNodes>
        0 -1 109267 -328849641 -80544449 1980301143 -1576993682 3147093
        -69271553 -1142346513 -1426866945</internalNodes>
      <leafValues>
        -4.4781872630119324e-01 5.0188207626342773e-01</leafValues></_>
    <_>
      <internalNodes>
        0 -1 400141 -1153935919 -777893781 41153783 -545318665
        -1086721856 -324289921 -1103366483 -1149288577</internalNodes>
      <leafValues>
        -4.9200677871704102e-01 4.4477835297584534e-01</leafValues></_>
    <_>
      <internalNodes>
        0 -1 523323 -2136043643 -2143146729 -1099565187 -437813411
        -1929396227 -185128193 -2047523747 -186297995</internalNodes>
      <leafValues>
        -4.2641818523406982e-01 4.8582437634468079e-01</leafValues></_>
    <_>
      <internalNodes>
        0 -1 682382 705703477 553004989 -1342178569 -1090863111
        783579925 1040187391 -1073787403 -1439154416</internalNodes>
      <leafValues>
        -4.8155093193054199e-01 4.4872444868087769e-01</leafValues></_></weakClassifiers></stage4>
</opencv_storage>
