<?xml version="1.0"?>
<opencv_storage>
<stage7>
  <maxWeakCount>10</maxWeakCount>
  <stageThreshold>-8.5593789815902710e-01</stageThreshold>
  <weakClassifiers>
    <_>
      <internalNodes>
        0 -1 385011 815809949 804194223 1069547455 -1342197762
        1065307918 804208639 -32769 -1342210049</internalNodes>
      <leafValues>
        -4.3906202912330627e-01 4.7458362579345703e-01</leafValues></_>
    <_>
      <internalNodes>
        0 -1 566584 137891701 -1627881697 -131075 -50810881 -1073926147
        -16982021 -1073971851 -1397748716</internalNodes>
      <leafValues>
        -4.5360845327377319e-01 3.8441672921180725e-01</leafValues></_>
    <_>
      <internalNodes>
        0 -1 488129 -232599077 1436567274 926835642 -196430 -1153705205
        -1884348549 930083839 1006599855</internalNodes>
      <leafValues>
        -4.7450441122055054e-01 3.4981316328048706e-01</leafValues></_>
    <_>
      <internalNodes>
        0 -1 623476 -865630799 1220340597 83236624 146587443 -536879360
        -356975334 -137030624 -1363689710</internalNodes>
      <leafValues>
        -4.1794967651367188e-01 4.1198503971099854e-01</leafValues></_>
    <_>
      <internalNodes>
        0 -1 34840 -149478089 -176930881 -425575651 -1079967938
        1677002687 -1258879629 83656699 -139002369</internalNodes>
      <leafValues>
        -3.5503605008125305e-01 4.8254737257957458e-01</leafValues></_>
    <_>
      <internalNodes>
        0 -1 355541 -67169025 762785519 190047407 196863743 931083613
        683356095 1870654591 -1443893505</internalNodes>
      <leafValues>
        -4.4432541728019714e-01 3.7855792045593262e-01</leafValues></_>
    <_>
      <internalNodes>
        0 -1 575330 187703061 762888189 2113896447 1054769148 771571637
        -525641 -1073840651 -1359804384</internalNodes>
      <leafValues>
        -4.2399534583091736e-01 4.0875118970870972e-01</leafValues></_>
    <_>
      <internalNodes>
        0 -1 709716 -302006417 79691743 -1342181684 -1058210050
        134053799 16252879 -16809988 -184549904</internalNodes>
      <leafValues>
        -3.8207766413688660e-01 4.5132595300674438e-01</leafValues></_>
    <_>
      <internalNodes>
        0 -1 358578 -1146531348 -636979096 855628255 1533352437
        -1552354940 -1460421805 976876301 -30691841</internalNodes>
      <leafValues>
        -4.0937560796737671e-01 4.2560231685638428e-01</leafValues></_>
    <_>
      <internalNodes>
        0 -1 165007 -801977793 -943749586 170266174 -1333793120
        -297925257 -45791548 -533396289 -35655953</internalNodes>
      <leafValues>
        -3.6935430765151978e-01 4.5077884197235107e-01</leafValues></_></weakClassifiers></stage7>
</opencv_storage>
