<?xml version="1.0"?>
<opencv_storage>
<stage6>
  <maxWeakCount>8</maxWeakCount>
  <stageThreshold>-9.7974961996078491e-01</stageThreshold>
  <weakClassifiers>
    <_>
      <internalNodes>
        0 -1 465714 -256850816 -437434623 1073614081 -168338671
        -496580082 -343965825 589887486 -2095464165</internalNodes>
      <leafValues>
        -4.7422680258750916e-01 4.9912384152412415e-01</leafValues></_>
    <_>
      <internalNodes>
        0 -1 181982 -1070413769 2146337438 3147838 -1204244690 20709495
        1853312996 1551305975 -119820633</internalNodes>
      <leafValues>
        -4.4452065229415894e-01 4.4259718060493469e-01</leafValues></_>
    <_>
      <internalNodes>
        0 -1 589652 -1064775944 363859964 -1141428233 -1611330365
        179555036 -1074307337 152079791 -1394667521</internalNodes>
      <leafValues>
        -4.9178051948547363e-01 3.8914066553115845e-01</leafValues></_>
    <_>
      <internalNodes>
        0 -1 150532 12324725 805068797 -2138625 -51400724 1039940981
        -608393 -1110163660 -1372574108</internalNodes>
      <leafValues>
        -4.7629961371421814e-01 3.9496439695358276e-01</leafValues></_>
    <_>
      <internalNodes>
        0 -1 412252 -785714177 -643294980 310378239 1610434815
        2030690707 -1934911073 -282068421 -1380982977</internalNodes>
      <leafValues>
        -3.6573857069015503e-01 5.2086853981018066e-01</leafValues></_>
    <_>
      <internalNodes>
        0 -1 466963 -1998082131 810721047 -1409464371 928869885
        -2055215696 -2076840527 -324189112 -172501540</internalNodes>
      <leafValues>
        -4.3653890490531921e-01 4.1993036866188049e-01</leafValues></_>
    <_>
      <internalNodes>
        0 -1 495910 -620876019 -99320033 1797201791 -1749897690
        -2005160049 -1934721025 1266552334 -1363268997</internalNodes>
      <leafValues>
        -4.0752547979354858e-01 4.3452119827270508e-01</leafValues></_>
    <_>
      <internalNodes>
        0 -1 388810 -6226304 -642843065 280801036 -1276395712
        -1472926056 -1912707643 -1368066326 -1219366143</internalNodes>
      <leafValues>
        -4.6875283122062683e-01 3.7488016486167908e-01</leafValues></_></weakClassifiers></stage6>
</opencv_storage>
