<?xml version="1.0"?>
<opencv_storage>
<stage10>
  <maxWeakCount>11</maxWeakCount>
  <stageThreshold>-8.4328520298004150e-01</stageThreshold>
  <weakClassifiers>
    <_>
      <internalNodes>
        0 -1 398573 -1691152175 1069494015 176127743 2147420927
        1048002127 -1887457409 1751121663 -75519297</internalNodes>
      <leafValues>
        -3.1681033968925476e-01 4.7093564271926880e-01</leafValues></_>
    <_>
      <internalNodes>
        0 -1 609606 -285216985 573046655 -16794718 49872895 1728010069
        1148714935 -151030448 -419958921</internalNodes>
      <leafValues>
        -4.5765608549118042e-01 3.1259155273437500e-01</leafValues></_>
    <_>
      <internalNodes>
        0 -1 488148 -791620360 904335264 1006576618 1073166129
        1798271759 1341125375 930018047 -3073</internalNodes>
      <leafValues>
        -5.1043617725372314e-01 2.7424380183219910e-01</leafValues></_>
    <_>
      <internalNodes>
        0 -1 33945 -413718777 -176889857 1219672383 -1155465218 67110673
        -167973377 14695739 -373620753</internalNodes>
      <leafValues>
        -3.8366824388504028e-01 3.7763515114784241e-01</leafValues></_>
    <_>
      <internalNodes>
        0 -1 532700 -1331636016 1965563884 -1275873542 900804512
        -1153711113 -1909727393 846980605 792407547</internalNodes>
      <leafValues>
        -6.1594176292419434e-01 2.2195604443550110e-01</leafValues></_>
    <_>
      <internalNodes>
        0 -1 343354 -1279691265 -873985810 -1829962659 1584355581
        -1153764800 -84679713 1064034091 -1401737617</internalNodes>
      <leafValues>
        -4.0988793969154358e-01 3.2877773046493530e-01</leafValues></_>
    <_>
      <internalNodes>
        0 -1 616176 1916788736 1371487667 915683088 904781500 632207000
        -1264779340 -1074253176 -2103182113</internalNodes>
      <leafValues>
        -4.3922185897827148e-01 3.1767624616622925e-01</leafValues></_>
    <_>
      <internalNodes>
        0 -1 481290 -1363342553 619424751 1862270794 -1564951300
        2013077317 92274290 -512805628 -458424972</internalNodes>
      <leafValues>
        -4.4235271215438843e-01 3.4105789661407471e-01</leafValues></_>
    <_>
      <internalNodes>
        0 -1 430387 -1363447873 -1090342210 2010307902 -537294467
        -2025336688 311292558 -1224163910 -276993</internalNodes>
      <leafValues>
        -2.9235434532165527e-01 5.1165378093719482e-01</leafValues></_>
    <_>
      <internalNodes>
        0 -1 499753 -207563308 -806789206 -67485763 -35038102
        -1074536698 -952402049 -2035041067 -1074062081</internalNodes>
      <leafValues>
        -3.4708866477012634e-01 4.1773957014083862e-01</leafValues></_>
    <_>
      <internalNodes>
        0 -1 356158 -571948210 -108494724 944751199 461359211 1361293587
        -1937738613 1745318130 -2067828873</internalNodes>
      <leafValues>
        -4.4759196043014526e-01 3.1735515594482422e-01</leafValues></_></weakClassifiers></stage10>
</opencv_storage>
