<?xml version="1.0"?>
<opencv_storage>
<stage5>
  <maxWeakCount>8</maxWeakCount>
  <stageThreshold>-8.8890790939331055e-01</stageThreshold>
  <weakClassifiers>
    <_>
      <internalNodes>
        0 -1 412808 808473817 1005258698 1069510655 536816571 2139060111
        804222975 2139060223 -1342210049</internalNodes>
      <leafValues>
        -4.3479490280151367e-01 5.1293301582336426e-01</leafValues></_>
    <_>
      <internalNodes>
        0 -1 456478 255070069 1073627069 -1 -1073938440 1039941501
        -2162691 -327684 -1397736416</internalNodes>
      <leafValues>
        -4.6439719200134277e-01 4.8702841997146606e-01</leafValues></_>
    <_>
      <internalNodes>
        0 -1 718473 1320423285 -1380024331 -1 -16977921 -1084326027
        -268501507 -1073938955 -1363667408</internalNodes>
      <leafValues>
        -4.5857119560241699e-01 4.5381739735603333e-01</leafValues></_>
    <_>
      <internalNodes>
        0 -1 88757 -669595017 -1937577409 673205823 718092863 1550925941
        -293798401 1582760112 -318821842</internalNodes>
      <leafValues>
        -4.6796742081642151e-01 4.2423552274703979e-01</leafValues></_>
    <_>
      <internalNodes>
        0 -1 119747 -2035008075 -151126017 -69633 -2342923 1065254773
        -131075 -229388 -1359868572</internalNodes>
      <leafValues>
        -4.8387572169303894e-01 3.9012184739112854e-01</leafValues></_>
    <_>
      <internalNodes>
        0 -1 413270 -1113533199 1575948271 444546047 469708543
        -1266700594 -1882206689 1048538875 -302043393</internalNodes>
      <leafValues>
        -4.1226926445960999e-01 4.8740381002426147e-01</leafValues></_>
    <_>
      <internalNodes>
        0 -1 74547 -14717131 -705499329 -1350998179 -1325354178 74909649
        -521884169 -167821825 -319624089</internalNodes>
      <leafValues>
        -3.8550806045532227e-01 5.2120554447174072e-01</leafValues></_>
    <_>
      <internalNodes>
        0 -1 601516 -1090523353 1756823534 -17830026 -1426397186
        662656323 1115684727 -134218299 -185073801</internalNodes>
      <leafValues>
        -4.6495753526687622e-01 4.3208971619606018e-01</leafValues></_></weakClassifiers></stage5>
</opencv_storage>
