<?xml version="1.0"?>
<opencv_storage>
<stage14>
  <maxWeakCount>13</maxWeakCount>
  <stageThreshold>-1.3012412786483765e+00</stageThreshold>
  <weakClassifiers>
    <_>
      <internalNodes>
        0 -1 384174 815809909 602744801 -1077936129 -1141901313
        2139060014 804220926 -1081345 -1342210049</internalNodes>
      <leafValues>
        -3.4008595347404480e-01 4.3002322316169739e-01</leafValues></_>
    <_>
      <internalNodes>
        0 -1 357560 -201690625 -639084308 318763733 1602181375
        -1154811580 -122576403 -1099434146 -29671425</internalNodes>
      <leafValues>
        -2.9885300993919373e-01 4.1010069847106934e-01</leafValues></_>
    <_>
      <internalNodes>
        0 -1 167465 -411103483 -151622089 800866103 -1214222814 76482543
        -1059719687 1110062974 -423952486</internalNodes>
      <leafValues>
        -3.2749599218368530e-01 3.7336727976799011e-01</leafValues></_>
    <_>
      <internalNodes>
        0 -1 429086 -10433106 -569712 -853078226 1709510453 2000062624
        458051352 -286364197 1108213471</internalNodes>
      <leafValues>
        -4.6678400039672852e-01 2.5702562928199768e-01</leafValues></_>
    <_>
      <internalNodes>
        0 -1 498507 -654246454 1965053181 -1217145102 2147425754
        -1357133318 -1891640385 -1652833873 -1711286321</internalNodes>
      <leafValues>
        -3.9331698417663574e-01 3.2010361552238464e-01</leafValues></_>
    <_>
      <internalNodes>
        0 -1 440347 -1326383634 633556736 717172648 391342081 1728870071
        -310431761 791443450 -335712541</internalNodes>
      <leafValues>
        -4.0307441353797913e-01 3.2348501682281494e-01</leafValues></_>
    <_>
      <internalNodes>
        0 -1 99019 51915029 804028285 -1610619929 -1361146052 2113482613
        -38014977 -1079103659 615516256</internalNodes>
      <leafValues>
        -6.0548728704452515e-01 2.1815268695354462e-01</leafValues></_>
    <_>
      <internalNodes>
        0 -1 313160 -610077456 -890286609 444202380 -806002827
        -1221339297 -84067873 679177388 -302416791</internalNodes>
      <leafValues>
        -4.0697821974754333e-01 3.0744302272796631e-01</leafValues></_>
    <_>
      <internalNodes>
        0 -1 389624 2080178175 -1079460899 -180482 -4702531 -1074790454
        536612693 -24240054 -272974193</internalNodes>
      <leafValues>
        -2.6801523566246033e-01 5.0721728801727295e-01</leafValues></_>
    <_>
      <internalNodes>
        0 -1 399364 -549726724 2132823292 1113801704 1466831082 -6763072
        -583279507 1563618952 364724125</internalNodes>
      <leafValues>
        -4.6920797228813171e-01 2.8653943538665771e-01</leafValues></_>
    <_>
      <internalNodes>
        0 -1 179596 -196107733 -1920096259 634334867 -1280376734
        1833157375 -464715809 2085699936 -471006318</internalNodes>
      <leafValues>
        -3.7422901391983032e-01 3.4688365459442139e-01</leafValues></_>
    <_>
      <internalNodes>
        0 -1 523636 -2136035395 -1863307995 -461965955 1973675835
        -1757452303 -1160405197 -302705203 -168560809</internalNodes>
      <leafValues>
        -3.0944523215293884e-01 4.2589265108108521e-01</leafValues></_>
    <_>
      <internalNodes>
        0 -1 339014 1074845441 203484848 -268697747 -537757808 346420109
        -1118355470 -555733868 -1067097024</internalNodes>
      <leafValues>
        -4.2908900976181030e-01 3.0494728684425354e-01</leafValues></_></weakClassifiers></stage14>
</opencv_storage>
