<?xml version="1.0"?>
<opencv_storage>
<stage15>
  <maxWeakCount>13</maxWeakCount>
  <stageThreshold>-8.0374079942703247e-01</stageThreshold>
  <weakClassifiers>
    <_>
      <internalNodes>
        0 -1 424907 2147157207 897527807 440368383 1526664955 2134851086
        -814760069 1887419070 -58720581</internalNodes>
      <leafValues>
        -2.3904202878475189e-01 5.0909090042114258e-01</leafValues></_>
    <_>
      <internalNodes>
        0 -1 632231 -680143372 2033196445 -134235406 1038883050 -1339427
        -1350615236 -1744850704 -337128252</internalNodes>
      <leafValues>
        -3.1664094328880310e-01 3.9225178956985474e-01</leafValues></_>
    <_>
      <internalNodes>
        0 -1 412524 -114625554 497555692 305525439 1308579950 -282357753
        -1935565925 -1204817797 470167347</internalNodes>
      <leafValues>
        -4.9512866139411926e-01 2.4310481548309326e-01</leafValues></_>
    <_>
      <internalNodes>
        0 -1 314207 1711083301 1089874678 -1212440825 -129 16695215 -17
        213155762 -83891266</internalNodes>
      <leafValues>
        -3.1965005397796631e-01 3.6945104598999023e-01</leafValues></_>
    <_>
      <internalNodes>
        0 -1 371727 -8276495 -1343247617 452935405 1542892241 -193905139
        -335598055 1820272300 -117445409</internalNodes>
      <leafValues>
        -3.6573353409767151e-01 3.2321959733963013e-01</leafValues></_>
    <_>
      <internalNodes>
        0 -1 631129 1143849200 -795880545 351219760 -589366345
        1226555146 -1943470278 -56683358 -1113080002</internalNodes>
      <leafValues>
        -3.6093452572822571e-01 3.3218887448310852e-01</leafValues></_>
    <_>
      <internalNodes>
        0 -1 359068 -138841090 -605337366 1173352239 1405442657
        -1115757372 -298093729 1145034591 -818053170</internalNodes>
      <leafValues>
        -3.5258880257606506e-01 3.3397629857063293e-01</leafValues></_>
    <_>
      <internalNodes>
        0 -1 39039 -285262801 616460095 -857101342 -491860650 1069503829
        88407604 -102272399 -193593514</internalNodes>
      <leafValues>
        -4.3935003876686096e-01 2.8696092963218689e-01</leafValues></_>
    <_>
      <internalNodes>
        0 -1 509819 -790576474 363367200 -1082148492 1072414764
        -239418141 251404167 -956722386 12842243</internalNodes>
      <leafValues>
        -5.2428299188613892e-01 2.5282835960388184e-01</leafValues></_>
    <_>
      <internalNodes>
        0 -1 413285 -1162816267 304744687 478113511 1073306855
        -1154895480 -2135164289 979301554 678405747</internalNodes>
      <leafValues>
        -4.9556124210357666e-01 2.5395908951759338e-01</leafValues></_>
    <_>
      <internalNodes>
        0 -1 468206 720363519 -475085186 -1480945159 1610601720
        -1484794488 526374036 -1615282498 -1153508995</internalNodes>
      <leafValues>
        -3.1740754842758179e-01 4.1933611035346985e-01</leafValues></_>
    <_>
      <internalNodes>
        0 -1 651286 -788536909 16710463 -1813969455 -657928668 949165343
        -845316325 -1228975606 -1214911966</internalNodes>
      <leafValues>
        -2.9582989215850830e-01 4.2650654911994934e-01</leafValues></_>
    <_>
      <internalNodes>
        0 -1 283183 -595584822 -206815198 279896254 1365395154
        1043694837 -642297467 1299474795 1944405994</internalNodes>
      <leafValues>
        -5.2223080396652222e-01 2.3361033201217651e-01</leafValues></_></weakClassifiers></stage15>
</opencv_storage>
