<?xml version="1.0"?>
<opencv_storage>
<stage16>
  <maxWeakCount>13</maxWeakCount>
  <stageThreshold>-9.0671813488006592e-01</stageThreshold>
  <weakClassifiers>
    <_>
      <internalNodes>
        0 -1 398018 -134539819 1060581119 1535081727 1576996607
        2147434127 -805322913 2021653759 -562627906</internalNodes>
      <leafValues>
        -1.8763235211372375e-01 5.0516223907470703e-01</leafValues></_>
    <_>
      <internalNodes>
        0 -1 301044 -198639629 1030799167 50272368 1886650098 838395903
        853018239 1073379226 -74252406</internalNodes>
      <leafValues>
        -2.8317841887474060e-01 4.1774520277976990e-01</leafValues></_>
    <_>
      <internalNodes>
        0 -1 249073 -98401566 2076708590 1886261822 -252753578
        -143425295 1057508344 2004157200 1742681792</internalNodes>
      <leafValues>
        -5.1220786571502686e-01 2.4175873398780823e-01</leafValues></_>
    <_>
      <internalNodes>
        0 -1 43534 -2136240505 -1817841873 -922882244 -202330333
        549445541 39239445 -922777432 -285742333</internalNodes>
      <leafValues>
        -3.2317802309989929e-01 3.7105029821395874e-01</leafValues></_>
    <_>
      <internalNodes>
        0 -1 521105 -792666659 904469955 1073166331 -1075757513
        -1164215429 -1970278241 904918166 -1429358609</internalNodes>
      <leafValues>
        -3.5773047804832458e-01 3.3376157283782959e-01</leafValues></_>
    <_>
      <internalNodes>
        0 -1 425438 -570885201 362848184 -85040406 -1079118968
        -282867506 519985526 -1493697810 -1532953017</internalNodes>
      <leafValues>
        -3.0409628152847290e-01 4.0056356787681580e-01</leafValues></_>
    <_>
      <internalNodes>
        0 -1 685572 -487067869 985595819 -1157627922 -2009665978
        1206985623 1961701367 -134284097 -453706522</internalNodes>
      <leafValues>
        -3.2300591468811035e-01 3.6850985884666443e-01</leafValues></_>
    <_>
      <internalNodes>
        0 -1 652416 -1758997103 1294183359 624899120 -105910594
        1455242120 -1968250968 2008490146 -1950884918</internalNodes>
      <leafValues>
        -2.9810923337936401e-01 3.9924749732017517e-01</leafValues></_>
    <_>
      <internalNodes>
        0 -1 379924 534722270 812113270 -1309376513 947541341 333201149
        451196791 952530135 -1090892067</internalNodes>
      <leafValues>
        -4.2720961570739746e-01 2.8128942847251892e-01</leafValues></_>
    <_>
      <internalNodes>
        0 -1 485294 -402139889 1309937460 -805380490 -823859458
        1904148897 -1741045993 1423331668 -290556092</internalNodes>
      <leafValues>
        -4.1170343756675720e-01 2.8172424435615540e-01</leafValues></_>
    <_>
      <internalNodes>
        0 -1 149011 -352334109 1915678703 619644458 -1599148696
        1339230181 1433632663 1870491166 -184553897</internalNodes>
      <leafValues>
        -3.5283306241035461e-01 3.4939175844192505e-01</leafValues></_>
    <_>
      <internalNodes>
        0 -1 299360 -72354383 -78205107 -142609073 -1948487152 825750699
        -33751041 62762122 -305139638</internalNodes>
      <leafValues>
        -2.7457684278488159e-01 4.8514908552169800e-01</leafValues></_>
    <_>
      <internalNodes>
        0 -1 86445 -742988489 -1741130652 -9001947 839935783 103023919
        -2030407746 1003493801 -1191362773</internalNodes>
      <leafValues>
        -3.3565112948417664e-01 3.7159615755081177e-01</leafValues></_></weakClassifiers></stage16>
</opencv_storage>
