<?xml version="1.0"?>
<opencv_storage>
<stage12>
  <maxWeakCount>12</maxWeakCount>
  <stageThreshold>-1.1258057355880737e+00</stageThreshold>
  <weakClassifiers>
    <_>
      <internalNodes>
        0 -1 344084 -1585359744 50685184 536861870 201193311 67431438
        1006631871 4754095 -83890485</internalNodes>
      <leafValues>
        -5.4807692766189575e-01 3.7118768692016602e-01</leafValues></_>
    <_>
      <internalNodes>
        0 -1 594744 -29367533 -16711885 -16779401 -1105137102 1245640247
        -18745729 -822498118 -1426087374</internalNodes>
      <leafValues>
        -3.3375546336174011e-01 3.8600015640258789e-01</leafValues></_>
    <_>
      <internalNodes>
        0 -1 498047 2066402299 925003775 322418674 1073196795 725588795
        -806356993 -1082133345 -554711297</internalNodes>
      <leafValues>
        -3.2651358842849731e-01 4.0718117356300354e-01</leafValues></_>
    <_>
      <internalNodes>
        0 -1 165005 -803026393 -41548250 543559174 -184668638 1983316213
        -146414524 1029000390 -176206136</internalNodes>
      <leafValues>
        -3.6054995656013489e-01 3.6828693747520447e-01</leafValues></_>
    <_>
      <internalNodes>
        0 -1 563790 -230110004 -516098 -1300353414 829503091 -839917875
        -1693024645 1657657960 219900890</internalNodes>
      <leafValues>
        -5.2075946331024170e-01 2.4396559596061707e-01</leafValues></_>
    <_>
      <internalNodes>
        0 -1 700343 666840839 653717287 -285737050 -1426653450
        1073741687 1735290877 -151238860 -185270960</internalNodes>
      <leafValues>
        -4.2113500833511353e-01 2.9092097282409668e-01</leafValues></_>
    <_>
      <internalNodes>
        0 -1 499548 -241117716 -450863638 -1145407750 -9301974
        -1355751924 -1371833473 129234320 900666878</internalNodes>
      <leafValues>
        -5.1833236217498779e-01 2.5911921262741089e-01</leafValues></_>
    <_>
      <internalNodes>
        0 -1 373169 1644144109 286953375 1752517684 1899875116
        -2129265760 -1313805660 -541107751 -39125250</internalNodes>
      <leafValues>
        -3.9844980835914612e-01 3.2228276133537292e-01</leafValues></_>
    <_>
      <internalNodes>
        0 -1 400585 993025520 -735807240 -1217169154 1533236685
        -1372529480 -1900314825 -1901028150 -570974422</internalNodes>
      <leafValues>
        -3.9903876185417175e-01 3.4290364384651184e-01</leafValues></_>
    <_>
      <internalNodes>
        0 -1 430516 -54528513 1459585724 1329073437 234820652 -673727566
        -784299600 783469082 -864551043</internalNodes>
      <leafValues>
        -2.7528169751167297e-01 4.6729362010955811e-01</leafValues></_>
    <_>
      <internalNodes>
        0 -1 415539 -1657189142 -806662166 213888522 -168482960
        -1073750394 -429721765 166033115 1879503703</internalNodes>
      <leafValues>
        -5.3625011444091797e-01 2.2880370914936066e-01</leafValues></_>
    <_>
      <internalNodes>
        0 -1 12976 -92279273 285159295 -1682984083 -1543507980
        1562837621 98664407 -411762268 -520258683</internalNodes>
      <leafValues>
        -3.5393956303596497e-01 3.7725919485092163e-01</leafValues></_></weakClassifiers></stage12>
</opencv_storage>
