<?xml version="1.0"?>
<opencv_storage>
<stage18>
  <maxWeakCount>14</maxWeakCount>
  <stageThreshold>-9.5129299163818359e-01</stageThreshold>
  <weakClassifiers>
    <_>
      <internalNodes>
        0 -1 357783 -1543376623 -1912672257 -32771 -1073775273 905968639
        -196643 -753890 -48148978</internalNodes>
      <leafValues>
        -2.4184782803058624e-01 4.4174951314926147e-01</leafValues></_>
    <_>
      <internalNodes>
        0 -1 253227 1497329461 -106451586 -270846145 2145660466
        1507798698 1542319476 -1141342486 -1602212310</internalNodes>
      <leafValues>
        -3.3863762021064758e-01 3.2403618097305298e-01</leafValues></_>
    <_>
      <internalNodes>
        0 -1 233126 -1461531998 -1964458341 -1565308680 -118431646
        -2022357056 -2066452651 359663064 -829886</internalNodes>
      <leafValues>
        -4.1046717762947083e-01 2.6185193657875061e-01</leafValues></_>
    <_>
      <internalNodes>
        0 -1 414525 -1145414504 -892843272 -601358639 284318905
        -1158608822 -1694868129 -91031585 454752761</internalNodes>
      <leafValues>
        -4.9532675743103027e-01 2.0622813701629639e-01</leafValues></_>
    <_>
      <internalNodes>
        0 -1 511624 -926364461 -738781353 738095103 -271106478 730527153
        -1344372737 -104910926 -589845790</internalNodes>
      <leafValues>
        -2.8312379121780396e-01 3.7314555048942566e-01</leafValues></_>
    <_>
      <internalNodes>
        0 -1 486218 -551565789 974573190 -756812045 -1218143249
        -113520979 -1324893265 -88737380 -2141098369</internalNodes>
      <leafValues>
        -3.0072593688964844e-01 3.6554110050201416e-01</leafValues></_>
    <_>
      <internalNodes>
        0 -1 216985 1346030683 1330425662 282466295 821376368
        -1084563619 -47942608 894898771 1355236607</internalNodes>
      <leafValues>
        -3.6635148525238037e-01 2.9386773705482483e-01</leafValues></_>
    <_>
      <internalNodes>
        0 -1 622311 -354945465 2124606315 -16789765 -508137489
        1060094789 1967688791 -570953489 -314844549</internalNodes>
      <leafValues>
        -3.0016607046127319e-01 3.7797331809997559e-01</leafValues></_>
    <_>
      <internalNodes>
        0 -1 314270 983782636 632243797 -1968560427 366936017 125210222
        -16878604 117506011 327873901</internalNodes>
      <leafValues>
        -4.3583998084068298e-01 2.6564154028892517e-01</leafValues></_>
    <_>
      <internalNodes>
        0 -1 401075 -642392613 -315554567 -624959495 -766140451
        -1859060102 -1624000773 -1810104397 -77946949</internalNodes>
      <leafValues>
        -2.5410589575767517e-01 4.1891035437583923e-01</leafValues></_>
    <_>
      <internalNodes>
        0 -1 651380 -138424079 454515100 1392473975 1345420326
        -1210283940 -277885668 -1124558173 -1378484693</internalNodes>
      <leafValues>
        -2.9379248619079590e-01 3.7451231479644775e-01</leafValues></_>
    <_>
      <internalNodes>
        0 -1 11199 -584094435 261009239 -766367005 635718379 726925645
        -9274513 -1286060300 -79536257</internalNodes>
      <leafValues>
        -3.3978894352912903e-01 3.2595279812812805e-01</leafValues></_>
    <_>
      <internalNodes>
        0 -1 426220 816894300 930881497 804194237 800845101 485786895
        -1360232787 -139583862 71688240</internalNodes>
      <leafValues>
        -5.9573745727539062e-01 1.8939028680324554e-01</leafValues></_>
    <_>
      <internalNodes>
        0 -1 562861 -553660661 1018144551 -1082745285 2142198699
        1190620933 13696967 -69603467 -923273631</internalNodes>
      <leafValues>
        -3.0996808409690857e-01 3.5691425204277039e-01</leafValues></_></weakClassifiers></stage18>
</opencv_storage>
