<?xml version="1.0"?>
<opencv_storage>
<stage15>
  <maxWeakCount>13</maxWeakCount>
  <stageThreshold>-9.0434944629669189e-01</stageThreshold>
  <weakClassifiers>
    <_>
      <internalNodes>
        0 -1 399401 1610626481 1069424637 -1073820737 -1073876995
        -1073856515 -1342898435 -327681 -200118061</internalNodes>
      <leafValues>
        -3.4393984079360962e-01 3.9121723175048828e-01</leafValues></_>
    <_>
      <internalNodes>
        0 -1 355811 -67291139 968208309 -205315 -58458131 2147235324
        -1343143939 -475812 -16517765</internalNodes>
      <leafValues>
        -3.0035421252250671e-01 4.0782293677330017e-01</leafValues></_>
    <_>
      <internalNodes>
        0 -1 651890 1899488145 12506553 1458493303 -788599137 2134187932
        249364104 -1196408870 -2138570869</internalNodes>
      <leafValues>
        -3.4204810857772827e-01 3.5809165239334106e-01</leafValues></_>
    <_>
      <internalNodes>
        0 -1 32645 2135313167 -1183154241 -1094791689 -289915774
        1846631739 1320905845 1693472255 -1192989134</internalNodes>
      <leafValues>
        -3.8420298695564270e-01 3.0919051170349121e-01</leafValues></_>
    <_>
      <internalNodes>
        0 -1 512945 -453129024 -1156774896 -1442886532 356336676
        -926679110 -1685326094 -387757624 294327547</internalNodes>
      <leafValues>
        -5.3522366285324097e-01 1.9566328823566437e-01</leafValues></_>
    <_>
      <internalNodes>
        0 -1 609662 -286130371 304059511 -1571073952 -1654420160
        -1228214343 -1229979683 880178400 -171977259</internalNodes>
      <leafValues>
        -2.7112385630607605e-01 4.2009398341178894e-01</leafValues></_>
    <_>
      <internalNodes>
        0 -1 45396 -1996504075 187108822 -423646412 785239010 83098877
        1241449831 124765776 -2048440491</internalNodes>
      <leafValues>
        -3.7216711044311523e-01 3.1792694330215454e-01</leafValues></_>
    <_>
      <internalNodes>
        0 -1 452442 -1179593217 -576160780 -243310627 -545294119
        -1389191938 -1079101441 -547734534 -1081418275</internalNodes>
      <leafValues>
        -3.2409295439720154e-01 3.6584398150444031e-01</leafValues></_>
    <_>
      <internalNodes>
        0 -1 608089 1645199444 -909127745 599217398 -848565413
        -1880753316 -1898451364 942679734 -2122193473</internalNodes>
      <leafValues>
        -3.5071864724159241e-01 3.3043080568313599e-01</leafValues></_>
    <_>
      <internalNodes>
        0 -1 251333 1250052810 -278233613 -756008016 -218337040
        1244601081 1248415058 1034056687 1009784319</internalNodes>
      <leafValues>
        -5.1323783397674561e-01 2.2664597630500793e-01</leafValues></_>
    <_>
      <internalNodes>
        0 -1 606028 -218641019 2139833648 -420320009 -2128296522
        1560423821 -575702241 -840176194 -844433685</internalNodes>
      <leafValues>
        -3.1353124976158142e-01 3.9697223901748657e-01</leafValues></_>
    <_>
      <internalNodes>
        0 -1 299877 1033065952 -563646728 -932189613 1400339037
        515038622 172367872 107918033 789089789</internalNodes>
      <leafValues>
        -4.4974985718727112e-01 2.8195691108703613e-01</leafValues></_>
    <_>
      <internalNodes>
        0 -1 490264 -266218368 1574700080 -1184413699 227344628
        752926378 -1366918528 572575438 151130714</internalNodes>
      <leafValues>
        -6.7421698570251465e-01 1.4714151620864868e-01</leafValues></_></weakClassifiers></stage15>
</opencv_storage>
