<?xml version="1.0"?>
<opencv_storage>
<cascade>
  <stageType>BOOST</stageType>
  <featureType>LBP</featureType>
  <height>72</height>
  <width>72</width>
  <stageParams>
    <boostType>GAB</boostType>
    <minHitRate>9.9500000476837158e-01</minHitRate>
    <maxFalseAlarm>5.0000000000000000e-01</maxFalseAlarm>
    <weightTrimRate>9.4999999999999996e-01</weightTrimRate>
    <maxDepth>1</maxDepth>
    <maxWeakCount>100</maxWeakCount></stageParams>
  <featureParams>
    <maxCatCount>256</maxCatCount>
    <featSize>1</featSize></featureParams>
  <stageNum>20</stageNum>
  <stages>
    <!-- stage 0 -->
    <_>
      <maxWeakCount>4</maxWeakCount>
      <stageThreshold>-1.2286401987075806e+00</stageThreshold>
      <weakClassifiers>
        <_>
          <internalNodes>
            0 -1 57 263130975 1065303903 805271551 737619839 183463935
            803958639 233783039 804204287</internalNodes>
          <leafValues>
            -7.4786728620529175e-01 6.0464113950729370e-01</leafValues></_>
        <_>
          <internalNodes>
            0 -1 12 644882293 -16875523 -1 -1073811459 2147319797 -1
            -172171 -1363394764</internalNodes>
          <leafValues>
            -5.5819183588027954e-01 5.6803518533706665e-01</leafValues></_>
        <_>
          <internalNodes>
            0 -1 159 498875901 1039990783 -131073 -245763 -53251
            -33685505 -17006595 -1393029964</internalNodes>
          <leafValues>
            -5.1399290561676025e-01 5.8714693784713745e-01</leafValues></_>
        <_>
          <internalNodes>
            0 -1 71 857753061 667355019 805306367 805306367 2105507727
            -1342177281 -17 -1342177281</internalNodes>
          <leafValues>
            -5.3481519222259521e-01 5.4301780462265015e-01</leafValues></_></weakClassifiers></_>
    <!-- stage 1 -->
    <_>
      <maxWeakCount>5</maxWeakCount>
      <stageThreshold>-1.5579061508178711e+00</stageThreshold>
      <weakClassifiers>
        <_>
          <internalNodes>
            0 -1 197 75243389 805191679 -1 -1342423043 -163841 -1
            -1073840139 -1363394564</internalNodes>
          <leafValues>
            -4.2623656988143921e-01 6.9796216487884521e-01</leafValues></_>
        <_>
          <internalNodes>
            0 -1 94 741613365 -1073807363 -1 -196611 -1073905667 -65537
            -1073889284 -1394066076</internalNodes>
          <leafValues>
            -4.9232742190361023e-01 6.5200400352478027e-01</leafValues></_>
        <_>
          <internalNodes>
            0 -1 62 857888133 804204463 260014063 267108351 1064269197
            804208631 780107503 -1342214145</internalNodes>
          <leafValues>
            -6.6905933618545532e-01 5.0255763530731201e-01</leafValues></_>
        <_>
          <internalNodes>
            0 -1 183 800858101 -1073790979 -1 -196612 -33701889 -1
            -1073823745 -1124328332</internalNodes>
          <leafValues>
            -5.4219758510589600e-01 5.8306181430816650e-01</leafValues></_>
        <_>
          <internalNodes>
            0 -1 184 255074165 -268664833 -1 -1073840644 -1107918977
            -100794369 -65796 -1393021952</internalNodes>
          <leafValues>
            -5.9970217943191528e-01 5.3879565000534058e-01</leafValues></_></weakClassifiers></_>
    <!-- stage 2 -->
    <_>
      <maxWeakCount>4</maxWeakCount>
      <stageThreshold>-4.3735584616661072e-01</stageThreshold>
      <weakClassifiers>
        <_>
          <internalNodes>
            0 -1 81 -2147483648 1359020032 -1624821560 1427178512 34442
            -1366422777 -1908095046 -70544648</internalNodes>
          <leafValues>
            -7.6652604341506958e-01 6.9473522901535034e-01</leafValues></_>
        <_>
          <internalNodes>
            0 -1 120 -2147483520 814759936 1362113950 285212708 5521537
            -1326125920 -1265367928 -2139094016</internalNodes>
          <leafValues>
            -7.2246593236923218e-01 5.3618150949478149e-01</leafValues></_>
        <_>
          <internalNodes>
            0 -1 188 538970405 -1370997315 -1076289609 -1479263920
            518272629 -123645420 -1074121808 -1363534848</internalNodes>
          <leafValues>
            -6.1064326763153076e-01 5.7620394229888916e-01</leafValues></_>
        <_>
          <internalNodes>
            0 -1 22 -969939934 235850275 1760210470 543358314 -820362908
            1146828647 -1052310780 -520686480</internalNodes>
          <leafValues>
            -7.1972095966339111e-01 4.7543218731880188e-01</leafValues></_></weakClassifiers></_>
    <!-- stage 3 -->
    <_>
      <maxWeakCount>5</maxWeakCount>
      <stageThreshold>-8.8443446159362793e-01</stageThreshold>
      <weakClassifiers>
        <_>
          <internalNodes>
            0 -1 73 276841600 319752064 993485759 -1610612737 554443912
            804731887 796389295 -1342210065</internalNodes>
          <leafValues>
            -7.0953756570816040e-01 5.1748442649841309e-01</leafValues></_>
        <_>
          <internalNodes>
            0 -1 155 -365773517 -96948429 -188776641 -1174262238
            -356797645 -394073290 -1432443334 -1430312406</internalNodes>
          <leafValues>
            -5.7055264711380005e-01 4.7661307454109192e-01</leafValues></_>
        <_>
          <internalNodes>
            0 -1 200 204475445 62266677 -4207187 -1090999108 956184343
            -17109187 -1090636268 -1398273932</internalNodes>
          <leafValues>
            -5.6054693460464478e-01 4.2882075905799866e-01</leafValues></_>
        <_>
          <internalNodes>
            0 -1 145 -790571840 -34517808 -999936926 1979002608
            1982827149 -1150197985 -488112452 -2130481942</internalNodes>
          <leafValues>
            -5.2356511354446411e-01 4.7291731834411621e-01</leafValues></_>
        <_>
          <internalNodes>
            0 -1 11 -822106379 654288693 -272658509 1267672819
            1140952309 -268745391 -923925120 -336920013</internalNodes>
          <leafValues>
            -5.0069862604141235e-01 4.8328542709350586e-01</leafValues></_></weakClassifiers></_>
    <!-- stage 4 -->
    <_>
      <maxWeakCount>7</maxWeakCount>
      <stageThreshold>-1.3996618986129761e+00</stageThreshold>
      <weakClassifiers>
        <_>
          <internalNodes>
            0 -1 192 -318771710 11452079 -352394720 -924406042
            1476335365 1148682103 -134252992 -454623388</internalNodes>
          <leafValues>
            -4.5854774117469788e-01 5.2015644311904907e-01</leafValues></_>
        <_>
          <internalNodes>
            0 -1 139 1378538491 463675307 839070579 1073166335 993768251
            217021431 1063630847 -1074813969</internalNodes>
          <leafValues>
            -4.8466807603836060e-01 4.4929099082946777e-01</leafValues></_>
        <_>
          <internalNodes>
            0 -1 68 135008061 251535355 -269500417 -1426313284 715669365
            -1346503684 -1627642252 -1361568464</internalNodes>
          <leafValues>
            -4.9523124098777771e-01 4.4164770841598511e-01</leafValues></_>
        <_>
          <internalNodes>
            0 -1 21 -328849641 -80544449 1980301143 -1576993682 3147093
            -69271553 -1142346513 -1426866945</internalNodes>
          <leafValues>
            -4.4781872630119324e-01 5.0188207626342773e-01</leafValues></_>
        <_>
          <internalNodes>
            0 -1 90 -1153935919 -777893781 41153783 -545318665
            -1086721856 -324289921 -1103366483 -1149288577</internalNodes>
          <leafValues>
            -4.9200677871704102e-01 4.4477835297584534e-01</leafValues></_>
        <_>
          <internalNodes>
            0 -1 150 -2136043643 -2143146729 -1099565187 -437813411
            -1929396227 -185128193 -2047523747 -186297995</internalNodes>
          <leafValues>
            -4.2641818523406982e-01 4.8582437634468079e-01</leafValues></_>
        <_>
          <internalNodes>
            0 -1 190 705703477 553004989 -1342178569 -1090863111
            783579925 1040187391 -1073787403 -1439154416</internalNodes>
          <leafValues>
            -4.8155093193054199e-01 4.4872444868087769e-01</leafValues></_></weakClassifiers></_>
    <!-- stage 5 -->
    <_>
      <maxWeakCount>8</maxWeakCount>
      <stageThreshold>-8.8890790939331055e-01</stageThreshold>
      <weakClassifiers>
        <_>
          <internalNodes>
            0 -1 97 808473817 1005258698 1069510655 536816571 2139060111
            804222975 2139060223 -1342210049</internalNodes>
          <leafValues>
            -4.3479490280151367e-01 5.1293301582336426e-01</leafValues></_>
        <_>
          <internalNodes>
            0 -1 119 255070069 1073627069 -1 -1073938440 1039941501
            -2162691 -327684 -1397736416</internalNodes>
          <leafValues>
            -4.6439719200134277e-01 4.8702841997146606e-01</leafValues></_>
        <_>
          <internalNodes>
            0 -1 196 1320423285 -1380024331 -1 -16977921 -1084326027
            -268501507 -1073938955 -1363667408</internalNodes>
          <leafValues>
            -4.5857119560241699e-01 4.5381739735603333e-01</leafValues></_>
        <_>
          <internalNodes>
            0 -1 16 -669595017 -1937577409 673205823 718092863
            1550925941 -293798401 1582760112 -318821842</internalNodes>
          <leafValues>
            -4.6796742081642151e-01 4.2423552274703979e-01</leafValues></_>
        <_>
          <internalNodes>
            0 -1 23 -2035008075 -151126017 -69633 -2342923 1065254773
            -131075 -229388 -1359868572</internalNodes>
          <leafValues>
            -4.8387572169303894e-01 3.9012184739112854e-01</leafValues></_>
        <_>
          <internalNodes>
            0 -1 98 -1113533199 1575948271 444546047 469708543
            -1266700594 -1882206689 1048538875 -302043393</internalNodes>
          <leafValues>
            -4.1226926445960999e-01 4.8740381002426147e-01</leafValues></_>
        <_>
          <internalNodes>
            0 -1 13 -14717131 -705499329 -1350998179 -1325354178
            74909649 -521884169 -167821825 -319624089</internalNodes>
          <leafValues>
            -3.8550806045532227e-01 5.2120554447174072e-01</leafValues></_>
        <_>
          <internalNodes>
            0 -1 172 -1090523353 1756823534 -17830026 -1426397186
            662656323 1115684727 -134218299 -185073801</internalNodes>
          <leafValues>
            -4.6495753526687622e-01 4.3208971619606018e-01</leafValues></_></weakClassifiers></_>
    <!-- stage 6 -->
    <_>
      <maxWeakCount>8</maxWeakCount>
      <stageThreshold>-9.7974961996078491e-01</stageThreshold>
      <weakClassifiers>
        <_>
          <internalNodes>
            0 -1 122 -256850816 -437434623 1073614081 -168338671
            -496580082 -343965825 589887486 -2095464165</internalNodes>
          <leafValues>
            -4.7422680258750916e-01 4.9912384152412415e-01</leafValues></_>
        <_>
          <internalNodes>
            0 -1 32 -1070413769 2146337438 3147838 -1204244690 20709495
            1853312996 1551305975 -119820633</internalNodes>
          <leafValues>
            -4.4452065229415894e-01 4.4259718060493469e-01</leafValues></_>
        <_>
          <internalNodes>
            0 -1 167 -1064775944 363859964 -1141428233 -1611330365
            179555036 -1074307337 152079791 -1394667521</internalNodes>
          <leafValues>
            -4.9178051948547363e-01 3.8914066553115845e-01</leafValues></_>
        <_>
          <internalNodes>
            0 -1 27 12324725 805068797 -2138625 -51400724 1039940981
            -608393 -1110163660 -1372574108</internalNodes>
          <leafValues>
            -4.7629961371421814e-01 3.9496439695358276e-01</leafValues></_>
        <_>
          <internalNodes>
            0 -1 95 -785714177 -643294980 310378239 1610434815
            2030690707 -1934911073 -282068421 -1380982977</internalNodes>
          <leafValues>
            -3.6573857069015503e-01 5.2086853981018066e-01</leafValues></_>
        <_>
          <internalNodes>
            0 -1 123 -1998082131 810721047 -1409464371 928869885
            -2055215696 -2076840527 -324189112 -172501540</internalNodes>
          <leafValues>
            -4.3653890490531921e-01 4.1993036866188049e-01</leafValues></_>
        <_>
          <internalNodes>
            0 -1 136 -620876019 -99320033 1797201791 -1749897690
            -2005160049 -1934721025 1266552334 -1363268997</internalNodes>
          <leafValues>
            -4.0752547979354858e-01 4.3452119827270508e-01</leafValues></_>
        <_>
          <internalNodes>
            0 -1 83 -6226304 -642843065 280801036 -1276395712
            -1472926056 -1912707643 -1368066326 -1219366143</internalNodes>
          <leafValues>
            -4.6875283122062683e-01 3.7488016486167908e-01</leafValues></_></weakClassifiers></_>
    <!-- stage 7 -->
    <_>
      <maxWeakCount>10</maxWeakCount>
      <stageThreshold>-8.5593789815902710e-01</stageThreshold>
      <weakClassifiers>
        <_>
          <internalNodes>
            0 -1 78 815809949 804194223 1069547455 -1342197762
            1065307918 804208639 -32769 -1342210049</internalNodes>
          <leafValues>
            -4.3906202912330627e-01 4.7458362579345703e-01</leafValues></_>
        <_>
          <internalNodes>
            0 -1 163 137891701 -1627881697 -131075 -50810881 -1073926147
            -16982021 -1073971851 -1397748716</internalNodes>
          <leafValues>
            -4.5360845327377319e-01 3.8441672921180725e-01</leafValues></_>
        <_>
          <internalNodes>
            0 -1 131 -232599077 1436567274 926835642 -196430 -1153705205
            -1884348549 930083839 1006599855</internalNodes>
          <leafValues>
            -4.7450441122055054e-01 3.4981316328048706e-01</leafValues></_>
        <_>
          <internalNodes>
            0 -1 176 -865630799 1220340597 83236624 146587443 -536879360
            -356975334 -137030624 -1363689710</internalNodes>
          <leafValues>
            -4.1794967651367188e-01 4.1198503971099854e-01</leafValues></_>
        <_>
          <internalNodes>
            0 -1 3 -149478089 -176930881 -425575651 -1079967938
            1677002687 -1258879629 83656699 -139002369</internalNodes>
          <leafValues>
            -3.5503605008125305e-01 4.8254737257957458e-01</leafValues></_>
        <_>
          <internalNodes>
            0 -1 59 -67169025 762785519 190047407 196863743 931083613
            683356095 1870654591 -1443893505</internalNodes>
          <leafValues>
            -4.4432541728019714e-01 3.7855792045593262e-01</leafValues></_>
        <_>
          <internalNodes>
            0 -1 164 187703061 762888189 2113896447 1054769148 771571637
            -525641 -1073840651 -1359804384</internalNodes>
          <leafValues>
            -4.2399534583091736e-01 4.0875118970870972e-01</leafValues></_>
        <_>
          <internalNodes>
            0 -1 195 -302006417 79691743 -1342181684 -1058210050
            134053799 16252879 -16809988 -184549904</internalNodes>
          <leafValues>
            -3.8207766413688660e-01 4.5132595300674438e-01</leafValues></_>
        <_>
          <internalNodes>
            0 -1 64 -1146531348 -636979096 855628255 1533352437
            -1552354940 -1460421805 976876301 -30691841</internalNodes>
          <leafValues>
            -4.0937560796737671e-01 4.2560231685638428e-01</leafValues></_>
        <_>
          <internalNodes>
            0 -1 29 -801977793 -943749586 170266174 -1333793120
            -297925257 -45791548 -533396289 -35655953</internalNodes>
          <leafValues>
            -3.6935430765151978e-01 4.5077884197235107e-01</leafValues></_></weakClassifiers></_>
    <!-- stage 8 -->
    <_>
      <maxWeakCount>11</maxWeakCount>
      <stageThreshold>-9.8803901672363281e-01</stageThreshold>
      <weakClassifiers>
        <_>
          <internalNodes>
            0 -1 111 -106409480 1965048936 326332666 460783864
            -1321684536 120323935 876329194 389234367</internalNodes>
          <leafValues>
            -5.4506063461303711e-01 3.9704006910324097e-01</leafValues></_>
        <_>
          <internalNodes>
            0 -1 79 -1325394768 196030319 176109740 452980435 -176870386
            -269631701 -1560940849 -19924289</internalNodes>
          <leafValues>
            -5.7384955883026123e-01 2.7046385407447815e-01</leafValues></_>
        <_>
          <internalNodes>
            0 -1 7 242229045 -302219395 -268972033 -1099137291
            1047532853 -524289 -1074696972 -1364189932</internalNodes>
          <leafValues>
            -4.9092960357666016e-01 3.1065389513969421e-01</leafValues></_>
        <_>
          <internalNodes>
            0 -1 168 -1069300524 -604246577 -1460168972 355679743
            -291262533 -828194833 674607794 674216623</internalNodes>
          <leafValues>
            -5.0309807062149048e-01 2.9916048049926758e-01</leafValues></_>
        <_>
          <internalNodes>
            0 -1 25 -218120137 987062 1627302438 -1293455494 -715144331
            1164931061 -465222320 -322208162</internalNodes>
          <leafValues>
            -3.8887256383895874e-01 3.7618395686149597e-01</leafValues></_>
        <_>
          <internalNodes>
            0 -1 129 -639578646 1574988924 -147127515 -571538386
            -1388340309 -1925193833 -2048921089 -1613802065</internalNodes>
          <leafValues>
            -3.5609903931617737e-01 4.2126575112342834e-01</leafValues></_>
        <_>
          <internalNodes>
            0 -1 156 -1065884203 2133877 -822522059 690037505 2060142069
            -1324896 -1189187 -38580553</internalNodes>
          <leafValues>
            -4.3615612387657166e-01 3.5369467735290527e-01</leafValues></_>
        <_>
          <internalNodes>
            0 -1 75 -1313122833 635784960 2147425897 1464311569
            1141796750 -1074835457 1145728238 -347078968</internalNodes>
          <leafValues>
            -4.0092292428016663e-01 3.9602094888687134e-01</leafValues></_>
        <_>
          <internalNodes>
            0 -1 102 -20853630 -677254560 -861672910 -134887887
            820530382 1728411919 -51055397 -186256043</internalNodes>
          <leafValues>
            -4.7403371334075928e-01 3.2431676983833313e-01</leafValues></_>
        <_>
          <internalNodes>
            0 -1 10 181651429 -1845843155 -1921306627 -526276352
            215457765 653676535 -898641983 -890286592</internalNodes>
          <leafValues>
            -4.0854027867317200e-01 3.7161126732826233e-01</leafValues></_>
        <_>
          <internalNodes>
            0 -1 182 -709366008 1068367420 653465269 278450909 760585228
            -1755333099 -1360099628 -1594495866</internalNodes>
          <leafValues>
            -4.1224020719528198e-01 3.7960398197174072e-01</leafValues></_></weakClassifiers></_>
    <!-- stage 9 -->
    <_>
      <maxWeakCount>11</maxWeakCount>
      <stageThreshold>-1.3081722259521484e+00</stageThreshold>
      <weakClassifiers>
        <_>
          <internalNodes>
            0 -1 126 -1330590520 -34582558 -1346490961 1903251264
            1718544014 -8430761 1652730538 34040334</internalNodes>
          <leafValues>
            -5.2791875600814819e-01 3.9861217141151428e-01</leafValues></_>
        <_>
          <internalNodes>
            0 -1 130 -791096101 1040015211 993998771 1005925491
            993735455 804190703 863761915 -1073744961</internalNodes>
          <leafValues>
            -4.0811482071876526e-01 3.6108589172363281e-01</leafValues></_>
        <_>
          <internalNodes>
            0 -1 199 245149461 788299773 -17 -1426571340 -1082556419 -3
            -1092784643 -1397219848</internalNodes>
          <leafValues>
            -4.3777173757553101e-01 3.4039658308029175e-01</leafValues></_>
        <_>
          <internalNodes>
            0 -1 116 -96530653 -686104777 -1242095817 -1355676382
            582131084 -1710166598 251469358 -1363203525</internalNodes>
          <leafValues>
            -4.4647300243377686e-01 3.3338326215744019e-01</leafValues></_>
        <_>
          <internalNodes>
            0 -1 6 -1057494409 675548727 -302130187 -33866234 -732570187
            -290326939 -1125178352 -1396758990</internalNodes>
          <leafValues>
            -3.8615190982818604e-01 3.6932805180549622e-01</leafValues></_>
        <_>
          <internalNodes>
            0 -1 134 -855670787 1919477468 64252664 1608324208
            -1883758952 1296256344 2129698794 -269525776</internalNodes>
          <leafValues>
            -3.6357921361923218e-01 3.9352187514305115e-01</leafValues></_>
        <_>
          <internalNodes>
            0 -1 166 -928457488 444767645 1073610231 -1084707216
            -1145921572 -1073807395 -1390370884 -1075495822</internalNodes>
          <leafValues>
            -3.6560809612274170e-01 3.9685314893722534e-01</leafValues></_>
        <_>
          <internalNodes>
            0 -1 88 -609682470 -174016472 711944382 2112870606
            -281488895 -863478433 1865897943 -235410090</internalNodes>
          <leafValues>
            -4.0771546959877014e-01 3.5877567529678345e-01</leafValues></_>
        <_>
          <internalNodes>
            0 -1 14 716191541 771514357 -32769 -1342382216 -1350600707
            -8392755 -16886811 -1363661776</internalNodes>
          <leafValues>
            -4.4167619943618774e-01 3.5685700178146362e-01</leafValues></_>
        <_>
          <internalNodes>
            0 -1 82 -1079945761 -626831648 243248815 1475831121
            -1086980472 -939524227 611352303 -2141104929</internalNodes>
          <leafValues>
            -3.4969195723533630e-01 4.2837435007095337e-01</leafValues></_>
        <_>
          <internalNodes>
            0 -1 8 -354234841 -2102481609 -1745158178 -257167582
            37019637 1961576951 -320426240 -806926798</internalNodes>
          <leafValues>
            -4.3019708991050720e-01 3.4689742326736450e-01</leafValues></_></weakClassifiers></_>
    <!-- stage 10 -->
    <_>
      <maxWeakCount>11</maxWeakCount>
      <stageThreshold>-8.4328520298004150e-01</stageThreshold>
      <weakClassifiers>
        <_>
          <internalNodes>
            0 -1 87 -1691152175 1069494015 176127743 2147420927
            1048002127 -1887457409 1751121663 -75519297</internalNodes>
          <leafValues>
            -3.1681033968925476e-01 4.7093564271926880e-01</leafValues></_>
        <_>
          <internalNodes>
            0 -1 174 -285216985 573046655 -16794718 49872895 1728010069
            1148714935 -151030448 -419958921</internalNodes>
          <leafValues>
            -4.5765608549118042e-01 3.1259155273437500e-01</leafValues></_>
        <_>
          <internalNodes>
            0 -1 132 -791620360 904335264 1006576618 1073166129
            1798271759 1341125375 930018047 -3073</internalNodes>
          <leafValues>
            -5.1043617725372314e-01 2.7424380183219910e-01</leafValues></_>
        <_>
          <internalNodes>
            0 -1 2 -413718777 -176889857 1219672383 -1155465218 67110673
            -167973377 14695739 -373620753</internalNodes>
          <leafValues>
            -3.8366824388504028e-01 3.7763515114784241e-01</leafValues></_>
        <_>
          <internalNodes>
            0 -1 153 -1331636016 1965563884 -1275873542 900804512
            -1153711113 -1909727393 846980605 792407547</internalNodes>
          <leafValues>
            -6.1594176292419434e-01 2.2195604443550110e-01</leafValues></_>
        <_>
          <internalNodes>
            0 -1 53 -1279691265 -873985810 -1829962659 1584355581
            -1153764800 -84679713 1064034091 -1401737617</internalNodes>
          <leafValues>
            -4.0988793969154358e-01 3.2877773046493530e-01</leafValues></_>
        <_>
          <internalNodes>
            0 -1 175 1916788736 1371487667 915683088 904781500 632207000
            -1264779340 -1074253176 -2103182113</internalNodes>
          <leafValues>
            -4.3922185897827148e-01 3.1767624616622925e-01</leafValues></_>
        <_>
          <internalNodes>
            0 -1 127 -1363342553 619424751 1862270794 -1564951300
            2013077317 92274290 -512805628 -458424972</internalNodes>
          <leafValues>
            -4.4235271215438843e-01 3.4105789661407471e-01</leafValues></_>
        <_>
          <internalNodes>
            0 -1 109 -1363447873 -1090342210 2010307902 -537294467
            -2025336688 311292558 -1224163910 -276993</internalNodes>
          <leafValues>
            -2.9235434532165527e-01 5.1165378093719482e-01</leafValues></_>
        <_>
          <internalNodes>
            0 -1 143 -207563308 -806789206 -67485763 -35038102
            -1074536698 -952402049 -2035041067 -1074062081</internalNodes>
          <leafValues>
            -3.4708866477012634e-01 4.1773957014083862e-01</leafValues></_>
        <_>
          <internalNodes>
            0 -1 60 -571948210 -108494724 944751199 461359211 1361293587
            -1937738613 1745318130 -2067828873</internalNodes>
          <leafValues>
            -4.4759196043014526e-01 3.1735515594482422e-01</leafValues></_></weakClassifiers></_>
    <!-- stage 11 -->
    <_>
      <maxWeakCount>12</maxWeakCount>
      <stageThreshold>-9.0918701887130737e-01</stageThreshold>
      <weakClassifiers>
        <_>
          <internalNodes>
            0 -1 100 -73347936 -383522816 452964077 1505711126
            -1363882353 -806553985 -1562051074 39014674</internalNodes>
          <leafValues>
            -4.6608489751815796e-01 3.9724591374397278e-01</leafValues></_>
        <_>
          <internalNodes>
            0 -1 105 -239382049 398071786 993886167 402503615 2139039503
            770505183 1852929914 -1912606473</internalNodes>
          <leafValues>
            -4.2955395579338074e-01 3.2875540852546692e-01</leafValues></_>
        <_>
          <internalNodes>
            0 -1 141 -659497524 -845095682 867324878 -545847264
            -1388585848 -818709129 389805294 498669897</internalNodes>
          <leafValues>
            -4.7846761345863342e-01 2.9854291677474976e-01</leafValues></_>
        <_>
          <internalNodes>
            0 -1 9 137365365 -1426161793 -1 -17027076 1035018101
            -35718153 -100827164 -1397740432</internalNodes>
          <leafValues>
            -4.9898818135261536e-01 2.4077183008193970e-01</leafValues></_>
        <_>
          <internalNodes>
            0 -1 160 -1337425724 -642229372 -1325531396 1965041140
            -1426929672 526571485 814936216 154385839</internalNodes>
          <leafValues>
            -5.8172607421875000e-01 2.1599143743515015e-01</leafValues></_>
        <_>
          <internalNodes>
            0 -1 115 -1560842497 -203250458 1227423100 -193452
            -472270976 1195831704 -1942310998 -272916769</internalNodes>
          <leafValues>
            -3.0213859677314758e-01 4.5401760935783386e-01</leafValues></_>
        <_>
          <internalNodes>
            0 -1 58 1421808403 1883043603 2138510903 -1082098158
            -1795215213 -1929568321 1417633820 -324143330</internalNodes>
          <leafValues>
            -3.3398273587226868e-01 4.1175544261932373e-01</leafValues></_>
        <_>
          <internalNodes>
            0 -1 54 -1145548291 -554993304 1115684575 -629187332
            -1078397988 -293652097 -1539900259 -25195010</internalNodes>
          <leafValues>
            -3.0548217892646790e-01 4.3772390484809875e-01</leafValues></_>
        <_>
          <internalNodes>
            0 -1 93 -831926883 287597317 -1979773031 -849346658
            -721947211 1621144500 -454210344 -453255209</internalNodes>
          <leafValues>
            -3.1000620126724243e-01 4.3652981519699097e-01</leafValues></_>
        <_>
          <internalNodes>
            0 -1 69 2147456469 -1665167650 1560084223 1608338159
            1574256591 -1074892837 1490416338 -1182005</internalNodes>
          <leafValues>
            -2.7231350541114807e-01 4.8402595520019531e-01</leafValues></_>
        <_>
          <internalNodes>
            0 -1 186 -81005167 696251195 1644032240 -1677853957
            -1111773300 -1512312952 918008962 -1427113329</internalNodes>
          <leafValues>
            -3.1579121947288513e-01 4.5026364922523499e-01</leafValues></_>
        <_>
          <internalNodes>
            0 -1 178 208674101 787890109 -1077954625 -1099350788
            530398719 -1090887745 -1091059842 -1124852302</internalNodes>
          <leafValues>
            -3.9305630326271057e-01 3.6921530961990356e-01</leafValues></_></weakClassifiers></_>
    <!-- stage 12 -->
    <_>
      <maxWeakCount>12</maxWeakCount>
      <stageThreshold>-1.1258057355880737e+00</stageThreshold>
      <weakClassifiers>
        <_>
          <internalNodes>
            0 -1 55 -1585359744 50685184 536861870 201193311 67431438
            1006631871 4754095 -83890485</internalNodes>
          <leafValues>
            -5.4807692766189575e-01 3.7118768692016602e-01</leafValues></_>
        <_>
          <internalNodes>
            0 -1 169 -29367533 -16711885 -16779401 -1105137102
            1245640247 -18745729 -822498118 -1426087374</internalNodes>
          <leafValues>
            -3.3375546336174011e-01 3.8600015640258789e-01</leafValues></_>
        <_>
          <internalNodes>
            0 -1 138 2066402299 925003775 322418674 1073196795 725588795
            -806356993 -1082133345 -554711297</internalNodes>
          <leafValues>
            -3.2651358842849731e-01 4.0718117356300354e-01</leafValues></_>
        <_>
          <internalNodes>
            0 -1 28 -803026393 -41548250 543559174 -184668638 1983316213
            -146414524 1029000390 -176206136</internalNodes>
          <leafValues>
            -3.6054995656013489e-01 3.6828693747520447e-01</leafValues></_>
        <_>
          <internalNodes>
            0 -1 161 -230110004 -516098 -1300353414 829503091 -839917875
            -1693024645 1657657960 219900890</internalNodes>
          <leafValues>
            -5.2075946331024170e-01 2.4396559596061707e-01</leafValues></_>
        <_>
          <internalNodes>
            0 -1 194 666840839 653717287 -285737050 -1426653450
            1073741687 1735290877 -151238860 -185270960</internalNodes>
          <leafValues>
            -4.2113500833511353e-01 2.9092097282409668e-01</leafValues></_>
        <_>
          <internalNodes>
            0 -1 142 -241117716 -450863638 -1145407750 -9301974
            -1355751924 -1371833473 129234320 900666878</internalNodes>
          <leafValues>
            -5.1833236217498779e-01 2.5911921262741089e-01</leafValues></_>
        <_>
          <internalNodes>
            0 -1 74 1644144109 286953375 1752517684 1899875116
            -2129265760 -1313805660 -541107751 -39125250</internalNodes>
          <leafValues>
            -3.9844980835914612e-01 3.2228276133537292e-01</leafValues></_>
        <_>
          <internalNodes>
            0 -1 91 993025520 -735807240 -1217169154 1533236685
            -1372529480 -1900314825 -1901028150 -570974422</internalNodes>
          <leafValues>
            -3.9903876185417175e-01 3.4290364384651184e-01</leafValues></_>
        <_>
          <internalNodes>
            0 -1 110 -54528513 1459585724 1329073437 234820652
            -673727566 -784299600 783469082 -864551043</internalNodes>
          <leafValues>
            -2.7528169751167297e-01 4.6729362010955811e-01</leafValues></_>
        <_>
          <internalNodes>
            0 -1 101 -1657189142 -806662166 213888522 -168482960
            -1073750394 -429721765 166033115 1879503703</internalNodes>
          <leafValues>
            -5.3625011444091797e-01 2.2880370914936066e-01</leafValues></_>
        <_>
          <internalNodes>
            0 -1 0 -92279273 285159295 -1682984083 -1543507980
            1562837621 98664407 -411762268 -520258683</internalNodes>
          <leafValues>
            -3.5393956303596497e-01 3.7725919485092163e-01</leafValues></_></weakClassifiers></_>
    <!-- stage 13 -->
    <_>
      <maxWeakCount>12</maxWeakCount>
      <stageThreshold>-9.4046032428741455e-01</stageThreshold>
      <weakClassifiers>
        <_>
          <internalNodes>
            0 -1 41 243213847 1884503823 804747381 743452183 81215167
            922746700 82664569 620592757</internalNodes>
          <leafValues>
            -5.6031674146652222e-01 3.8217276334762573e-01</leafValues></_>
        <_>
          <internalNodes>
            0 -1 37 1208672978 -52778 1354773490 1358583472 1577026431
            2138973527 1605720051 2146649571</internalNodes>
          <leafValues>
            -5.0247764587402344e-01 2.6527836918830872e-01</leafValues></_>
        <_>
          <internalNodes>
            0 -1 70 -5190166 -148223830 -1201212694 -714714654
            2133875774 1026518653 2016647902 71376912</internalNodes>
          <leafValues>
            -5.5130392313003540e-01 2.4753057956695557e-01</leafValues></_>
        <_>
          <internalNodes>
            0 -1 173 -923696239 -2013202527 -1057249359 136357667
            645605681 -1388982697 -287131717 -1345124831</internalNodes>
          <leafValues>
            -4.5544213056564331e-01 2.6346185803413391e-01</leafValues></_>
        <_>
          <internalNodes>
            0 -1 45 197068583 653815791 -88219034 -1427705866 2147428119
            1928822763 -186288780 -420156042</internalNodes>
          <leafValues>
            -4.1519433259963989e-01 3.1217187643051147e-01</leafValues></_>
        <_>
          <internalNodes>
            0 -1 103 -134250497 -172184322 -1456711683 1606112493
            1425915800 1322835353 581484282 -274945</internalNodes>
          <leafValues>
            -2.6626682281494141e-01 5.2563434839248657e-01</leafValues></_>
        <_>
          <internalNodes>
            0 -1 48 -1145409282 -924161304 40622815 200503805
            -1250758329 -25554569 70418508 -299138908</internalNodes>
          <leafValues>
            -4.5436063408851624e-01 2.8315868973731995e-01</leafValues></_>
        <_>
          <internalNodes>
            0 -1 177 1145291856 1265759221 343028464 958068259 805279549
            1319939845 909578368 820510126</internalNodes>
          <leafValues>
            -5.4719853401184082e-01 2.2596693038940430e-01</leafValues></_>
        <_>
          <internalNodes>
            0 -1 51 -654389153 -559855384 1929375861 2079789145
            -619007401 -1918846468 2047767420 -526124494</internalNodes>
          <leafValues>
            -3.6817133426666260e-01 3.4766742587089539e-01</leafValues></_>
        <_>
          <internalNodes>
            0 -1 49 -610209328 673375008 62631842 1601629712 670409983
            1002369023 -1527674258 1465073674</internalNodes>
          <leafValues>
            -5.2185863256454468e-01 2.4154971539974213e-01</leafValues></_>
        <_>
          <internalNodes>
            0 -1 40 -1977165693 939851271 231059356 -1181688016
            689782917 -1575544027 284678296 -1113195532</internalNodes>
          <leafValues>
            -3.6616379022598267e-01 3.5757353901863098e-01</leafValues></_>
        <_>
          <internalNodes>
            0 -1 24 -835834073 1059235003 -1372714254 706928752
            1145427761 -41961675 1324090623 -1333801355</internalNodes>
          <leafValues>
            -4.2718845605850220e-01 3.0270767211914062e-01</leafValues></_></weakClassifiers></_>
    <!-- stage 14 -->
    <_>
      <maxWeakCount>13</maxWeakCount>
      <stageThreshold>-1.3012412786483765e+00</stageThreshold>
      <weakClassifiers>
        <_>
          <internalNodes>
            0 -1 77 815809909 602744801 -1077936129 -1141901313
            2139060014 804220926 -1081345 -1342210049</internalNodes>
          <leafValues>
            -3.4008595347404480e-01 4.3002322316169739e-01</leafValues></_>
        <_>
          <internalNodes>
            0 -1 63 -201690625 -639084308 318763733 1602181375
            -1154811580 -122576403 -1099434146 -29671425</internalNodes>
          <leafValues>
            -2.9885300993919373e-01 4.1010069847106934e-01</leafValues></_>
        <_>
          <internalNodes>
            0 -1 30 -411103483 -151622089 800866103 -1214222814 76482543
            -1059719687 1110062974 -423952486</internalNodes>
          <leafValues>
            -3.2749599218368530e-01 3.7336727976799011e-01</leafValues></_>
        <_>
          <internalNodes>
            0 -1 107 -10433106 -569712 -853078226 1709510453 2000062624
            458051352 -286364197 1108213471</internalNodes>
          <leafValues>
            -4.6678400039672852e-01 2.5702562928199768e-01</leafValues></_>
        <_>
          <internalNodes>
            0 -1 140 -654246454 1965053181 -1217145102 2147425754
            -1357133318 -1891640385 -1652833873 -1711286321</internalNodes>
          <leafValues>
            -3.9331698417663574e-01 3.2010361552238464e-01</leafValues></_>
        <_>
          <internalNodes>
            0 -1 112 -1326383634 633556736 717172648 391342081
            1728870071 -310431761 791443450 -335712541</internalNodes>
          <leafValues>
            -4.0307441353797913e-01 3.2348501682281494e-01</leafValues></_>
        <_>
          <internalNodes>
            0 -1 20 51915029 804028285 -1610619929 -1361146052
            2113482613 -38014977 -1079103659 615516256</internalNodes>
          <leafValues>
            -6.0548728704452515e-01 2.1815268695354462e-01</leafValues></_>
        <_>
          <internalNodes>
            0 -1 46 -610077456 -890286609 444202380 -806002827
            -1221339297 -84067873 679177388 -302416791</internalNodes>
          <leafValues>
            -4.0697821974754333e-01 3.0744302272796631e-01</leafValues></_>
        <_>
          <internalNodes>
            0 -1 84 2080178175 -1079460899 -180482 -4702531 -1074790454
            536612693 -24240054 -272974193</internalNodes>
          <leafValues>
            -2.6801523566246033e-01 5.0721728801727295e-01</leafValues></_>
        <_>
          <internalNodes>
            0 -1 89 -549726724 2132823292 1113801704 1466831082 -6763072
            -583279507 1563618952 364724125</internalNodes>
          <leafValues>
            -4.6920797228813171e-01 2.8653943538665771e-01</leafValues></_>
        <_>
          <internalNodes>
            0 -1 31 -196107733 -1920096259 634334867 -1280376734
            1833157375 -464715809 2085699936 -471006318</internalNodes>
          <leafValues>
            -3.7422901391983032e-01 3.4688365459442139e-01</leafValues></_>
        <_>
          <internalNodes>
            0 -1 151 -2136035395 -1863307995 -461965955 1973675835
            -1757452303 -1160405197 -302705203 -168560809</internalNodes>
          <leafValues>
            -3.0944523215293884e-01 4.2589265108108521e-01</leafValues></_>
        <_>
          <internalNodes>
            0 -1 50 1074845441 203484848 -268697747 -537757808 346420109
            -1118355470 -555733868 -1067097024</internalNodes>
          <leafValues>
            -4.2908900976181030e-01 3.0494728684425354e-01</leafValues></_></weakClassifiers></_>
    <!-- stage 15 -->
    <_>
      <maxWeakCount>13</maxWeakCount>
      <stageThreshold>-8.0374079942703247e-01</stageThreshold>
      <weakClassifiers>
        <_>
          <internalNodes>
            0 -1 104 2147157207 897527807 440368383 1526664955
            2134851086 -814760069 1887419070 -58720581</internalNodes>
          <leafValues>
            -2.3904202878475189e-01 5.0909090042114258e-01</leafValues></_>
        <_>
          <internalNodes>
            0 -1 181 -680143372 2033196445 -134235406 1038883050
            -1339427 -1350615236 -1744850704 -337128252</internalNodes>
          <leafValues>
            -3.1664094328880310e-01 3.9225178956985474e-01</leafValues></_>
        <_>
          <internalNodes>
            0 -1 96 -114625554 497555692 305525439 1308579950 -282357753
            -1935565925 -1204817797 470167347</internalNodes>
          <leafValues>
            -4.9512866139411926e-01 2.4310481548309326e-01</leafValues></_>
        <_>
          <internalNodes>
            0 -1 47 1711083301 1089874678 -1212440825 -129 16695215 -17
            213155762 -83891266</internalNodes>
          <leafValues>
            -3.1965005397796631e-01 3.6945104598999023e-01</leafValues></_>
        <_>
          <internalNodes>
            0 -1 72 -8276495 -1343247617 452935405 1542892241 -193905139
            -335598055 1820272300 -117445409</internalNodes>
          <leafValues>
            -3.6573353409767151e-01 3.2321959733963013e-01</leafValues></_>
        <_>
          <internalNodes>
            0 -1 180 1143849200 -795880545 351219760 -589366345
            1226555146 -1943470278 -56683358 -1113080002</internalNodes>
          <leafValues>
            -3.6093452572822571e-01 3.3218887448310852e-01</leafValues></_>
        <_>
          <internalNodes>
            0 -1 65 -138841090 -605337366 1173352239 1405442657
            -1115757372 -298093729 1145034591 -818053170</internalNodes>
          <leafValues>
            -3.5258880257606506e-01 3.3397629857063293e-01</leafValues></_>
        <_>
          <internalNodes>
            0 -1 4 -285262801 616460095 -857101342 -491860650 1069503829
            88407604 -102272399 -193593514</internalNodes>
          <leafValues>
            -4.3935003876686096e-01 2.8696092963218689e-01</leafValues></_>
        <_>
          <internalNodes>
            0 -1 144 -790576474 363367200 -1082148492 1072414764
            -239418141 251404167 -956722386 12842243</internalNodes>
          <leafValues>
            -5.2428299188613892e-01 2.5282835960388184e-01</leafValues></_>
        <_>
          <internalNodes>
            0 -1 99 -1162816267 304744687 478113511 1073306855
            -1154895480 -2135164289 979301554 678405747</internalNodes>
          <leafValues>
            -4.9556124210357666e-01 2.5395908951759338e-01</leafValues></_>
        <_>
          <internalNodes>
            0 -1 124 720363519 -475085186 -1480945159 1610601720
            -1484794488 526374036 -1615282498 -1153508995</internalNodes>
          <leafValues>
            -3.1740754842758179e-01 4.1933611035346985e-01</leafValues></_>
        <_>
          <internalNodes>
            0 -1 185 -788536909 16710463 -1813969455 -657928668
            949165343 -845316325 -1228975606 -1214911966</internalNodes>
          <leafValues>
            -2.9582989215850830e-01 4.2650654911994934e-01</leafValues></_>
        <_>
          <internalNodes>
            0 -1 39 -595584822 -206815198 279896254 1365395154
            1043694837 -642297467 1299474795 1944405994</internalNodes>
          <leafValues>
            -5.2223080396652222e-01 2.3361033201217651e-01</leafValues></_></weakClassifiers></_>
    <!-- stage 16 -->
    <_>
      <maxWeakCount>13</maxWeakCount>
      <stageThreshold>-9.0671813488006592e-01</stageThreshold>
      <weakClassifiers>
        <_>
          <internalNodes>
            0 -1 86 -134539819 1060581119 1535081727 1576996607
            2147434127 -805322913 2021653759 -562627906</internalNodes>
          <leafValues>
            -1.8763235211372375e-01 5.0516223907470703e-01</leafValues></_>
        <_>
          <internalNodes>
            0 -1 44 -198639629 1030799167 50272368 1886650098 838395903
            853018239 1073379226 -74252406</internalNodes>
          <leafValues>
            -2.8317841887474060e-01 4.1774520277976990e-01</leafValues></_>
        <_>
          <internalNodes>
            0 -1 36 -98401566 2076708590 1886261822 -252753578
            -143425295 1057508344 2004157200 1742681792</internalNodes>
          <leafValues>
            -5.1220786571502686e-01 2.4175873398780823e-01</leafValues></_>
        <_>
          <internalNodes>
            0 -1 5 -2136240505 -1817841873 -922882244 -202330333
            549445541 39239445 -922777432 -285742333</internalNodes>
          <leafValues>
            -3.2317802309989929e-01 3.7105029821395874e-01</leafValues></_>
        <_>
          <internalNodes>
            0 -1 148 -792666659 904469955 1073166331 -1075757513
            -1164215429 -1970278241 904918166 -1429358609</internalNodes>
          <leafValues>
            -3.5773047804832458e-01 3.3376157283782959e-01</leafValues></_>
        <_>
          <internalNodes>
            0 -1 106 -570885201 362848184 -85040406 -1079118968
            -282867506 519985526 -1493697810 -1532953017</internalNodes>
          <leafValues>
            -3.0409628152847290e-01 4.0056356787681580e-01</leafValues></_>
        <_>
          <internalNodes>
            0 -1 191 -487067869 985595819 -1157627922 -2009665978
            1206985623 1961701367 -134284097 -453706522</internalNodes>
          <leafValues>
            -3.2300591468811035e-01 3.6850985884666443e-01</leafValues></_>
        <_>
          <internalNodes>
            0 -1 187 -1758997103 1294183359 624899120 -105910594
            1455242120 -1968250968 2008490146 -1950884918</internalNodes>
          <leafValues>
            -2.9810923337936401e-01 3.9924749732017517e-01</leafValues></_>
        <_>
          <internalNodes>
            0 -1 76 534722270 812113270 -1309376513 947541341 333201149
            451196791 952530135 -1090892067</internalNodes>
          <leafValues>
            -4.2720961570739746e-01 2.8128942847251892e-01</leafValues></_>
        <_>
          <internalNodes>
            0 -1 128 -402139889 1309937460 -805380490 -823859458
            1904148897 -1741045993 1423331668 -290556092</internalNodes>
          <leafValues>
            -4.1170343756675720e-01 2.8172424435615540e-01</leafValues></_>
        <_>
          <internalNodes>
            0 -1 26 -352334109 1915678703 619644458 -1599148696
            1339230181 1433632663 1870491166 -184553897</internalNodes>
          <leafValues>
            -3.5283306241035461e-01 3.4939175844192505e-01</leafValues></_>
        <_>
          <internalNodes>
            0 -1 43 -72354383 -78205107 -142609073 -1948487152 825750699
            -33751041 62762122 -305139638</internalNodes>
          <leafValues>
            -2.7457684278488159e-01 4.8514908552169800e-01</leafValues></_>
        <_>
          <internalNodes>
            0 -1 15 -742988489 -1741130652 -9001947 839935783 103023919
            -2030407746 1003493801 -1191362773</internalNodes>
          <leafValues>
            -3.3565112948417664e-01 3.7159615755081177e-01</leafValues></_></weakClassifiers></_>
    <!-- stage 17 -->
    <_>
      <maxWeakCount>14</maxWeakCount>
      <stageThreshold>-9.9166965484619141e-01</stageThreshold>
      <weakClassifiers>
        <_>
          <internalNodes>
            0 -1 85 950031697 602802031 -1077936129 -1078071297
            1736277774 805138238 2147450877 -1375764545</internalNodes>
          <leafValues>
            -3.5605806112289429e-01 4.0498399734497070e-01</leafValues></_>
        <_>
          <internalNodes>
            0 -1 108 -4259841 -1104138564 2138594743 1027411437
            -650846310 -546530545 791216010 -1074020433</internalNodes>
          <leafValues>
            -2.3409520089626312e-01 4.7738522291183472e-01</leafValues></_>
        <_>
          <internalNodes>
            0 -1 80 -1078308353 -945264280 1350543615 -752018179
            -1111821880 -1984169089 -1707360562 -63300294</internalNodes>
          <leafValues>
            -3.1850054860115051e-01 3.5931548476219177e-01</leafValues></_>
        <_>
          <internalNodes>
            0 -1 189 -826283101 -793598169 -419437082 -442175498
            1936133957 91680629 -1685642 -438108570</internalNodes>
          <leafValues>
            -3.3356460928916931e-01 3.4468358755111694e-01</leafValues></_>
        <_>
          <internalNodes>
            0 -1 179 -924127233 187366831 -1108636235 731520995
            -2048885259 -170296859 -1778968643 -1378798989</internalNodes>
          <leafValues>
            -3.4662923216819763e-01 3.4876289963722229e-01</leafValues></_>
        <_>
          <internalNodes>
            0 -1 19 -696309979 -195903561 666646399 -1163858126
            -1818610475 -2048650073 1857441647 -990486730</internalNodes>
          <leafValues>
            -3.5237941145896912e-01 3.2007786631584167e-01</leafValues></_>
        <_>
          <internalNodes>
            0 -1 146 -1585258 873191225 -1947050434 87353120 1827228764
            2013230452 -454271922 -524226746</internalNodes>
          <leafValues>
            -3.8555651903152466e-01 2.8555330634117126e-01</leafValues></_>
        <_>
          <internalNodes>
            0 -1 42 -783955218 -538177714 2081947263 1998945774
            1890613754 -519282871 2004049712 1162307553</internalNodes>
          <leafValues>
            -4.5875421166419983e-01 2.5437447428703308e-01</leafValues></_>
        <_>
          <internalNodes>
            0 -1 198 79435197 780021501 -1073799186 1050197148
            -541690373 -198163 -1074072592 -1364968428</internalNodes>
          <leafValues>
            -4.5040380954742432e-01 2.4721740186214447e-01</leafValues></_>
        <_>
          <internalNodes>
            0 -1 66 972121256 245393928 799911564 1165242129 930399436
            -379625650 72230615 1196713800</internalNodes>
          <leafValues>
            -6.4329445362091064e-01 1.8868079781532288e-01</leafValues></_>
        <_>
          <internalNodes>
            0 -1 152 -134217793 -135279368 870078969 1577015548 -786024
            1810812891 -1111966241 -71303681</internalNodes>
          <leafValues>
            -2.6562771201133728e-01 4.9619427323341370e-01</leafValues></_>
        <_>
          <internalNodes>
            0 -1 52 -1162783492 -1685448456 1115156702 175839832
            -147801767 -131623555 1950088411 -1362151441</internalNodes>
          <leafValues>
            -3.6838579177856445e-01 3.4024259448051453e-01</leafValues></_>
        <_>
          <internalNodes>
            0 -1 1 -566502851 829259063 -17144009 -1086917441 -753438395
            1851207669 -714006428 -705171337</internalNodes>
          <leafValues>
            -3.3633849024772644e-01 3.6917200684547424e-01</leafValues></_>
        <_>
          <internalNodes>
            0 -1 113 146779166 1660230901 -477811939 1598387293
            -1050549072 -143402063 -856053666 -864860044</internalNodes>
          <leafValues>
            -3.9939993619918823e-01 2.9980045557022095e-01</leafValues></_></weakClassifiers></_>
    <!-- stage 18 -->
    <_>
      <maxWeakCount>14</maxWeakCount>
      <stageThreshold>-1.0126218795776367e+00</stageThreshold>
      <weakClassifiers>
        <_>
          <internalNodes>
            0 -1 125 -1198485312 1434472418 1031447458 1973108274
            640368647 204073470 938782950 1060929450</internalNodes>
          <leafValues>
            -5.4133331775665283e-01 3.4687462449073792e-01</leafValues></_>
        <_>
          <internalNodes>
            0 -1 171 -547496459 -28475521 -2097349902 1069505784
            251485693 -1162145829 -50867022 -537928484</internalNodes>
          <leafValues>
            -2.7672529220581055e-01 4.3995267152786255e-01</leafValues></_>
        <_>
          <internalNodes>
            0 -1 67 -270162033 1543479964 -1888776693 -1343770863
            -70333822 72316684 -1529958757 1372846071</internalNodes>
          <leafValues>
            -3.4193190932273865e-01 3.3052781224250793e-01</leafValues></_>
        <_>
          <internalNodes>
            0 -1 154 2054556975 977029695 -117547137 -26179266 737980171
            788409655 738077998 -296220658</internalNodes>
          <leafValues>
            -4.0683147311210632e-01 2.9426103830337524e-01</leafValues></_>
        <_>
          <internalNodes>
            0 -1 137 -47925327 337657271 -1217141190 -8451922 -285493607
            -851443907 -1610627589 -1620064882</internalNodes>
          <leafValues>
            -2.9523605108261108e-01 3.8839074969291687e-01</leafValues></_>
        <_>
          <internalNodes>
            0 -1 17 -29364697 537129759 1925177184 -2135130730 -13122491
            642247727 -428379132 -989856748</internalNodes>
          <leafValues>
            -3.8857847452163696e-01 3.0565968155860901e-01</leafValues></_>
        <_>
          <internalNodes>
            0 -1 162 -789822380 -35709890 -1560316880 292442112
            -839053923 2134515549 2143096848 1102051593</internalNodes>
          <leafValues>
            -5.5427241325378418e-01 1.9649402797222137e-01</leafValues></_>
        <_>
          <internalNodes>
            0 -1 170 -927559787 406859644 -235683983 -1175384203
            -1929728515 -558104579 -914530818 -561367210</internalNodes>
          <leafValues>
            -3.4463143348693848e-01 3.3879226446151733e-01</leafValues></_>
        <_>
          <internalNodes>
            0 -1 158 -2002217594 -811040824 -1159748946 -10347192
            184190661 255489335 -1829121806 322052093</internalNodes>
          <leafValues>
            -5.4064702987670898e-01 2.1664695441722870e-01</leafValues></_>
        <_>
          <internalNodes>
            0 -1 118 2146221951 -1112523156 586003389 -135707143
            -1174742568 780031325 674814890 -5592438</internalNodes>
          <leafValues>
            -2.8303772211074829e-01 4.1808450222015381e-01</leafValues></_>
        <_>
          <internalNodes>
            0 -1 149 -796391982 230653815 -1289391148 936851058
            -1077994742 -1888682121 -1324390041 -1073896229</internalNodes>
          <leafValues>
            -4.5747688412666321e-01 2.5156563520431519e-01</leafValues></_>
        <_>
          <internalNodes>
            0 -1 34 -2147293625 -1416551592 -327417995 -1322603966
            175542517 -838975513 -305691956 -1058077120</internalNodes>
          <leafValues>
            -3.5505753755569458e-01 3.3740958571434021e-01</leafValues></_>
        <_>
          <internalNodes>
            0 -1 117 -1713377281 284229138 -1748170870 -2016619772
            -171082033 821614390 -193672178 -463012345</internalNodes>
          <leafValues>
            -2.8782865405082703e-01 3.9903676509857178e-01</leafValues></_>
        <_>
          <internalNodes>
            0 -1 193 -503855117 -1296368705 1995964402 -2085429318
            2013233089 1422677759 -302593 -151651710</internalNodes>
          <leafValues>
            -2.8328287601470947e-01 4.3401327729225159e-01</leafValues></_></weakClassifiers></_>
    <!-- stage 19 -->
    <_>
      <maxWeakCount>14</maxWeakCount>
      <stageThreshold>-9.2048311233520508e-01</stageThreshold>
      <weakClassifiers>
        <_>
          <internalNodes>
            0 -1 121 -174006902 1428188264 -485365220 1568604410
            -1388609398 1328242558 288870559 23550602</internalNodes>
          <leafValues>
            -4.1562500596046448e-01 3.8465595245361328e-01</leafValues></_>
        <_>
          <internalNodes>
            0 -1 114 -1 -1616331010 57734110 -1749157667 -142607224
            526360158 867892154 -267781</internalNodes>
          <leafValues>
            -2.3939159512519836e-01 5.0313383340835571e-01</leafValues></_>
        <_>
          <internalNodes>
            0 -1 38 1384314834 -608471590 1139979250 1902260384
            1048573823 763354943 905410547 2004308018</internalNodes>
          <leafValues>
            -4.5273020863533020e-01 2.5563701987266541e-01</leafValues></_>
        <_>
          <internalNodes>
            0 -1 133 1120454878 1441861443 -1415370834 1074990626
            1711601070 -268473105 1789555454 -1299</internalNodes>
          <leafValues>
            -4.1176420450210571e-01 2.6189571619033813e-01</leafValues></_>
        <_>
          <internalNodes>
            0 -1 147 -630530081 498409449 910129015 -1116622337
            993506235 -894437377 1065351167 -609537</internalNodes>
          <leafValues>
            -2.8372463583946228e-01 3.9287656545639038e-01</leafValues></_>
        <_>
          <internalNodes>
            0 -1 18 -284191177 35292987 2054143989 -1226220042
            -428366300 82271601 -264953676 -2064124710</internalNodes>
          <leafValues>
            -3.5890454053878784e-01 3.1250429153442383e-01</leafValues></_>
        <_>
          <internalNodes>
            0 -1 56 -73305609 -1695587503 -570722324 868184898
            -1090650994 -4205185 -1530008353 -477146293</internalNodes>
          <leafValues>
            -2.6023089885711670e-01 4.3817383050918579e-01</leafValues></_>
        <_>
          <internalNodes>
            0 -1 33 -375946597 -685534301 1060966010 -8375248 56952487
            -1660603101 -1431533400 -437926398</internalNodes>
          <leafValues>
            -3.2486450672149658e-01 3.4866702556610107e-01</leafValues></_>
        <_>
          <internalNodes>
            0 -1 61 1193956303 -503684 -84935521 -1973040588 1914852167
            -1391913729 -1361719786 -437458331</internalNodes>
          <leafValues>
            -3.1975117325782776e-01 3.5702791810035706e-01</leafValues></_>
        <_>
          <internalNodes>
            0 -1 92 -142553976 -1411297630 -1888600565 -1212158640
            1953807488 711757325 15496318 319145294</internalNodes>
          <leafValues>
            -6.1294198036193848e-01 1.9424173235893250e-01</leafValues></_>
        <_>
          <internalNodes>
            0 -1 157 -1876897536 1362689980 -1352641536 1576984104
            -1430743923 255385471 -1315594374 161529658</internalNodes>
          <leafValues>
            -5.1331579685211182e-01 2.2049707174301147e-01</leafValues></_>
        <_>
          <internalNodes>
            0 -1 165 -90474479 -197980144 -105975903 54461816 -123016143
            831059755 -85201938 -1950652179</internalNodes>
          <leafValues>
            -3.6036756634712219e-01 3.2791170477867126e-01</leafValues></_>
        <_>
          <internalNodes>
            0 -1 135 -288362505 1350781564 -1716228547 99419228
            -539839088 335197657 -1699565669 -18099955</internalNodes>
          <leafValues>
            -2.9024207592010498e-01 4.1862913966178894e-01</leafValues></_>
        <_>
          <internalNodes>
            0 -1 35 -794138053 -143774921 1617585851 841690703
            1986043694 1580131197 2109932263 -1100283925</internalNodes>
          <leafValues>
            -3.1103739142417908e-01 3.7067702412605286e-01</leafValues></_></weakClassifiers></_></stages>
  <features>
    <_>
      <rect>
        0 28 7 5</rect></_>
    <_>
      <rect>
        0 29 6 5</rect></_>
    <_>
      <rect>
        1 31 14 12</rect></_>
    <_>
      <rect>
        1 34 15 11</rect></_>
    <_>
      <rect>
        1 55 7 1</rect></_>
    <_>
      <rect>
        2 6 16 10</rect></_>
    <_>
      <rect>
        2 8 8 15</rect></_>
    <_>
      <rect>
        2 12 1 10</rect></_>
    <_>
      <rect>
        2 12 12 7</rect></_>
    <_>
      <rect>
        2 22 1 7</rect></_>
    <_>
      <rect>
        3 5 12 10</rect></_>
    <_>
      <rect>
        3 6 11 13</rect></_>
    <_>
      <rect>
        3 22 1 9</rect></_>
    <_>
      <rect>
        3 36 12 10</rect></_>
    <_>
      <rect>
        4 3 1 6</rect></_>
    <_>
      <rect>
        4 15 9 18</rect></_>
    <_>
      <rect>
        4 21 8 9</rect></_>
    <_>
      <rect>
        4 25 5 4</rect></_>
    <_>
      <rect>
        4 27 5 6</rect></_>
    <_>
      <rect>
        4 36 13 10</rect></_>
    <_>
      <rect>
        5 2 1 6</rect></_>
    <_>
      <rect>
        5 26 9 14</rect></_>
    <_>
      <rect>
        5 37 5 1</rect></_>
    <_>
      <rect>
        6 6 1 10</rect></_>
    <_>
      <rect>
        6 38 8 5</rect></_>
    <_>
      <rect>
        7 26 5 5</rect></_>
    <_>
      <rect>
        7 36 6 2</rect></_>
    <_>
      <rect>
        7 43 1 8</rect></_>
    <_>
      <rect>
        8 29 6 5</rect></_>
    <_>
      <rect>
        8 29 6 7</rect></_>
    <_>
      <rect>
        8 38 13 9</rect></_>
    <_>
      <rect>
        9 19 6 7</rect></_>
    <_>
      <rect>
        9 26 6 9</rect></_>
    <_>
      <rect>
        10 1 18 10</rect></_>
    <_>
      <rect>
        10 12 8 6</rect></_>
    <_>
      <rect>
        12 38 4 4</rect></_>
    <_>
      <rect>
        13 23 5 6</rect></_>
    <_>
      <rect>
        13 31 6 6</rect></_>
    <_>
      <rect>
        13 33 7 5</rect></_>
    <_>
      <rect>
        15 29 6 5</rect></_>
    <_>
      <rect>
        16 6 11 8</rect></_>
    <_>
      <rect>
        16 8 12 11</rect></_>
    <_>
      <rect>
        16 19 6 5</rect></_>
    <_>
      <rect>
        16 31 9 7</rect></_>
    <_>
      <rect>
        16 39 5 5</rect></_>
    <_>
      <rect>
        16 66 6 1</rect></_>
    <_>
      <rect>
        17 25 10 6</rect></_>
    <_>
      <rect>
        17 29 9 14</rect></_>
    <_>
      <rect>
        18 27 10 4</rect></_>
    <_>
      <rect>
        18 33 7 6</rect></_>
    <_>
      <rect>
        19 11 4 5</rect></_>
    <_>
      <rect>
        19 21 10 4</rect></_>
    <_>
      <rect>
        19 24 8 5</rect></_>
    <_>
      <rect>
        19 25 11 5</rect></_>
    <_>
      <rect>
        19 28 9 4</rect></_>
    <_>
      <rect>
        19 28 9 8</rect></_>
    <_>
      <rect>
        19 31 8 5</rect></_>
    <_>
      <rect>
        20 7 11 14</rect></_>
    <_>
      <rect>
        20 7 17 7</rect></_>
    <_>
      <rect>
        20 17 9 9</rect></_>
    <_>
      <rect>
        20 19 10 5</rect></_>
    <_>
      <rect>
        20 19 11 5</rect></_>
    <_>
      <rect>
        20 21 10 9</rect></_>
    <_>
      <rect>
        20 24 10 5</rect></_>
    <_>
      <rect>
        20 28 10 4</rect></_>
    <_>
      <rect>
        20 30 11 4</rect></_>
    <_>
      <rect>
        20 32 11 5</rect></_>
    <_>
      <rect>
        20 40 10 4</rect></_>
    <_>
      <rect>
        20 56 1 4</rect></_>
    <_>
      <rect>
        21 18 5 9</rect></_>
    <_>
      <rect>
        21 21 6 4</rect></_>
    <_>
      <rect>
        21 21 10 10</rect></_>
    <_>
      <rect>
        21 23 7 8</rect></_>
    <_>
      <rect>
        21 24 10 9</rect></_>
    <_>
      <rect>
        21 28 17 13</rect></_>
    <_>
      <rect>
        21 30 10 7</rect></_>
    <_>
      <rect>
        22 4 7 17</rect></_>
    <_>
      <rect>
        22 17 10 13</rect></_>
    <_>
      <rect>
        22 20 10 11</rect></_>
    <_>
      <rect>
        22 25 7 8</rect></_>
    <_>
      <rect>
        22 27 8 4</rect></_>
    <_>
      <rect>
        22 28 11 9</rect></_>
    <_>
      <rect>
        22 33 8 4</rect></_>
    <_>
      <rect>
        22 37 6 4</rect></_>
    <_>
      <rect>
        22 42 3 5</rect></_>
    <_>
      <rect>
        23 17 10 12</rect></_>
    <_>
      <rect>
        23 18 6 9</rect></_>
    <_>
      <rect>
        23 20 6 9</rect></_>
    <_>
      <rect>
        23 20 8 4</rect></_>
    <_>
      <rect>
        23 23 6 5</rect></_>
    <_>
      <rect>
        23 26 8 5</rect></_>
    <_>
      <rect>
        23 28 6 4</rect></_>
    <_>
      <rect>
        23 36 9 5</rect></_>
    <_>
      <rect>
        23 42 15 7</rect></_>
    <_>
      <rect>
        24 0 1 8</rect></_>
    <_>
      <rect>
        24 20 9 5</rect></_>
    <_>
      <rect>
        24 21 9 5</rect></_>
    <_>
      <rect>
        24 22 10 9</rect></_>
    <_>
      <rect>
        24 24 7 7</rect></_>
    <_>
      <rect>
        24 24 8 6</rect></_>
    <_>
      <rect>
        24 33 6 6</rect></_>
    <_>
      <rect>
        24 34 9 4</rect></_>
    <_>
      <rect>
        24 39 9 3</rect></_>
    <_>
      <rect>
        24 45 6 5</rect></_>
    <_>
      <rect>
        25 18 6 9</rect></_>
    <_>
      <rect>
        25 18 8 10</rect></_>
    <_>
      <rect>
        25 20 7 3</rect></_>
    <_>
      <rect>
        25 37 9 5</rect></_>
    <_>
      <rect>
        25 45 5 5</rect></_>
    <_>
      <rect>
        25 46 6 4</rect></_>
    <_>
      <rect>
        25 47 7 5</rect></_>
    <_>
      <rect>
        26 23 6 5</rect></_>
    <_>
      <rect>
        26 29 9 7</rect></_>
    <_>
      <rect>
        26 34 11 10</rect></_>
    <_>
      <rect>
        26 45 5 4</rect></_>
    <_>
      <rect>
        26 47 7 4</rect></_>
    <_>
      <rect>
        27 6 14 13</rect></_>
    <_>
      <rect>
        27 43 3 2</rect></_>
    <_>
      <rect>
        27 45 4 4</rect></_>
    <_>
      <rect>
        27 51 1 5</rect></_>
    <_>
      <rect>
        28 10 5 4</rect></_>
    <_>
      <rect>
        28 19 6 5</rect></_>
    <_>
      <rect>
        28 31 7 7</rect></_>
    <_>
      <rect>
        28 38 12 9</rect></_>
    <_>
      <rect>
        28 48 6 3</rect></_>
    <_>
      <rect>
        29 27 7 6</rect></_>
    <_>
      <rect>
        29 32 8 6</rect></_>
    <_>
      <rect>
        29 65 5 1</rect></_>
    <_>
      <rect>
        30 12 13 7</rect></_>
    <_>
      <rect>
        30 19 6 5</rect></_>
    <_>
      <rect>
        30 21 7 10</rect></_>
    <_>
      <rect>
        30 24 6 6</rect></_>
    <_>
      <rect>
        30 24 7 9</rect></_>
    <_>
      <rect>
        30 28 8 8</rect></_>
    <_>
      <rect>
        30 46 6 4</rect></_>
    <_>
      <rect>
        30 48 6 4</rect></_>
    <_>
      <rect>
        31 8 13 11</rect></_>
    <_>
      <rect>
        31 17 5 6</rect></_>
    <_>
      <rect>
        31 17 6 9</rect></_>
    <_>
      <rect>
        31 18 7 10</rect></_>
    <_>
      <rect>
        31 19 6 6</rect></_>
    <_>
      <rect>
        31 23 5 5</rect></_>
    <_>
      <rect>
        31 24 4 5</rect></_>
    <_>
      <rect>
        31 25 4 5</rect></_>
    <_>
      <rect>
        32 20 7 4</rect></_>
    <_>
      <rect>
        32 35 7 5</rect></_>
    <_>
      <rect>
        32 43 3 2</rect></_>
    <_>
      <rect>
        33 19 6 10</rect></_>
    <_>
      <rect>
        33 21 6 10</rect></_>
    <_>
      <rect>
        33 22 4 9</rect></_>
    <_>
      <rect>
        33 32 13 12</rect></_>
    <_>
      <rect>
        33 34 12 11</rect></_>
    <_>
      <rect>
        33 45 5 4</rect></_>
    <_>
      <rect>
        34 26 6 6</rect></_>
    <_>
      <rect>
        36 2 11 13</rect></_>
    <_>
      <rect>
        36 4 11 16</rect></_>
    <_>
      <rect>
        36 20 12 15</rect></_>
    <_>
      <rect>
        36 22 6 5</rect></_>
    <_>
      <rect>
        36 26 5 4</rect></_>
    <_>
      <rect>
        37 1 1 7</rect></_>
    <_>
      <rect>
        37 28 6 5</rect></_>
    <_>
      <rect>
        37 32 6 6</rect></_>
    <_>
      <rect>
        37 35 4 6</rect></_>
    <_>
      <rect>
        38 0 1 5</rect></_>
    <_>
      <rect>
        38 53 1 6</rect></_>
    <_>
      <rect>
        39 1 11 22</rect></_>
    <_>
      <rect>
        40 21 3 6</rect></_>
    <_>
      <rect>
        40 21 4 8</rect></_>
    <_>
      <rect>
        40 29 6 7</rect></_>
    <_>
      <rect>
        41 3 9 17</rect></_>
    <_>
      <rect>
        41 25 10 14</rect></_>
    <_>
      <rect>
        41 40 5 5</rect></_>
    <_>
      <rect>
        41 48 10 1</rect></_>
    <_>
      <rect>
        42 16 10 13</rect></_>
    <_>
      <rect>
        42 43 9 1</rect></_>
    <_>
      <rect>
        43 31 7 4</rect></_>
    <_>
      <rect>
        44 28 7 8</rect></_>
    <_>
      <rect>
        44 32 5 6</rect></_>
    <_>
      <rect>
        44 49 1 7</rect></_>
    <_>
      <rect>
        45 17 9 16</rect></_>
    <_>
      <rect>
        45 28 6 7</rect></_>
    <_>
      <rect>
        45 38 3 5</rect></_>
    <_>
      <rect>
        46 22 4 5</rect></_>
    <_>
      <rect>
        46 39 1 11</rect></_>
    <_>
      <rect>
        47 2 1 9</rect></_>
    <_>
      <rect>
        48 23 6 7</rect></_>
    <_>
      <rect>
        48 30 4 5</rect></_>
    <_>
      <rect>
        48 33 5 5</rect></_>
    <_>
      <rect>
        48 53 1 6</rect></_>
    <_>
      <rect>
        53 30 5 3</rect></_>
    <_>
      <rect>
        53 63 1 3</rect></_>
    <_>
      <rect>
        54 26 6 4</rect></_>
    <_>
      <rect>
        55 34 4 1</rect></_>
    <_>
      <rect>
        56 31 5 3</rect></_>
    <_>
      <rect>
        57 69 5 1</rect></_>
    <_>
      <rect>
        60 35 4 1</rect></_>
    <_>
      <rect>
        64 5 1 8</rect></_>
    <_>
      <rect>
        66 23 1 12</rect></_>
    <_>
      <rect>
        67 28 1 6</rect></_>
    <_>
      <rect>
        67 34 1 7</rect></_>
    <_>
      <rect>
        69 38 1 6</rect></_></features></cascade>
</opencv_storage>
