<?xml version="1.0"?>
<opencv_storage>
<stage8>
  <maxWeakCount>11</maxWeakCount>
  <stageThreshold>-9.8803901672363281e-01</stageThreshold>
  <weakClassifiers>
    <_>
      <internalNodes>
        0 -1 438948 -106409480 1965048936 326332666 460783864
        -1321684536 120323935 876329194 389234367</internalNodes>
      <leafValues>
        -5.4506063461303711e-01 3.9704006910324097e-01</leafValues></_>
    <_>
      <internalNodes>
        0 -1 386257 -1325394768 196030319 176109740 452980435 -176870386
        -269631701 -1560940849 -19924289</internalNodes>
      <leafValues>
        -5.7384955883026123e-01 2.7046385407447815e-01</leafValues></_>
    <_>
      <internalNodes>
        0 -1 46079 242229045 -302219395 -268972033 -1099137291
        1047532853 -524289 -1074696972 -1364189932</internalNodes>
      <leafValues>
        -4.9092960357666016e-01 3.1065389513969421e-01</leafValues></_>
    <_>
      <internalNodes>
        0 -1 590910 -1069300524 -604246577 -1460168972 355679743
        -291262533 -828194833 674607794 674216623</internalNodes>
      <leafValues>
        -5.0309807062149048e-01 2.9916048049926758e-01</leafValues></_>
    <_>
      <internalNodes>
        0 -1 146179 -218120137 987062 1627302438 -1293455494 -715144331
        1164931061 -465222320 -322208162</internalNodes>
      <leafValues>
        -3.8887256383895874e-01 3.7618395686149597e-01</leafValues></_>
    <_>
      <internalNodes>
        0 -1 486971 -639578646 1574988924 -147127515 -571538386
        -1388340309 -1925193833 -2048921089 -1613802065</internalNodes>
      <leafValues>
        -3.5609903931617737e-01 4.2126575112342834e-01</leafValues></_>
    <_>
      <internalNodes>
        0 -1 552105 -1065884203 2133877 -822522059 690037505 2060142069
        -1324896 -1189187 -38580553</internalNodes>
      <leafValues>
        -4.3615612387657166e-01 3.5369467735290527e-01</leafValues></_>
    <_>
      <internalNodes>
        0 -1 373541 -1313122833 635784960 2147425897 1464311569
        1141796750 -1074835457 1145728238 -347078968</internalNodes>
      <leafValues>
        -4.0092292428016663e-01 3.9602094888687134e-01</leafValues></_>
    <_>
      <internalNodes>
        0 -1 416458 -20853630 -677254560 -861672910 -134887887 820530382
        1728411919 -51055397 -186256043</internalNodes>
      <leafValues>
        -4.7403371334075928e-01 3.2431676983833313e-01</leafValues></_>
    <_>
      <internalNodes>
        0 -1 62536 181651429 -1845843155 -1921306627 -526276352
        215457765 653676535 -898641983 -890286592</internalNodes>
      <leafValues>
        -4.0854027867317200e-01 3.7161126732826233e-01</leafValues></_>
    <_>
      <internalNodes>
        0 -1 637492 -709366008 1068367420 653465269 278450909 760585228
        -1755333099 -1360099628 -1594495866</internalNodes>
      <leafValues>
        -4.1224020719528198e-01 3.7960398197174072e-01</leafValues></_></weakClassifiers></stage8>
</opencv_storage>
