<?xml version="1.0"?>
<opencv_storage>
<stage7>
  <maxWeakCount>7</maxWeakCount>
  <stageThreshold>-1.7576471567153931e+00</stageThreshold>
  <weakClassifiers>
    <_>
      <internalNodes>
        0 -1 398845 -620678831 1073692671 1073692671 -16401 536428543
        -17842185 2144280447 -49189</internalNodes>
      <leafValues>
        -6.5799885988235474e-01 2.6662635803222656e-01</leafValues></_>
    <_>
      <internalNodes>
        0 -1 505240 -62933197 -1141719241 -170410049 -1163214915
        -67264707 -1091109505 -1090601794 -1431388630</internalNodes>
      <leafValues>
        -5.8379727602005005e-01 3.2993042469024658e-01</leafValues></_>
    <_>
      <internalNodes>
        0 -1 703478 83631413 737974269 -147585 -1092059140 2147319647
        -268517377 -1147023 -1397740428</internalNodes>
      <leafValues>
        -5.2970081567764282e-01 3.9558655023574829e-01</leafValues></_>
    <_>
      <internalNodes>
        0 -1 125127 -927019309 -438440617 -889368718 -572919809
        1366364027 -269620259 1549599829 -285254921</internalNodes>
      <leafValues>
        -4.6128413081169128e-01 4.5336422324180603e-01</leafValues></_>
    <_>
      <internalNodes>
        0 -1 510624 -122626595 -34580995 -1145085953 -16962050
        -1087307777 -393217 -1086751233 -1077985799</internalNodes>
      <leafValues>
        -3.8409963250160217e-01 5.3744530677795410e-01</leafValues></_>
    <_>
      <internalNodes>
        0 -1 402087 -1078895109 -434760 783155101 -36735115 -1363286803
        -352684579 -1130045793 1112143173</internalNodes>
      <leafValues>
        -5.1817983388900757e-01 4.0783271193504333e-01</leafValues></_>
    <_>
      <internalNodes>
        0 -1 686409 -1460306013 -1472266433 -134220250 -2132106258
        1205686097 117440383 -605587712 -235604012</internalNodes>
      <leafValues>
        -4.7249919176101685e-01 4.5207771658897400e-01</leafValues></_></weakClassifiers></stage7>
</opencv_storage>
