<?xml version="1.0"?>
<opencv_storage>
<stage11>
  <maxWeakCount>12</maxWeakCount>
  <stageThreshold>-8.4033983945846558e-01</stageThreshold>
  <weakClassifiers>
    <_>
      <internalNodes>
        0 -1 487225 -591871350 363905196 749444146 363839564 -117716789
        1021985775 -1914712385 149932511</internalNodes>
      <leafValues>
        -4.6295601129531860e-01 3.5140711069107056e-01</leafValues></_>
    <_>
      <internalNodes>
        0 -1 510244 -791880225 938778109 -1107542147 1073496061
        935320415 771522559 -1141583873 -1393642318</internalNodes>
      <leafValues>
        -3.7324422597885132e-01 3.5145226120948792e-01</leafValues></_>
    <_>
      <internalNodes>
        0 -1 167290 1566048255 1609956735 -201905090 1874279530
        1198616574 1861811438 1055469192 1862247174</internalNodes>
      <leafValues>
        -3.6891415715217590e-01 3.3928096294403076e-01</leafValues></_>
    <_>
      <internalNodes>
        0 -1 202523 -1025323038 1949196142 -2038799776 -220050784
        180305639 -363643467 2008043706 -151816841</internalNodes>
      <leafValues>
        -4.0562352538108826e-01 3.2325071096420288e-01</leafValues></_>
    <_>
      <internalNodes>
        0 -1 373540 831541754 1039619524 1069249529 358023493
        -1261647189 -1073843471 65179 521803737</internalNodes>
      <leafValues>
        -5.7344883680343628e-01 1.9154137372970581e-01</leafValues></_>
    <_>
      <internalNodes>
        0 -1 645172 -449318479 1302995639 1157576149 1354956179
        -1346523620 -2037400060 814769330 16878475</internalNodes>
      <leafValues>
        -4.5740213990211487e-01 2.5316739082336426e-01</leafValues></_>
    <_>
      <internalNodes>
        0 -1 571576 -285217017 1110376302 -3162322 -1550913538
        1610568965 1617264495 -335708858 -453247113</internalNodes>
      <leafValues>
        -4.0817299485206604e-01 3.0696880817413330e-01</leafValues></_>
    <_>
      <internalNodes>
        0 -1 458375 -214695909 2079955479 -142724172 -1433915594
        -426690635 -78880453 -1413667228 -1601428757</internalNodes>
      <leafValues>
        -3.6699309945106506e-01 3.4254404902458191e-01</leafValues></_>
    <_>
      <internalNodes>
        0 -1 330054 -1877904642 -81694719 -1237405445 -211340973
        -2118529829 -852467623 -1879014213 -1155822083</internalNodes>
      <leafValues>
        -3.5874056816101074e-01 3.6520221829414368e-01</leafValues></_>
    <_>
      <internalNodes>
        0 -1 657859 -82845191 -1040452723 1876424642 1909653345
        691349720 -1935852072 -1896506677 -1546131341</internalNodes>
      <leafValues>
        -2.8516626358032227e-01 4.4712808728218079e-01</leafValues></_>
    <_>
      <internalNodes>
        0 -1 196816 1322667826 -1501201827 972877651 -519929792
        816907792 198278972 -84851022 -28890800</internalNodes>
      <leafValues>
        -5.0100636482238770e-01 2.6021090149879456e-01</leafValues></_>
    <_>
      <internalNodes>
        0 -1 487430 -391082856 1437605240 -1188022787 1031347280
        -1170729800 -71659526 823135460 429596318</internalNodes>
      <leafValues>
        -6.3890761137008667e-01 1.7072591185569763e-01</leafValues></_></weakClassifiers></stage11>
</opencv_storage>
