<?xml version="1.0"?>
<opencv_storage>
<stage10>
  <maxWeakCount>12</maxWeakCount>
  <stageThreshold>-1.2438853979110718e+00</stageThreshold>
  <weakClassifiers>
    <_>
      <internalNodes>
        0 -1 399096 -1575898219 -1073856513 2147303421 -16419 1073496060
        1072758749 -983043 -265073405</internalNodes>
      <leafValues>
        -2.8260868787765503e-01 4.6388128399848938e-01</leafValues></_>
    <_>
      <internalNodes>
        0 -1 5541 -394860941 204926777 -307270160 -274535362 -1032568065
        1584824084 -718994384 -294160634</internalNodes>
      <leafValues>
        -3.8443291187286377e-01 3.4712040424346924e-01</leafValues></_>
    <_>
      <internalNodes>
        0 -1 499803 -1061102369 863309687 -1560379521 -565264 -196609
        -16973825 -268505089 -590434062</internalNodes>
      <leafValues>
        -3.3190324902534485e-01 3.9163392782211304e-01</leafValues></_>
    <_>
      <internalNodes>
        0 -1 267330 -1087879966 -13959168 -501156112 2134865397
        -1089809197 1059026036 873657971 990516569</internalNodes>
      <leafValues>
        -6.0075485706329346e-01 2.2198788821697235e-01</leafValues></_>
    <_>
      <internalNodes>
        0 -1 116668 671027175 217562591 -1091571806 -1561395476
        2013233015 1199439735 -135313548 -462094764</internalNodes>
      <leafValues>
        -4.7039705514907837e-01 2.8875041007995605e-01</leafValues></_>
    <_>
      <internalNodes>
        0 -1 357528 -1189063460 456263928 219365375 536812061
        -1088909080 2143252973 1042980863 926563549</internalNodes>
      <leafValues>
        -6.3437288999557495e-01 1.6771699488162994e-01</leafValues></_>
    <_>
      <internalNodes>
        0 -1 598398 -62392563 -1339361915 -289411150 -1607010720
        -462590719 554132589 -320864884 -991232185</internalNodes>
      <leafValues>
        -4.1201531887054443e-01 3.3005630970001221e-01</leafValues></_>
    <_>
      <internalNodes>
        0 -1 638509 -1296047181 62632759 -2031650954 1911881714
        330775944 146973884 -1195524968 -2135691693</internalNodes>
      <leafValues>
        -3.2987090945243835e-01 4.0413305163383484e-01</leafValues></_>
    <_>
      <internalNodes>
        0 -1 375178 -6031744 -695168 -44401074 -137931536 344200856
        -1126271729 3412890 864507143</internalNodes>
      <leafValues>
        -5.5732834339141846e-01 2.1649070084095001e-01</leafValues></_>
    <_>
      <internalNodes>
        0 -1 253925 -356888713 -33665217 1718514226 812677750 1358384637
        -550011098 -92400200 -299204877</internalNodes>
      <leafValues>
        -3.5440075397491455e-01 3.7741589546203613e-01</leafValues></_>
    <_>
      <internalNodes>
        0 -1 249073 -93140846 -1410586980 1920800185 -51048461 980584952
        256172026 1898980432 -581090133</internalNodes>
      <leafValues>
        -3.8332474231719971e-01 3.4826478362083435e-01</leafValues></_>
    <_>
      <internalNodes>
        0 -1 392660 -924879045 1900019068 -134234253 -105058508
        1845485311 -9443591 -25298 -527275493</internalNodes>
      <leafValues>
        -3.2377836108207703e-01 4.2720311880111694e-01</leafValues></_></weakClassifiers></stage10>
</opencv_storage>
