<?xml version="1.0"?>
<opencv_storage>
<stage8>
  <maxWeakCount>8</maxWeakCount>
  <stageThreshold>-6.5260905027389526e-01</stageThreshold>
  <weakClassifiers>
    <_>
      <internalNodes>
        0 -1 49479 623916373 -1350795267 -65537 -285278221 771505972
        -524295 -229776 -1359999632</internalNodes>
      <leafValues>
        -3.9649358391761780e-01 4.9075326323509216e-01</leafValues></_>
    <_>
      <internalNodes>
        0 -1 330031 -1146595936 -1951439616 469754157 1526682131
        -1263076212 -336592897 12893342 -127928753</internalNodes>
      <leafValues>
        -5.4965251684188843e-01 3.3086815476417542e-01</leafValues></_>
    <_>
      <internalNodes>
        0 -1 547514 2122243903 2121695007 -42057857 -30115060 -386191585
        -1905361093 -1372713458 -833747954</internalNodes>
      <leafValues>
        -4.5311835408210754e-01 3.9301571249961853e-01</leafValues></_>
    <_>
      <internalNodes>
        0 -1 477836 -222772022 -35631134 -1074843729 1970345507
        -496049010 -13938857 597848738 50817890</internalNodes>
      <leafValues>
        -6.0427981615066528e-01 3.0673491954803467e-01</leafValues></_>
    <_>
      <internalNodes>
        0 -1 35379 -2672857 -159631489 -474849417 -1222574480
        -1745614925 -1057724939 -507611977 -303890637</internalNodes>
      <leafValues>
        -4.3170997500419617e-01 4.2836272716522217e-01</leafValues></_>
    <_>
      <internalNodes>
        0 -1 713914 141821301 142368757 -1092137473 -1193910820
        -352432261 -4225 -67207471 -1095746512</internalNodes>
      <leafValues>
        -4.9590909481048584e-01 3.6049002408981323e-01</leafValues></_>
    <_>
      <internalNodes>
        0 -1 438948 -173518384 -72873752 52654330 1584595056 -1146054200
        221142879 339454088 363537663</internalNodes>
      <leafValues>
        -6.6804641485214233e-01 2.8700008988380432e-01</leafValues></_>
    <_>
      <internalNodes>
        0 -1 37398 -1543526641 842923879 587153222 -1560813571 662675265
        1651865943 -428452016 -185925769</internalNodes>
      <leafValues>
        -4.9380373954772949e-01 3.6354684829711914e-01</leafValues></_></weakClassifiers></stage8>
</opencv_storage>
