<?xml version="1.0"?>
<opencv_storage>
<stage11>
  <maxWeakCount>10</maxWeakCount>
  <stageThreshold>-9.0260410308837891e-01</stageThreshold>
  <weakClassifiers>
    <_>
      <internalNodes>
        0 -1 384669 -4483883 -1119899905 1484745454 1610583807
        2105360079 -335565985 1493170942 -545265026</internalNodes>
      <leafValues>
        -2.2991967201232910e-01 5.6088995933532715e-01</leafValues></_>
    <_>
      <internalNodes>
        0 -1 402733 -504393747 -1317826777 1308610045 1968566111
        -402788879 -1595839055 -53131044 -402655237</internalNodes>
      <leafValues>
        -2.9622584581375122e-01 5.1846295595169067e-01</leafValues></_>
    <_>
      <internalNodes>
        0 -1 312629 815808648 802097070 -1077936177 -1342183685
        859570702 1073684347 -67129373 -1409286917</internalNodes>
      <leafValues>
        -7.2455763816833496e-01 2.2098138928413391e-01</leafValues></_>
    <_>
      <internalNodes>
        0 -1 575571 477368181 180116863 -1342210051 -1091027595
        777813821 -90153 -229513 -1073791050</internalNodes>
      <leafValues>
        -3.9498040080070496e-01 3.7254875898361206e-01</leafValues></_>
    <_>
      <internalNodes>
        0 -1 425457 -617942726 -39269172 1366216894 1610434766 -83106941
        -1884717057 -75663169 -1380974841</internalNodes>
      <leafValues>
        -3.8846760988235474e-01 4.1165289282798767e-01</leafValues></_>
    <_>
      <internalNodes>
        0 -1 35664 -218296553 -160157889 -957972685 -73341128 130875821
        -160420041 75562871 -4194562</internalNodes>
      <leafValues>
        -3.4830918908119202e-01 4.5145699381828308e-01</leafValues></_>
    <_>
      <internalNodes>
        0 -1 300649 -592380609 -68092033 234514290 -1292140942 721221503
        -1636823329 1425692138 -457509462</internalNodes>
      <leafValues>
        -3.3946296572685242e-01 4.5095428824424744e-01</leafValues></_>
    <_>
      <internalNodes>
        0 -1 297734 1344454864 -106271568 -662165581 -766961276
        829702644 597843610 -178962639 2009032662</internalNodes>
      <leafValues>
        -5.3038007020950317e-01 3.0855232477188110e-01</leafValues></_>
    <_>
      <internalNodes>
        0 -1 53112 -688394713 1011857189 -285360200 668171995 -161542921
        559937363 -193645004 -521161323</internalNodes>
      <leafValues>
        -4.1339924931526184e-01 3.7251725792884827e-01</leafValues></_>
    <_>
      <internalNodes>
        0 -1 561791 -127741698 354996650 -1351114656 1040162734
        -1598041627 -1357022899 -1351233537 -1846076977</internalNodes>
      <leafValues>
        -4.0935710072517395e-01 3.8175112009048462e-01</leafValues></_></weakClassifiers></stage11>
</opencv_storage>
