<?xml version="1.0"?>
<opencv_storage>
<stage8>
  <maxWeakCount>7</maxWeakCount>
  <stageThreshold>-1.0129778385162354e+00</stageThreshold>
  <weakClassifiers>
    <_>
      <internalNodes>
        0 -1 487469 -791620129 1073553407 1002387447 1071594877
        1073741823 -1073742903 -1073744657 -1073741825</internalNodes>
      <leafValues>
        -6.2874901294708252e-01 2.8012719750404358e-01</leafValues></_>
    <_>
      <internalNodes>
        0 -1 638357 2100286609 1198184959 2130572791 1442709503
        -1884046405 -1392509121 934618805 -1075331137</internalNodes>
      <leafValues>
        -4.0986359119415283e-01 4.8965454101562500e-01</leafValues></_>
    <_>
      <internalNodes>
        0 -1 399668 -1179494915 -793224964 393575677 1577016568
        -1154420229 -1163750913 1043595227 1068175311</internalNodes>
      <leafValues>
        -6.7496323585510254e-01 2.9788017272949219e-01</leafValues></_>
    <_>
      <internalNodes>
        0 -1 185493 -289411473 847146999 -117506065 11730943 -1342192299
        1717829431 -268490896 -524615811</internalNodes>
      <leafValues>
        -4.4487264752388000e-01 4.6161857247352600e-01</leafValues></_>
    <_>
      <internalNodes>
        0 -1 580888 -1599414352 490262332 -301989889 1069190254
        -1212699203 -1091321868 -1107771780 -1393621844</internalNodes>
      <leafValues>
        -5.6269431114196777e-01 3.4723702073097229e-01</leafValues></_>
    <_>
      <internalNodes>
        0 -1 374183 -1078899201 -538288918 528367455 -571508923
        -1090659076 -1078370465 -1091244129 1682375719</internalNodes>
      <leafValues>
        -5.3932952880859375e-01 3.5225540399551392e-01</leafValues></_>
    <_>
      <internalNodes>
        0 -1 507523 -12845263 -1690436229 -1145489629 708050203
        1065295741 -100761803 -1120853 -1427636613</internalNodes>
      <leafValues>
        -4.5353984832763672e-01 4.6555951237678528e-01</leafValues></_></weakClassifiers></stage8>
</opencv_storage>
