<?xml version="1.0"?>
<opencv_storage>
<stage5>
  <maxWeakCount>6</maxWeakCount>
  <stageThreshold>-1.5994940996170044e+00</stageThreshold>
  <weakClassifiers>
    <_>
      <internalNodes>
        0 -1 424889 1997742421 1044070391 -151470081 2142191325
        872229887 -1091194881 939454463 -1074286625</internalNodes>
      <leafValues>
        -7.1446114778518677e-01 2.4547228217124939e-01</leafValues></_>
    <_>
      <internalNodes>
        0 -1 102581 -318787849 -1418752097 -118795 -17849472 -294178819
        -33591433 -17890064 -285260204</internalNodes>
      <leafValues>
        -5.3944438695907593e-01 4.1858285665512085e-01</leafValues></_>
    <_>
      <internalNodes>
        0 -1 441322 -1179069192 -33682479 -1610874915 -168724923
        -51577602 -892999 -488177698 1073905153</internalNodes>
      <leafValues>
        -7.1828734874725342e-01 2.9932436347007751e-01</leafValues></_>
    <_>
      <internalNodes>
        0 -1 632889 -419435225 553582463 -285212886 552528894 1727493381
        1087764343 -134793643 -520624649</internalNodes>
      <leafValues>
        -5.7147508859634399e-01 3.9121663570404053e-01</leafValues></_>
    <_>
      <internalNodes>
        0 -1 581906 -133921436 -1245897221 967882751 968563647
        -1145046017 -1079050273 -1677738286 -1073791240</internalNodes>
      <leafValues>
        -5.4565989971160889e-01 4.1849634051322937e-01</leafValues></_>
    <_>
      <internalNodes>
        0 -1 164713 -667237709 1602193311 978734993 980363263 37355605
        -702054531 2113750709 -788570133</internalNodes>
      <leafValues>
        -4.8889118432998657e-01 4.7222208976745605e-01</leafValues></_></weakClassifiers></stage5>
</opencv_storage>
