<?xml version="1.0"?>
<opencv_storage>
<stage14>
  <maxWeakCount>8</maxWeakCount>
  <stageThreshold>-1.6160455942153931e+00</stageThreshold>
  <weakClassifiers>
    <_>
      <internalNodes>
        0 -1 520663 -633152033 381622655 -1174422177 805255039
        1068496767 2147352396 -1076367797 -1073758721</internalNodes>
      <leafValues>
        -5.8582502603530884e-01 2.0717377960681915e-01</leafValues></_>
    <_>
      <internalNodes>
        0 -1 83877 -1570790669 -1615098115 -1851789323 -268464386
        291208703 -371564555 -63500 -335591851</internalNodes>
      <leafValues>
        -4.3938618898391724e-01 3.5039606690406799e-01</leafValues></_>
    <_>
      <internalNodes>
        0 -1 441333 -1195878984 -269987856 -1698693764 2107931377
        -1125233528 -337936517 -2108785398 882434</internalNodes>
      <leafValues>
        -6.7793267965316772e-01 2.2499211132526398e-01</leafValues></_>
    <_>
      <internalNodes>
        0 -1 630803 1074177297 2126265797 -1350778881 2109484477
        1006485499 -84017155 -1108038171 1004869029</internalNodes>
      <leafValues>
        -5.2382880449295044e-01 3.0166298151016235e-01</leafValues></_>
    <_>
      <internalNodes>
        0 -1 632261 -283138269 -1464880341 -168837515 -1342196757
        -1497399999 1157037981 -707444540 -454576799</internalNodes>
      <leafValues>
        -4.3886759877204895e-01 3.7149387598037720e-01</leafValues></_>
    <_>
      <internalNodes>
        0 -1 598842 -239079040 503901088 -1480919056 -1632003916
        -311038707 486407583 -1929727901 145198576</internalNodes>
      <leafValues>
        -6.3143217563629150e-01 2.5835636258125305e-01</leafValues></_>
    <_>
      <internalNodes>
        0 -1 535498 -947912705 -1276125330 1891627184 -672152328
        -2030067780 53370828 -1478820403 -1074800163</internalNodes>
      <leafValues>
        -3.8479426503181458e-01 4.5914635062217712e-01</leafValues></_>
    <_>
      <internalNodes>
        0 -1 521719 -1073163176 933042175 -1073758721 899071839
        1064777471 1069503763 682577946 1073561550</internalNodes>
      <leafValues>
        -6.6512209177017212e-01 2.7330777049064636e-01</leafValues></_></weakClassifiers></stage14>
</opencv_storage>
