<?xml version="1.0"?>
<opencv_storage>
<cascade>
  <stageType>BOOST</stageType>
  <featureType>LBP</featureType>
  <height>72</height>
  <width>72</width>
  <stageParams>
    <boostType>GAB</boostType>
    <minHitRate>9.9500000476837158e-01</minHitRate>
    <maxFalseAlarm>5.0000000000000000e-01</maxFalseAlarm>
    <weightTrimRate>9.4999999999999996e-01</weightTrimRate>
    <maxDepth>1</maxDepth>
    <maxWeakCount>100</maxWeakCount></stageParams>
  <featureParams>
    <maxCatCount>256</maxCatCount>
    <featSize>1</featSize></featureParams>
  <stageNum>20</stageNum>
  <stages>
    <!-- stage 0 -->
    <_>
      <maxWeakCount>4</maxWeakCount>
      <stageThreshold>-1.3071975708007812e+00</stageThreshold>
      <weakClassifiers>
        <_>
          <internalNodes>
            0 -1 53 587945455 732899311 734003199 268402175 1061121807
            804204527 -1073774593 -1343258625</internalNodes>
          <leafValues>
            -6.1319535970687866e-01 6.7223769426345825e-01</leafValues></_>
        <_>
          <internalNodes>
            0 -1 8 230440757 -318898179 -1 -1073807361 1072791549 -3
            -32780 -1342423436</internalNodes>
          <leafValues>
            -5.4318726062774658e-01 5.7805079221725464e-01</leafValues></_>
        <_>
          <internalNodes>
            0 -1 45 204418351 1064775295 800530303 800532095 233786831
            804187983 217018111 788491375</internalNodes>
          <leafValues>
            -8.0258661508560181e-01 3.8709834218025208e-01</leafValues></_>
        <_>
          <internalNodes>
            0 -1 135 108269373 -1109624833 -32769 -1249283 -229379
            -20993 -262404 -1398260492</internalNodes>
          <leafValues>
            -5.3791332244873047e-01 5.9719198942184448e-01</leafValues></_></weakClassifiers></_>
    <!-- stage 1 -->
    <_>
      <maxWeakCount>5</maxWeakCount>
      <stageThreshold>-4.2345932126045227e-01</stageThreshold>
      <weakClassifiers>
        <_>
          <internalNodes>
            0 -1 157 619986805 -1073856513 -1 -1090633731 -65537 -1
            -4099 -1359471116</internalNodes>
          <leafValues>
            -4.9912023544311523e-01 6.7719298601150513e-01</leafValues></_>
        <_>
          <internalNodes>
            0 -1 119 104078709 -1342373889 -16385 -1073938434 -268632067
            -65537 -65540 -1398260684</internalNodes>
          <leafValues>
            -5.3570908308029175e-01 6.3341152667999268e-01</leafValues></_>
        <_>
          <internalNodes>
            0 -1 25 234102581 -269205505 -1 -1090621443 -1350598657 -1
            -232067 -1078051460</internalNodes>
          <leafValues>
            -5.1275026798248291e-01 6.3927054405212402e-01</leafValues></_>
        <_>
          <internalNodes>
            0 -1 3 -830472401 720371711 -289411346 -1561397506
            1879012725 1081601911 -151161019 -452984969</internalNodes>
          <leafValues>
            -5.8232730627059937e-01 5.7964706420898438e-01</leafValues></_>
        <_>
          <internalNodes>
            0 -1 145 -270565593 -2097152001 -562036958 -385941506
            2147481349 1895170039 -134252699 -185073673</internalNodes>
          <leafValues>
            -6.0754770040512085e-01 5.7002741098403931e-01</leafValues></_></weakClassifiers></_>
    <!-- stage 2 -->
    <_>
      <maxWeakCount>4</maxWeakCount>
      <stageThreshold>-1.2077814340591431e+00</stageThreshold>
      <weakClassifiers>
        <_>
          <internalNodes>
            0 -1 71 -1610612736 285214208 1024925900 1427710985 68718218
            -1345712361 -636428305 -2100499</internalNodes>
          <leafValues>
            -7.9328554868698120e-01 6.5340071916580200e-01</leafValues></_>
        <_>
          <internalNodes>
            0 -1 76 17833844 -1342554243 1006532471 -67338380
            -1612361739 -287506947 -285473544 -1400893264</internalNodes>
          <leafValues>
            -7.0020282268524170e-01 4.7758254408836365e-01</leafValues></_>
        <_>
          <internalNodes>
            0 -1 49 -1316989739 937502510 -1348216865 -1646550145
            1868526988 805203199 -1418756373 -1342476805</internalNodes>
          <leafValues>
            -5.9105700254440308e-01 5.6834119558334351e-01</leafValues></_>
        <_>
          <internalNodes>
            0 -1 147 170929461 -1359855747 1707524095 -1915191753
            -1637269731 -35140169 -1092534300 -1364066272</internalNodes>
          <leafValues>
            -5.6992238759994507e-01 6.1518633365631104e-01</leafValues></_></weakClassifiers></_>
    <!-- stage 3 -->
    <_>
      <maxWeakCount>3</maxWeakCount>
      <stageThreshold>-6.2365788221359253e-01</stageThreshold>
      <weakClassifiers>
        <_>
          <internalNodes>
            0 -1 102 -796867456 -985527296 149431840 -718077950
            -1943878516 58621010 -2147229480 -2128936942</internalNodes>
          <leafValues>
            -6.8591368198394775e-01 7.4435025453567505e-01</leafValues></_>
        <_>
          <internalNodes>
            0 -1 83 -199176048 -601833224 1127448754 1436631240
            -1306345328 -2029510846 -1591490402 -2061303414</internalNodes>
          <leafValues>
            -5.7971304655075073e-01 7.2898596525192261e-01</leafValues></_>
        <_>
          <internalNodes>
            0 -1 113 -2144596208 1914714422 23359568 -586088188
            -1934319464 1221889168 3201432 -2013134848</internalNodes>
          <leafValues>
            -6.2230068445205688e-01 6.4196884632110596e-01</leafValues></_></weakClassifiers></_>
    <!-- stage 4 -->
    <_>
      <maxWeakCount>6</maxWeakCount>
      <stageThreshold>-1.2876982688903809e+00</stageThreshold>
      <weakClassifiers>
        <_>
          <internalNodes>
            0 -1 34 162467599 536030991 769617791 263524185 686812159
            1072655685 552411053 738152255</internalNodes>
          <leafValues>
            -6.9935929775238037e-01 4.5038166642189026e-01</leafValues></_>
        <_>
          <internalNodes>
            0 -1 36 217331005 746340351 1023344127 -1363398668
            -1426514123 -1073873923 -1092861956 -1359475104</internalNodes>
          <leafValues>
            -5.2668261528015137e-01 4.9475720524787903e-01</leafValues></_>
        <_>
          <internalNodes>
            0 -1 152 -1392530173 116326127 -285295582 -219238450
            2011649861 1081605975 -151166112 -454557849</internalNodes>
          <leafValues>
            -5.4552972316741943e-01 4.6052265167236328e-01</leafValues></_>
        <_>
          <internalNodes>
            0 -1 68 -1281223439 1307512815 175865850 452278930
            1031740428 -1343353041 788491947 -1396724993</internalNodes>
          <leafValues>
            -6.2096190452575684e-01 4.1620716452598572e-01</leafValues></_>
        <_>
          <internalNodes>
            0 -1 20 -285267449 40557375 -828113376 -454623558 -441551612
            89357599 -319568640 -185893225</internalNodes>
          <leafValues>
            -5.7536768913269043e-01 4.1613641381263733e-01</leafValues></_>
        <_>
          <internalNodes>
            0 -1 158 753086311 6997871 -285349148 -1059045460 1054304120
            -255527097 -287343252 -453451996</internalNodes>
          <leafValues>
            -4.9097782373428345e-01 4.9929967522621155e-01</leafValues></_></weakClassifiers></_>
    <!-- stage 5 -->
    <_>
      <maxWeakCount>7</maxWeakCount>
      <stageThreshold>-1.3978765010833740e+00</stageThreshold>
      <weakClassifiers>
        <_>
          <internalNodes>
            0 -1 115 -257895941 355016170 808924155 1073037091 976991167
            267353023 931133439 -1074809937</internalNodes>
          <leafValues>
            -4.0567201375961304e-01 5.5726659297943115e-01</leafValues></_>
        <_>
          <internalNodes>
            0 -1 64 3415349 1056849279 -1077936329 -1091010947
            1073626997 -708611 -50590427 -1394340496</internalNodes>
          <leafValues>
            -4.8223853111267090e-01 4.6214321255683899e-01</leafValues></_>
        <_>
          <internalNodes>
            0 -1 123 -231228621 -233783497 -1138884741 -1138709470
            -901988545 -1204486305 -1566594406 -1426380270</internalNodes>
          <leafValues>
            -5.2346944808959961e-01 4.4792652130126953e-01</leafValues></_>
        <_>
          <internalNodes>
            0 -1 29 -734354377 -15987140 880676158 -1330987384
            1967063131 -589336788 -914422530 -16798065</internalNodes>
          <leafValues>
            -4.4549956917762756e-01 5.0765317678451538e-01</leafValues></_>
        <_>
          <internalNodes>
            0 -1 160 210767677 -1105051651 1593835519 -1157701636
            -1091715273 1878786037 -1342341771 -1397744048</internalNodes>
          <leafValues>
            -5.1683586835861206e-01 4.4305646419525146e-01</leafValues></_>
        <_>
          <internalNodes>
            0 -1 109 -2098221633 812064703 -1342477313 -171181057
            -860504651 -1234149451 -839115560 -437029547</internalNodes>
          <leafValues>
            -3.9498791098594666e-01 5.6889820098876953e-01</leafValues></_>
        <_>
          <internalNodes>
            0 -1 17 -435306489 35852075 843980822 955067962 -850026427
            644118269 1814365248 -993571090</internalNodes>
          <leafValues>
            -5.5599790811538696e-01 3.9740133285522461e-01</leafValues></_></weakClassifiers></_>
    <!-- stage 6 -->
    <_>
      <maxWeakCount>8</maxWeakCount>
      <stageThreshold>-8.3370101451873779e-01</stageThreshold>
      <weakClassifiers>
        <_>
          <internalNodes>
            0 -1 1 -1003292891 -144527361 -1735197324 973143790 2110773
            -17041409 67110073 -1431060529</internalNodes>
          <leafValues>
            -4.0213048458099365e-01 5.0227481126785278e-01</leafValues></_>
        <_>
          <internalNodes>
            0 -1 107 -258944808 2011254626 905523694 938556211 976986911
            1336635855 655878075 -1073780737</internalNodes>
          <leafValues>
            -5.4354572296142578e-01 3.7752082943916321e-01</leafValues></_>
        <_>
          <internalNodes>
            0 -1 159 148647485 116686717 -67110981 -1359037444
            -1074319747 -2162689 -1090724560 -1360524236</internalNodes>
          <leafValues>
            -4.9561369419097900e-01 3.9737069606781006e-01</leafValues></_>
        <_>
          <internalNodes>
            0 -1 70 -12889871 -756414358 125790974 1535072495
            -1120805760 -1901372065 1010298542 -1091629057</internalNodes>
          <leafValues>
            -4.1023746132850647e-01 5.0517284870147705e-01</leafValues></_>
        <_>
          <internalNodes>
            0 -1 120 774901045 766803829 2147450751 -1226031499
            731201399 -131347 -1077985296 -1359925402</internalNodes>
          <leafValues>
            -4.4689330458641052e-01 4.5461314916610718e-01</leafValues></_>
        <_>
          <internalNodes>
            0 -1 90 -268517385 -1683965388 623541246 -1078178564
            116186512 1594684760 773898170 -356417</internalNodes>
          <leafValues>
            -4.0602490305900574e-01 5.2690196037292480e-01</leafValues></_>
        <_>
          <internalNodes>
            0 -1 84 -79105621 1897924734 392688255 1610484351 960230033
            -2102396097 -210806725 -1618485697</internalNodes>
          <leafValues>
            -4.1320791840553284e-01 5.0624024868011475e-01</leafValues></_>
        <_>
          <internalNodes>
            0 -1 154 -1358993553 12562287 -1358975030 -1997606938
            -1241546863 1625816927 -184584913 -1258619196</internalNodes>
          <leafValues>
            -4.2884755134582520e-01 4.9209591746330261e-01</leafValues></_></weakClassifiers></_>
    <!-- stage 7 -->
    <_>
      <maxWeakCount>8</maxWeakCount>
      <stageThreshold>-9.2570543289184570e-01</stageThreshold>
      <weakClassifiers>
        <_>
          <internalNodes>
            0 -1 54 849368541 586089967 -1077936129 -1342177281
            2139053839 805269503 -32769 -1342210049</internalNodes>
          <leafValues>
            -4.5737582445144653e-01 4.7511696815490723e-01</leafValues></_>
        <_>
          <internalNodes>
            0 -1 143 -889207307 1085462469 -2047396077 -1120260301
            1773575088 -2069184720 1387729200 -1434240238</internalNodes>
          <leafValues>
            -4.1792047023773193e-01 4.4380268454551697e-01</leafValues></_>
        <_>
          <internalNodes>
            0 -1 69 -1153698305 -756936978 176060159 1610565887
            -1086589050 -138434049 -1098909974 -16785</internalNodes>
          <leafValues>
            -3.3347305655479431e-01 5.4510319232940674e-01</leafValues></_>
        <_>
          <internalNodes>
            0 -1 139 -554672259 -1141047811 -3 -587399180 -134455467
            -100728835 -344236 -1359997416</internalNodes>
          <leafValues>
            -3.9923962950706482e-01 4.5818459987640381e-01</leafValues></_>
        <_>
          <internalNodes>
            0 -1 12 -571144409 -244045826 211824492 -1221558486
            1940785083 -252399707 88390847 -138682754</internalNodes>
          <leafValues>
            -4.2223739624023438e-01 4.4155690073966980e-01</leafValues></_>
        <_>
          <internalNodes>
            0 -1 148 -251805389 -789251209 -2013951103 -1873478090
            861738807 358611935 -168316978 -1621644474</internalNodes>
          <leafValues>
            -3.9973860979080200e-01 4.8248869180679321e-01</leafValues></_>
        <_>
          <internalNodes>
            0 -1 88 -185545568 -186266080 -1893071616 -710826381
            1715268744 -648066283 1794072475 1078445391</internalNodes>
          <leafValues>
            -7.1185070276260376e-01 2.6998305320739746e-01</leafValues></_>
        <_>
          <internalNodes>
            0 -1 23 -1473255699 -1727534797 -823443718 -36643310
            73893261 -1510624394 213126376 -436996365</internalNodes>
          <leafValues>
            -4.2003235220909119e-01 4.7375974059104919e-01</leafValues></_></weakClassifiers></_>
    <!-- stage 8 -->
    <_>
      <maxWeakCount>8</maxWeakCount>
      <stageThreshold>-6.5260905027389526e-01</stageThreshold>
      <weakClassifiers>
        <_>
          <internalNodes>
            0 -1 9 623916373 -1350795267 -65537 -285278221 771505972
            -524295 -229776 -1359999632</internalNodes>
          <leafValues>
            -3.9649358391761780e-01 4.9075326323509216e-01</leafValues></_>
        <_>
          <internalNodes>
            0 -1 44 -1146595936 -1951439616 469754157 1526682131
            -1263076212 -336592897 12893342 -127928753</internalNodes>
          <leafValues>
            -5.4965251684188843e-01 3.3086815476417542e-01</leafValues></_>
        <_>
          <internalNodes>
            0 -1 122 2122243903 2121695007 -42057857 -30115060
            -386191585 -1905361093 -1372713458 -833747954</internalNodes>
          <leafValues>
            -4.5311835408210754e-01 3.9301571249961853e-01</leafValues></_>
        <_>
          <internalNodes>
            0 -1 101 -222772022 -35631134 -1074843729 1970345507
            -496049010 -13938857 597848738 50817890</internalNodes>
          <leafValues>
            -6.0427981615066528e-01 3.0673491954803467e-01</leafValues></_>
        <_>
          <internalNodes>
            0 -1 5 -2672857 -159631489 -474849417 -1222574480
            -1745614925 -1057724939 -507611977 -303890637</internalNodes>
          <leafValues>
            -4.3170997500419617e-01 4.2836272716522217e-01</leafValues></_>
        <_>
          <internalNodes>
            0 -1 155 141821301 142368757 -1092137473 -1193910820
            -352432261 -4225 -67207471 -1095746512</internalNodes>
          <leafValues>
            -4.9590909481048584e-01 3.6049002408981323e-01</leafValues></_>
        <_>
          <internalNodes>
            0 -1 85 -173518384 -72873752 52654330 1584595056 -1146054200
            221142879 339454088 363537663</internalNodes>
          <leafValues>
            -6.6804641485214233e-01 2.8700008988380432e-01</leafValues></_>
        <_>
          <internalNodes>
            0 -1 7 -1543526641 842923879 587153222 -1560813571 662675265
            1651865943 -428452016 -185925769</internalNodes>
          <leafValues>
            -4.9380373954772949e-01 3.6354684829711914e-01</leafValues></_></weakClassifiers></_>
    <!-- stage 9 -->
    <_>
      <maxWeakCount>9</maxWeakCount>
      <stageThreshold>-8.0298644304275513e-01</stageThreshold>
      <weakClassifiers>
        <_>
          <internalNodes>
            0 -1 57 -1154746881 -1742731026 444593919 260004095
            -13897466 -1195380481 1044379519 -1392559489</internalNodes>
          <leafValues>
            -3.3053892850875854e-01 5.1822662353515625e-01</leafValues></_>
        <_>
          <internalNodes>
            0 -1 130 -1070349007 2134833 -453892335 556868401 -837647
            -18122185 -72884761 -134537165</internalNodes>
          <leafValues>
            -4.3550369143486023e-01 3.8072028756141663e-01</leafValues></_>
        <_>
          <internalNodes>
            0 -1 96 1650635322 976893758 52248511 993181187 16612543
            -578232339 928001199 -16896193</internalNodes>
          <leafValues>
            -5.3119587898254395e-01 3.0171659588813782e-01</leafValues></_>
        <_>
          <internalNodes>
            0 -1 18 -667958761 181185188 540551225 951561766 1109082737
            -872255971 -1938095904 -454709622</internalNodes>
          <leafValues>
            -4.3801343441009521e-01 3.9419421553611755e-01</leafValues></_>
        <_>
          <internalNodes>
            0 -1 110 -33691651 -767017772 -738690824 -168440740
            536384912 1599829212 -1883586565 -272114215</internalNodes>
          <leafValues>
            -3.4619057178497314e-01 4.9364289641380310e-01</leafValues></_>
        <_>
          <internalNodes>
            0 -1 22 -1064383577 830442935 1304235517 -243090560
            217503733 -1191829195 -924983828 -269824256</internalNodes>
          <leafValues>
            -4.0299877524375916e-01 4.2739310860633850e-01</leafValues></_>
        <_>
          <internalNodes>
            0 -1 116 -1196891674 -609681428 326267398 -1942872
            -1573652753 -1885315721 287561711 523441455</internalNodes>
          <leafValues>
            -6.0933613777160645e-01 2.8870385885238647e-01</leafValues></_>
        <_>
          <internalNodes>
            0 -1 31 49823613 669138801 -526465 -1343332369 335166935
            -1074794497 -1074089036 -1398788652</internalNodes>
          <leafValues>
            -4.6460798382759094e-01 3.6486512422561646e-01</leafValues></_>
        <_>
          <internalNodes>
            0 -1 134 -794246964 -42466986 2122132734 829763735
            -1953239297 -1110540363 707126418 810680314</internalNodes>
          <leafValues>
            -5.7721203565597534e-01 3.0357775092124939e-01</leafValues></_></weakClassifiers></_>
    <!-- stage 10 -->
    <_>
      <maxWeakCount>9</maxWeakCount>
      <stageThreshold>-8.8267415761947632e-01</stageThreshold>
      <weakClassifiers>
        <_>
          <internalNodes>
            0 -1 66 815809945 804202410 1002437623 -1342181441
            2139053838 804225023 2042571775 -1343390257</internalNodes>
          <leafValues>
            -5.0390446186065674e-01 4.0149340033531189e-01</leafValues></_>
        <_>
          <internalNodes>
            0 -1 40 78589743 577765295 1862269730 -294715666 2147448629
            1744817535 -9144460 -184748060</internalNodes>
          <leafValues>
            -4.8526686429977417e-01 3.4399834275245667e-01</leafValues></_>
        <_>
          <internalNodes>
            0 -1 82 1222591239 1583510279 201288498 -10299822
            -2056452697 607075879 1195049217 -324114910</internalNodes>
          <leafValues>
            -4.4894284009933472e-01 3.6378628015518188e-01</leafValues></_>
        <_>
          <internalNodes>
            0 -1 55 -82250789 -576190228 37616245 466438269 -885329082
            -1901423138 2134586107 -1398063561</internalNodes>
          <leafValues>
            -3.9803096652030945e-01 4.3248784542083740e-01</leafValues></_>
        <_>
          <internalNodes>
            0 -1 62 -1682184721 -827629592 -1090572925 -143186155
            -1082196788 -26247393 3047167 -161485102</internalNodes>
          <leafValues>
            -3.8096404075622559e-01 4.5493641495704651e-01</leafValues></_>
        <_>
          <internalNodes>
            0 -1 151 -1070349903 -1045535885 -2030727403 -1064257020
            525082881 337420039 1459057926 -150601981</internalNodes>
          <leafValues>
            -4.7112271189689636e-01 3.4580647945404053e-01</leafValues></_>
        <_>
          <internalNodes>
            0 -1 63 -610211680 -1683313952 -1963062004 1002108180
            -1095698196 -1342185241 -1594536290 1461145606</internalNodes>
          <leafValues>
            -6.3028490543365479e-01 2.7751469612121582e-01</leafValues></_>
        <_>
          <internalNodes>
            0 -1 153 204746613 671031261 -285245505 805076220
            -1207994497 -83906571 -1141425388 -1996739280</internalNodes>
          <leafValues>
            -5.5796134471893311e-01 2.8425189852714539e-01</leafValues></_>
        <_>
          <internalNodes>
            0 -1 74 -72133131 -740206358 40889063 -605090049 -1078340916
            -1733559433 -1157898360 -50348177</internalNodes>
          <leafValues>
            -3.1663006544113159e-01 5.2824515104293823e-01</leafValues></_></weakClassifiers></_>
    <!-- stage 11 -->
    <_>
      <maxWeakCount>10</maxWeakCount>
      <stageThreshold>-9.0260410308837891e-01</stageThreshold>
      <weakClassifiers>
        <_>
          <internalNodes>
            0 -1 65 -4483883 -1119899905 1484745454 1610583807
            2105360079 -335565985 1493170942 -545265026</internalNodes>
          <leafValues>
            -2.2991967201232910e-01 5.6088995933532715e-01</leafValues></_>
        <_>
          <internalNodes>
            0 -1 75 -504393747 -1317826777 1308610045 1968566111
            -402788879 -1595839055 -53131044 -402655237</internalNodes>
          <leafValues>
            -2.9622584581375122e-01 5.1846295595169067e-01</leafValues></_>
        <_>
          <internalNodes>
            0 -1 41 815808648 802097070 -1077936177 -1342183685
            859570702 1073684347 -67129373 -1409286917</internalNodes>
          <leafValues>
            -7.2455763816833496e-01 2.2098138928413391e-01</leafValues></_>
        <_>
          <internalNodes>
            0 -1 128 477368181 180116863 -1342210051 -1091027595
            777813821 -90153 -229513 -1073791050</internalNodes>
          <leafValues>
            -3.9498040080070496e-01 3.7254875898361206e-01</leafValues></_>
        <_>
          <internalNodes>
            0 -1 79 -617942726 -39269172 1366216894 1610434766 -83106941
            -1884717057 -75663169 -1380974841</internalNodes>
          <leafValues>
            -3.8846760988235474e-01 4.1165289282798767e-01</leafValues></_>
        <_>
          <internalNodes>
            0 -1 6 -218296553 -160157889 -957972685 -73341128 130875821
            -160420041 75562871 -4194562</internalNodes>
          <leafValues>
            -3.4830918908119202e-01 4.5145699381828308e-01</leafValues></_>
        <_>
          <internalNodes>
            0 -1 39 -592380609 -68092033 234514290 -1292140942 721221503
            -1636823329 1425692138 -457509462</internalNodes>
          <leafValues>
            -3.3946296572685242e-01 4.5095428824424744e-01</leafValues></_>
        <_>
          <internalNodes>
            0 -1 38 1344454864 -106271568 -662165581 -766961276
            829702644 597843610 -178962639 2009032662</internalNodes>
          <leafValues>
            -5.3038007020950317e-01 3.0855232477188110e-01</leafValues></_>
        <_>
          <internalNodes>
            0 -1 10 -688394713 1011857189 -285360200 668171995
            -161542921 559937363 -193645004 -521161323</internalNodes>
          <leafValues>
            -4.1339924931526184e-01 3.7251725792884827e-01</leafValues></_>
        <_>
          <internalNodes>
            0 -1 124 -127741698 354996650 -1351114656 1040162734
            -1598041627 -1357022899 -1351233537 -1846076977</internalNodes>
          <leafValues>
            -4.0935710072517395e-01 3.8175112009048462e-01</leafValues></_></weakClassifiers></_>
    <!-- stage 12 -->
    <_>
      <maxWeakCount>9</maxWeakCount>
      <stageThreshold>-8.4111565351486206e-01</stageThreshold>
      <weakClassifiers>
        <_>
          <internalNodes>
            0 -1 14 -956322843 -1346756557 -1342191625 2079531699
            1148554197 -805343243 -807924784 -806673102</internalNodes>
          <leafValues>
            -2.6954558491706848e-01 5.0687062740325928e-01</leafValues></_>
        <_>
          <internalNodes>
            0 -1 61 -1275375105 -876066578 318764791 1602177759
            -1087835328 -386270209 980016920 -29389211</internalNodes>
          <leafValues>
            -3.8778102397918701e-01 3.9707809686660767e-01</leafValues></_>
        <_>
          <internalNodes>
            0 -1 117 -1427756097 -1336111243 -1107953793 -238095409
            -1073795147 -176849103 -1913059884 -437916171</internalNodes>
          <leafValues>
            -3.9841103553771973e-01 3.9270508289337158e-01</leafValues></_>
        <_>
          <internalNodes>
            0 -1 137 1281609972 1308349695 947873424 1911814943
            -318783570 -356848193 674865286 146538154</internalNodes>
          <leafValues>
            -4.8207017779350281e-01 3.0570831894874573e-01</leafValues></_>
        <_>
          <internalNodes>
            0 -1 127 -1911558353 653262647 -269489440 -1397833810
            2080327495 1157609469 -185112715 -185598218</internalNodes>
          <leafValues>
            -4.9279361963272095e-01 2.8748509287834167e-01</leafValues></_>
        <_>
          <internalNodes>
            0 -1 106 -1314859528 -509583960 863138746 -550285310
            -1322000438 121334655 364638414 386602239</internalNodes>
          <leafValues>
            -6.6689115762710571e-01 2.5822409987449646e-01</leafValues></_>
        <_>
          <internalNodes>
            0 -1 89 -268633089 774277372 637114360 2111523964 -659096168
            -40591112 -2045080902 -4466213</internalNodes>
          <leafValues>
            -3.2445824146270752e-01 4.9901166558265686e-01</leafValues></_>
        <_>
          <internalNodes>
            0 -1 87 -25115488 -73069406 334570154 1608072831 800505486
            -810096769 887176957 2080325115</internalNodes>
          <leafValues>
            -5.5809056758880615e-01 2.7861919999122620e-01</leafValues></_>
        <_>
          <internalNodes>
            0 -1 28 -72364481 124620767 47129146 -259101032 1868546351
            625285495 1853229504 -993177698</internalNodes>
          <leafValues>
            -4.0947073698043823e-01 3.9445227384567261e-01</leafValues></_></weakClassifiers></_>
    <!-- stage 13 -->
    <_>
      <maxWeakCount>10</maxWeakCount>
      <stageThreshold>-9.7383129596710205e-01</stageThreshold>
      <weakClassifiers>
        <_>
          <internalNodes>
            0 -1 77 -71625217 801058799 1006600191 536854527 2139043343
            -1880102929 -327188865 -1644207369</internalNodes>
          <leafValues>
            -3.3141395449638367e-01 4.7636875510215759e-01</leafValues></_>
        <_>
          <internalNodes>
            0 -1 97 -256879400 1071992747 1065236408 -1074908367
            2100108046 1341089151 909898239 -553650441</internalNodes>
          <leafValues>
            -4.9456086754798889e-01 3.0059033632278442e-01</leafValues></_>
        <_>
          <internalNodes>
            0 -1 13 -1997608817 -1712092409 -1896286664 -220009718
            47303060 585561621 -922755112 -285742942</internalNodes>
          <leafValues>
            -3.7598416209220886e-01 3.7483796477317810e-01</leafValues></_>
        <_>
          <internalNodes>
            0 -1 35 455999690 -552910813 1373786354 1374831520
            -1086595844 1562866046 1575353480 1970478566</internalNodes>
          <leafValues>
            -5.5638402700424194e-01 2.8747105598449707e-01</leafValues></_>
        <_>
          <internalNodes>
            0 -1 91 -352870529 -147602746 -278974467 221972709
            -690683984 -134029968 1060802494 -1076101569</internalNodes>
          <leafValues>
            -3.2682603597640991e-01 4.9896833300590515e-01</leafValues></_>
        <_>
          <internalNodes>
            0 -1 78 -2131237891 537274951 1798392901 1897082145
            -981343828 -263876930 -536930083 -100673046</internalNodes>
          <leafValues>
            -4.0210542082786560e-01 3.7755706906318665e-01</leafValues></_>
        <_>
          <internalNodes>
            0 -1 150 1991751089 1979625597 1644054449 -1114191958
            1874853640 -980423404 -1766717696 -2118648018</internalNodes>
          <leafValues>
            -3.5419383645057678e-01 4.2684835195541382e-01</leafValues></_>
        <_>
          <internalNodes>
            0 -1 161 773070717 1073379317 -32777 1040133841 939419511
            -18944529 -18923659 -1897652368</internalNodes>
          <leafValues>
            -5.2668058872222900e-01 2.8398215770721436e-01</leafValues></_>
        <_>
          <internalNodes>
            0 -1 50 -6195739 -626039902 1518264207 1274492230
            -1120076596 -4236961 -1270829425 -296929282</internalNodes>
          <leafValues>
            -3.4454390406608582e-01 4.3765380978584290e-01</leafValues></_>
        <_>
          <internalNodes>
            0 -1 105 -859155193 1314288971 -1412212413 -621884158
            796333187 243701711 -894762804 -322175470</internalNodes>
          <leafValues>
            -4.2881268262863159e-01 3.7449374794960022e-01</leafValues></_></weakClassifiers></_>
    <!-- stage 14 -->
    <_>
      <maxWeakCount>11</maxWeakCount>
      <stageThreshold>-7.5311142206192017e-01</stageThreshold>
      <weakClassifiers>
        <_>
          <internalNodes>
            0 -1 67 -1078913807 1072671487 150956286 1543457535
            1995783757 -276829345 150957294 -620762898</internalNodes>
          <leafValues>
            -3.7159255146980286e-01 4.4145706295967102e-01</leafValues></_>
        <_>
          <internalNodes>
            0 -1 81 -1095639904 -877957312 184389548 1375697750
            -1372267001 154140543 -1566311169 -1574211518</internalNodes>
          <leafValues>
            -5.1440095901489258e-01 2.8261694312095642e-01</leafValues></_>
        <_>
          <internalNodes>
            0 -1 129 -391072975 -214915789 -1617754561 -1358944511
            -625298565 -327132507 -1430478150 -1392530894</internalNodes>
          <leafValues>
            -4.3395891785621643e-01 3.2328963279724121e-01</leafValues></_>
        <_>
          <internalNodes>
            0 -1 47 -616598307 480127487 148760703 262532311 1060967517
            741016185 -26610578 -1461062093</internalNodes>
          <leafValues>
            -4.0084344148635864e-01 3.5901787877082825e-01</leafValues></_>
        <_>
          <internalNodes>
            0 -1 132 -151520139 1593400701 -520333224 406804632
            687822300 951745979 -385901942 -1679823656</internalNodes>
          <leafValues>
            -3.4376248717308044e-01 4.3130874633789062e-01</leafValues></_>
        <_>
          <internalNodes>
            0 -1 43 867951098 -626466568 2013250998 1271888361 840497028
            -2006224041 1056674142 -868574225</internalNodes>
          <leafValues>
            -4.1875225305557251e-01 3.4536015987396240e-01</leafValues></_>
        <_>
          <internalNodes>
            0 -1 0 -159138949 -1088770754 899647404 -1385779926
            -1344828419 -51622842 905300444 104998981</internalNodes>
          <leafValues>
            -3.8486498594284058e-01 3.9488938450813293e-01</leafValues></_>
        <_>
          <internalNodes>
            0 -1 118 -1451753601 2124188780 784198909 1207272796
            -1352390368 -297477132 -1399312520 -532673</internalNodes>
          <leafValues>
            -3.4462124109268188e-01 4.5916971564292908e-01</leafValues></_>
        <_>
          <internalNodes>
            0 -1 21 -533846993 947563563 -1372937493 707440331
            -1036986764 861324119 1582583669 -1266942865</internalNodes>
          <leafValues>
            -4.5693728327751160e-01 3.4819543361663818e-01</leafValues></_>
        <_>
          <internalNodes>
            0 -1 111 1354973475 1346525507 -1268260044 -817843764
            14747780 1559100413 272015576 -1597703952</internalNodes>
          <leafValues>
            -4.8657664656639099e-01 3.1500464677810669e-01</leafValues></_>
        <_>
          <internalNodes>
            0 -1 141 -968885336 859216824 832746261 832958351
            -1784707828 412412556 -1214063676 -1530400854</internalNodes>
          <leafValues>
            -4.6614378690719604e-01 3.3143416047096252e-01</leafValues></_></weakClassifiers></_>
    <!-- stage 15 -->
    <_>
      <maxWeakCount>10</maxWeakCount>
      <stageThreshold>-6.7703241109848022e-01</stageThreshold>
      <weakClassifiers>
        <_>
          <internalNodes>
            0 -1 86 -7318032 -49787800 -1241444102 1564869754
            -1122443768 119635797 20685544 926891515</internalNodes>
          <leafValues>
            -5.6401383876800537e-01 3.4909990429878235e-01</leafValues></_>
        <_>
          <internalNodes>
            0 -1 58 833746415 -1582870778 -135284550 123207513
            -312054610 -16810097 1145647023 -2097410</internalNodes>
          <leafValues>
            -3.5778108239173889e-01 3.9939928054809570e-01</leafValues></_>
        <_>
          <internalNodes>
            0 -1 146 1904210816 289365791 939521300 904249262 -142607224
            344780608 -1829259640 -1593837382</internalNodes>
          <leafValues>
            -4.1560453176498413e-01 3.6679100990295410e-01</leafValues></_>
        <_>
          <internalNodes>
            0 -1 15 142876029 -1074336771 -262177 -1157693572
            -1497534475 -1142030409 -16850955 -1081066192</internalNodes>
          <leafValues>
            -4.6378171443939209e-01 3.3634537458419800e-01</leafValues></_>
        <_>
          <internalNodes>
            0 -1 108 -1196371750 -719298580 857734130 1978806448
            556511637 -1901936657 359982273 1073442519</internalNodes>
          <leafValues>
            -6.0115176439285278e-01 2.3741295933723450e-01</leafValues></_>
        <_>
          <internalNodes>
            0 -1 46 1602062301 -1057051905 1215658743 -639767921
            2013085645 -1350816266 2029387006 -286394642</internalNodes>
          <leafValues>
            -3.6851683259010315e-01 4.4044730067253113e-01</leafValues></_>
        <_>
          <internalNodes>
            0 -1 94 -404697920 -151649278 1286579716 -1247451532
            1982105736 2052921113 1323990107 1610872687</internalNodes>
          <leafValues>
            -6.1940240859985352e-01 2.7604120969772339e-01</leafValues></_>
        <_>
          <internalNodes>
            0 -1 27 -835541229 1602217182 -1574423306 -1192053200
            202118525 502992421 -827237208 -925905804</internalNodes>
          <leafValues>
            -4.2235451936721802e-01 3.8109976053237915e-01</leafValues></_>
        <_>
          <internalNodes>
            0 -1 16 -2037019993 -1292420219 759051529 -141336518
            -2006997523 -1482195105 -1996707588 -526446</internalNodes>
          <leafValues>
            -3.5584193468093872e-01 4.4115260243415833e-01</leafValues></_>
        <_>
          <internalNodes>
            0 -1 112 -114235222 1950376122 -1149517765 1342048462
            -357989494 -1895935939 86348345 308691207</internalNodes>
          <leafValues>
            -5.7916259765625000e-01 2.6977127790451050e-01</leafValues></_></weakClassifiers></_>
    <!-- stage 16 -->
    <_>
      <maxWeakCount>10</maxWeakCount>
      <stageThreshold>-8.4420108795166016e-01</stageThreshold>
      <weakClassifiers>
        <_>
          <internalNodes>
            0 -1 52 -1314908939 -1410390018 1052737519 -1073741825
            -2214386 -1343258753 -67143809 -1426096257</internalNodes>
          <leafValues>
            -3.5701724886894226e-01 4.4217687845230103e-01</leafValues></_>
        <_>
          <internalNodes>
            0 -1 144 1157596433 -1065353967 1790669584 985575227
            1086311871 -927744005 -688712160 -1028391493</internalNodes>
          <leafValues>
            -3.9012980461120605e-01 3.7421709299087524e-01</leafValues></_>
        <_>
          <internalNodes>
            0 -1 98 -256848800 97341185 955935536 926105057 640611855
            1325363039 1852764810 -327156581</internalNodes>
          <leafValues>
            -5.4968905448913574e-01 2.4864651262760162e-01</leafValues></_>
        <_>
          <internalNodes>
            0 -1 4 -864784523 -37751433 -1530929153 -68372504
            -1085178380 -1128603651 -311462603 -717264</internalNodes>
          <leafValues>
            -3.6610770225524902e-01 4.0388500690460205e-01</leafValues></_>
        <_>
          <internalNodes>
            0 -1 24 -1058823517 59509290 1991117360 65994800 -850444291
            -844637217 -436402512 -806547558</internalNodes>
          <leafValues>
            -4.2146462202072144e-01 3.5690060257911682e-01</leafValues></_>
        <_>
          <internalNodes>
            0 -1 73 -80620367 -744043793 444363454 2062834273 2000540812
            -1905460643 158855396 -102126502</internalNodes>
          <leafValues>
            -3.9428362250328064e-01 3.9458605647087097e-01</leafValues></_>
        <_>
          <internalNodes>
            0 -1 104 -268439553 -404354950 -679921669 -64508 -1619485552
            -1654933676 -1095176197 -2368003</internalNodes>
          <leafValues>
            -2.8283914923667908e-01 5.5023086071014404e-01</leafValues></_>
        <_>
          <internalNodes>
            0 -1 133 -1062677264 -1649374722 -69879886 -1108004891
            177982177 -1107469072 336915455 -1413209097</internalNodes>
          <leafValues>
            -4.7683054208755493e-01 3.2645043730735779e-01</leafValues></_>
        <_>
          <internalNodes>
            0 -1 2 -941275331 1372896959 1076016957 -4524161 99035065
            -1325551617 -2138776641 -1141899273</internalNodes>
          <leafValues>
            -3.0720362067222595e-01 4.9217578768730164e-01</leafValues></_>
        <_>
          <internalNodes>
            0 -1 99 -169806934 287342012 2004157499 -1112004 -1120163701
            -806659713 -575802051 -1682998522</internalNodes>
          <leafValues>
            -4.1071996092796326e-01 3.8870468735694885e-01</leafValues></_></weakClassifiers></_>
    <!-- stage 17 -->
    <_>
      <maxWeakCount>10</maxWeakCount>
      <stageThreshold>-1.3002337217330933e+00</stageThreshold>
      <weakClassifiers>
        <_>
          <internalNodes>
            0 -1 56 -537046948 -583399318 7817436 1400774376 -47179431
            -64594051 2117270424 671682482</internalNodes>
          <leafValues>
            -4.7938400506973267e-01 3.6476704478263855e-01</leafValues></_>
        <_>
          <internalNodes>
            0 -1 37 -1208019874 702660471 -1410269570 -1546520199
            2147095886 803454866 -50629527 -1578473347</internalNodes>
          <leafValues>
            -4.5767652988433838e-01 3.0996909737586975e-01</leafValues></_>
        <_>
          <internalNodes>
            0 -1 92 1870638887 640597935 -1426065886 -427364364
            2013230853 133561695 -1074045132 -185014298</internalNodes>
          <leafValues>
            -4.6198272705078125e-01 2.9909121990203857e-01</leafValues></_>
        <_>
          <internalNodes>
            0 -1 131 -2065218187 1143009107 1173820769 403766563
            -335892551 -389368073 -357158880 -1405751758</internalNodes>
          <leafValues>
            -4.3859055638313293e-01 3.2719102501869202e-01</leafValues></_>
        <_>
          <internalNodes>
            0 -1 100 -122629637 633163627 528300031 1073393971
            -1103125713 1340455158 612164599 -1644170512</internalNodes>
          <leafValues>
            -4.2969593405723572e-01 3.2839587330818176e-01</leafValues></_>
        <_>
          <internalNodes>
            0 -1 26 168025061 -1863875057 -824316483 -1309529286
            139685365 2141400355 -1889566756 -285794540</internalNodes>
          <leafValues>
            -4.0591508150100708e-01 3.3967012166976929e-01</leafValues></_>
        <_>
          <internalNodes>
            0 -1 60 -683225329 -34623978 254701327 -1357967531 -14273590
            307189511 -1958072769 1398535547</internalNodes>
          <leafValues>
            -3.6788097023963928e-01 3.9869233965873718e-01</leafValues></_>
        <_>
          <internalNodes>
            0 -1 149 -249314832 2042607925 100029264 -1647322950
            -272660726 -841339136 -1758260736 -1331189826</internalNodes>
          <leafValues>
            -4.5301532745361328e-01 3.2277223467826843e-01</leafValues></_>
        <_>
          <internalNodes>
            0 -1 136 1110049039 1111254839 682426302 -390802592
            749148333 -33558723 -1429470580 -1461010366</internalNodes>
          <leafValues>
            -4.7753012180328369e-01 3.1707400083541870e-01</leafValues></_>
        <_>
          <internalNodes>
            0 -1 80 -1096262680 -450072728 -185388822 -448568152
            -2055447545 82148735 1811082442 -214372254</internalNodes>
          <leafValues>
            -4.9603712558746338e-01 3.0295825004577637e-01</leafValues></_></weakClassifiers></_>
    <!-- stage 18 -->
    <_>
      <maxWeakCount>11</maxWeakCount>
      <stageThreshold>-7.7967256307601929e-01</stageThreshold>
      <weakClassifiers>
        <_>
          <internalNodes>
            0 -1 59 1107282877 287714991 1668630277 826568215 32883616
            -1523538014 -873488388 -33560322</internalNodes>
          <leafValues>
            -2.4715672433376312e-01 4.9828723073005676e-01</leafValues></_>
        <_>
          <internalNodes>
            0 -1 156 209231167 245940151 -18022401 -1124555406
            1073700861 -268454401 -1073872962 -1392722502</internalNodes>
          <leafValues>
            -3.5937085747718811e-01 3.7249097228050232e-01</leafValues></_>
        <_>
          <internalNodes>
            0 -1 103 -50805558 -35565598 -1233244753 -235571373
            -298848626 -9961701 1654805952 34326106</internalNodes>
          <leafValues>
            -5.5026906728744507e-01 2.5338265299797058e-01</leafValues></_>
        <_>
          <internalNodes>
            0 -1 32 -2018105579 -185293057 -1691926723 -1080017358
            1163216823 -974078721 -206040276 -861759746</internalNodes>
          <leafValues>
            -3.6507681012153625e-01 3.8253551721572876e-01</leafValues></_>
        <_>
          <internalNodes>
            0 -1 30 -770523073 -544218394 842411706 833073024 -13597193
            -45658892 -277000513 -50868510</internalNodes>
          <leafValues>
            -3.3475488424301147e-01 4.0478605031967163e-01</leafValues></_>
        <_>
          <internalNodes>
            0 -1 125 -257374124 -1111990288 870020086 -1311686704
            -1439447351 -1078387015 997586078 1058027199</internalNodes>
          <leafValues>
            -6.1551159620285034e-01 2.0364978909492493e-01</leafValues></_>
        <_>
          <internalNodes>
            0 -1 33 1249886967 -1188235710 -486644066 -253071506
            1451181987 1884815189 1986461935 -134517035</internalNodes>
          <leafValues>
            -3.4558409452438354e-01 4.2022523283958435e-01</leafValues></_>
        <_>
          <internalNodes>
            0 -1 138 -170933457 338409255 -1409600623 557553455
            -329255595 -1250636459 -1393560081 -2048917508</internalNodes>
          <leafValues>
            -3.3831602334976196e-01 4.2753607034683228e-01</leafValues></_>
        <_>
          <internalNodes>
            0 -1 142 1287099825 152197087 -185261776 -717312226
            -12632262 -55383278 -167938766 -58675550</internalNodes>
          <leafValues>
            -3.4969657659530640e-01 4.2625480890274048e-01</leafValues></_>
        <_>
          <internalNodes>
            0 -1 114 -1054809430 1629526518 -1881201997 1844053682
            -1486229317 -1934988485 -2015384300 161803557</internalNodes>
          <leafValues>
            -6.0075962543487549e-01 2.4646143615245819e-01</leafValues></_>
        <_>
          <internalNodes>
            0 -1 51 1975498607 -1578648257 -1098929074 -486737218
            -503877865 1190360575 -55603372 -524493072</internalNodes>
          <leafValues>
            -4.8329544067382812e-01 2.8005689382553101e-01</leafValues></_></weakClassifiers></_>
    <!-- stage 19 -->
    <_>
      <maxWeakCount>10</maxWeakCount>
      <stageThreshold>-1.3352441787719727e+00</stageThreshold>
      <weakClassifiers>
        <_>
          <internalNodes>
            0 -1 48 -592393042 -181938001 -289281414 -35169886 808504430
            237854516 1882378494 1076327702</internalNodes>
          <leafValues>
            -4.8475909233093262e-01 3.7010809779167175e-01</leafValues></_>
        <_>
          <internalNodes>
            0 -1 95 -1 -152130306 1467546365 -570436520 -677773928
            -547950504 -1081541702 -1078290513</internalNodes>
          <leafValues>
            -2.7697217464447021e-01 5.3040724992752075e-01</leafValues></_>
        <_>
          <internalNodes>
            0 -1 93 -571363960 1409287390 1798856830 2113880306
            -1122919015 -969515401 272365820 359617022</internalNodes>
          <leafValues>
            -5.5192995071411133e-01 2.6086086034774780e-01</leafValues></_>
        <_>
          <internalNodes>
            0 -1 19 -941435982 254511082 1646846592 435313115 1294636416
            446671374 6603912 -268440945</internalNodes>
          <leafValues>
            -5.4423820972442627e-01 2.6341602206230164e-01</leafValues></_>
        <_>
          <internalNodes>
            0 -1 11 -2002097625 -1601172281 -12599538 -1062158277
            -1015092747 748899317 -302749628 -1041341338</internalNodes>
          <leafValues>
            -4.9450105428695679e-01 2.6344186067581177e-01</leafValues></_>
        <_>
          <internalNodes>
            0 -1 140 -195756113 1459638078 -45142265 -80695808
            1167003183 1042174602 -1462391126 -364969878</internalNodes>
          <leafValues>
            -4.0110284090042114e-01 3.6269444227218628e-01</leafValues></_>
        <_>
          <internalNodes>
            0 -1 121 -104281396 -168735109 1659840162 1440053809
            -1595653908 -604042709 1961782442 1099651232</internalNodes>
          <leafValues>
            -5.3353959321975708e-01 2.5932997465133667e-01</leafValues></_>
        <_>
          <internalNodes>
            0 -1 126 -1286893372 -352620546 -252444680 1886495163
            589332958 508717101 383904394 8781517</internalNodes>
          <leafValues>
            -5.0161826610565186e-01 2.9214632511138916e-01</leafValues></_>
        <_>
          <internalNodes>
            0 -1 72 -671760754 -14049112 -483141016 -47718456
            -1138600838 -1541440665 539749374 -1595415611</internalNodes>
          <leafValues>
            -4.4519984722137451e-01 3.1029075384140015e-01</leafValues></_>
        <_>
          <internalNodes>
            0 -1 42 1755800871 -1087206387 1839875442 -15719934
            1075553671 13433358 208555327 -302518033</internalNodes>
          <leafValues>
            -3.7018507719039917e-01 3.9628183841705322e-01</leafValues></_></weakClassifiers></_></stages>
  <features>
    <_>
      <rect>
        0 0 24 6</rect></_>
    <_>
      <rect>
        0 22 11 15</rect></_>
    <_>
      <rect>
        0 31 15 12</rect></_>
    <_>
      <rect>
        0 41 10 1</rect></_>
    <_>
      <rect>
        1 20 2 12</rect></_>
    <_>
      <rect>
        1 36 14 10</rect></_>
    <_>
      <rect>
        1 37 16 10</rect></_>
    <_>
      <rect>
        1 45 6 1</rect></_>
    <_>
      <rect>
        2 11 1 12</rect></_>
    <_>
      <rect>
        2 20 1 6</rect></_>
    <_>
      <rect>
        2 30 6 4</rect></_>
    <_>
      <rect>
        3 14 11 6</rect></_>
    <_>
      <rect>
        3 34 15 11</rect></_>
    <_>
      <rect>
        4 6 13 9</rect></_>
    <_>
      <rect>
        4 8 9 11</rect></_>
    <_>
      <rect>
        4 18 1 9</rect></_>
    <_>
      <rect>
        5 7 16 8</rect></_>
    <_>
      <rect>
        5 24 6 7</rect></_>
    <_>
      <rect>
        5 25 7 8</rect></_>
    <_>
      <rect>
        5 29 15 8</rect></_>
    <_>
      <rect>
        5 30 4 1</rect></_>
    <_>
      <rect>
        5 38 7 4</rect></_>
    <_>
      <rect>
        6 7 10 9</rect></_>
    <_>
      <rect>
        6 7 16 7</rect></_>
    <_>
      <rect>
        6 16 7 8</rect></_>
    <_>
      <rect>
        6 32 1 11</rect></_>
    <_>
      <rect>
        7 8 11 7</rect></_>
    <_>
      <rect>
        7 28 8 10</rect></_>
    <_>
      <rect>
        8 26 5 6</rect></_>
    <_>
      <rect>
        8 26 6 9</rect></_>
    <_>
      <rect>
        8 29 6 7</rect></_>
    <_>
      <rect>
        9 6 1 5</rect></_>
    <_>
      <rect>
        9 39 11 9</rect></_>
    <_>
      <rect>
        10 32 6 3</rect></_>
    <_>
      <rect>
        11 7 15 14</rect></_>
    <_>
      <rect>
        15 30 6 5</rect></_>
    <_>
      <rect>
        15 55 1 5</rect></_>
    <_>
      <rect>
        16 15 10 11</rect></_>
    <_>
      <rect>
        16 25 4 6</rect></_>
    <_>
      <rect>
        16 37 5 6</rect></_>
    <_>
      <rect>
        16 66 7 1</rect></_>
    <_>
      <rect>
        17 23 12 10</rect></_>
    <_>
      <rect>
        18 6 17 10</rect></_>
    <_>
      <rect>
        18 28 12 4</rect></_>
    <_>
      <rect>
        18 31 9 6</rect></_>
    <_>
      <rect>
        19 9 12 12</rect></_>
    <_>
      <rect>
        19 17 6 9</rect></_>
    <_>
      <rect>
        19 18 10 8</rect></_>
    <_>
      <rect>
        19 20 6 4</rect></_>
    <_>
      <rect>
        19 21 11 10</rect></_>
    <_>
      <rect>
        19 30 9 5</rect></_>
    <_>
      <rect>
        20 3 9 1</rect></_>
    <_>
      <rect>
        20 18 9 12</rect></_>
    <_>
      <rect>
        20 18 11 10</rect></_>
    <_>
      <rect>
        20 19 11 11</rect></_>
    <_>
      <rect>
        20 21 10 5</rect></_>
    <_>
      <rect>
        20 22 7 5</rect></_>
    <_>
      <rect>
        20 23 10 6</rect></_>
    <_>
      <rect>
        20 30 10 7</rect></_>
    <_>
      <rect>
        20 30 17 13</rect></_>
    <_>
      <rect>
        20 41 11 4</rect></_>
    <_>
      <rect>
        21 25 10 5</rect></_>
    <_>
      <rect>
        21 33 10 5</rect></_>
    <_>
      <rect>
        21 35 7 5</rect></_>
    <_>
      <rect>
        21 60 1 4</rect></_>
    <_>
      <rect>
        22 19 6 9</rect></_>
    <_>
      <rect>
        22 20 10 11</rect></_>
    <_>
      <rect>
        22 21 6 9</rect></_>
    <_>
      <rect>
        22 23 8 8</rect></_>
    <_>
      <rect>
        22 24 9 6</rect></_>
    <_>
      <rect>
        22 26 7 5</rect></_>
    <_>
      <rect>
        22 28 11 9</rect></_>
    <_>
      <rect>
        23 20 6 4</rect></_>
    <_>
      <rect>
        23 25 7 6</rect></_>
    <_>
      <rect>
        23 26 8 5</rect></_>
    <_>
      <rect>
        23 38 16 9</rect></_>
    <_>
      <rect>
        24 2 1 8</rect></_>
    <_>
      <rect>
        24 18 8 10</rect></_>
    <_>
      <rect>
        24 28 16 13</rect></_>
    <_>
      <rect>
        25 20 8 5</rect></_>
    <_>
      <rect>
        25 29 6 3</rect></_>
    <_>
      <rect>
        25 32 6 6</rect></_>
    <_>
      <rect>
        26 6 14 9</rect></_>
    <_>
      <rect>
        26 18 6 5</rect></_>
    <_>
      <rect>
        26 19 8 6</rect></_>
    <_>
      <rect>
        26 23 6 5</rect></_>
    <_>
      <rect>
        26 24 5 5</rect></_>
    <_>
      <rect>
        26 27 6 6</rect></_>
    <_>
      <rect>
        26 36 8 5</rect></_>
    <_>
      <rect>
        26 45 6 5</rect></_>
    <_>
      <rect>
        26 46 5 4</rect></_>
    <_>
      <rect>
        26 47 7 5</rect></_>
    <_>
      <rect>
        26 65 7 1</rect></_>
    <_>
      <rect>
        27 18 5 6</rect></_>
    <_>
      <rect>
        27 37 8 5</rect></_>
    <_>
      <rect>
        27 47 6 4</rect></_>
    <_>
      <rect>
        28 17 13 10</rect></_>
    <_>
      <rect>
        28 23 7 9</rect></_>
    <_>
      <rect>
        28 28 7 8</rect></_>
    <_>
      <rect>
        29 19 7 5</rect></_>
    <_>
      <rect>
        29 21 7 9</rect></_>
    <_>
      <rect>
        29 32 8 6</rect></_>
    <_>
      <rect>
        29 33 5 6</rect></_>
    <_>
      <rect>
        29 33 7 6</rect></_>
    <_>
      <rect>
        29 47 6 4</rect></_>
    <_>
      <rect>
        30 9 13 7</rect></_>
    <_>
      <rect>
        30 24 5 5</rect></_>
    <_>
      <rect>
        30 24 7 8</rect></_>
    <_>
      <rect>
        30 26 7 6</rect></_>
    <_>
      <rect>
        30 38 13 10</rect></_>
    <_>
      <rect>
        30 46 6 4</rect></_>
    <_>
      <rect>
        31 6 8 7</rect></_>
    <_>
      <rect>
        31 16 6 6</rect></_>
    <_>
      <rect>
        31 51 5 3</rect></_>
    <_>
      <rect>
        32 18 7 6</rect></_>
    <_>
      <rect>
        32 20 6 9</rect></_>
    <_>
      <rect>
        32 23 6 5</rect></_>
    <_>
      <rect>
        32 38 13 9</rect></_>
    <_>
      <rect>
        32 44 5 6</rect></_>
    <_>
      <rect>
        33 1 1 8</rect></_>
    <_>
      <rect>
        34 59 1 4</rect></_>
    <_>
      <rect>
        35 33 6 6</rect></_>
    <_>
      <rect>
        36 1 11 13</rect></_>
    <_>
      <rect>
        36 3 11 16</rect></_>
    <_>
      <rect>
        37 20 5 6</rect></_>
    <_>
      <rect>
        37 26 5 7</rect></_>
    <_>
      <rect>
        37 31 7 5</rect></_>
    <_>
      <rect>
        37 62 7 1</rect></_>
    <_>
      <rect>
        38 57 1 5</rect></_>
    <_>
      <rect>
        39 7 10 16</rect></_>
    <_>
      <rect>
        39 20 11 13</rect></_>
    <_>
      <rect>
        39 33 10 6</rect></_>
    <_>
      <rect>
        39 39 6 5</rect></_>
    <_>
      <rect>
        40 20 4 8</rect></_>
    <_>
      <rect>
        40 28 5 8</rect></_>
    <_>
      <rect>
        42 4 1 7</rect></_>
    <_>
      <rect>
        42 7 6 9</rect></_>
    <_>
      <rect>
        42 31 6 6</rect></_>
    <_>
      <rect>
        43 22 5 3</rect></_>
    <_>
      <rect>
        44 0 1 5</rect></_>
    <_>
      <rect>
        44 0 8 16</rect></_>
    <_>
      <rect>
        44 23 5 5</rect></_>
    <_>
      <rect>
        44 27 7 9</rect></_>
    <_>
      <rect>
        44 28 8 9</rect></_>
    <_>
      <rect>
        44 36 7 5</rect></_>
    <_>
      <rect>
        45 42 8 1</rect></_>
    <_>
      <rect>
        46 29 5 4</rect></_>
    <_>
      <rect>
        46 54 1 6</rect></_>
    <_>
      <rect>
        48 20 6 7</rect></_>
    <_>
      <rect>
        48 30 4 6</rect></_>
    <_>
      <rect>
        49 32 4 5</rect></_>
    <_>
      <rect>
        51 28 5 6</rect></_>
    <_>
      <rect>
        52 34 5 1</rect></_>
    <_>
      <rect>
        53 56 1 5</rect></_>
    <_>
      <rect>
        60 38 4 1</rect></_>
    <_>
      <rect>
        62 12 1 5</rect></_>
    <_>
      <rect>
        66 15 2 14</rect></_>
    <_>
      <rect>
        66 18 1 16</rect></_>
    <_>
      <rect>
        66 37 2 1</rect></_>
    <_>
      <rect>
        68 17 1 5</rect></_>
    <_>
      <rect>
        68 40 1 4</rect></_>
    <_>
      <rect>
        68 44 1 8</rect></_></features></cascade>
</opencv_storage>
