<?xml version="1.0"?>
<opencv_storage>
<stage17>
  <maxWeakCount>42</maxWeakCount>
  <stageThreshold>-1.3008208274841309e+00</stageThreshold>
  <weakClassifiers>
    <_>
      <internalNodes>
        0 -1 20814 1.7833452671766281e-02</internalNodes>
      <leafValues>
        1.8254674971103668e-01 -3.5554742813110352e-01</leafValues></_>
    <_>
      <internalNodes>
        0 -1 28559 1.7949033528566360e-02</internalNodes>
      <leafValues>
        -5.9342086315155029e-01 9.2100627720355988e-02</leafValues></_>
    <_>
      <internalNodes>
        0 -1 28563 3.3576384186744690e-02</internalNodes>
      <leafValues>
        -3.0840471386909485e-01 1.6607329249382019e-01</leafValues></_>
    <_>
      <internalNodes>
        0 -1 18184 4.2864881455898285e-02</internalNodes>
      <leafValues>
        1.0005029290914536e-01 -4.9045363068580627e-01</leafValues></_>
    <_>
      <internalNodes>
        0 -1 11758 2.7809908613562584e-02</internalNodes>
      <leafValues>
        -2.8470012545585632e-01 1.7610189318656921e-01</leafValues></_>
    <_>
      <internalNodes>
        0 -1 22507 1.5894804149866104e-02</internalNodes>
      <leafValues>
        -4.0996241569519043e-01 9.9526770412921906e-02</leafValues></_>
    <_>
      <internalNodes>
        0 -1 27235 2.5349605828523636e-02</internalNodes>
      <leafValues>
        -4.7607097029685974e-01 8.1308655440807343e-02</leafValues></_>
    <_>
      <internalNodes>
        0 -1 27414 2.2378504276275635e-02</internalNodes>
      <leafValues>
        9.9922969937324524e-02 -4.0221697092056274e-01</leafValues></_>
    <_>
      <internalNodes>
        0 -1 22952 2.7871306985616684e-02</internalNodes>
      <leafValues>
        1.0339976847171783e-01 -4.1089487075805664e-01</leafValues></_>
    <_>
      <internalNodes>
        0 -1 21535 2.1844491362571716e-02</internalNodes>
      <leafValues>
        -3.4011736512184143e-01 1.1498161405324936e-01</leafValues></_>
    <_>
      <internalNodes>
        0 -1 21743 1.3266414403915405e-02</internalNodes>
      <leafValues>
        -8.5887914896011353e-01 4.7291040420532227e-02</leafValues></_>
    <_>
      <internalNodes>
        0 -1 2989 9.8903791513293982e-04</internalNodes>
      <leafValues>
        6.2572783231735229e-01 -7.9307198524475098e-02</leafValues></_>
    <_>
      <internalNodes>
        0 -1 20164 2.8550507500767708e-02</internalNodes>
      <leafValues>
        1.3237904012203217e-01 -2.9332301020622253e-01</leafValues></_>
    <_>
      <internalNodes>
        0 -1 21730 1.5748666599392891e-02</internalNodes>
      <leafValues>
        -6.8009561300277710e-01 3.2253529876470566e-02</leafValues></_>
    <_>
      <internalNodes>
        0 -1 28159 3.4028269350528717e-02</internalNodes>
      <leafValues>
        7.9823583364486694e-02 -4.4730147719383240e-01</leafValues></_>
    <_>
      <internalNodes>
        0 -1 28265 2.6069607585668564e-02</internalNodes>
      <leafValues>
        -2.5587257742881775e-01 1.5449531376361847e-01</leafValues></_>
    <_>
      <internalNodes>
        0 -1 27494 2.4758927524089813e-02</internalNodes>
      <leafValues>
        -5.7386130094528198e-01 7.5791306793689728e-02</leafValues></_>
    <_>
      <internalNodes>
        0 -1 15655 2.4549938738346100e-02</internalNodes>
      <leafValues>
        2.1970738470554352e-01 -1.8588201701641083e-01</leafValues></_>
    <_>
      <internalNodes>
        0 -1 7190 3.1661309301853180e-02</internalNodes>
      <leafValues>
        -2.5086632370948792e-01 1.4488285779953003e-01</leafValues></_>
    <_>
      <internalNodes>
        0 -1 16382 2.0763445645570755e-02</internalNodes>
      <leafValues>
        -3.4603384137153625e-01 1.0695865005254745e-01</leafValues></_>
    <_>
      <internalNodes>
        0 -1 20370 3.1209915876388550e-02</internalNodes>
      <leafValues>
        -1.3423669338226318e-01 2.6243740320205688e-01</leafValues></_>
    <_>
      <internalNodes>
        0 -1 2067 3.8826040923595428e-02</internalNodes>
      <leafValues>
        -1.8493612110614777e-01 1.9590939581394196e-01</leafValues></_>
    <_>
      <internalNodes>
        0 -1 3934 8.1040179356932640e-03</internalNodes>
      <leafValues>
        -4.3044710159301758e-01 9.1379612684249878e-02</leafValues></_>
    <_>
      <internalNodes>
        0 -1 4695 5.5900543928146362e-02</internalNodes>
      <leafValues>
        -1.0307455062866211e-01 3.7751662731170654e-01</leafValues></_>
    <_>
      <internalNodes>
        0 -1 13215 3.2152704894542694e-02</internalNodes>
      <leafValues>
        -2.0679527521133423e-01 1.7604172229766846e-01</leafValues></_>
    <_>
      <internalNodes>
        0 -1 25228 2.8837908059358597e-02</internalNodes>
      <leafValues>
        -2.3535276949405670e-01 1.6810992360115051e-01</leafValues></_>
    <_>
      <internalNodes>
        0 -1 11103 2.3844221606850624e-02</internalNodes>
      <leafValues>
        -3.2826247811317444e-01 1.0905676335096359e-01</leafValues></_>
    <_>
      <internalNodes>
        0 -1 20949 4.7943416982889175e-02</internalNodes>
      <leafValues>
        5.5623784661293030e-02 -5.9337365627288818e-01</leafValues></_>
    <_>
      <internalNodes>
        0 -1 13366 1.5216042287647724e-02</internalNodes>
      <leafValues>
        1.5644402801990509e-01 -2.3474952578544617e-01</leafValues></_>
    <_>
      <internalNodes>
        0 -1 8095 1.2113669356494938e-07</internalNodes>
      <leafValues>
        -5.6705200672149658e-01 6.9180838763713837e-02</leafValues></_>
    <_>
      <internalNodes>
        0 -1 1490 3.9738021790981293e-02</internalNodes>
      <leafValues>
        -1.5675538778305054e-01 2.1562816202640533e-01</leafValues></_>
    <_>
      <internalNodes>
        0 -1 3614 1.2119763996452093e-03</internalNodes>
      <leafValues>
        5.1143944263458252e-01 -7.0555672049522400e-02</leafValues></_>
    <_>
      <internalNodes>
        0 -1 17468 1.4594085514545441e-02</internalNodes>
      <leafValues>
        -5.1594036817550659e-01 7.2848342359066010e-02</leafValues></_>
    <_>
      <internalNodes>
        0 -1 8360 2.7734324336051941e-02</internalNodes>
      <leafValues>
        1.5587784349918365e-01 -2.2094970941543579e-01</leafValues></_>
    <_>
      <internalNodes>
        0 -1 17452 4.6296946704387665e-02</internalNodes>
      <leafValues>
        4.7706998884677887e-02 -7.2375488281250000e-01</leafValues></_>
    <_>
      <internalNodes>
        0 -1 24960 2.0684018731117249e-02</internalNodes>
      <leafValues>
        -5.2732032537460327e-01 5.3966049104928970e-02</leafValues></_>
    <_>
      <internalNodes>
        0 -1 16745 4.1771192103624344e-02</internalNodes>
      <leafValues>
        -7.0481359958648682e-02 4.8733609914779663e-01</leafValues></_>
    <_>
      <internalNodes>
        0 -1 16831 2.8283957391977310e-02</internalNodes>
      <leafValues>
        -2.9224616289138794e-01 1.1713151633739471e-01</leafValues></_>
    <_>
      <internalNodes>
        0 -1 8367 2.7938053011894226e-02</internalNodes>
      <leafValues>
        -2.2475180029869080e-01 1.4658503234386444e-01</leafValues></_>
    <_>
      <internalNodes>
        0 -1 27647 1.4415027573704720e-02</internalNodes>
      <leafValues>
        -6.0740685462951660e-01 5.4392006248235703e-02</leafValues></_>
    <_>
      <internalNodes>
        0 -1 13956 1.5656845644116402e-02</internalNodes>
      <leafValues>
        1.7704053223133087e-01 -2.2148187458515167e-01</leafValues></_>
    <_>
      <internalNodes>
        0 -1 21408 7.8265950083732605e-02</internalNodes>
      <leafValues>
        4.9703646451234818e-02 -7.1307015419006348e-01</leafValues></_></weakClassifiers></stage17>
</opencv_storage>
