<?xml version="1.0"?>
<opencv_storage>
<stage14>
  <maxWeakCount>11</maxWeakCount>
  <stageThreshold>-7.5311142206192017e-01</stageThreshold>
  <weakClassifiers>
    <_>
      <internalNodes>
        0 -1 385213 -1078913807 1072671487 150956286 1543457535
        1995783757 -276829345 150957294 -620762898</internalNodes>
      <leafValues>
        -3.7159255146980286e-01 4.4145706295967102e-01</leafValues></_>
    <_>
      <internalNodes>
        0 -1 428134 -1095639904 -877957312 184389548 1375697750
        -1372267001 154140543 -1566311169 -1574211518</internalNodes>
      <leafValues>
        -5.1440095901489258e-01 2.8261694312095642e-01</leafValues></_>
    <_>
      <internalNodes>
        0 -1 577905 -391072975 -214915789 -1617754561 -1358944511
        -625298565 -327132507 -1430478150 -1392530894</internalNodes>
      <leafValues>
        -4.3395891785621643e-01 3.2328963279724121e-01</leafValues></_>
    <_>
      <internalNodes>
        0 -1 341380 -616598307 480127487 148760703 262532311 1060967517
        741016185 -26610578 -1461062093</internalNodes>
      <leafValues>
        -4.0084344148635864e-01 3.5901787877082825e-01</leafValues></_>
    <_>
      <internalNodes>
        0 -1 583447 -151520139 1593400701 -520333224 406804632 687822300
        951745979 -385901942 -1679823656</internalNodes>
      <leafValues>
        -3.4376248717308044e-01 4.3130874633789062e-01</leafValues></_>
    <_>
      <internalNodes>
        0 -1 329323 867951098 -626466568 2013250998 1271888361 840497028
        -2006224041 1056674142 -868574225</internalNodes>
      <leafValues>
        -4.1875225305557251e-01 3.4536015987396240e-01</leafValues></_>
    <_>
      <internalNodes>
        0 -1 557 -159138949 -1088770754 899647404 -1385779926
        -1344828419 -51622842 905300444 104998981</internalNodes>
      <leafValues>
        -3.8486498594284058e-01 3.9488938450813293e-01</leafValues></_>
    <_>
      <internalNodes>
        0 -1 513863 -1451753601 2124188780 784198909 1207272796
        -1352390368 -297477132 -1399312520 -532673</internalNodes>
      <leafValues>
        -3.4462124109268188e-01 4.5916971564292908e-01</leafValues></_>
    <_>
      <internalNodes>
        0 -1 112679 -533846993 947563563 -1372937493 707440331
        -1036986764 861324119 1582583669 -1266942865</internalNodes>
      <leafValues>
        -4.5693728327751160e-01 3.4819543361663818e-01</leafValues></_>
    <_>
      <internalNodes>
        0 -1 495249 1354973475 1346525507 -1268260044 -817843764
        14747780 1559100413 272015576 -1597703952</internalNodes>
      <leafValues>
        -4.8657664656639099e-01 3.1500464677810669e-01</leafValues></_>
    <_>
      <internalNodes>
        0 -1 622760 -968885336 859216824 832746261 832958351 -1784707828
        412412556 -1214063676 -1530400854</internalNodes>
      <leafValues>
        -4.6614378690719604e-01 3.3143416047096252e-01</leafValues></_></weakClassifiers></stage14>
</opencv_storage>
