<?xml version="1.0"?>
<opencv_storage>
<stage19>
  <maxWeakCount>14</maxWeakCount>
  <stageThreshold>-9.2048311233520508e-01</stageThreshold>
  <weakClassifiers>
    <_>
      <internalNodes>
        0 -1 463115 -174006902 1428188264 -485365220 1568604410
        -1388609398 1328242558 288870559 23550602</internalNodes>
      <leafValues>
        -4.1562500596046448e-01 3.8465595245361328e-01</leafValues></_>
    <_>
      <internalNodes>
        0 -1 443028 -1 -1616331010 57734110 -1749157667 -142607224
        526360158 867892154 -267781</internalNodes>
      <leafValues>
        -2.3939159512519836e-01 5.0313383340835571e-01</leafValues></_>
    <_>
      <internalNodes>
        0 -1 251841 1384314834 -608471590 1139979250 1902260384
        1048573823 763354943 905410547 2004308018</internalNodes>
      <leafValues>
        -4.5273020863533020e-01 2.5563701987266541e-01</leafValues></_>
    <_>
      <internalNodes>
        0 -1 489003 1120454878 1441861443 -1415370834 1074990626
        1711601070 -268473105 1789555454 -1299</internalNodes>
      <leafValues>
        -4.1176420450210571e-01 2.6189571619033813e-01</leafValues></_>
    <_>
      <internalNodes>
        0 -1 520663 -630530081 498409449 910129015 -1116622337 993506235
        -894437377 1065351167 -609537</internalNodes>
      <leafValues>
        -2.8372463583946228e-01 3.9287656545639038e-01</leafValues></_>
    <_>
      <internalNodes>
        0 -1 90785 -284191177 35292987 2054143989 -1226220042 -428366300
        82271601 -264953676 -2064124710</internalNodes>
      <leafValues>
        -3.5890454053878784e-01 3.1250429153442383e-01</leafValues></_>
    <_>
      <internalNodes>
        0 -1 344774 -73305609 -1695587503 -570722324 868184898
        -1090650994 -4205185 -1530008353 -477146293</internalNodes>
      <leafValues>
        -2.6023089885711670e-01 4.3817383050918579e-01</leafValues></_>
    <_>
      <internalNodes>
        0 -1 190024 -375946597 -685534301 1060966010 -8375248 56952487
        -1660603101 -1431533400 -437926398</internalNodes>
      <leafValues>
        -3.2486450672149658e-01 3.4866702556610107e-01</leafValues></_>
    <_>
      <internalNodes>
        0 -1 356175 1193956303 -503684 -84935521 -1973040588 1914852167
        -1391913729 -1361719786 -437458331</internalNodes>
      <leafValues>
        -3.1975117325782776e-01 3.5702791810035706e-01</leafValues></_>
    <_>
      <internalNodes>
        0 -1 402292 -142553976 -1411297630 -1888600565 -1212158640
        1953807488 711757325 15496318 319145294</internalNodes>
      <leafValues>
        -6.1294198036193848e-01 1.9424173235893250e-01</leafValues></_>
    <_>
      <internalNodes>
        0 -1 552396 -1876897536 1362689980 -1352641536 1576984104
        -1430743923 255385471 -1315594374 161529658</internalNodes>
      <leafValues>
        -5.1331579685211182e-01 2.2049707174301147e-01</leafValues></_>
    <_>
      <internalNodes>
        0 -1 576467 -90474479 -197980144 -105975903 54461816 -123016143
        831059755 -85201938 -1950652179</internalNodes>
      <leafValues>
        -3.6036756634712219e-01 3.2791170477867126e-01</leafValues></_>
    <_>
      <internalNodes>
        0 -1 492063 -288362505 1350781564 -1716228547 99419228
        -539839088 335197657 -1699565669 -18099955</internalNodes>
      <leafValues>
        -2.9024207592010498e-01 4.1862913966178894e-01</leafValues></_>
    <_>
      <internalNodes>
        0 -1 236560 -794138053 -143774921 1617585851 841690703
        1986043694 1580131197 2109932263 -1100283925</internalNodes>
      <leafValues>
        -3.1103739142417908e-01 3.7067702412605286e-01</leafValues></_></weakClassifiers></stage19>
</opencv_storage>
