<?xml version="1.0"?>
<opencv_storage>
<cascade>
  <stageType>BOOST</stageType>
  <featureType>LBP</featureType>
  <height>72</height>
  <width>72</width>
  <stageParams>
    <boostType>GAB</boostType>
    <minHitRate>9.9500000476837158e-01</minHitRate>
    <maxFalseAlarm>5.0000000000000000e-01</maxFalseAlarm>
    <weightTrimRate>9.4999999999999996e-01</weightTrimRate>
    <maxDepth>1</maxDepth>
    <maxWeakCount>100</maxWeakCount></stageParams>
  <featureParams>
    <maxCatCount>256</maxCatCount>
    <featSize>1</featSize></featureParams>
  <stageNum>20</stageNum>
  <stages>
    <!-- stage 0 -->
    <_>
      <maxWeakCount>5</maxWeakCount>
      <stageThreshold>-1.5495268106460571e+00</stageThreshold>
      <weakClassifiers>
        <_>
          <internalNodes>
            0 -1 101 277894621 872161277 1073741823 1073610749
            1073545215 1073266685 -262145 -1125059504</internalNodes>
          <leafValues>
            -5.7881462574005127e-01 6.2926471233367920e-01</leafValues></_>
        <_>
          <internalNodes>
            0 -1 66 833623541 1073561597 -327681 -655363 901529597
            -1074724867 -360449 -183470847</internalNodes>
          <leafValues>
            -5.2596741914749146e-01 5.3187406063079834e-01</leafValues></_>
        <_>
          <internalNodes>
            0 -1 202 217595773 637288447 -1073741825 -1091010627
            1065189215 -1 -188588 -1392767116</internalNodes>
          <leafValues>
            -5.1646780967712402e-01 5.5842149257659912e-01</leafValues></_>
        <_>
          <internalNodes>
            0 -1 161 263984501 -269049857 -33554433 -196611 -33652739
            -65539 -17031175 -1397224400</internalNodes>
          <leafValues>
            -4.8885893821716309e-01 5.8166420459747314e-01</leafValues></_>
        <_>
          <internalNodes>
            0 -1 128 -1103681259 -55017667 -570540097 -1195853634
            262111039 -67182785 -67175234 -1396768962</internalNodes>
          <leafValues>
            -5.1430732011795044e-01 5.5290400981903076e-01</leafValues></_></weakClassifiers></_>
    <!-- stage 1 -->
    <_>
      <maxWeakCount>6</maxWeakCount>
      <stageThreshold>-9.1842114925384521e-01</stageThreshold>
      <weakClassifiers>
        <_>
          <internalNodes>
            0 -1 74 833623541 1073553405 -1073741825 1073610749
            938262525 1072741885 -360449 -250579119</internalNodes>
          <leafValues>
            -5.6941860914230347e-01 5.8091211318969727e-01</leafValues></_>
        <_>
          <internalNodes>
            0 -1 72 791691133 -1073741825 -1 -65537 -65539 -1 -81923
            -1096803120</internalNodes>
          <leafValues>
            -5.0519371032714844e-01 6.2330824136734009e-01</leafValues></_>
        <_>
          <internalNodes>
            0 -1 186 169623413 1073684477 -1073758209 -1073971459
            1073561087 -212993 -1342554116 -1359200780</internalNodes>
          <leafValues>
            -5.2076661586761475e-01 5.7316440343856812e-01</leafValues></_>
        <_>
          <internalNodes>
            0 -1 87 802955125 805191679 -32769 -1073856514 1073692671
            -98305 -229387 -1365230160</internalNodes>
          <leafValues>
            -4.7419634461402893e-01 5.9079051017761230e-01</leafValues></_>
        <_>
          <internalNodes>
            0 -1 181 159122813 -1677770753 -1 -16859139 1878880127
            -32769 -33673611 -1130626028</internalNodes>
          <leafValues>
            -5.2104431390762329e-01 5.5927067995071411e-01</leafValues></_>
        <_>
          <internalNodes>
            0 -1 203 847527797 -1493401601 2147483647 -1493241860
            -1090945163 -11 -98988 -1342951548</internalNodes>
          <leafValues>
            -4.7430512309074402e-01 5.9188342094421387e-01</leafValues></_></weakClassifiers></_>
    <!-- stage 2 -->
    <_>
      <maxWeakCount>3</maxWeakCount>
      <stageThreshold>-6.1894619464874268e-01</stageThreshold>
      <weakClassifiers>
        <_>
          <internalNodes>
            0 -1 68 -1860173696 -148697024 422088190 2070615092 86016168
            -1108007760 234921146 -1693843068</internalNodes>
          <leafValues>
            -6.7946577072143555e-01 7.6204073429107666e-01</leafValues></_>
        <_>
          <internalNodes>
            0 -1 120 -1742726960 -743948144 296317392 1494829273
            -2133276456 -1968149796 -1701120102 -1173749364</internalNodes>
          <leafValues>
            -6.1587727069854736e-01 6.8867474794387817e-01</leafValues></_>
        <_>
          <internalNodes>
            0 -1 126 -1879030656 -570944155 -1611776547 -34656172
            -1465061379 -23169027 -1360734289 -1182129928</internalNodes>
          <leafValues>
            -5.5206888914108276e-01 6.7639684677124023e-01</leafValues></_></weakClassifiers></_>
    <!-- stage 3 -->
    <_>
      <maxWeakCount>7</maxWeakCount>
      <stageThreshold>-8.3178842067718506e-01</stageThreshold>
      <weakClassifiers>
        <_>
          <internalNodes>
            0 -1 48 313020624 460851192 1064394239 2147057141 728036604
            1022367732 988478975 822219217</internalNodes>
          <leafValues>
            -6.9819992780685425e-01 4.3555229902267456e-01</leafValues></_>
        <_>
          <internalNodes>
            0 -1 176 -855913067 13421997 -100696073 100511639 -826462284
            -1997078671 -1494473692 -1343755673</internalNodes>
          <leafValues>
            -4.5705038309097290e-01 5.0904887914657593e-01</leafValues></_>
        <_>
          <internalNodes>
            0 -1 198 68160821 1022918613 -4196353 -1095223108 -553894539
            -16977921 -1107492876 -1393554400</internalNodes>
          <leafValues>
            -5.4111391305923462e-01 4.0978878736495972e-01</leafValues></_>
        <_>
          <internalNodes>
            0 -1 16 -134279931 -570837139 1337795903 687868946
            1442779413 -40969 -17100804 -1532993734</internalNodes>
          <leafValues>
            -4.7286415100097656e-01 4.7881811857223511e-01</leafValues></_>
        <_>
          <internalNodes>
            0 -1 100 -248213003 867441661 1005912061 1039482865
            -1217121283 -1074514963 -1032193 -1083097133</internalNodes>
          <leafValues>
            -5.0337255001068115e-01 4.4783055782318115e-01</leafValues></_>
        <_>
          <internalNodes>
            0 -1 143 -797931360 1487406143 1001687543 -21750658
            -272655173 -1078252875 -1140908577 -1108669206</internalNodes>
          <leafValues>
            -5.0046789646148682e-01 4.4691354036331177e-01</leafValues></_>
        <_>
          <internalNodes>
            0 -1 4 -1358960857 552529918 -17908190 -1428261146
            -329810091 1174370151 -143175356 -453577417</internalNodes>
          <leafValues>
            -5.1038157939910889e-01 4.4299629330635071e-01</leafValues></_></weakClassifiers></_>
    <!-- stage 4 -->
    <_>
      <maxWeakCount>7</maxWeakCount>
      <stageThreshold>-7.5410676002502441e-01</stageThreshold>
      <weakClassifiers>
        <_>
          <internalNodes>
            0 -1 70 -1082075744 -592427 -884814 -567824 -1246625863
            1073704957 -1095406408 -1223229431</internalNodes>
          <leafValues>
            -4.2821472883224487e-01 5.2729278802871704e-01</leafValues></_>
        <_>
          <internalNodes>
            0 -1 199 -1497419998 38596399 -1362104798 -2135236690
            1442271041 73922375 -184556224 -454625289</internalNodes>
          <leafValues>
            -5.7662487030029297e-01 3.7657338380813599e-01</leafValues></_>
        <_>
          <internalNodes>
            0 -1 153 -777457748 1361094828 805224445 1068436652
            -1616842785 490534911 -1073766469 -1343257187</internalNodes>
          <leafValues>
            -4.7962874174118042e-01 4.2525276541709900e-01</leafValues></_>
        <_>
          <internalNodes>
            0 -1 6 -1032388993 -1936807754 -419989721 -1730368326
            1382445399 -67201680 1443177840 -63478253</internalNodes>
          <leafValues>
            -4.3838566541671753e-01 4.9825429916381836e-01</leafValues></_>
        <_>
          <internalNodes>
            0 -1 47 644353333 -1438843379 -49219 -1359069828 666188145
            -50987081 -134869387 -1397219744</internalNodes>
          <leafValues>
            -4.4537284970283508e-01 4.3741381168365479e-01</leafValues></_>
        <_>
          <internalNodes>
            0 -1 127 -165675755 1446458685 -1201907779 -1735476707
            -849944769 -25182337 -1392592706 -1933660870</internalNodes>
          <leafValues>
            -4.5468860864639282e-01 4.3777430057525635e-01</leafValues></_>
        <_>
          <internalNodes>
            0 -1 85 -1740670960 270469332 1027600149 1033764861
            1371205630 -1161891331 -206537096 285336017</internalNodes>
          <leafValues>
            -6.4308077096939087e-01 3.1565999984741211e-01</leafValues></_></weakClassifiers></_>
    <!-- stage 5 -->
    <_>
      <maxWeakCount>7</maxWeakCount>
      <stageThreshold>-1.5088855028152466e+00</stageThreshold>
      <weakClassifiers>
        <_>
          <internalNodes>
            0 -1 134 -1072638499 1072961021 1069400061 -1073987587
            2143223807 -65539 -65537 -1394412878</internalNodes>
          <leafValues>
            -3.4246575832366943e-01 5.7687473297119141e-01</leafValues></_>
        <_>
          <internalNodes>
            0 -1 201 -1399312587 -1342242817 -1 -1090847363 -1073979395
            -2228481 -229387 -1397748480</internalNodes>
          <leafValues>
            -4.5663383603096008e-01 4.3906828761100769e-01</leafValues></_>
        <_>
          <internalNodes>
            0 -1 117 -105900684 1437605372 993754623 1073679829
            -1120395784 -1078446115 960126911 1068178847</internalNodes>
          <leafValues>
            -6.3753157854080200e-01 3.1073686480522156e-01</leafValues></_>
        <_>
          <internalNodes>
            0 -1 173 -276828305 48758783 -84414624 -1560609797 251623365
            1190919671 -134744192 -419954699</internalNodes>
          <leafValues>
            -4.4467824697494507e-01 4.3844366073608398e-01</leafValues></_>
        <_>
          <internalNodes>
            0 -1 52 750263605 -1359446017 -1610744961 -1074233347
            804812757 -770099 -1073856907 -1090642700</internalNodes>
          <leafValues>
            -4.7745433449745178e-01 3.7847784161567688e-01</leafValues></_>
        <_>
          <internalNodes>
            0 -1 125 -1196925477 355481332 -1220863009 1564425693
            -1074374402 -1079234561 -2019409985 462034381</internalNodes>
          <leafValues>
            -5.8843928575515747e-01 2.9629230499267578e-01</leafValues></_>
        <_>
          <internalNodes>
            0 -1 1 -537727617 -1143042244 -295440393 -156498142
            1413496600 -698795 1727292751 -1608914</internalNodes>
          <leafValues>
            -4.2733335494995117e-01 4.9004912376403809e-01</leafValues></_></weakClassifiers></_>
    <!-- stage 6 -->
    <_>
      <maxWeakCount>9</maxWeakCount>
      <stageThreshold>-9.6669095754623413e-01</stageThreshold>
      <weakClassifiers>
        <_>
          <internalNodes>
            0 -1 82 -520088239 1073561597 -229379 -1074921473 1072709629
            -1074200611 -507907 -15510509</internalNodes>
          <leafValues>
            -3.9595597982406616e-01 4.8763313889503479e-01</leafValues></_>
        <_>
          <internalNodes>
            0 -1 113 -1263477552 -570686255 -1079519233 -711371433
            -17760581 -1389895 -536674401 302649931</internalNodes>
          <leafValues>
            -6.1227673292160034e-01 3.0902123451232910e-01</leafValues></_>
        <_>
          <internalNodes>
            0 -1 15 -429726601 -1564561457 -1079711755 -536918477
            -488141827 -1076367509 -1343208352 -295223263</internalNodes>
          <leafValues>
            -4.2461350560188293e-01 4.0110194683074951e-01</leafValues></_>
        <_>
          <internalNodes>
            0 -1 130 698920892 967325688 498114429 724053496 1031577087
            1023164407 -167915587 -1376280329</internalNodes>
          <leafValues>
            -5.2602636814117432e-01 3.4448707103729248e-01</leafValues></_>
        <_>
          <internalNodes>
            0 -1 104 -23003472 -559884 -1074857986 -2936764 201327272
            -308005 1115738046 -1692987126</internalNodes>
          <leafValues>
            -4.9185886979103088e-01 3.3692210912704468e-01</leafValues></_>
        <_>
          <internalNodes>
            0 -1 168 736046895 -1561923715 -85003520 1660616694
            2146917701 1157103471 -17419423 -990445577</internalNodes>
          <leafValues>
            -5.6831818819046021e-01 2.8446209430694580e-01</leafValues></_>
        <_>
          <internalNodes>
            0 -1 136 -1735860784 498609908 -1376002051 1576754424
            -1968505862 -4669953 -1372929814 252381482</internalNodes>
          <leafValues>
            -6.2173664569854736e-01 2.8620788455009460e-01</leafValues></_>
        <_>
          <internalNodes>
            0 -1 187 -1112057 1982377309 -1359003880 -519380230
            -27328000 -1071023004 -1459622276 -321716822</internalNodes>
          <leafValues>
            -3.6562222242355347e-01 4.6196490526199341e-01</leafValues></_>
        <_>
          <internalNodes>
            0 -1 10 796663093 753614199 -1097729 -319275076 1001870677
            -131093 -1342414860 -1393549820</internalNodes>
          <leafValues>
            -3.8700631260871887e-01 4.3247854709625244e-01</leafValues></_></weakClassifiers></_>
    <!-- stage 7 -->
    <_>
      <maxWeakCount>9</maxWeakCount>
      <stageThreshold>-9.6872287988662720e-01</stageThreshold>
      <weakClassifiers>
        <_>
          <internalNodes>
            0 -1 116 -256846379 1073485789 1069506557 1073692669
            2147233791 1039990717 -65537 -1369246128</internalNodes>
          <leafValues>
            -3.8705345988273621e-01 4.5343351364135742e-01</leafValues></_>
        <_>
          <internalNodes>
            0 -1 83 -13631296 1606027508 1876958715 2142968815 70256832
            -1077995273 1060260794 1059788063</internalNodes>
          <leafValues>
            -6.7160838842391968e-01 2.4141702055931091e-01</leafValues></_>
        <_>
          <internalNodes>
            0 -1 182 -807407707 16946163 -897598111 200658387 -856871884
            -1426063713 -320397924 -1443893505</internalNodes>
          <leafValues>
            -3.3788469433784485e-01 4.7189819812774658e-01</leafValues></_>
        <_>
          <internalNodes>
            0 -1 14 -353399033 652934511 -285217238 -152109074
            1333229383 24639287 -42126044 -151585018</internalNodes>
          <leafValues>
            -4.6396172046661377e-01 3.3966785669326782e-01</leafValues></_>
        <_>
          <internalNodes>
            0 -1 56 -1154386690 -618592003 757849311 1563757781
            -1659316993 -1674837767 528343007 523247061</internalNodes>
          <leafValues>
            -5.5901795625686646e-01 2.6311448216438293e-01</leafValues></_>
        <_>
          <internalNodes>
            0 -1 28 -365793518 -2688174 -562071553 -725046268 1681919904
            -67110026 2013210943 -10531838</internalNodes>
          <leafValues>
            -5.3945714235305786e-01 2.5087031722068787e-01</leafValues></_>
        <_>
          <internalNodes>
            0 -1 162 -14694400 -710242932 -4547787 -1246066244
            1581109565 -1407475907 -1617039971 -1915888289</internalNodes>
          <leafValues>
            -4.0725126862525940e-01 3.8164663314819336e-01</leafValues></_>
        <_>
          <internalNodes>
            0 -1 43 112756597 671022975 -131073 -1074208908 -1179291787
            -269000739 -268927555 -1138227184</internalNodes>
          <leafValues>
            -3.9680671691894531e-01 4.0814176201820374e-01</leafValues></_>
        <_>
          <internalNodes>
            0 -1 157 649400103 787415039 -151001562 -1431372866
            1040138070 1132197886 -134785472 -235602128</internalNodes>
          <leafValues>
            -4.6225801110267639e-01 3.1843015551567078e-01</leafValues></_></weakClassifiers></_>
    <!-- stage 8 -->
    <_>
      <maxWeakCount>11</maxWeakCount>
      <stageThreshold>-8.8727784156799316e-01</stageThreshold>
      <weakClassifiers>
        <_>
          <internalNodes>
            0 -1 73 -71747691 1068838845 2146467837 -1074024713
            1069301756 -946339 2147024893 -72106029</internalNodes>
          <leafValues>
            -2.7812629938125610e-01 5.3259003162384033e-01</leafValues></_>
        <_>
          <internalNodes>
            0 -1 103 -1196403471 -537045776 268367791 -1646311609
            -1098846997 -25797915 -1576927297 318903769</internalNodes>
          <leafValues>
            -5.5049973726272583e-01 2.7781012654304504e-01</leafValues></_>
        <_>
          <internalNodes>
            0 -1 158 -264528623 -1830634059 -1360564289 -1598384085
            1714629905 -12935371 -360715110 -1997541773</internalNodes>
          <leafValues>
            -4.1262069344520569e-01 3.6424508690834045e-01</leafValues></_>
        <_>
          <internalNodes>
            0 -1 159 -777468372 1428213260 -1715948620 499058920
            732163341 -1717051729 -1379935811 -1913713203</internalNodes>
          <leafValues>
            -4.2205464839935303e-01 3.5466676950454712e-01</leafValues></_>
        <_>
          <internalNodes>
            0 -1 19 -1897492745 -1897148481 -1342652427 -1855564
            2137229308 -285786379 2124743376 -357345707</internalNodes>
          <leafValues>
            -4.1755518317222595e-01 3.4098610281944275e-01</leafValues></_>
        <_>
          <internalNodes>
            0 -1 152 -134160944 -580097772 -9454103 -34190668
            -1447305793 -387383297 -1138058326 -2061303662</internalNodes>
          <leafValues>
            -4.5985168218612671e-01 2.9391103982925415e-01</leafValues></_>
        <_>
          <internalNodes>
            0 -1 61 -80028485 -549939016 440079387 -1653651373
            2134560923 -1195728439 -43004677 -436211969</internalNodes>
          <leafValues>
            -2.6724046468734741e-01 5.1673275232315063e-01</leafValues></_>
        <_>
          <internalNodes>
            0 -1 46 -956404217 -1300873345 -489272800 -1340019018
            108745760 -445219465 744425280 -486871745</internalNodes>
          <leafValues>
            -4.2188733816146851e-01 3.5015669465065002e-01</leafValues></_>
        <_>
          <internalNodes>
            0 -1 164 -800534976 -101687316 -1277247746 -1111736324
            692191068 -1080149507 -1292245008 -1781845862</internalNodes>
          <leafValues>
            -4.8802691698074341e-01 3.0317667126655579e-01</leafValues></_>
        <_>
          <internalNodes>
            0 -1 91 1881145853 536680445 -1342178501 -1178730596
            1056847087 -1108295747 -84264497 206599360</internalNodes>
          <leafValues>
            -5.7937806844711304e-01 2.6067671179771423e-01</leafValues></_>
        <_>
          <internalNodes>
            0 -1 200 112201141 654056829 -41025 -1375822514 -172139201
            -268435713 1073659668 -1373890896</internalNodes>
          <leafValues>
            -4.5083680748939514e-01 3.1608709692955017e-01</leafValues></_></weakClassifiers></_>
    <!-- stage 9 -->
    <_>
      <maxWeakCount>11</maxWeakCount>
      <stageThreshold>-1.2801923751831055e+00</stageThreshold>
      <weakClassifiers>
        <_>
          <internalNodes>
            0 -1 49 1627419952 1736966133 -17907713 -16548 50640823 -129
            2097037247 -251571456</internalNodes>
          <leafValues>
            -4.3957147002220154e-01 3.8194766640663147e-01</leafValues></_>
        <_>
          <internalNodes>
            0 -1 76 -1111925288 -606911279 469751669 289347061
            -1326823208 -2005763471 -2146238465 454694397</internalNodes>
          <leafValues>
            -5.2926850318908691e-01 2.6889461278915405e-01</leafValues></_>
        <_>
          <internalNodes>
            0 -1 111 -1338994219 1073481661 -1074017409 1072626629
            -8634371 -1073809443 -268763201 -1371389358</internalNodes>
          <leafValues>
            -4.4224405288696289e-01 3.5065680742263794e-01</leafValues></_>
        <_>
          <internalNodes>
            0 -1 189 -986200591 165741533 863986615 410251251 -13914568
            -1359237320 -838588510 -1905787878</internalNodes>
          <leafValues>
            -3.9773562550544739e-01 3.5742565989494324e-01</leafValues></_>
        <_>
          <internalNodes>
            0 -1 7 -822087897 571468743 -16847322 -1531974673 1463764309
            1081341303 1995667312 -462946441</internalNodes>
          <leafValues>
            -5.3752052783966064e-01 2.4919220805168152e-01</leafValues></_>
        <_>
          <internalNodes>
            0 -1 141 -1732716036 1504729272 796474365 2143247613
            -1342547526 -72098915 697490395 707468637</internalNodes>
          <leafValues>
            -5.6287223100662231e-01 2.4054996669292450e-01</leafValues></_>
        <_>
          <internalNodes>
            0 -1 9 1587677991 2012724407 -136663169 -1096668100
            1467766345 -52731905 1844730878 -336186056</internalNodes>
          <leafValues>
            -4.5443302392959595e-01 2.7489009499549866e-01</leafValues></_>
        <_>
          <internalNodes>
            0 -1 58 -543951984 -210244235 -1124122704 -201468876
            666237432 1018906109 -1330496120 328404107</internalNodes>
          <leafValues>
            -4.5623320341110229e-01 3.0344969034194946e-01</leafValues></_>
        <_>
          <internalNodes>
            0 -1 169 -1879232593 753094447 -2063859862 -1426128954
            -1527283947 1969225727 1744647988 -990593068</internalNodes>
          <leafValues>
            -4.5825308561325073e-01 2.9873561859130859e-01</leafValues></_>
        <_>
          <internalNodes>
            0 -1 156 -1649752952 1462373596 623390717 1873235133
            -1162166596 2142911244 -1879326721 413832634</internalNodes>
          <leafValues>
            -5.3469955921173096e-01 2.4561116099357605e-01</leafValues></_>
        <_>
          <internalNodes>
            0 -1 106 -178585131 524173277 1297423743 1878044247
            2146222013 -1879982098 2112897013 -11293229</internalNodes>
          <leafValues>
            -3.6529299616813660e-01 3.8282203674316406e-01</leafValues></_></weakClassifiers></_>
    <!-- stage 10 -->
    <_>
      <maxWeakCount>12</maxWeakCount>
      <stageThreshold>-1.2438853979110718e+00</stageThreshold>
      <weakClassifiers>
        <_>
          <internalNodes>
            0 -1 92 -1575898219 -1073856513 2147303421 -16419 1073496060
            1072758749 -983043 -265073405</internalNodes>
          <leafValues>
            -2.8260868787765503e-01 4.6388128399848938e-01</leafValues></_>
        <_>
          <internalNodes>
            0 -1 0 -394860941 204926777 -307270160 -274535362
            -1032568065 1584824084 -718994384 -294160634</internalNodes>
          <leafValues>
            -3.8443291187286377e-01 3.4712040424346924e-01</leafValues></_>
        <_>
          <internalNodes>
            0 -1 142 -1061102369 863309687 -1560379521 -565264 -196609
            -16973825 -268505089 -590434062</internalNodes>
          <leafValues>
            -3.3190324902534485e-01 3.9163392782211304e-01</leafValues></_>
        <_>
          <internalNodes>
            0 -1 44 -1087879966 -13959168 -501156112 2134865397
            -1089809197 1059026036 873657971 990516569</internalNodes>
          <leafValues>
            -6.0075485706329346e-01 2.2198788821697235e-01</leafValues></_>
        <_>
          <internalNodes>
            0 -1 18 671027175 217562591 -1091571806 -1561395476
            2013233015 1199439735 -135313548 -462094764</internalNodes>
          <leafValues>
            -4.7039705514907837e-01 2.8875041007995605e-01</leafValues></_>
        <_>
          <internalNodes>
            0 -1 65 -1189063460 456263928 219365375 536812061
            -1088909080 2143252973 1042980863 926563549</internalNodes>
          <leafValues>
            -6.3437288999557495e-01 1.6771699488162994e-01</leafValues></_>
        <_>
          <internalNodes>
            0 -1 175 -62392563 -1339361915 -289411150 -1607010720
            -462590719 554132589 -320864884 -991232185</internalNodes>
          <leafValues>
            -4.1201531887054443e-01 3.3005630970001221e-01</leafValues></_>
        <_>
          <internalNodes>
            0 -1 191 -1296047181 62632759 -2031650954 1911881714
            330775944 146973884 -1195524968 -2135691693</internalNodes>
          <leafValues>
            -3.2987090945243835e-01 4.0413305163383484e-01</leafValues></_>
        <_>
          <internalNodes>
            0 -1 78 -6031744 -695168 -44401074 -137931536 344200856
            -1126271729 3412890 864507143</internalNodes>
          <leafValues>
            -5.5732834339141846e-01 2.1649070084095001e-01</leafValues></_>
        <_>
          <internalNodes>
            0 -1 39 -356888713 -33665217 1718514226 812677750 1358384637
            -550011098 -92400200 -299204877</internalNodes>
          <leafValues>
            -3.5440075397491455e-01 3.7741589546203613e-01</leafValues></_>
        <_>
          <internalNodes>
            0 -1 36 -93140846 -1410586980 1920800185 -51048461 980584952
            256172026 1898980432 -581090133</internalNodes>
          <leafValues>
            -3.8332474231719971e-01 3.4826478362083435e-01</leafValues></_>
        <_>
          <internalNodes>
            0 -1 88 -924879045 1900019068 -134234253 -105058508
            1845485311 -9443591 -25298 -527275493</internalNodes>
          <leafValues>
            -3.2377836108207703e-01 4.2720311880111694e-01</leafValues></_></weakClassifiers></_>
    <!-- stage 11 -->
    <_>
      <maxWeakCount>12</maxWeakCount>
      <stageThreshold>-8.4033983945846558e-01</stageThreshold>
      <weakClassifiers>
        <_>
          <internalNodes>
            0 -1 131 -591871350 363905196 749444146 363839564 -117716789
            1021985775 -1914712385 149932511</internalNodes>
          <leafValues>
            -4.6295601129531860e-01 3.5140711069107056e-01</leafValues></_>
        <_>
          <internalNodes>
            0 -1 144 -791880225 938778109 -1107542147 1073496061
            935320415 771522559 -1141583873 -1393642318</internalNodes>
          <leafValues>
            -3.7324422597885132e-01 3.5145226120948792e-01</leafValues></_>
        <_>
          <internalNodes>
            0 -1 24 1566048255 1609956735 -201905090 1874279530
            1198616574 1861811438 1055469192 1862247174</internalNodes>
          <leafValues>
            -3.6891415715217590e-01 3.3928096294403076e-01</leafValues></_>
        <_>
          <internalNodes>
            0 -1 30 -1025323038 1949196142 -2038799776 -220050784
            180305639 -363643467 2008043706 -151816841</internalNodes>
          <leafValues>
            -4.0562352538108826e-01 3.2325071096420288e-01</leafValues></_>
        <_>
          <internalNodes>
            0 -1 75 831541754 1039619524 1069249529 358023493
            -1261647189 -1073843471 65179 521803737</internalNodes>
          <leafValues>
            -5.7344883680343628e-01 1.9154137372970581e-01</leafValues></_>
        <_>
          <internalNodes>
            0 -1 193 -449318479 1302995639 1157576149 1354956179
            -1346523620 -2037400060 814769330 16878475</internalNodes>
          <leafValues>
            -4.5740213990211487e-01 2.5316739082336426e-01</leafValues></_>
        <_>
          <internalNodes>
            0 -1 163 -285217017 1110376302 -3162322 -1550913538
            1610568965 1617264495 -335708858 -453247113</internalNodes>
          <leafValues>
            -4.0817299485206604e-01 3.0696880817413330e-01</leafValues></_>
        <_>
          <internalNodes>
            0 -1 121 -214695909 2079955479 -142724172 -1433915594
            -426690635 -78880453 -1413667228 -1601428757</internalNodes>
          <leafValues>
            -3.6699309945106506e-01 3.4254404902458191e-01</leafValues></_>
        <_>
          <internalNodes>
            0 -1 57 -1877904642 -81694719 -1237405445 -211340973
            -2118529829 -852467623 -1879014213 -1155822083</internalNodes>
          <leafValues>
            -3.5874056816101074e-01 3.6520221829414368e-01</leafValues></_>
        <_>
          <internalNodes>
            0 -1 197 -82845191 -1040452723 1876424642 1909653345
            691349720 -1935852072 -1896506677 -1546131341</internalNodes>
          <leafValues>
            -2.8516626358032227e-01 4.4712808728218079e-01</leafValues></_>
        <_>
          <internalNodes>
            0 -1 29 1322667826 -1501201827 972877651 -519929792
            816907792 198278972 -84851022 -28890800</internalNodes>
          <leafValues>
            -5.0100636482238770e-01 2.6021090149879456e-01</leafValues></_>
        <_>
          <internalNodes>
            0 -1 133 -391082856 1437605240 -1188022787 1031347280
            -1170729800 -71659526 823135460 429596318</internalNodes>
          <leafValues>
            -6.3890761137008667e-01 1.7072591185569763e-01</leafValues></_></weakClassifiers></_>
    <!-- stage 12 -->
    <_>
      <maxWeakCount>12</maxWeakCount>
      <stageThreshold>-8.3474802970886230e-01</stageThreshold>
      <weakClassifiers>
        <_>
          <internalNodes>
            0 -1 105 -772532771 1006385149 1006600189 1006545904
            503059455 -1108023299 -462849 -1611599916</internalNodes>
          <leafValues>
            -3.3691275119781494e-01 4.2108023166656494e-01</leafValues></_>
        <_>
          <internalNodes>
            0 -1 63 -738118255 -1073889539 -720899 -68162369 1006387196
            -1073745923 1878687743 -240953597</internalNodes>
          <leafValues>
            -3.6486724019050598e-01 3.6408838629722595e-01</leafValues></_>
        <_>
          <internalNodes>
            0 -1 150 -1354782833 -2111394025 -1409859729 -1074794553
            1304211389 -1399991331 -2064318208 -772186859</internalNodes>
          <leafValues>
            -3.7750273942947388e-01 3.4227678179740906e-01</leafValues></_>
        <_>
          <internalNodes>
            0 -1 110 -1720400 -273632554 -136642561 -341248422 648034224
            -25568192 -1364149846 -1557966197</internalNodes>
          <leafValues>
            -3.7524244189262390e-01 3.2425388693809509e-01</leafValues></_>
        <_>
          <internalNodes>
            0 -1 77 -1214229264 1605325968 2140960760 1542422486
            -1699680071 -1073855255 787750655 469976389</internalNodes>
          <leafValues>
            -5.3609895706176758e-01 2.3578749597072601e-01</leafValues></_>
        <_>
          <internalNodes>
            0 -1 183 -268732669 -1567934034 -1476952317 -1288181893
            -117483771 544538421 -458300224 -1528300165</internalNodes>
          <leafValues>
            -4.0873372554779053e-01 2.9337441921234131e-01</leafValues></_>
        <_>
          <internalNodes>
            0 -1 165 2066720936 998417068 989708287 942709358 1812839997
            1024290075 1019062013 210693146</internalNodes>
          <leafValues>
            -5.0284063816070557e-01 2.7288430929183960e-01</leafValues></_>
        <_>
          <internalNodes>
            0 -1 41 -1279948099 -1148084849 1061892077 -1082347620
            532417453 -134361347 763299021 1430332421</internalNodes>
          <leafValues>
            -4.7176006436347961e-01 2.3568640649318695e-01</leafValues></_>
        <_>
          <internalNodes>
            0 -1 50 -1314237238 -920624928 -562177068 732263933
            -2116381737 -646369201 269534623 454694351</internalNodes>
          <leafValues>
            -4.9218913912773132e-01 2.7155572175979614e-01</leafValues></_>
        <_>
          <internalNodes>
            0 -1 205 783289653 788037375 -100896769 -1359069219
            -285854443 -335544513 -1610694795 -1934618640</internalNodes>
          <leafValues>
            -4.5362281799316406e-01 2.8114867210388184e-01</leafValues></_>
        <_>
          <internalNodes>
            0 -1 86 -591398008 -930688823 -370412687 296736723
            -1494299958 -2005960377 -1077478657 435943737</internalNodes>
          <leafValues>
            -4.2571091651916504e-01 2.9708084464073181e-01</leafValues></_>
        <_>
          <internalNodes>
            0 -1 132 1075161010 1454505903 -339831043 1982332791
            -8399042 -51106032 -375550218 -1372544494</internalNodes>
          <leafValues>
            -4.2634356021881104e-01 2.8829836845397949e-01</leafValues></_></weakClassifiers></_>
    <!-- stage 13 -->
    <_>
      <maxWeakCount>13</maxWeakCount>
      <stageThreshold>-1.3297251462936401e+00</stageThreshold>
      <weakClassifiers>
        <_>
          <internalNodes>
            0 -1 107 -1292315172 1006376317 1069511467 1073683965
            1073540327 1039990700 -1074827473 -1133448112</internalNodes>
          <leafValues>
            -4.2634508013725281e-01 3.4113463759422302e-01</leafValues></_>
        <_>
          <internalNodes>
            0 -1 90 -142756009 -1350844418 2147286527 -285474825
            1073487800 -926243 1034958745 -4472885</internalNodes>
          <leafValues>
            -2.5053423643112183e-01 4.6866503357887268e-01</leafValues></_>
        <_>
          <internalNodes>
            0 -1 27 -801976645 -270012546 855338879 1895809072
            1513194269 -13729998 1467436791 -648069057</internalNodes>
          <leafValues>
            -3.0176562070846558e-01 3.7221384048461914e-01</leafValues></_>
        <_>
          <internalNodes>
            0 -1 95 -1113525072 2146915573 -1884753921 -574140073
            -1733230709 -22146883 572562927 656729</internalNodes>
          <leafValues>
            -5.8315563201904297e-01 1.9194097816944122e-01</leafValues></_>
        <_>
          <internalNodes>
            0 -1 166 1705969073 226610795 -1900054465 561365713
            -1393619016 -1343275225 -458015600 -1984958506</internalNodes>
          <leafValues>
            -3.7202677130699158e-01 2.9873654246330261e-01</leafValues></_>
        <_>
          <internalNodes>
            0 -1 32 -89200985 -1901140209 -1359961673 -5046417
            2103543751 -1891375265 997523801 -294168715</internalNodes>
          <leafValues>
            -3.3069169521331787e-01 3.4652745723724365e-01</leafValues></_>
        <_>
          <internalNodes>
            0 -1 112 -1204267530 -726640388 219643198 1606375645
            -1121968936 1059790725 1060658838 285416733</internalNodes>
          <leafValues>
            -5.9858345985412598e-01 1.9783347845077515e-01</leafValues></_>
        <_>
          <internalNodes>
            0 -1 69 -1551633153 928477181 -1610612769 -1781007023
            1840183246 -65559 1778581275 -14944355</internalNodes>
          <leafValues>
            -3.0499157309532166e-01 4.1398355364799500e-01</leafValues></_>
        <_>
          <internalNodes>
            0 -1 12 -227620289 2113857634 711717242 -1209704264
            1886624719 2133092336 1716529028 -176204189</internalNodes>
          <leafValues>
            -2.9149907827377319e-01 4.1623282432556152e-01</leafValues></_>
        <_>
          <internalNodes>
            0 -1 139 -13843966 422218440 -1594890568 94564592 -14198
            1551255581 -185607573 4387587</internalNodes>
          <leafValues>
            -5.3691893815994263e-01 2.1664434671401978e-01</leafValues></_>
        <_>
          <internalNodes>
            0 -1 17 212864785 670727513 -272629801 -1565753347
            -1258539435 -285278209 -1078624713 745550864</internalNodes>
          <leafValues>
            -6.3123255968093872e-01 1.7196246981620789e-01</leafValues></_>
        <_>
          <internalNodes>
            0 -1 59 -24643595 -723531 -1090642182 -837886 204504766
            -1077971461 1947477754 -8972913</internalNodes>
          <leafValues>
            -2.9592576622962952e-01 4.1522154211997986e-01</leafValues></_>
        <_>
          <internalNodes>
            0 -1 40 -822186025 -764970169 -285760958 -1570082942
            142591485 -54067407 -294370718 -190054497</internalNodes>
          <leafValues>
            -2.6721817255020142e-01 4.3391725420951843e-01</leafValues></_></weakClassifiers></_>
    <!-- stage 14 -->
    <_>
      <maxWeakCount>13</maxWeakCount>
      <stageThreshold>-1.0735139846801758e+00</stageThreshold>
      <weakClassifiers>
        <_>
          <internalNodes>
            0 -1 96 -13520976 1588768496 -1880222444 -39602672
            1579158922 953813208 706763166 1666405187</internalNodes>
          <leafValues>
            -4.1766631603240967e-01 3.4398806095123291e-01</leafValues></_>
        <_>
          <internalNodes>
            0 -1 2 -223152257 -2222298 -285380609 -1237800134 2070170893
            -4755625 1853709183 -50893793</internalNodes>
          <leafValues>
            -3.4056580066680908e-01 3.5111674666404724e-01</leafValues></_>
        <_>
          <internalNodes>
            0 -1 151 -779364897 1073526781 -1076068355 -1080164355
            -2138241 -1075019779 -4236290 -122969430</internalNodes>
          <leafValues>
            -2.3131215572357178e-01 4.8833575844764709e-01</leafValues></_>
        <_>
          <internalNodes>
            0 -1 54 -1087021584 -544967196 -924849099 1365605989
            -1447503142 -1728290512 5176559 455761405</internalNodes>
          <leafValues>
            -4.5501607656478882e-01 2.5434222817420959e-01</leafValues></_>
        <_>
          <internalNodes>
            0 -1 172 -138424062 -1308062836 -406652107 -945029217
            2113400077 -1485832939 -304550696 -2068062737</internalNodes>
          <leafValues>
            -3.4899216890335083e-01 3.2739555835723877e-01</leafValues></_>
        <_>
          <internalNodes>
            0 -1 184 -1359490011 339871487 -1427129200 166444252
            449772814 -2031686924 -1024080768 -1060121391</internalNodes>
          <leafValues>
            -3.8310402631759644e-01 2.9756522178649902e-01</leafValues></_>
        <_>
          <internalNodes>
            0 -1 135 403725516 1435520741 1323233245 1561942237
            -1368223440 -1075658818 1059779370 260574472</internalNodes>
          <leafValues>
            -6.7637270689010620e-01 1.7731118202209473e-01</leafValues></_>
        <_>
          <internalNodes>
            0 -1 98 -41974433 1744486395 -16878083 -5128383 1027129279
            -369827854 -101402722 -100946245</internalNodes>
          <leafValues>
            -2.7802145481109619e-01 4.8463106155395508e-01</leafValues></_>
        <_>
          <internalNodes>
            0 -1 171 -382827344 -1254618800 -1678067721 -1275195656
            -1149370595 -1375932740 -1426084103 -1461604141</internalNodes>
          <leafValues>
            -3.9207154512405396e-01 2.9986780881881714e-01</leafValues></_>
        <_>
          <internalNodes>
            0 -1 115 -633390827 1423277328 -1269792867 -1666128841
            475153919 -60828177 -327255925 -2001044101</internalNodes>
          <leafValues>
            -3.8845610618591309e-01 2.8760752081871033e-01</leafValues></_>
        <_>
          <internalNodes>
            0 -1 23 -1130306 -1113126784 -1292446562 -1091158596
            2001760852 2031048148 1633156331 1803254089</internalNodes>
          <leafValues>
            -5.0273877382278442e-01 2.2313991189002991e-01</leafValues></_>
        <_>
          <internalNodes>
            0 -1 64 -114723404 -1729098000 1060822519 503267317
            -326847332 -1469063683 2138230175 901320513</internalNodes>
          <leafValues>
            -5.2955341339111328e-01 2.3108696937561035e-01</leafValues></_>
        <_>
          <internalNodes>
            0 -1 45 -1702172014 1600665426 419127218 -1327688624
            -1263610035 -347943622 1807561445 935003399</internalNodes>
          <leafValues>
            -4.6309688687324524e-01 2.6213479042053223e-01</leafValues></_></weakClassifiers></_>
    <!-- stage 15 -->
    <_>
      <maxWeakCount>13</maxWeakCount>
      <stageThreshold>-9.0434944629669189e-01</stageThreshold>
      <weakClassifiers>
        <_>
          <internalNodes>
            0 -1 93 1610626481 1069424637 -1073820737 -1073876995
            -1073856515 -1342898435 -327681 -200118061</internalNodes>
          <leafValues>
            -3.4393984079360962e-01 3.9121723175048828e-01</leafValues></_>
        <_>
          <internalNodes>
            0 -1 60 -67291139 968208309 -205315 -58458131 2147235324
            -1343143939 -475812 -16517765</internalNodes>
          <leafValues>
            -3.0035421252250671e-01 4.0782293677330017e-01</leafValues></_>
        <_>
          <internalNodes>
            0 -1 196 1899488145 12506553 1458493303 -788599137
            2134187932 249364104 -1196408870 -2138570869</internalNodes>
          <leafValues>
            -3.4204810857772827e-01 3.5809165239334106e-01</leafValues></_>
        <_>
          <internalNodes>
            0 -1 8 2135313167 -1183154241 -1094791689 -289915774
            1846631739 1320905845 1693472255 -1192989134</internalNodes>
          <leafValues>
            -3.8420298695564270e-01 3.0919051170349121e-01</leafValues></_>
        <_>
          <internalNodes>
            0 -1 146 -453129024 -1156774896 -1442886532 356336676
            -926679110 -1685326094 -387757624 294327547</internalNodes>
          <leafValues>
            -5.3522366285324097e-01 1.9566328823566437e-01</leafValues></_>
        <_>
          <internalNodes>
            0 -1 180 -286130371 304059511 -1571073952 -1654420160
            -1228214343 -1229979683 880178400 -171977259</internalNodes>
          <leafValues>
            -2.7112385630607605e-01 4.2009398341178894e-01</leafValues></_>
        <_>
          <internalNodes>
            0 -1 11 -1996504075 187108822 -423646412 785239010 83098877
            1241449831 124765776 -2048440491</internalNodes>
          <leafValues>
            -3.7216711044311523e-01 3.1792694330215454e-01</leafValues></_>
        <_>
          <internalNodes>
            0 -1 118 -1179593217 -576160780 -243310627 -545294119
            -1389191938 -1079101441 -547734534 -1081418275</internalNodes>
          <leafValues>
            -3.2409295439720154e-01 3.6584398150444031e-01</leafValues></_>
        <_>
          <internalNodes>
            0 -1 179 1645199444 -909127745 599217398 -848565413
            -1880753316 -1898451364 942679734 -2122193473</internalNodes>
          <leafValues>
            -3.5071864724159241e-01 3.3043080568313599e-01</leafValues></_>
        <_>
          <internalNodes>
            0 -1 37 1250052810 -278233613 -756008016 -218337040
            1244601081 1248415058 1034056687 1009784319</internalNodes>
          <leafValues>
            -5.1323783397674561e-01 2.2664597630500793e-01</leafValues></_>
        <_>
          <internalNodes>
            0 -1 177 -218641019 2139833648 -420320009 -2128296522
            1560423821 -575702241 -840176194 -844433685</internalNodes>
          <leafValues>
            -3.1353124976158142e-01 3.9697223901748657e-01</leafValues></_>
        <_>
          <internalNodes>
            0 -1 51 1033065952 -563646728 -932189613 1400339037
            515038622 172367872 107918033 789089789</internalNodes>
          <leafValues>
            -4.4974985718727112e-01 2.8195691108703613e-01</leafValues></_>
        <_>
          <internalNodes>
            0 -1 138 -266218368 1574700080 -1184413699 227344628
            752926378 -1366918528 572575438 151130714</internalNodes>
          <leafValues>
            -6.7421698570251465e-01 1.4714151620864868e-01</leafValues></_></weakClassifiers></_>
    <!-- stage 16 -->
    <_>
      <maxWeakCount>13</maxWeakCount>
      <stageThreshold>-1.1169370412826538e+00</stageThreshold>
      <weakClassifiers>
        <_>
          <internalNodes>
            0 -1 148 1521016831 523775996 -1178824708 800600060
            -1178796097 -33783809 -1073741827 -1107382799</internalNodes>
          <leafValues>
            -3.0204692482948303e-01 4.3455880880355835e-01</leafValues></_>
        <_>
          <internalNodes>
            0 -1 20 -84508073 243805782 -1344316464 -1742738650
            2146444127 -640614671 1980781392 -279873981</internalNodes>
          <leafValues>
            -3.6122855544090271e-01 3.3157721161842346e-01</leafValues></_>
        <_>
          <internalNodes>
            0 -1 194 -482364493 833533855 -1279281230 868150261
            1331654404 1141736916 -194136346 -2134511929</internalNodes>
          <leafValues>
            -3.4695175290107727e-01 3.3948835730552673e-01</leafValues></_>
        <_>
          <internalNodes>
            0 -1 140 1352864222 402415485 -1074380995 1073594325
            2146844670 -1090720260 -21037058 -396120502</internalNodes>
          <leafValues>
            -3.5938933491706848e-01 3.1648403406143188e-01</leafValues></_>
        <_>
          <internalNodes>
            0 -1 26 1356778175 88479530 979859002 -202021200 1442205691
            1261334290 932279680 -44743017</internalNodes>
          <leafValues>
            -3.6930975317955017e-01 3.0092924833297729e-01</leafValues></_>
        <_>
          <internalNodes>
            0 -1 154 -1717514496 1495321824 1068625404 2145981644
            -1110932211 766686519 -1845716527 15143116</internalNodes>
          <leafValues>
            -6.0016870498657227e-01 2.2352476418018341e-01</leafValues></_>
        <_>
          <internalNodes>
            0 -1 170 -738200203 -609158593 -1363177665 -1142105473
            -1128591434 -67207171 -1094721653 -1410341001</internalNodes>
          <leafValues>
            -2.5618773698806763e-01 4.5809772610664368e-01</leafValues></_>
        <_>
          <internalNodes>
            0 -1 114 234694447 711454591 -278956410 -1430454274
            -100958379 1155915639 -33020 -453730462</internalNodes>
          <leafValues>
            -4.1402503848075867e-01 2.7856540679931641e-01</leafValues></_>
        <_>
          <internalNodes>
            0 -1 122 -660437766 498086608 539729334 1595901048 -21357381
            -1210578993 -30996450 -1938326257</internalNodes>
          <leafValues>
            -3.8591572642326355e-01 3.1275287270545959e-01</leafValues></_>
        <_>
          <internalNodes>
            0 -1 192 -16269071 -272909132 -503849483 -259019018
            -12906728 -1920014372 -1036869477 -1987858898</internalNodes>
          <leafValues>
            -3.1908532977104187e-01 3.8170400261878967e-01</leafValues></_>
        <_>
          <internalNodes>
            0 -1 99 -122904160 -38096649 79627575 -1088170253 2100345994
            -1146149345 665427867 -1347721741</internalNodes>
          <leafValues>
            -3.5717007517814636e-01 3.3470767736434937e-01</leafValues></_>
        <_>
          <internalNodes>
            0 -1 79 -101079055 -1619106816 -473048217 -1933495292
            405786248 978277506 -1406374353 -127943681</internalNodes>
          <leafValues>
            -2.9186159372329712e-01 4.0679243206977844e-01</leafValues></_>
        <_>
          <internalNodes>
            0 -1 35 -487166993 409659238 -91335616 1924854338 2130601681
            -715917739 -10780897 -207356033</internalNodes>
          <leafValues>
            -3.1487670540809631e-01 3.7960174679756165e-01</leafValues></_></weakClassifiers></_>
    <!-- stage 17 -->
    <_>
      <maxWeakCount>13</maxWeakCount>
      <stageThreshold>-9.2895990610122681e-01</stageThreshold>
      <weakClassifiers>
        <_>
          <internalNodes>
            0 -1 124 34269 2147295101 1769521151 2147352567 -536870913
            -1359026177 -269156354 -1428024240</internalNodes>
          <leafValues>
            -3.1681805849075317e-01 3.9652502536773682e-01</leafValues></_>
        <_>
          <internalNodes>
            0 -1 13 -1032076689 124448582 -1527040010 -286423300
            1400832831 -1005578384 1952612308 -462986953</internalNodes>
          <leafValues>
            -3.9590704441070557e-01 3.0363407731056213e-01</leafValues></_>
        <_>
          <internalNodes>
            0 -1 167 -318767307 1422159839 -1157672560 159120825
            -553682986 -1058079241 -319193920 -990380809</internalNodes>
          <leafValues>
            -3.2494747638702393e-01 3.5350075364112854e-01</leafValues></_>
        <_>
          <internalNodes>
            0 -1 81 -1314384395 602226685 -1074790601 802140144
            -1342434340 1072741821 -17238081 -51249325</internalNodes>
          <leafValues>
            -4.1490840911865234e-01 2.7782091498374939e-01</leafValues></_>
        <_>
          <internalNodes>
            0 -1 147 1753115925 1385725791 -1229294312 -596871650
            1576632253 2097010431 -453093858 -362348678</internalNodes>
          <leafValues>
            -3.4604254364967346e-01 3.2916411757469177e-01</leafValues></_>
        <_>
          <internalNodes>
            0 -1 188 -21277431 302986797 -1208084617 1730830561
            -146848508 912248077 -318771464 -313790545</internalNodes>
          <leafValues>
            -3.4634971618652344e-01 3.3069103956222534e-01</leafValues></_>
        <_>
          <internalNodes>
            0 -1 84 -1036933356 -17036971 -1161871747 -117633065
            1433676031 725094364 1979613148 589502227</internalNodes>
          <leafValues>
            -4.2891776561737061e-01 2.7829223871231079e-01</leafValues></_>
        <_>
          <internalNodes>
            0 -1 97 1803105143 -1191561219 -403214158 1397767760
            402032840 1264009036 1223851698 -274040237</internalNodes>
          <leafValues>
            -3.5887613892555237e-01 3.0763927102088928e-01</leafValues></_>
        <_>
          <internalNodes>
            0 -1 204 781454709 753350647 1071591419 -490828420 -84001547
            -286769305 -1080018059 -1179371248</internalNodes>
          <leafValues>
            -4.1256910562515259e-01 2.7283149957656860e-01</leafValues></_>
        <_>
          <internalNodes>
            0 -1 123 -503081514 2146201596 -354927107 483212255
            737939455 -1100669475 2120499135 -331249134</internalNodes>
          <leafValues>
            -3.5731479525566101e-01 3.3116126060485840e-01</leafValues></_>
        <_>
          <internalNodes>
            0 -1 22 -1289559549 262811083 1711494832 -88250672
            -2045721947 -1544356013 1231111265 -539535535</internalNodes>
          <leafValues>
            -4.3790459632873535e-01 2.5343817472457886e-01</leafValues></_>
        <_>
          <internalNodes>
            0 -1 80 -5114320 -626086732 -1459646414 -68419712 271597450
            -151423592 979390010 2001949635</internalNodes>
          <leafValues>
            -4.6728146076202393e-01 2.5672814249992371e-01</leafValues></_>
        <_>
          <internalNodes>
            0 -1 190 1645583664 145851793 -1434736016 460967166
            558210830 -1935077481 -2068086656 -2098727595</internalNodes>
          <leafValues>
            -4.5097067952156067e-01 2.5136768817901611e-01</leafValues></_></weakClassifiers></_>
    <!-- stage 18 -->
    <_>
      <maxWeakCount>14</maxWeakCount>
      <stageThreshold>-9.5129299163818359e-01</stageThreshold>
      <weakClassifiers>
        <_>
          <internalNodes>
            0 -1 67 -1543376623 -1912672257 -32771 -1073775273 905968639
            -196643 -753890 -48148978</internalNodes>
          <leafValues>
            -2.4184782803058624e-01 4.4174951314926147e-01</leafValues></_>
        <_>
          <internalNodes>
            0 -1 38 1497329461 -106451586 -270846145 2145660466
            1507798698 1542319476 -1141342486 -1602212310</internalNodes>
          <leafValues>
            -3.3863762021064758e-01 3.2403618097305298e-01</leafValues></_>
        <_>
          <internalNodes>
            0 -1 34 -1461531998 -1964458341 -1565308680 -118431646
            -2022357056 -2066452651 359663064 -829886</internalNodes>
          <leafValues>
            -4.1046717762947083e-01 2.6185193657875061e-01</leafValues></_>
        <_>
          <internalNodes>
            0 -1 102 -1145414504 -892843272 -601358639 284318905
            -1158608822 -1694868129 -91031585 454752761</internalNodes>
          <leafValues>
            -4.9532675743103027e-01 2.0622813701629639e-01</leafValues></_>
        <_>
          <internalNodes>
            0 -1 145 -926364461 -738781353 738095103 -271106478
            730527153 -1344372737 -104910926 -589845790</internalNodes>
          <leafValues>
            -2.8312379121780396e-01 3.7314555048942566e-01</leafValues></_>
        <_>
          <internalNodes>
            0 -1 129 -551565789 974573190 -756812045 -1218143249
            -113520979 -1324893265 -88737380 -2141098369</internalNodes>
          <leafValues>
            -3.0072593688964844e-01 3.6554110050201416e-01</leafValues></_>
        <_>
          <internalNodes>
            0 -1 33 1346030683 1330425662 282466295 821376368
            -1084563619 -47942608 894898771 1355236607</internalNodes>
          <leafValues>
            -3.6635148525238037e-01 2.9386773705482483e-01</leafValues></_>
        <_>
          <internalNodes>
            0 -1 185 -354945465 2124606315 -16789765 -508137489
            1060094789 1967688791 -570953489 -314844549</internalNodes>
          <leafValues>
            -3.0016607046127319e-01 3.7797331809997559e-01</leafValues></_>
        <_>
          <internalNodes>
            0 -1 53 983782636 632243797 -1968560427 366936017 125210222
            -16878604 117506011 327873901</internalNodes>
          <leafValues>
            -4.3583998084068298e-01 2.6564154028892517e-01</leafValues></_>
        <_>
          <internalNodes>
            0 -1 94 -642392613 -315554567 -624959495 -766140451
            -1859060102 -1624000773 -1810104397 -77946949</internalNodes>
          <leafValues>
            -2.5410589575767517e-01 4.1891035437583923e-01</leafValues></_>
        <_>
          <internalNodes>
            0 -1 195 -138424079 454515100 1392473975 1345420326
            -1210283940 -277885668 -1124558173 -1378484693</internalNodes>
          <leafValues>
            -2.9379248619079590e-01 3.7451231479644775e-01</leafValues></_>
        <_>
          <internalNodes>
            0 -1 3 -584094435 261009239 -766367005 635718379 726925645
            -9274513 -1286060300 -79536257</internalNodes>
          <leafValues>
            -3.3978894352912903e-01 3.2595279812812805e-01</leafValues></_>
        <_>
          <internalNodes>
            0 -1 108 816894300 930881497 804194237 800845101 485786895
            -1360232787 -139583862 71688240</internalNodes>
          <leafValues>
            -5.9573745727539062e-01 1.8939028680324554e-01</leafValues></_>
        <_>
          <internalNodes>
            0 -1 160 -553660661 1018144551 -1082745285 2142198699
            1190620933 13696967 -69603467 -923273631</internalNodes>
          <leafValues>
            -3.0996808409690857e-01 3.5691425204277039e-01</leafValues></_></weakClassifiers></_>
    <!-- stage 19 -->
    <_>
      <maxWeakCount>16</maxWeakCount>
      <stageThreshold>-9.0414154529571533e-01</stageThreshold>
      <weakClassifiers>
        <_>
          <internalNodes>
            0 -1 155 -800203265 826150719 -1413595137 -1174532354
            -603979777 -98562 -67112462 -571493710</internalNodes>
          <leafValues>
            -1.3782593607902527e-01 5.5593222379684448e-01</leafValues></_>
        <_>
          <internalNodes>
            0 -1 149 -593459070 362840104 851120052 367902796
            -1174417457 953024995 -1394873889 216522139</internalNodes>
          <leafValues>
            -5.2204209566116333e-01 2.1693991124629974e-01</leafValues></_>
        <_>
          <internalNodes>
            0 -1 62 -546714486 -98334470 1834376543 2003241087 221305336
            -1087159609 2133219738 1059272483</internalNodes>
          <leafValues>
            -4.3072617053985596e-01 2.2286741435527802e-01</leafValues></_>
        <_>
          <internalNodes>
            0 -1 89 221547656 1073221369 230136319 263814220 2104280509
            1576031437 -36320055 -1940730705</internalNodes>
          <leafValues>
            -4.2935508489608765e-01 2.5571131706237793e-01</leafValues></_>
        <_>
          <internalNodes>
            0 -1 5 -163617017 528154429 -1397261449 -1524863298
            -1211676643 -492020289 2145398713 -287244801</internalNodes>
          <leafValues>
            -3.2709792256355286e-01 2.9634988307952881e-01</leafValues></_>
        <_>
          <internalNodes>
            0 -1 119 -1717019494 -575125320 951036967 1602179284
            -1697870597 179992287 184424446 1527928313</internalNodes>
          <leafValues>
            -5.0401622056961060e-01 1.8417523801326752e-01</leafValues></_>
        <_>
          <internalNodes>
            0 -1 25 -491787609 -840527987 -490057961 -31396824 592396688
            1191621957 1946122077 -411730617</internalNodes>
          <leafValues>
            -3.5081207752227783e-01 2.7948921918869019e-01</leafValues></_>
        <_>
          <internalNodes>
            0 -1 31 -491591813 -79696002 1543172720 943356578 150703551
            2049637718 1055082187 -176793737</internalNodes>
          <leafValues>
            -2.9718518257141113e-01 3.3833175897598267e-01</leafValues></_>
        <_>
          <internalNodes>
            0 -1 21 -763460993 1903070062 542851068 -1108014892
            1433174348 1430408004 1879061792 2036430490</internalNodes>
          <leafValues>
            -4.0676084160804749e-01 2.5489988923072815e-01</leafValues></_>
        <_>
          <internalNodes>
            0 -1 174 -264306272 -1700218102 -38921609 1526282740
            524287293 202763597 933069400 136172851</internalNodes>
          <leafValues>
            -5.0772231817245483e-01 2.0427949726581573e-01</leafValues></_>
        <_>
          <internalNodes>
            0 -1 109 -575087105 -273461511 -617390081 -848073507
            -2056152837 -818196485 -1707979013 -80523265</internalNodes>
          <leafValues>
            -2.3887065052986145e-01 4.4665068387985229e-01</leafValues></_>
        <_>
          <internalNodes>
            0 -1 55 -1310076460 1004552173 1810819677 1006201582
            -352569868 1072700413 1986748829 1904337749</internalNodes>
          <leafValues>
            -4.7008261084556580e-01 2.1296849846839905e-01</leafValues></_>
        <_>
          <internalNodes>
            0 -1 137 951080360 -34988720 451868125 154745749 280682317
            -1301649473 -1097876821 420090021</internalNodes>
          <leafValues>
            -5.6586515903472900e-01 1.8166182935237885e-01</leafValues></_>
        <_>
          <internalNodes>
            0 -1 178 -87042803 -995769852 1322825708 -1020734417
            1799836937 1148773645 -336069170 -834540181</internalNodes>
          <leafValues>
            -3.2088199257850647e-01 3.3588433265686035e-01</leafValues></_>
        <_>
          <internalNodes>
            0 -1 71 -135013387 -1346902908 -1360532518 -973761057
            -1159155734 172947091 -416606149 -216278401</internalNodes>
          <leafValues>
            -2.5596871972084045e-01 3.9712664484977722e-01</leafValues></_>
        <_>
          <internalNodes>
            0 -1 42 -1516429175 985041862 852683768 1072176459 398928285
            -1141353729 -1411306132 1693828608</internalNodes>
          <leafValues>
            -4.6033430099487305e-01 2.2908252477645874e-01</leafValues></_></weakClassifiers></_></stages>
  <features>
    <_>
      <rect>
        0 10 11 14</rect></_>
    <_>
      <rect>
        0 17 13 17</rect></_>
    <_>
      <rect>
        0 22 12 13</rect></_>
    <_>
      <rect>
        0 23 10 16</rect></_>
    <_>
      <rect>
        0 26 7 1</rect></_>
    <_>
      <rect>
        0 34 14 11</rect></_>
    <_>
      <rect>
        1 21 10 11</rect></_>
    <_>
      <rect>
        1 24 11 1</rect></_>
    <_>
      <rect>
        1 27 13 12</rect></_>
    <_>
      <rect>
        1 27 14 13</rect></_>
    <_>
      <rect>
        2 1 1 3</rect></_>
    <_>
      <rect>
        2 10 13 7</rect></_>
    <_>
      <rect>
        3 27 7 6</rect></_>
    <_>
      <rect>
        3 31 8 4</rect></_>
    <_>
      <rect>
        3 50 7 1</rect></_>
    <_>
      <rect>
        4 8 9 14</rect></_>
    <_>
      <rect>
        4 36 12 11</rect></_>
    <_>
      <rect>
        5 0 1 6</rect></_>
    <_>
      <rect>
        5 67 11 1</rect></_>
    <_>
      <rect>
        7 10 9 10</rect></_>
    <_>
      <rect>
        7 17 7 9</rect></_>
    <_>
      <rect>
        7 26 6 5</rect></_>
    <_>
      <rect>
        8 18 8 5</rect></_>
    <_>
      <rect>
        8 29 14 5</rect></_>
    <_>
      <rect>
        8 37 18 10</rect></_>
    <_>
      <rect>
        9 27 7 2</rect></_>
    <_>
      <rect>
        9 30 5 4</rect></_>
    <_>
      <rect>
        9 31 6 6</rect></_>
    <_>
      <rect>
        9 31 10 8</rect></_>
    <_>
      <rect>
        10 18 10 11</rect></_>
    <_>
      <rect>
        10 38 8 3</rect></_>
    <_>
      <rect>
        10 40 7 3</rect></_>
    <_>
      <rect>
        11 22 7 3</rect></_>
    <_>
      <rect>
        11 28 5 6</rect></_>
    <_>
      <rect>
        12 25 5 3</rect></_>
    <_>
      <rect>
        12 42 5 2</rect></_>
    <_>
      <rect>
        13 23 5 6</rect></_>
    <_>
      <rect>
        13 31 6 4</rect></_>
    <_>
      <rect>
        13 39 11 10</rect></_>
    <_>
      <rect>
        13 43 5 3</rect></_>
    <_>
      <rect>
        13 43 6 2</rect></_>
    <_>
      <rect>
        14 2 14 10</rect></_>
    <_>
      <rect>
        14 9 13 7</rect></_>
    <_>
      <rect>
        14 15 1 5</rect></_>
    <_>
      <rect>
        14 30 11 4</rect></_>
    <_>
      <rect>
        14 33 5 5</rect></_>
    <_>
      <rect>
        14 45 5 2</rect></_>
    <_>
      <rect>
        15 55 1 3</rect></_>
    <_>
      <rect>
        16 24 13 7</rect></_>
    <_>
      <rect>
        16 26 10 10</rect></_>
    <_>
      <rect>
        16 28 12 4</rect></_>
    <_>
      <rect>
        16 33 13 4</rect></_>
    <_>
      <rect>
        16 46 1 8</rect></_>
    <_>
      <rect>
        17 29 14 7</rect></_>
    <_>
      <rect>
        17 32 13 4</rect></_>
    <_>
      <rect>
        18 21 10 9</rect></_>
    <_>
      <rect>
        18 24 11 6</rect></_>
    <_>
      <rect>
        18 31 11 3</rect></_>
    <_>
      <rect>
        19 31 6 6</rect></_>
    <_>
      <rect>
        19 37 6 4</rect></_>
    <_>
      <rect>
        20 18 7 9</rect></_>
    <_>
      <rect>
        20 19 11 5</rect></_>
    <_>
      <rect>
        20 20 7 5</rect></_>
    <_>
      <rect>
        20 23 7 9</rect></_>
    <_>
      <rect>
        20 23 8 6</rect></_>
    <_>
      <rect>
        20 24 8 5</rect></_>
    <_>
      <rect>
        20 24 9 9</rect></_>
    <_>
      <rect>
        20 25 7 10</rect></_>
    <_>
      <rect>
        20 29 7 4</rect></_>
    <_>
      <rect>
        20 29 11 7</rect></_>
    <_>
      <rect>
        20 34 6 5</rect></_>
    <_>
      <rect>
        20 38 11 5</rect></_>
    <_>
      <rect>
        21 0 1 10</rect></_>
    <_>
      <rect>
        21 19 7 9</rect></_>
    <_>
      <rect>
        21 23 9 9</rect></_>
    <_>
      <rect>
        21 30 10 6</rect></_>
    <_>
      <rect>
        21 30 12 4</rect></_>
    <_>
      <rect>
        21 34 7 4</rect></_>
    <_>
      <rect>
        21 38 7 4</rect></_>
    <_>
      <rect>
        21 39 10 4</rect></_>
    <_>
      <rect>
        21 40 6 4</rect></_>
    <_>
      <rect>
        22 20 8 9</rect></_>
    <_>
      <rect>
        22 21 7 10</rect></_>
    <_>
      <rect>
        22 22 6 5</rect></_>
    <_>
      <rect>
        22 25 4 7</rect></_>
    <_>
      <rect>
        22 26 14 8</rect></_>
    <_>
      <rect>
        22 31 14 4</rect></_>
    <_>
      <rect>
        22 43 1 6</rect></_>
    <_>
      <rect>
        23 1 16 12</rect></_>
    <_>
      <rect>
        23 14 11 10</rect></_>
    <_>
      <rect>
        23 16 5 10</rect></_>
    <_>
      <rect>
        23 20 8 11</rect></_>
    <_>
      <rect>
        23 22 5 9</rect></_>
    <_>
      <rect>
        23 23 8 10</rect></_>
    <_>
      <rect>
        23 30 9 4</rect></_>
    <_>
      <rect>
        23 34 8 5</rect></_>
    <_>
      <rect>
        23 40 7 5</rect></_>
    <_>
      <rect>
        23 46 5 4</rect></_>
    <_>
      <rect>
        24 18 4 9</rect></_>
    <_>
      <rect>
        24 18 5 5</rect></_>
    <_>
      <rect>
        24 18 7 10</rect></_>
    <_>
      <rect>
        24 20 9 10</rect></_>
    <_>
      <rect>
        24 29 12 4</rect></_>
    <_>
      <rect>
        24 33 8 5</rect></_>
    <_>
      <rect>
        24 37 6 5</rect></_>
    <_>
      <rect>
        25 17 8 10</rect></_>
    <_>
      <rect>
        25 19 5 9</rect></_>
    <_>
      <rect>
        25 21 9 9</rect></_>
    <_>
      <rect>
        25 23 9 9</rect></_>
    <_>
      <rect>
        25 27 9 5</rect></_>
    <_>
      <rect>
        25 37 5 6</rect></_>
    <_>
      <rect>
        26 21 7 10</rect></_>
    <_>
      <rect>
        26 24 7 5</rect></_>
    <_>
      <rect>
        26 34 8 5</rect></_>
    <_>
      <rect>
        26 69 8 1</rect></_>
    <_>
      <rect>
        27 5 15 14</rect></_>
    <_>
      <rect>
        27 21 8 10</rect></_>
    <_>
      <rect>
        27 23 6 5</rect></_>
    <_>
      <rect>
        27 26 7 4</rect></_>
    <_>
      <rect>
        27 26 9 4</rect></_>
    <_>
      <rect>
        27 29 9 4</rect></_>
    <_>
      <rect>
        28 2 9 10</rect></_>
    <_>
      <rect>
        28 21 6 4</rect></_>
    <_>
      <rect>
        28 22 4 9</rect></_>
    <_>
      <rect>
        29 24 7 12</rect></_>
    <_>
      <rect>
        29 26 6 4</rect></_>
    <_>
      <rect>
        29 34 5 4</rect></_>
    <_>
      <rect>
        30 3 14 15</rect></_>
    <_>
      <rect>
        30 10 14 11</rect></_>
    <_>
      <rect>
        30 16 6 3</rect></_>
    <_>
      <rect>
        30 16 8 10</rect></_>
    <_>
      <rect>
        30 20 7 4</rect></_>
    <_>
      <rect>
        30 21 4 13</rect></_>
    <_>
      <rect>
        30 21 5 5</rect></_>
    <_>
      <rect>
        30 22 7 10</rect></_>
    <_>
      <rect>
        30 27 6 5</rect></_>
    <_>
      <rect>
        30 30 6 5</rect></_>
    <_>
      <rect>
        30 34 6 4</rect></_>
    <_>
      <rect>
        30 35 6 5</rect></_>
    <_>
      <rect>
        31 19 7 3</rect></_>
    <_>
      <rect>
        31 24 4 9</rect></_>
    <_>
      <rect>
        31 24 6 5</rect></_>
    <_>
      <rect>
        31 25 7 10</rect></_>
    <_>
      <rect>
        32 17 5 6</rect></_>
    <_>
      <rect>
        32 22 6 9</rect></_>
    <_>
      <rect>
        32 29 6 8</rect></_>
    <_>
      <rect>
        32 37 6 5</rect></_>
    <_>
      <rect>
        33 4 13 12</rect></_>
    <_>
      <rect>
        33 18 6 9</rect></_>
    <_>
      <rect>
        33 20 6 4</rect></_>
    <_>
      <rect>
        33 37 13 9</rect></_>
    <_>
      <rect>
        34 25 4 8</rect></_>
    <_>
      <rect>
        34 35 4 5</rect></_>
    <_>
      <rect>
        35 21 6 6</rect></_>
    <_>
      <rect>
        35 23 6 5</rect></_>
    <_>
      <rect>
        35 26 5 9</rect></_>
    <_>
      <rect>
        35 26 7 5</rect></_>
    <_>
      <rect>
        35 65 7 1</rect></_>
    <_>
      <rect>
        36 12 12 13</rect></_>
    <_>
      <rect>
        37 21 5 5</rect></_>
    <_>
      <rect>
        37 26 6 2</rect></_>
    <_>
      <rect>
        38 5 1 6</rect></_>
    <_>
      <rect>
        38 22 7 5</rect></_>
    <_>
      <rect>
        38 22 8 1</rect></_>
    <_>
      <rect>
        38 28 5 6</rect></_>
    <_>
      <rect>
        39 16 7 9</rect></_>
    <_>
      <rect>
        39 17 10 16</rect></_>
    <_>
      <rect>
        39 40 9 3</rect></_>
    <_>
      <rect>
        39 49 10 1</rect></_>
    <_>
      <rect>
        40 0 9 1</rect></_>
    <_>
      <rect>
        40 2 10 22</rect></_>
    <_>
      <rect>
        40 23 4 8</rect></_>
    <_>
      <rect>
        40 25 7 3</rect></_>
    <_>
      <rect>
        40 47 9 1</rect></_>
    <_>
      <rect>
        41 22 6 6</rect></_>
    <_>
      <rect>
        41 22 8 3</rect></_>
    <_>
      <rect>
        41 26 10 11</rect></_>
    <_>
      <rect>
        42 17 6 5</rect></_>
    <_>
      <rect>
        42 18 6 3</rect></_>
    <_>
      <rect>
        42 30 6 6</rect></_>
    <_>
      <rect>
        42 44 5 3</rect></_>
    <_>
      <rect>
        43 3 1 7</rect></_>
    <_>
      <rect>
        43 22 9 12</rect></_>
    <_>
      <rect>
        43 26 6 2</rect></_>
    <_>
      <rect>
        43 39 7 3</rect></_>
    <_>
      <rect>
        44 20 5 2</rect></_>
    <_>
      <rect>
        44 44 1 9</rect></_>
    <_>
      <rect>
        45 22 4 2</rect></_>
    <_>
      <rect>
        45 23 5 3</rect></_>
    <_>
      <rect>
        45 26 6 9</rect></_>
    <_>
      <rect>
        45 38 5 3</rect></_>
    <_>
      <rect>
        46 30 8 4</rect></_>
    <_>
      <rect>
        46 31 5 6</rect></_>
    <_>
      <rect>
        47 29 5 5</rect></_>
    <_>
      <rect>
        47 32 6 3</rect></_>
    <_>
      <rect>
        48 24 4 5</rect></_>
    <_>
      <rect>
        48 28 6 5</rect></_>
    <_>
      <rect>
        49 25 6 5</rect></_>
    <_>
      <rect>
        52 2 1 7</rect></_>
    <_>
      <rect>
        53 37 5 1</rect></_>
    <_>
      <rect>
        55 0 1 4</rect></_>
    <_>
      <rect>
        56 7 1 9</rect></_>
    <_>
      <rect>
        58 51 1 7</rect></_>
    <_>
      <rect>
        65 36 1 9</rect></_>
    <_>
      <rect>
        66 38 1 8</rect></_>
    <_>
      <rect>
        69 19 1 5</rect></_></features></cascade>
</opencv_storage>
