<?xml version="1.0"?>
<opencv_storage>
<stage3>
  <maxWeakCount>7</maxWeakCount>
  <stageThreshold>-8.3178842067718506e-01</stageThreshold>
  <weakClassifiers>
    <_>
      <internalNodes>
        0 -1 297594 313020624 460851192 1064394239 2147057141 728036604
        1022367732 988478975 822219217</internalNodes>
      <leafValues>
        -6.9819992780685425e-01 4.3555229902267456e-01</leafValues></_>
    <_>
      <internalNodes>
        0 -1 599059 -855913067 13421997 -100696073 100511639 -826462284
        -1997078671 -1494473692 -1343755673</internalNodes>
      <leafValues>
        -4.5705038309097290e-01 5.0904887914657593e-01</leafValues></_>
    <_>
      <internalNodes>
        0 -1 672516 68160821 1022918613 -4196353 -1095223108 -553894539
        -16977921 -1107492876 -1393554400</internalNodes>
      <leafValues>
        -5.4111391305923462e-01 4.0978878736495972e-01</leafValues></_>
    <_>
      <internalNodes>
        0 -1 93502 -134279931 -570837139 1337795903 687868946 1442779413
        -40969 -17100804 -1532993734</internalNodes>
      <leafValues>
        -4.7286415100097656e-01 4.7881811857223511e-01</leafValues></_>
    <_>
      <internalNodes>
        0 -1 411669 -248213003 867441661 1005912061 1039482865
        -1217121283 -1074514963 -1032193 -1083097133</internalNodes>
      <leafValues>
        -5.0337255001068115e-01 4.4783055782318115e-01</leafValues></_>
    <_>
      <internalNodes>
        0 -1 509102 -797931360 1487406143 1001687543 -21750658
        -272655173 -1078252875 -1140908577 -1108669206</internalNodes>
      <leafValues>
        -5.0046789646148682e-01 4.4691354036331177e-01</leafValues></_>
    <_>
      <internalNodes>
        0 -1 12258 -1358960857 552529918 -17908190 -1428261146
        -329810091 1174370151 -143175356 -453577417</internalNodes>
      <leafValues>
        -5.1038157939910889e-01 4.4299629330635071e-01</leafValues></_></weakClassifiers></stage3>
</opencv_storage>
