<?xml version="1.0"?>
<opencv_storage>
<stage4>
  <maxWeakCount>7</maxWeakCount>
  <stageThreshold>-7.5410676002502441e-01</stageThreshold>
  <weakClassifiers>
    <_>
      <internalNodes>
        0 -1 359890 -1082075744 -592427 -884814 -567824 -1246625863
        1073704957 -1095406408 -1223229431</internalNodes>
      <leafValues>
        -4.2821472883224487e-01 5.2729278802871704e-01</leafValues></_>
    <_>
      <internalNodes>
        0 -1 681308 -1497419998 38596399 -1362104798 -2135236690
        1442271041 73922375 -184556224 -454625289</internalNodes>
      <leafValues>
        -5.7662487030029297e-01 3.7657338380813599e-01</leafValues></_>
    <_>
      <internalNodes>
        0 -1 541974 -777457748 1361094828 805224445 1068436652
        -1616842785 490534911 -1073766469 -1343257187</internalNodes>
      <leafValues>
        -4.7962874174118042e-01 4.2525276541709900e-01</leafValues></_>
    <_>
      <internalNodes>
        0 -1 30432 -1032388993 -1936807754 -419989721 -1730368326
        1382445399 -67201680 1443177840 -63478253</internalNodes>
      <leafValues>
        -4.3838566541671753e-01 4.9825429916381836e-01</leafValues></_>
    <_>
      <internalNodes>
        0 -1 287975 644353333 -1438843379 -49219 -1359069828 666188145
        -50987081 -134869387 -1397219744</internalNodes>
      <leafValues>
        -4.4537284970283508e-01 4.3741381168365479e-01</leafValues></_>
    <_>
      <internalNodes>
        0 -1 482673 -165675755 1446458685 -1201907779 -1735476707
        -849944769 -25182337 -1392592706 -1933660870</internalNodes>
      <leafValues>
        -4.5468860864639282e-01 4.3777430057525635e-01</leafValues></_>
    <_>
      <internalNodes>
        0 -1 386602 -1740670960 270469332 1027600149 1033764861
        1371205630 -1161891331 -206537096 285336017</internalNodes>
      <leafValues>
        -6.4308077096939087e-01 3.1565999984741211e-01</leafValues></_></weakClassifiers></stage4>
</opencv_storage>
