<?xml version="1.0"?>
<opencv_storage>
<stage17>
  <maxWeakCount>13</maxWeakCount>
  <stageThreshold>-9.2895990610122681e-01</stageThreshold>
  <weakClassifiers>
    <_>
      <internalNodes>
        0 -1 476223 34269 2147295101 1769521151 2147352567 -536870913
        -1359026177 -269156354 -1428024240</internalNodes>
      <leafValues>
        -3.1681805849075317e-01 3.9652502536773682e-01</leafValues></_>
    <_>
      <internalNodes>
        0 -1 73051 -1032076689 124448582 -1527040010 -286423300
        1400832831 -1005578384 1952612308 -462986953</internalNodes>
      <leafValues>
        -3.9590704441070557e-01 3.0363407731056213e-01</leafValues></_>
    <_>
      <internalNodes>
        0 -1 583591 -318767307 1422159839 -1157672560 159120825
        -553682986 -1058079241 -319193920 -990380809</internalNodes>
      <leafValues>
        -3.2494747638702393e-01 3.5350075364112854e-01</leafValues></_>
    <_>
      <internalNodes>
        0 -1 384975 -1314384395 602226685 -1074790601 802140144
        -1342434340 1072741821 -17238081 -51249325</internalNodes>
      <leafValues>
        -4.1490840911865234e-01 2.7782091498374939e-01</leafValues></_>
    <_>
      <internalNodes>
        0 -1 516944 1753115925 1385725791 -1229294312 -596871650
        1576632253 2097010431 -453093858 -362348678</internalNodes>
      <leafValues>
        -3.4604254364967346e-01 3.2916411757469177e-01</leafValues></_>
    <_>
      <internalNodes>
        0 -1 630426 -21277431 302986797 -1208084617 1730830561
        -146848508 912248077 -318771464 -313790545</internalNodes>
      <leafValues>
        -3.4634971618652344e-01 3.3069103956222534e-01</leafValues></_>
    <_>
      <internalNodes>
        0 -1 386211 -1036933356 -17036971 -1161871747 -117633065
        1433676031 725094364 1979613148 589502227</internalNodes>
      <leafValues>
        -4.2891776561737061e-01 2.7829223871231079e-01</leafValues></_>
    <_>
      <internalNodes>
        0 -1 403859 1803105143 -1191561219 -403214158 1397767760
        402032840 1264009036 1223851698 -274040237</internalNodes>
      <leafValues>
        -3.5887613892555237e-01 3.0763927102088928e-01</leafValues></_>
    <_>
      <internalNodes>
        0 -1 722981 781454709 753350647 1071591419 -490828420 -84001547
        -286769305 -1080018059 -1179371248</internalNodes>
      <leafValues>
        -4.1256910562515259e-01 2.7283149957656860e-01</leafValues></_>
    <_>
      <internalNodes>
        0 -1 463796 -503081514 2146201596 -354927107 483212255 737939455
        -1100669475 2120499135 -331249134</internalNodes>
      <leafValues>
        -3.5731479525566101e-01 3.3116126060485840e-01</leafValues></_>
    <_>
      <internalNodes>
        0 -1 161365 -1289559549 262811083 1711494832 -88250672
        -2045721947 -1544356013 1231111265 -539535535</internalNodes>
      <leafValues>
        -4.3790459632873535e-01 2.5343817472457886e-01</leafValues></_>
    <_>
      <internalNodes>
        0 -1 375536 -5114320 -626086732 -1459646414 -68419712 271597450
        -151423592 979390010 2001949635</internalNodes>
      <leafValues>
        -4.6728146076202393e-01 2.5672814249992371e-01</leafValues></_>
    <_>
      <internalNodes>
        0 -1 632251 1645583664 145851793 -1434736016 460967166 558210830
        -1935077481 -2068086656 -2098727595</internalNodes>
      <leafValues>
        -4.5097067952156067e-01 2.5136768817901611e-01</leafValues></_></weakClassifiers></stage17>
</opencv_storage>
