<?xml version="1.0"?>
<opencv_storage>
<stage16>
  <maxWeakCount>13</maxWeakCount>
  <stageThreshold>-1.1169370412826538e+00</stageThreshold>
  <weakClassifiers>
    <_>
      <internalNodes>
        0 -1 520433 1521016831 523775996 -1178824708 800600060
        -1178796097 -33783809 -1073741827 -1107382799</internalNodes>
      <leafValues>
        -3.0204692482948303e-01 4.3455880880355835e-01</leafValues></_>
    <_>
      <internalNodes>
        0 -1 143081 -84508073 243805782 -1344316464 -1742738650
        2146444127 -640614671 1980781392 -279873981</internalNodes>
      <leafValues>
        -3.6122855544090271e-01 3.3157721161842346e-01</leafValues></_>
    <_>
      <internalNodes>
        0 -1 645507 -482364493 833533855 -1279281230 868150261
        1331654404 1141736916 -194136346 -2134511929</internalNodes>
      <leafValues>
        -3.4695175290107727e-01 3.3948835730552673e-01</leafValues></_>
    <_>
      <internalNodes>
        0 -1 499552 1352864222 402415485 -1074380995 1073594325
        2146844670 -1090720260 -21037058 -396120502</internalNodes>
      <leafValues>
        -3.5938933491706848e-01 3.1648403406143188e-01</leafValues></_>
    <_>
      <internalNodes>
        0 -1 183176 1356778175 88479530 979859002 -202021200 1442205691
        1261334290 932279680 -44743017</internalNodes>
      <leafValues>
        -3.6930975317955017e-01 3.0092924833297729e-01</leafValues></_>
    <_>
      <internalNodes>
        0 -1 542364 -1717514496 1495321824 1068625404 2145981644
        -1110932211 766686519 -1845716527 15143116</internalNodes>
      <leafValues>
        -6.0016870498657227e-01 2.2352476418018341e-01</leafValues></_>
    <_>
      <internalNodes>
        0 -1 586022 -738200203 -609158593 -1363177665 -1142105473
        -1128591434 -67207171 -1094721653 -1410341001</internalNodes>
      <leafValues>
        -2.5618773698806763e-01 4.5809772610664368e-01</leafValues></_>
    <_>
      <internalNodes>
        0 -1 444736 234694447 711454591 -278956410 -1430454274
        -100958379 1155915639 -33020 -453730462</internalNodes>
      <leafValues>
        -4.1402503848075867e-01 2.7856540679931641e-01</leafValues></_>
    <_>
      <internalNodes>
        0 -1 463590 -660437766 498086608 539729334 1595901048 -21357381
        -1210578993 -30996450 -1938326257</internalNodes>
      <leafValues>
        -3.8591572642326355e-01 3.1275287270545959e-01</leafValues></_>
    <_>
      <internalNodes>
        0 -1 638577 -16269071 -272909132 -503849483 -259019018 -12906728
        -1920014372 -1036869477 -1987858898</internalNodes>
      <leafValues>
        -3.1908532977104187e-01 3.8170400261878967e-01</leafValues></_>
    <_>
      <internalNodes>
        0 -1 411628 -122904160 -38096649 79627575 -1088170253 2100345994
        -1146149345 665427867 -1347721741</internalNodes>
      <leafValues>
        -3.5717007517814636e-01 3.3470767736434937e-01</leafValues></_>
    <_>
      <internalNodes>
        0 -1 375398 -101079055 -1619106816 -473048217 -1933495292
        405786248 978277506 -1406374353 -127943681</internalNodes>
      <leafValues>
        -2.9186159372329712e-01 4.0679243206977844e-01</leafValues></_>
    <_>
      <internalNodes>
        0 -1 237405 -487166993 409659238 -91335616 1924854338 2130601681
        -715917739 -10780897 -207356033</internalNodes>
      <leafValues>
        -3.1487670540809631e-01 3.7960174679756165e-01</leafValues></_></weakClassifiers></stage16>
</opencv_storage>
