<?xml version="1.0"?>
<opencv_storage>
<stage13>
  <maxWeakCount>13</maxWeakCount>
  <stageThreshold>-1.3297251462936401e+00</stageThreshold>
  <weakClassifiers>
    <_>
      <internalNodes>
        0 -1 425733 -1292315172 1006376317 1069511467 1073683965
        1073540327 1039990700 -1074827473 -1133448112</internalNodes>
      <leafValues>
        -4.2634508013725281e-01 3.4113463759422302e-01</leafValues></_>
    <_>
      <internalNodes>
        0 -1 397425 -142756009 -1350844418 2147286527 -285474825
        1073487800 -926243 1034958745 -4472885</internalNodes>
      <leafValues>
        -2.5053423643112183e-01 4.6866503357887268e-01</leafValues></_>
    <_>
      <internalNodes>
        0 -1 183481 -801976645 -270012546 855338879 1895809072
        1513194269 -13729998 1467436791 -648069057</internalNodes>
      <leafValues>
        -3.0176562070846558e-01 3.7221384048461914e-01</leafValues></_>
    <_>
      <internalNodes>
        0 -1 401896 -1113525072 2146915573 -1884753921 -574140073
        -1733230709 -22146883 572562927 656729</internalNodes>
      <leafValues>
        -5.8315563201904297e-01 1.9194097816944122e-01</leafValues></_>
    <_>
      <internalNodes>
        0 -1 580056 1705969073 226610795 -1900054465 561365713
        -1393619016 -1343275225 -458015600 -1984958506</internalNodes>
      <leafValues>
        -3.7202677130699158e-01 2.9873654246330261e-01</leafValues></_>
    <_>
      <internalNodes>
        0 -1 215162 -89200985 -1901140209 -1359961673 -5046417
        2103543751 -1891375265 997523801 -294168715</internalNodes>
      <leafValues>
        -3.3069169521331787e-01 3.4652745723724365e-01</leafValues></_>
    <_>
      <internalNodes>
        0 -1 439204 -1204267530 -726640388 219643198 1606375645
        -1121968936 1059790725 1060658838 285416733</internalNodes>
      <leafValues>
        -5.9858345985412598e-01 1.9783347845077515e-01</leafValues></_>
    <_>
      <internalNodes>
        0 -1 358833 -1551633153 928477181 -1610612769 -1781007023
        1840183246 -65559 1778581275 -14944355</internalNodes>
      <leafValues>
        -3.0499157309532166e-01 4.1398355364799500e-01</leafValues></_>
    <_>
      <internalNodes>
        0 -1 71741 -227620289 2113857634 711717242 -1209704264
        1886624719 2133092336 1716529028 -176204189</internalNodes>
      <leafValues>
        -2.9149907827377319e-01 4.1623282432556152e-01</leafValues></_>
    <_>
      <internalNodes>
        0 -1 498521 -13843966 422218440 -1594890568 94564592 -14198
        1551255581 -185607573 4387587</internalNodes>
      <leafValues>
        -5.3691893815994263e-01 2.1664434671401978e-01</leafValues></_>
    <_>
      <internalNodes>
        0 -1 97985 212864785 670727513 -272629801 -1565753347
        -1258539435 -285278209 -1078624713 745550864</internalNodes>
      <leafValues>
        -6.3123255968093872e-01 1.7196246981620789e-01</leafValues></_>
    <_>
      <internalNodes>
        0 -1 346012 -24643595 -723531 -1090642182 -837886 204504766
        -1077971461 1947477754 -8972913</internalNodes>
      <leafValues>
        -2.9592576622962952e-01 4.1522154211997986e-01</leafValues></_>
    <_>
      <internalNodes>
        0 -1 253933 -822186025 -764970169 -285760958 -1570082942
        142591485 -54067407 -294370718 -190054497</internalNodes>
      <leafValues>
        -2.6721817255020142e-01 4.3391725420951843e-01</leafValues></_></weakClassifiers></stage13>
</opencv_storage>
