<?xml version="1.0"?>
<opencv_storage>
<stage6>
  <maxWeakCount>9</maxWeakCount>
  <stageThreshold>-9.6669095754623413e-01</stageThreshold>
  <weakClassifiers>
    <_>
      <internalNodes>
        0 -1 385231 -520088239 1073561597 -229379 -1074921473 1072709629
        -1074200611 -507907 -15510509</internalNodes>
      <leafValues>
        -3.9595597982406616e-01 4.8763313889503479e-01</leafValues></_>
    <_>
      <internalNodes>
        0 -1 441322 -1263477552 -570686255 -1079519233 -711371433
        -17760581 -1389895 -536674401 302649931</internalNodes>
      <leafValues>
        -6.1227673292160034e-01 3.0902123451232910e-01</leafValues></_>
    <_>
      <internalNodes>
        0 -1 83377 -429726601 -1564561457 -1079711755 -536918477
        -488141827 -1076367509 -1343208352 -295223263</internalNodes>
      <leafValues>
        -4.2461350560188293e-01 4.0110194683074951e-01</leafValues></_>
    <_>
      <internalNodes>
        0 -1 486261 698920892 967325688 498114429 724053496 1031577087
        1023164407 -167915587 -1376280329</internalNodes>
      <leafValues>
        -5.2602636814117432e-01 3.4448707103729248e-01</leafValues></_>
    <_>
      <internalNodes>
        0 -1 416075 -23003472 -559884 -1074857986 -2936764 201327272
        -308005 1115738046 -1692987126</internalNodes>
      <leafValues>
        -4.9185886979103088e-01 3.3692210912704468e-01</leafValues></_>
    <_>
      <internalNodes>
        0 -1 584463 736046895 -1561923715 -85003520 1660616694
        2146917701 1157103471 -17419423 -990445577</internalNodes>
      <leafValues>
        -5.6831818819046021e-01 2.8446209430694580e-01</leafValues></_>
    <_>
      <internalNodes>
        0 -1 489364 -1735860784 498609908 -1376002051 1576754424
        -1968505862 -4669953 -1372929814 252381482</internalNodes>
      <leafValues>
        -6.2173664569854736e-01 2.8620788455009460e-01</leafValues></_>
    <_>
      <internalNodes>
        0 -1 630265 -1112057 1982377309 -1359003880 -519380230 -27328000
        -1071023004 -1459622276 -321716822</internalNodes>
      <leafValues>
        -3.6562222242355347e-01 4.6196490526199341e-01</leafValues></_>
    <_>
      <internalNodes>
        0 -1 40598 796663093 753614199 -1097729 -319275076 1001870677
        -131093 -1342414860 -1393549820</internalNodes>
      <leafValues>
        -3.8700631260871887e-01 4.3247854709625244e-01</leafValues></_></weakClassifiers></stage6>
</opencv_storage>
