<?xml version="1.0"?>
<opencv_storage>
<stage9>
  <maxWeakCount>9</maxWeakCount>
  <stageThreshold>-1.1136121749877930e+00</stageThreshold>
  <weakClassifiers>
    <_>
      <internalNodes>
        0 -1 575808 780085031 783220735 -16782558 -1426391058 2004844359
        1089798047 -201362060 -453574795</internalNodes>
      <leafValues>
        -4.8531636595726013e-01 3.2857427000999451e-01</leafValues></_>
    <_>
      <internalNodes>
        0 -1 487924 -254224935 2145738563 1006577067 1073035057
        993735519 1340865485 930086143 -1054737</internalNodes>
      <leafValues>
        -3.9994806051254272e-01 3.8463631272315979e-01</leafValues></_>
    <_>
      <internalNodes>
        0 -1 139004 -2113740281 -1329651193 -375287809 -2119029206
        36931573 1526148471 -1946419280 -269852160</internalNodes>
      <leafValues>
        -4.4272398948669434e-01 3.4955948591232300e-01</leafValues></_>
    <_>
      <internalNodes>
        0 -1 623728 -1065384719 -1934566605 1958020917 -12599501
        -1879982150 -290280541 -235333886 -1346650454</internalNodes>
      <leafValues>
        -3.2247900962829590e-01 4.7773206233978271e-01</leafValues></_>
    <_>
      <internalNodes>
        0 -1 709669 -521162833 82247615 -1560316306 -1426800770
        2013216711 754318804 -4719427 -521076996</internalNodes>
      <leafValues>
        -3.7553966045379639e-01 4.2408666014671326e-01</leafValues></_>
    <_>
      <internalNodes>
        0 -1 358332 -1279569409 -538280984 452984319 1148940797
        -1418144828 -1904496033 238780382 -30171652</internalNodes>
      <leafValues>
        -3.7789532542228699e-01 4.3549975752830505e-01</leafValues></_>
    <_>
      <internalNodes>
        0 -1 491839 -536907779 1399388772 1140607736 -679622532
        -1889791528 -815833274 -1078411313 -6038019</internalNodes>
      <leafValues>
        -3.1910720467567444e-01 5.0191438198089600e-01</leafValues></_>
    <_>
      <internalNodes>
        0 -1 172615 -1588919665 1068346071 506693302 -140377358
        1084689918 -1866190913 -659699544 -458226950</internalNodes>
      <leafValues>
        -4.2352271080017090e-01 3.9172720909118652e-01</leafValues></_>
    <_>
      <internalNodes>
        0 -1 236352 -665391173 2134834943 -836099530 -1301372382
        791840631 2067227755 805257727 -201656457</internalNodes>
      <leafValues>
        -3.7231209874153137e-01 4.3223658204078674e-01</leafValues></_></weakClassifiers></stage9>
</opencv_storage>
