<?xml version="1.0"?>
<opencv_storage>
<stage12>
  <maxWeakCount>11</maxWeakCount>
  <stageThreshold>-1.4875478744506836e+00</stageThreshold>
  <weakClassifiers>
    <_>
      <internalNodes>
        0 -1 357293 833635488 804063150 -1077936145 -1342177283
        2103190542 -1358987299 -1350598741 -1342439938</internalNodes>
      <leafValues>
        -6.7763793468475342e-01 2.3152866959571838e-01</leafValues></_>
    <_>
      <internalNodes>
        0 -1 484452 1828411167 1585209111 -537004205 -12158122
        -1598090597 -1395179685 -1059372848 -22612446</internalNodes>
      <leafValues>
        -3.3374664187431335e-01 4.3559741973876953e-01</leafValues></_>
    <_>
      <internalNodes>
        0 -1 249073 -92091670 1810500582 1890456447 -134254797
        -147652128 838879996 2138506080 2010068802</internalNodes>
      <leafValues>
        -5.1866167783737183e-01 2.6541331410408020e-01</leafValues></_>
    <_>
      <internalNodes>
        0 -1 373782 -1145543173 -824094840 -1342788185 1433612053
        -464597298 -142648481 1145465999 -296222723</internalNodes>
      <leafValues>
        -3.7627413868904114e-01 3.7789896130561829e-01</leafValues></_>
    <_>
      <internalNodes>
        0 -1 342253 -101058593 1552763131 729806524 167762559 -13372593
        -390393345 -25461150 -319145345</internalNodes>
      <leafValues>
        -3.3844986557960510e-01 4.3673020601272583e-01</leafValues></_>
    <_>
      <internalNodes>
        0 -1 131231 -1267257579 -143347713 -185122977 -1121945996
        13641205 821493055 -1175502913 -1443705229</internalNodes>
      <leafValues>
        -3.7776443362236023e-01 3.9462172985076904e-01</leafValues></_>
    <_>
      <internalNodes>
        0 -1 373020 -1078898184 -544441224 1518262526 -680177554
        -1103570040 -1922138795 204533450 -953185862</internalNodes>
      <leafValues>
        -4.1498643159866333e-01 3.7161499261856079e-01</leafValues></_>
    <_>
      <internalNodes>
        0 -1 455949 -356520073 -864123204 -1930559489 268389533
        504445882 -598560656 1007822762 -1124623075</internalNodes>
      <leafValues>
        -3.6720320582389832e-01 4.0869417786598206e-01</leafValues></_>
    <_>
      <internalNodes>
        0 -1 713037 620236661 603717597 -67649537 1044342747 -1478541323
        1845358591 -73241120 -1397222284</internalNodes>
      <leafValues>
        -4.0866962075233459e-01 3.6009153723716736e-01</leafValues></_>
    <_>
      <internalNodes>
        0 -1 508904 -450314010 1412472312 1834471159 -672248590
        -434638293 -1901633613 -1646004431 368506658</internalNodes>
      <leafValues>
        -5.0547021627426147e-01 2.8996023535728455e-01</leafValues></_>
    <_>
      <internalNodes>
        0 -1 199945 -800666881 -647043444 -1594028490 1892510474
        -166507651 1332137048 1826053334 -170045522</internalNodes>
      <leafValues>
        -4.1793936491012573e-01 3.8877436518669128e-01</leafValues></_></weakClassifiers></stage12>
</opencv_storage>
