<?xml version="1.0"?>
<opencv_storage>
<stage11>
  <maxWeakCount>10</maxWeakCount>
  <stageThreshold>-1.2977818250656128e+00</stageThreshold>
  <weakClassifiers>
    <_>
      <internalNodes>
        0 -1 327042 -1280682795 804089327 267877706 267646847 2101296397
        803716991 -1460048533 -1459618209</internalNodes>
      <leafValues>
        -5.0804895162582397e-01 3.1145039200782776e-01</leafValues></_>
    <_>
      <internalNodes>
        0 -1 587511 -93596377 2119753599 -1145131009 -25904808
        -296776785 -21663937 -1342207346 -17846774</internalNodes>
      <leafValues>
        -3.0701318383216858e-01 4.6278977394104004e-01</leafValues></_>
    <_>
      <internalNodes>
        0 -1 430249 -17064001 -139973956 2142437375 -1614950915
        1576583058 759734044 724106154 -4735569</internalNodes>
      <leafValues>
        -2.7558329701423645e-01 5.3851836919784546e-01</leafValues></_>
    <_>
      <internalNodes>
        0 -1 463135 -79997441 1998745514 981428058 1006595827 1061157643
        -1896877445 931132666 -269645</internalNodes>
      <leafValues>
        -3.7323972582817078e-01 4.1500273346900940e-01</leafValues></_>
    <_>
      <internalNodes>
        0 -1 109249 -902650827 -17658130 439402114 809023186 220365921
        -864777168 241436173 -1461745448</internalNodes>
      <leafValues>
        -4.7253283858299255e-01 3.2085186243057251e-01</leafValues></_>
    <_>
      <internalNodes>
        0 -1 429250 -48173944 -102636432 -814306782 -168746768
        1435813576 1478444807 -329318689 1347387391</internalNodes>
      <leafValues>
        -6.2690162658691406e-01 2.4192833900451660e-01</leafValues></_>
    <_>
      <internalNodes>
        0 -1 498965 -132058656 1235271676 656553138 1609309484
        -348601883 -1886691465 398848355 162346343</internalNodes>
      <leafValues>
        -5.8736205101013184e-01 2.6410886645317078e-01</leafValues></_>
    <_>
      <internalNodes>
        0 -1 638500 1115655613 1085442365 213532017 -1892378858
        515792816 -2002604232 1174347136 -123003102</internalNodes>
      <leafValues>
        -4.5530632138252258e-01 3.0785655975341797e-01</leafValues></_>
    <_>
      <internalNodes>
        0 -1 349277 -1401213649 250408895 -822350102 -1879672962
        1197963063 1677197148 1994686004 -51054538</internalNodes>
      <leafValues>
        -4.2720401287078857e-01 3.4686985611915588e-01</leafValues></_>
    <_>
      <internalNodes>
        0 -1 375377 -34945304 314486430 -1145303288 531332181 1389931696
        259840076 67280250 1137174303</internalNodes>
      <leafValues>
        -5.7512134313583374e-01 2.7105525135993958e-01</leafValues></_></weakClassifiers></stage11>
</opencv_storage>
