<?xml version="1.0"?>
<opencv_storage>
<stage9>
  <maxWeakCount>7</maxWeakCount>
  <stageThreshold>-1.1270216703414917e+00</stageThreshold>
  <weakClassifiers>
    <_>
      <internalNodes>
        0 -1 397425 -2115753 1065336831 1037565951 -52576259 1048526847
        -1077690625 1945745247 -16385</internalNodes>
      <leafValues>
        -5.1789975166320801e-01 4.2065265774726868e-01</leafValues></_>
    <_>
      <internalNodes>
        0 -1 425445 -266201643 1072570335 1071513599 1073741807 -186379
        -1073758209 -3445025 -1073745953</internalNodes>
      <leafValues>
        -5.2986311912536621e-01 3.4464338421821594e-01</leafValues></_>
    <_>
      <internalNodes>
        0 -1 345418 -1115621920 2146959187 -18153680 -590142 -1477067592
        1073395455 619797784 1196905474</internalNodes>
      <leafValues>
        -7.1892189979553223e-01 2.5198459625244141e-01</leafValues></_>
    <_>
      <internalNodes>
        0 -1 316562 1291636563 -167773225 -1090662686 -1331020178
        2142429079 -226558115 2129296590 -133497201</internalNodes>
      <leafValues>
        -3.7697041034698486e-01 5.0351667404174805e-01</leafValues></_>
    <_>
      <internalNodes>
        0 -1 500545 -1733239598 1032851443 -4194309 1427709518
        -1431569157 -1078198279 -1413678192 530516675</internalNodes>
      <leafValues>
        -6.9214028120040894e-01 2.7338233590126038e-01</leafValues></_>
    <_>
      <internalNodes>
        0 -1 389909 234626357 1065180251 -1568966657 -168450 1020804981
        -1610678353 -1074106371 -1364706184</internalNodes>
      <leafValues>
        -5.0951516628265381e-01 3.8691970705986023e-01</leafValues></_>
    <_>
      <internalNodes>
        0 -1 42903 -1067490689 -560095635 -1228959760 -6665450
        -757122631 2001952543 -725810160 -293649338</internalNodes>
      <leafValues>
        -5.1817494630813599e-01 3.7703090906143188e-01</leafValues></_></weakClassifiers></stage9>
</opencv_storage>
