<?xml version="1.0"?>
<opencv_storage>
<stage12>
  <maxWeakCount>8</maxWeakCount>
  <stageThreshold>-1.2722294330596924e+00</stageThreshold>
  <weakClassifiers>
    <_>
      <internalNodes>
        0 -1 455808 -4227081 -420836100 603976703 132586997 -148900712
        1598984716 909834234 -264193</internalNodes>
      <leafValues>
        -4.9006196856498718e-01 3.9086294174194336e-01</leafValues></_>
    <_>
      <internalNodes>
        0 -1 555021 -44081321 -236425474 -118751550 1373752556 -1617937
        -1561329697 -521144448 -990904337</internalNodes>
      <leafValues>
        -3.8333395123481750e-01 4.6419429779052734e-01</leafValues></_>
    <_>
      <internalNodes>
        0 -1 357528 -1279757096 867835132 526647166 536550071 -5196360
        -71583239 1025949667 1025451958</internalNodes>
      <leafValues>
        -7.1237170696258545e-01 2.4319308996200562e-01</leafValues></_>
    <_>
      <internalNodes>
        0 -1 359517 -1087283714 -541766680 1476127715 1467043392
        -1375938356 -1880134081 80018067 120798417</internalNodes>
      <leafValues>
        -5.5886566638946533e-01 3.2636758685112000e-01</leafValues></_>
    <_>
      <internalNodes>
        0 -1 466798 -1363417153 1001678047 201273631 701228736
        -1359007810 201293439 -1962998024 -302002960</internalNodes>
      <leafValues>
        -4.1891419887542725e-01 4.3275696039199829e-01</leafValues></_>
    <_>
      <internalNodes>
        0 -1 601944 805268271 212778599 -285245650 -1430586436
        1878998855 1149239263 -524431 -185143307</internalNodes>
      <leafValues>
        -4.7352156043052673e-01 3.8149365782737732e-01</leafValues></_>
    <_>
      <internalNodes>
        0 -1 631252 -12586077 568767167 1152673781 1894121466 261493980
        -1936289850 820452017 10198724</internalNodes>
      <leafValues>
        -5.1525563001632690e-01 3.7511858344078064e-01</leafValues></_>
    <_>
      <internalNodes>
        0 -1 502648 -169607689 -278201008 855109234 -72697600 -841069498
        1400721398 -991900593 -440140202</internalNodes>
      <leafValues>
        -3.5182821750640869e-01 5.0448775291442871e-01</leafValues></_></weakClassifiers></stage12>
</opencv_storage>
