<?xml version="1.0"?>
<opencv_storage>
<stage6>
  <maxWeakCount>6</maxWeakCount>
  <stageThreshold>-1.4735659360885620e+00</stageThreshold>
  <weakClassifiers>
    <_>
      <internalNodes>
        0 -1 505850 -79708365 -46883009 -1661075521 -1164722247 -2113601
        -538968769 -272908625 -1431569381</internalNodes>
      <leafValues>
        -6.2376236915588379e-01 3.1515958905220032e-01</leafValues></_>
    <_>
      <internalNodes>
        0 -1 372801 -1146072579 -168789512 -546340865 -713090595
        -1076301320 -1078199299 -1620000769 -13955909</internalNodes>
      <leafValues>
        -4.4453939795494080e-01 5.0200355052947998e-01</leafValues></_>
    <_>
      <internalNodes>
        0 -1 36084 -419451089 583006191 -1363149138 -1561919505
        1736406869 1417150399 -167807136 -452984961</internalNodes>
      <leafValues>
        -5.6169879436492920e-01 3.8916334509849548e-01</leafValues></_>
    <_>
      <internalNodes>
        0 -1 450745 -663168870 1571846204 1073732863 536743022
        -284485446 -558148937 -1442841921 -1998164354</internalNodes>
      <leafValues>
        -5.8545255661010742e-01 3.9569026231765747e-01</leafValues></_>
    <_>
      <internalNodes>
        0 -1 512638 -55518000 -24375692 -16826628 -39750284 -51385092
        -67110230 -352846594 -2138049554</internalNodes>
      <leafValues>
        -6.0638457536697388e-01 3.7374073266983032e-01</leafValues></_>
    <_>
      <internalNodes>
        0 -1 488767 -1743725360 1955614463 -268501025 1574789119
        -1359740929 -4477187 -1107231241 -1153487377</internalNodes>
      <leafValues>
        -5.8240789175033569e-01 3.6814647912979126e-01</leafValues></_></weakClassifiers></stage6>
</opencv_storage>
