<?xml version="1.0"?>
<opencv_storage>
<stage4>
  <maxWeakCount>6</maxWeakCount>
  <stageThreshold>-1.2876982688903809e+00</stageThreshold>
  <weakClassifiers>
    <_>
      <internalNodes>
        0 -1 209671 162467599 536030991 769617791 263524185 686812159
        1072655685 552411053 738152255</internalNodes>
      <leafValues>
        -6.9935929775238037e-01 4.5038166642189026e-01</leafValues></_>
    <_>
      <internalNodes>
        0 -1 287977 217331005 746340351 1023344127 -1363398668
        -1426514123 -1073873923 -1092861956 -1359475104</internalNodes>
      <leafValues>
        -5.2668261528015137e-01 4.9475720524787903e-01</leafValues></_>
    <_>
      <internalNodes>
        0 -1 675984 -1392530173 116326127 -285295582 -219238450
        2011649861 1081605975 -151166112 -454557849</internalNodes>
      <leafValues>
        -5.4552972316741943e-01 4.6052265167236328e-01</leafValues></_>
    <_>
      <internalNodes>
        0 -1 385767 -1281223439 1307512815 175865850 452278930
        1031740428 -1343353041 788491947 -1396724993</internalNodes>
      <leafValues>
        -6.2096190452575684e-01 4.1620716452598572e-01</leafValues></_>
    <_>
      <internalNodes>
        0 -1 110452 -285267449 40557375 -828113376 -454623558 -441551612
        89357599 -319568640 -185893225</internalNodes>
      <leafValues>
        -5.7536768913269043e-01 4.1613641381263733e-01</leafValues></_>
    <_>
      <internalNodes>
        0 -1 722963 753086311 6997871 -285349148 -1059045460 1054304120
        -255527097 -287343252 -453451996</internalNodes>
      <leafValues>
        -4.9097782373428345e-01 4.9929967522621155e-01</leafValues></_></weakClassifiers></stage4>
</opencv_storage>
