<?xml version="1.0"?>
<opencv_storage>
<stage9>
  <maxWeakCount>9</maxWeakCount>
  <stageThreshold>-8.0298644304275513e-01</stageThreshold>
  <weakClassifiers>
    <_>
      <internalNodes>
        0 -1 357289 -1154746881 -1742731026 444593919 260004095
        -13897466 -1195380481 1044379519 -1392559489</internalNodes>
      <leafValues>
        -3.3053892850875854e-01 5.1822662353515625e-01</leafValues></_>
    <_>
      <internalNodes>
        0 -1 580644 -1070349007 2134833 -453892335 556868401 -837647
        -18122185 -72884761 -134537165</internalNodes>
      <leafValues>
        -4.3550369143486023e-01 3.8072028756141663e-01</leafValues></_>
    <_>
      <internalNodes>
        0 -1 462747 1650635322 976893758 52248511 993181187 16612543
        -578232339 928001199 -16896193</internalNodes>
      <leafValues>
        -5.3119587898254395e-01 3.0171659588813782e-01</leafValues></_>
    <_>
      <internalNodes>
        0 -1 108901 -667958761 181185188 540551225 951561766 1109082737
        -872255971 -1938095904 -454709622</internalNodes>
      <leafValues>
        -4.3801343441009521e-01 3.9419421553611755e-01</leafValues></_>
    <_>
      <internalNodes>
        0 -1 491839 -33691651 -767017772 -738690824 -168440740 536384912
        1599829212 -1883586565 -272114215</internalNodes>
      <leafValues>
        -3.4619057178497314e-01 4.9364289641380310e-01</leafValues></_>
    <_>
      <internalNodes>
        0 -1 120419 -1064383577 830442935 1304235517 -243090560
        217503733 -1191829195 -924983828 -269824256</internalNodes>
      <leafValues>
        -4.0299877524375916e-01 4.2739310860633850e-01</leafValues></_>
    <_>
      <internalNodes>
        0 -1 510448 -1196891674 -609681428 326267398 -1942872
        -1573652753 -1885315721 287561711 523441455</internalNodes>
      <leafValues>
        -6.0933613777160645e-01 2.8870385885238647e-01</leafValues></_>
    <_>
      <internalNodes>
        0 -1 174133 49823613 669138801 -526465 -1343332369 335166935
        -1074794497 -1074089036 -1398788652</internalNodes>
      <leafValues>
        -4.6460798382759094e-01 3.6486512422561646e-01</leafValues></_>
    <_>
      <internalNodes>
        0 -1 590757 -794246964 -42466986 2122132734 829763735
        -1953239297 -1110540363 707126418 810680314</internalNodes>
      <leafValues>
        -5.7721203565597534e-01 3.0357775092124939e-01</leafValues></_></weakClassifiers></stage9>
</opencv_storage>
