<?xml version="1.0"?>
<opencv_storage>
<stage5>
  <maxWeakCount>7</maxWeakCount>
  <stageThreshold>-1.3978765010833740e+00</stageThreshold>
  <weakClassifiers>
    <_>
      <internalNodes>
        0 -1 509807 -257895941 355016170 808924155 1073037091 976991167
        267353023 931133439 -1074809937</internalNodes>
      <leafValues>
        -4.0567201375961304e-01 5.5726659297943115e-01</leafValues></_>
    <_>
      <internalNodes>
        0 -1 377917 3415349 1056849279 -1077936329 -1091010947
        1073626997 -708611 -50590427 -1394340496</internalNodes>
      <leafValues>
        -4.8223853111267090e-01 4.6214321255683899e-01</leafValues></_>
    <_>
      <internalNodes>
        0 -1 548069 -231228621 -233783497 -1138884741 -1138709470
        -901988545 -1204486305 -1566594406 -1426380270</internalNodes>
      <leafValues>
        -5.2346944808959961e-01 4.4792652130126953e-01</leafValues></_>
    <_>
      <internalNodes>
        0 -1 164090 -734354377 -15987140 880676158 -1330987384
        1967063131 -589336788 -914422530 -16798065</internalNodes>
      <leafValues>
        -4.4549956917762756e-01 5.0765317678451538e-01</leafValues></_>
    <_>
      <internalNodes>
        0 -1 724890 210767677 -1105051651 1593835519 -1157701636
        -1091715273 1878786037 -1342341771 -1397744048</internalNodes>
      <leafValues>
        -5.1683586835861206e-01 4.4305646419525146e-01</leafValues></_>
    <_>
      <internalNodes>
        0 -1 490831 -2098221633 812064703 -1342477313 -171181057
        -860504651 -1234149451 -839115560 -437029547</internalNodes>
      <leafValues>
        -3.9498791098594666e-01 5.6889820098876953e-01</leafValues></_>
    <_>
      <internalNodes>
        0 -1 108538 -435306489 35852075 843980822 955067962 -850026427
        644118269 1814365248 -993571090</internalNodes>
      <leafValues>
        -5.5599790811538696e-01 3.9740133285522461e-01</leafValues></_></weakClassifiers></stage5>
</opencv_storage>
