<?xml version="1.0"?>
<opencv_storage>
<stage6>
  <maxWeakCount>8</maxWeakCount>
  <stageThreshold>-8.3370101451873779e-01</stageThreshold>
  <weakClassifiers>
    <_>
      <internalNodes>
        0 -1 10830 -1003292891 -144527361 -1735197324 973143790 2110773
        -17041409 67110073 -1431060529</internalNodes>
      <leafValues>
        -4.0213048458099365e-01 5.0227481126785278e-01</leafValues></_>
    <_>
      <internalNodes>
        0 -1 488147 -258944808 2011254626 905523694 938556211 976986911
        1336635855 655878075 -1073780737</internalNodes>
      <leafValues>
        -5.4354572296142578e-01 3.7752082943916321e-01</leafValues></_>
    <_>
      <internalNodes>
        0 -1 724561 148647485 116686717 -67110981 -1359037444
        -1074319747 -2162689 -1090724560 -1360524236</internalNodes>
      <leafValues>
        -4.9561369419097900e-01 3.9737069606781006e-01</leafValues></_>
    <_>
      <internalNodes>
        0 -1 386494 -12889871 -756414358 125790974 1535072495
        -1120805760 -1901372065 1010298542 -1091629057</internalNodes>
      <leafValues>
        -4.1023746132850647e-01 5.0517284870147705e-01</leafValues></_>
    <_>
      <internalNodes>
        0 -1 536451 774901045 766803829 2147450751 -1226031499 731201399
        -131347 -1077985296 -1359925402</internalNodes>
      <leafValues>
        -4.4689330458641052e-01 4.5461314916610718e-01</leafValues></_>
    <_>
      <internalNodes>
        0 -1 443159 -268517385 -1683965388 623541246 -1078178564
        116186512 1594684760 773898170 -356417</internalNodes>
      <leafValues>
        -4.0602490305900574e-01 5.2690196037292480e-01</leafValues></_>
    <_>
      <internalNodes>
        0 -1 437983 -79105621 1897924734 392688255 1610484351 960230033
        -2102396097 -210806725 -1618485697</internalNodes>
      <leafValues>
        -4.1320791840553284e-01 5.0624024868011475e-01</leafValues></_>
    <_>
      <internalNodes>
        0 -1 709853 -1358993553 12562287 -1358975030 -1997606938
        -1241546863 1625816927 -184584913 -1258619196</internalNodes>
      <leafValues>
        -4.2884755134582520e-01 4.9209591746330261e-01</leafValues></_></weakClassifiers></stage6>
</opencv_storage>
