<?xml version="1.0"?>
<opencv_storage>
<stage13>
  <maxWeakCount>10</maxWeakCount>
  <stageThreshold>-9.7383129596710205e-01</stageThreshold>
  <weakClassifiers>
    <_>
      <internalNodes>
        0 -1 411687 -71625217 801058799 1006600191 536854527 2139043343
        -1880102929 -327188865 -1644207369</internalNodes>
      <leafValues>
        -3.3141395449638367e-01 4.7636875510215759e-01</leafValues></_>
    <_>
      <internalNodes>
        0 -1 464068 -256879400 1071992747 1065236408 -1074908367
        2100108046 1341089151 909898239 -553650441</internalNodes>
      <leafValues>
        -4.9456086754798889e-01 3.0059033632278442e-01</leafValues></_>
    <_>
      <internalNodes>
        0 -1 82522 -1997608817 -1712092409 -1896286664 -220009718
        47303060 585561621 -922755112 -285742942</internalNodes>
      <leafValues>
        -3.7598416209220886e-01 3.7483796477317810e-01</leafValues></_>
    <_>
      <internalNodes>
        0 -1 283449 455999690 -552910813 1373786354 1374831520
        -1086595844 1562866046 1575353480 1970478566</internalNodes>
      <leafValues>
        -5.5638402700424194e-01 2.8747105598449707e-01</leafValues></_>
    <_>
      <internalNodes>
        0 -1 443296 -352870529 -147602746 -278974467 221972709
        -690683984 -134029968 1060802494 -1076101569</internalNodes>
      <leafValues>
        -3.2682603597640991e-01 4.9896833300590515e-01</leafValues></_>
    <_>
      <internalNodes>
        0 -1 414366 -2131237891 537274951 1798392901 1897082145
        -981343828 -263876930 -536930083 -100673046</internalNodes>
      <leafValues>
        -4.0210542082786560e-01 3.7755706906318665e-01</leafValues></_>
    <_>
      <internalNodes>
        0 -1 658523 1991751089 1979625597 1644054449 -1114191958
        1874853640 -980423404 -1766717696 -2118648018</internalNodes>
      <leafValues>
        -3.5419383645057678e-01 4.2684835195541382e-01</leafValues></_>
    <_>
      <internalNodes>
        0 -1 724933 773070717 1073379317 -32777 1040133841 939419511
        -18944529 -18923659 -1897652368</internalNodes>
      <leafValues>
        -5.2668058872222900e-01 2.8398215770721436e-01</leafValues></_>
    <_>
      <internalNodes>
        0 -1 344557 -6195739 -626039902 1518264207 1274492230
        -1120076596 -4236961 -1270829425 -296929282</internalNodes>
      <leafValues>
        -3.4454390406608582e-01 4.3765380978584290e-01</leafValues></_>
    <_>
      <internalNodes>
        0 -1 484452 -859155193 1314288971 -1412212413 -621884158
        796333187 243701711 -894762804 -322175470</internalNodes>
      <leafValues>
        -4.2881268262863159e-01 3.7449374794960022e-01</leafValues></_></weakClassifiers></stage13>
</opencv_storage>
