<?xml version="1.0"?>
<opencv_storage>
<stage13>
  <maxWeakCount>12</maxWeakCount>
  <stageThreshold>-9.4046032428741455e-01</stageThreshold>
  <weakClassifiers>
    <_>
      <internalNodes>
        0 -1 292309 243213847 1884503823 804747381 743452183 81215167
        922746700 82664569 620592757</internalNodes>
      <leafValues>
        -5.6031674146652222e-01 3.8217276334762573e-01</leafValues></_>
    <_>
      <internalNodes>
        0 -1 251335 1208672978 -52778 1354773490 1358583472 1577026431
        2138973527 1605720051 2146649571</internalNodes>
      <leafValues>
        -5.0247764587402344e-01 2.6527836918830872e-01</leafValues></_>
    <_>
      <internalNodes>
        0 -1 371151 -5190166 -148223830 -1201212694 -714714654
        2133875774 1026518653 2016647902 71376912</internalNodes>
      <leafValues>
        -5.5130392313003540e-01 2.4753057956695557e-01</leafValues></_>
    <_>
      <internalNodes>
        0 -1 605928 -923696239 -2013202527 -1057249359 136357667
        645605681 -1388982697 -287131717 -1345124831</internalNodes>
      <leafValues>
        -4.5544213056564331e-01 2.6346185803413391e-01</leafValues></_>
    <_>
      <internalNodes>
        0 -1 304084 197068583 653815791 -88219034 -1427705866 2147428119
        1928822763 -186288780 -420156042</internalNodes>
      <leafValues>
        -4.1519433259963989e-01 3.1217187643051147e-01</leafValues></_>
    <_>
      <internalNodes>
        0 -1 417361 -134250497 -172184322 -1456711683 1606112493
        1425915800 1322835353 581484282 -274945</internalNodes>
      <leafValues>
        -2.6626682281494141e-01 5.2563434839248657e-01</leafValues></_>
    <_>
      <internalNodes>
        0 -1 329034 -1145409282 -924161304 40622815 200503805
        -1250758329 -25554569 70418508 -299138908</internalNodes>
      <leafValues>
        -4.5436063408851624e-01 2.8315868973731995e-01</leafValues></_>
    <_>
      <internalNodes>
        0 -1 623937 1145291856 1265759221 343028464 958068259 805279549
        1319939845 909578368 820510126</internalNodes>
      <leafValues>
        -5.4719853401184082e-01 2.2596693038940430e-01</leafValues></_>
    <_>
      <internalNodes>
        0 -1 342251 -654389153 -559855384 1929375861 2079789145
        -619007401 -1918846468 2047767420 -526124494</internalNodes>
      <leafValues>
        -3.6817133426666260e-01 3.4766742587089539e-01</leafValues></_>
    <_>
      <internalNodes>
        0 -1 330473 -610209328 673375008 62631842 1601629712 670409983
        1002369023 -1527674258 1465073674</internalNodes>
      <leafValues>
        -5.2185863256454468e-01 2.4154971539974213e-01</leafValues></_>
    <_>
      <internalNodes>
        0 -1 291521 -1977165693 939851271 231059356 -1181688016
        689782917 -1575544027 284678296 -1113195532</internalNodes>
      <leafValues>
        -3.6616379022598267e-01 3.5757353901863098e-01</leafValues></_>
    <_>
      <internalNodes>
        0 -1 131435 -835834073 1059235003 -1372714254 706928752
        1145427761 -41961675 1324090623 -1333801355</internalNodes>
      <leafValues>
        -4.2718845605850220e-01 3.0270767211914062e-01</leafValues></_></weakClassifiers></stage13>
</opencv_storage>
