<?xml version="1.0"?>
<opencv_storage>
<stage5>
  <maxWeakCount>8</maxWeakCount>
  <stageThreshold>-1.3981713056564331e+00</stageThreshold>
  <weakClassifiers>
    <_>
      <internalNodes>
        0 -1 90450 -1905318142 183434511 -1363775968 -1561395990
        2004161349 1635123025 -1270958336 -453706716</internalNodes>
      <leafValues>
        -5.2314251661300659e-01 4.6608245372772217e-01</leafValues></_>
    <_>
      <internalNodes>
        0 -1 640253 112201524 -2130804899 -114755 -1363378292
        -1082884259 -1142095883 -1342406795 -1363657424</internalNodes>
      <leafValues>
        -5.3414821624755859e-01 3.8519304990768433e-01</leafValues></_>
    <_>
      <internalNodes>
        0 -1 83167 1978924927 1978924639 -1077151425 -1391634510
        -604186627 -117559307 1820181805 6301459</internalNodes>
      <leafValues>
        -5.4433131217956543e-01 3.7685331702232361e-01</leafValues></_>
    <_>
      <internalNodes>
        0 -1 694823 539963142 183168878 -1360239486 552218030 368514821
        74579829 -176197312 -1057685904</internalNodes>
      <leafValues>
        -5.7072126865386963e-01 3.3382746577262878e-01</leafValues></_>
    <_>
      <internalNodes>
        0 -1 622524 -1067537489 14718523 -1431982577 -2010477906
        -304124103 -1342898693 -1430825039 -1459639374</internalNodes>
      <leafValues>
        -4.1375023126602173e-01 3.9966788887977600e-01</leafValues></_>
    <_>
      <internalNodes>
        0 -1 646230 -1560318426 304741743 -755061588 820022958
        2122274580 73072494 -152045832 -261820780</internalNodes>
      <leafValues>
        -4.6278691291809082e-01 3.3897149562835693e-01</leafValues></_>
    <_>
      <internalNodes>
        0 -1 346147 40894516 1987862393 -180805 -84398276 955658749
        -6393869 209192444 -1133114510</internalNodes>
      <leafValues>
        -4.9744257330894470e-01 3.3889636397361755e-01</leafValues></_>
    <_>
      <internalNodes>
        0 -1 506727 68684900 248508277 803123119 980717052 1031548853
        -20123649 -1428127996 -2021651456</internalNodes>
      <leafValues>
        -5.9859681129455566e-01 2.4484555423259735e-01</leafValues></_></weakClassifiers></stage5>
</opencv_storage>
