<?xml version="1.0"?>
<opencv_storage>
<stage14>
  <maxWeakCount>10</maxWeakCount>
  <stageThreshold>-7.7944201231002808e-01</stageThreshold>
  <weakClassifiers>
    <_>
      <internalNodes>
        0 -1 354979 733967727 736444415 -1107296257 -1409420291
        1836935038 711418316 1340961772 -1342212369</internalNodes>
      <leafValues>
        -4.6082812547683716e-01 3.2090598344802856e-01</leafValues></_>
    <_>
      <internalNodes>
        0 -1 488112 -1716464136 -446637848 -1217168456 -8956896
        -1220804982 221937517 356250860 388980079</internalNodes>
      <leafValues>
        -5.8573627471923828e-01 2.2599619626998901e-01</leafValues></_>
    <_>
      <internalNodes>
        0 -1 63108 -2143565947 -662622449 -494032071 1945366058
        1220381669 911339029 -924873592 -285480448</internalNodes>
      <leafValues>
        -3.7549582123756409e-01 3.6891525983810425e-01</leafValues></_>
    <_>
      <internalNodes>
        0 -1 388062 -1146915329 -558927904 243215887 -805341359
        -1093337908 -1889566849 -1527447569 -520751292</internalNodes>
      <leafValues>
        -2.8856587409973145e-01 4.7198146581649780e-01</leafValues></_>
    <_>
      <internalNodes>
        0 -1 185263 -889795017 1456123623 -890336608 -1602031698
        -952695119 1953361781 1593704715 -184819841</internalNodes>
      <leafValues>
        -3.8735795021057129e-01 3.5134792327880859e-01</leafValues></_>
    <_>
      <internalNodes>
        0 -1 13963 -134224337 823606719 -83922149 1002356735 2063549719
        1886355379 -92522924 -235407883</internalNodes>
      <leafValues>
        -3.5602885484695435e-01 3.9143732190132141e-01</leafValues></_>
    <_>
      <internalNodes>
        0 -1 300258 -1426571494 883863070 1040165408 1340079696 85852091
        486342137 13643346 1330369306</internalNodes>
      <leafValues>
        -5.1165008544921875e-01 2.8836053609848022e-01</leafValues></_>
    <_>
      <internalNodes>
        0 -1 623820 1594086480 1341908851 1379481632 834252219
        -610824290 -1896087810 607425186 277593998</internalNodes>
      <leafValues>
        -5.7506942749023438e-01 2.0705510675907135e-01</leafValues></_>
    <_>
      <internalNodes>
        0 -1 446271 -1413519577 786628582 -554179034 -285279134
        -805339579 1144384823 -706716 -453972412</internalNodes>
      <leafValues>
        -4.9788987636566162e-01 2.9463198781013489e-01</leafValues></_>
    <_>
      <internalNodes>
        0 -1 563777 -254882580 -43491504 -222331660 -1204078030
        -906965796 1044193064 -1234273026 277446568</internalNodes>
      <leafValues>
        -5.5710291862487793e-01 2.4996675550937653e-01</leafValues></_></weakClassifiers></stage14>
</opencv_storage>
