<?xml version="1.0"?>
<opencv_storage>
<stage7>
  <maxWeakCount>9</maxWeakCount>
  <stageThreshold>-1.0196641683578491e+00</stageThreshold>
  <weakClassifiers>
    <_>
      <internalNodes>
        0 -1 372307 -1816964617 -739751704 310378239 1602181375
        -1086721216 -122029569 1043332991 -29382017</internalNodes>
      <leafValues>
        -3.9863014221191406e-01 4.5385777950286865e-01</leafValues></_>
    <_>
      <internalNodes>
        0 -1 514879 45092149 -1073979907 -16812033 -1158345411
        1073507199 -1091084673 -1074102412 -1392767440</internalNodes>
      <leafValues>
        -4.8655363917350769e-01 3.6024019122123718e-01</leafValues></_>
    <_>
      <internalNodes>
        0 -1 100658 -934491401 -1907031497 -285904901 -63324 -857893731
        -83894409 -922779492 -1359273950</internalNodes>
      <leafValues>
        -4.0876716375350952e-01 4.1732677817344666e-01</leafValues></_>
    <_>
      <internalNodes>
        0 -1 426168 -49786664 -5765016 74670204 1501495418 -1222584952
        220986751 893094058 330251775</internalNodes>
      <leafValues>
        -6.8981426954269409e-01 2.4495379626750946e-01</leafValues></_>
    <_>
      <internalNodes>
        0 -1 35403 -206091481 1962207029 -367855619 -1189020886
        -2052782427 -526090960 1156119983 -184614953</internalNodes>
      <leafValues>
        -3.9397531747817993e-01 4.3351879715919495e-01</leafValues></_>
    <_>
      <internalNodes>
        0 -1 531135 1386795978 1070077930 572600823 953233407 992719871
        1067974605 1028650461 -1074792533</internalNodes>
      <leafValues>
        -5.4141587018966675e-01 3.2381606101989746e-01</leafValues></_>
    <_>
      <internalNodes>
        0 -1 207128 234364797 -1410040963 -268435587 -1074987020 -118923
        -36962883 -34291723 -1469833932</internalNodes>
      <leafValues>
        -4.5144554972648621e-01 3.8434037566184998e-01</leafValues></_>
    <_>
      <internalNodes>
        0 -1 440347 -1330066228 2143489856 733981605 1198738721
        1648651918 -276862369 1661812463 -405836741</internalNodes>
      <leafValues>
        -5.9623956680297852e-01 2.6759016513824463e-01</leafValues></_>
    <_>
      <internalNodes>
        0 -1 664121 -834957831 -914951183 301671285 -1732464862
        256579344 -2120548596 1439120774 -231479534</internalNodes>
      <leafValues>
        -4.0569251775741577e-01 4.2922022938728333e-01</leafValues></_></weakClassifiers></stage7>
</opencv_storage>
