<?xml version="1.0"?>
<opencv_storage>
<stage17>
  <maxWeakCount>11</maxWeakCount>
  <stageThreshold>-1.0240700244903564e+00</stageThreshold>
  <weakClassifiers>
    <_>
      <internalNodes>
        0 -1 398893 -109448213 -710373137 327148287 1610570495
        2134503939 -1448676377 2055207483 -117968329</internalNodes>
      <leafValues>
        -3.1357920169830322e-01 4.1723665595054626e-01</leafValues></_>
    <_>
      <internalNodes>
        0 -1 389373 -274206961 -1211109718 -550793973 -686313711
        927337608 1493686158 -464720177 1934096341</internalNodes>
      <leafValues>
        -3.8108515739440918e-01 3.5595595836639404e-01</leafValues></_>
    <_>
      <internalNodes>
        0 -1 374210 -1145485905 -890677342 -268488951 -713687215
        1028976334 -60555937 82210559 -682692974</internalNodes>
      <leafValues>
        -3.6263605952262878e-01 3.4755018353462219e-01</leafValues></_>
    <_>
      <internalNodes>
        0 -1 156998 -1465416991 -1283197965 804961983 -1078920206
        90694141 -1263468573 1285574124 -135792718</internalNodes>
      <leafValues>
        -3.3476322889328003e-01 3.8278761506080627e-01</leafValues></_>
    <_>
      <internalNodes>
        0 -1 110305 1734513202 267323298 -2107584884 66246079 1336902018
        167743360 1178911884 -1143472710</internalNodes>
      <leafValues>
        -6.3263076543807983e-01 1.8919771909713745e-01</leafValues></_>
    <_>
      <internalNodes>
        0 -1 708205 1289547743 1039424894 -2049 1065156607 1107296247
        -51544579 -268439553 771604479</internalNodes>
      <leafValues>
        -3.1689292192459106e-01 4.1537779569625854e-01</leafValues></_>
    <_>
      <internalNodes>
        0 -1 340674 -1823234674 -35471501 -1377617429 -168431116
        1222381442 -835551376 -839680116 -1002212224</internalNodes>
      <leafValues>
        -3.6255961656570435e-01 3.6455172300338745e-01</leafValues></_>
    <_>
      <internalNodes>
        0 -1 203202 -416938219 -491477057 -1766912251 -38654366
        -986741275 1156632443 -1073845207 -1531933642</internalNodes>
      <leafValues>
        -4.2442664504051208e-01 2.9351389408111572e-01</leafValues></_>
    <_>
      <internalNodes>
        0 -1 572856 -934770368 -570671142 937140984 888223408
        -1146960258 -12967182 -755322118 272971426</internalNodes>
      <leafValues>
        -5.9857761859893799e-01 2.2656598687171936e-01</leafValues></_>
    <_>
      <internalNodes>
        0 -1 401512 -1247720020 -807047264 489284878 1164250049
        -1127160186 -950042785 820920574 610301942</internalNodes>
      <leafValues>
        -6.1188131570816040e-01 2.0335197448730469e-01</leafValues></_>
    <_>
      <internalNodes>
        0 -1 75269 -29476601 1027551095 -1972728066 807730815 1146146069
        -25596123 1314933848 -1339564481</internalNodes>
      <leafValues>
        -4.1498425602912903e-01 3.2416465878486633e-01</leafValues></_></weakClassifiers></stage17>
</opencv_storage>
