<?xml version="1.0"?>
<opencv_storage>
<stage8>
  <maxWeakCount>8</maxWeakCount>
  <stageThreshold>-1.3088765144348145e+00</stageThreshold>
  <weakClassifiers>
    <_>
      <internalNodes>
        0 -1 385011 816858521 804202154 734003199 -1342197761 2138910474
        787314685 2147450871 -1343259145</internalNodes>
      <leafValues>
        -5.9833586215972900e-01 2.8691688179969788e-01</leafValues></_>
    <_>
      <internalNodes>
        0 -1 71104 -727267561 -80158851 -1092963019 -1475303180 69739829
        -269770891 -1427300869 -1162105685</internalNodes>
      <leafValues>
        -4.2819139361381531e-01 3.8005644083023071e-01</leafValues></_>
    <_>
      <internalNodes>
        0 -1 370931 -71642145 -105379592 -226503941 263129135 -215231661
        -861226017 -9539009 -1377305037</internalNodes>
      <leafValues>
        -3.5322517156600952e-01 4.6727654337882996e-01</leafValues></_>
    <_>
      <internalNodes>
        0 -1 512319 -252131192 -37924896 -203479262 -235571631
        -1033450228 1832746279 1658865022 17519434</internalNodes>
      <leafValues>
        -6.5305823087692261e-01 2.8457155823707581e-01</leafValues></_>
    <_>
      <internalNodes>
        0 -1 724632 237505853 788303868 -16777217 196652031 536667989
        -1073872900 -1375864836 -1397220252</internalNodes>
      <leafValues>
        -5.4996740818023682e-01 2.8619673848152161e-01</leafValues></_>
    <_>
      <internalNodes>
        0 -1 562686 -928464684 1034969072 -1829374346 -1378533454
        -1473526049 -1612620208 1009908478 1024799743</internalNodes>
      <leafValues>
        -5.9942179918289185e-01 2.6357865333557129e-01</leafValues></_>
    <_>
      <internalNodes>
        0 -1 429157 -1030779985 -1323358421 1602047581 285543703
        771737508 -1477040879 -728412968 -436217217</internalNodes>
      <leafValues>
        -4.2153692245483398e-01 3.8702818751335144e-01</leafValues></_>
    <_>
      <internalNodes>
        0 -1 399901 -1153904157 -643280660 310366455 -536912641
        -1086787392 -844406401 -1170211090 -1108394177</internalNodes>
      <leafValues>
        -3.3627009391784668e-01 4.7610452771186829e-01</leafValues></_></weakClassifiers></stage8>
</opencv_storage>
