<?xml version="1.0"?>
<opencv_storage>
<stage6>
  <maxWeakCount>9</maxWeakCount>
  <stageThreshold>-9.8308998346328735e-01</stageThreshold>
  <weakClassifiers>
    <_>
      <internalNodes>
        0 -1 411933 -4516651 1059530479 169294583 502467323 -12894705
        -1890668705 2070669566 -75497729</internalNodes>
      <leafValues>
        -4.3734520673751831e-01 4.2246982455253601e-01</leafValues></_>
    <_>
      <internalNodes>
        0 -1 288167 243010933 753811389 -16385 -1359202434 792275829
        -1375731713 -1912729987 -1128776656</internalNodes>
      <leafValues>
        -4.8226180672645569e-01 3.6861851811408997e-01</leafValues></_>
    <_>
      <internalNodes>
        0 -1 147669 -185610713 1718005551 -491094361 552581871
        -682145963 1685049197 -332115644 -998252833</internalNodes>
      <leafValues>
        -4.3638974428176880e-01 4.2040145397186279e-01</leafValues></_>
    <_>
      <internalNodes>
        0 -1 329285 -1786653568 185544452 -1610621534 467664031
        541392014 1073741823 167055 -1140850965</internalNodes>
      <leafValues>
        -6.3904029130935669e-01 2.8686988353729248e-01</leafValues></_>
    <_>
      <internalNodes>
        0 -1 510656 -1734290194 -576172820 862679726 -576700192
        -2042964781 -1884790837 322688235 520819807</internalNodes>
      <leafValues>
        -6.4725846052169800e-01 2.7503994107246399e-01</leafValues></_>
    <_>
      <internalNodes>
        0 -1 414590 -1056969731 808815015 1433748820 828755300
        -705170963 -185211137 -805331491 -33559043</internalNodes>
      <leafValues>
        -4.2309033870697021e-01 4.5202633738517761e-01</leafValues></_>
    <_>
      <internalNodes>
        0 -1 588516 -1061707501 1479572275 246366163 -1699696757
        2085763699 -1105097869 -421545797 -1361597918</internalNodes>
      <leafValues>
        -4.3958839774131775e-01 4.1803258657455444e-01</leafValues></_>
    <_>
      <internalNodes>
        0 -1 15740 -134238425 1357789183 -452987130 -16846038 1879008581
        1618444087 -159550108 -185139211</internalNodes>
      <leafValues>
        -4.4599869847297668e-01 4.0249308943748474e-01</leafValues></_>
    <_>
      <internalNodes>
        0 -1 425439 -173483574 2098262200 1903424122 1072124136
        -13056374 1290751966 538627023 -2132285565</internalNodes>
      <leafValues>
        -4.9546501040458679e-01 3.8445946574211121e-01</leafValues></_></weakClassifiers></stage6>
</opencv_storage>
