<?xml version="1.0"?>
<opencv_storage>
<stage19>
  <maxWeakCount>12</maxWeakCount>
  <stageThreshold>-1.4021918773651123e+00</stageThreshold>
  <weakClassifiers>
    <_>
      <internalNodes>
        0 -1 427094 -6273808 -810610969 461319375 1399413489 506838668
        1333361271 175369982 1927233053</internalNodes>
      <leafValues>
        -5.1951032876968384e-01 2.4633635580539703e-01</leafValues></_>
    <_>
      <internalNodes>
        0 -1 417507 -1073807361 -1096373706 -1758693893 -673229603
        -682763640 1292433626 -1557594117 -12648993</internalNodes>
      <leafValues>
        -2.7721861004829407e-01 4.6319347620010376e-01</leafValues></_>
    <_>
      <internalNodes>
        0 -1 340998 -244726618 -637759646 -46435521 -168888658
        1756368266 -8913097 1932744927 1147630929</internalNodes>
      <leafValues>
        -4.6211546659469604e-01 2.7005204558372498e-01</leafValues></_>
    <_>
      <internalNodes>
        0 -1 71725 -4210169 3870649 -1393078533 547044055 896510389
        896994747 -62565164 -2130706754</internalNodes>
      <leafValues>
        -3.6526098847389221e-01 3.4336784482002258e-01</leafValues></_>
    <_>
      <internalNodes>
        0 -1 450728 -148774966 -593457928 796373116 -2146054 -1220817525
        -852533411 -897588481 -1779966641</internalNodes>
      <leafValues>
        -3.5413619875907898e-01 3.4410956501960754e-01</leafValues></_>
    <_>
      <internalNodes>
        0 -1 380313 338939395 -1874592197 502736759 1818652241
        1356844511 -195561249 284632189 -398</internalNodes>
      <leafValues>
        -3.1286180019378662e-01 4.1338530182838440e-01</leafValues></_>
    <_>
      <internalNodes>
        0 -1 413982 -1146071556 -702520212 -898428422 -144371420
        255384904 1177255263 70364906 1449633307</internalNodes>
      <leafValues>
        -5.2614909410476685e-01 2.6132389903068542e-01</leafValues></_>
    <_>
      <internalNodes>
        0 -1 435215 1883461511 -62829765 914133767 -272478714
        -1808983891 -386990209 1352664540 -1396004148</internalNodes>
      <leafValues>
        -4.0107989311218262e-01 3.1187847256660461e-01</leafValues></_>
    <_>
      <internalNodes>
        0 -1 617366 2067113917 -545671259 2027420802 -71368723
        -303212547 -38060620 284497105 -4223563</internalNodes>
      <leafValues>
        -2.6744243502616882e-01 4.7960218787193298e-01</leafValues></_>
    <_>
      <internalNodes>
        0 -1 313823 1627382399 -265395889 1136631593 2106239020
        993999734 1832562238 -167776257 -53841</internalNodes>
      <leafValues>
        -3.0252796411514282e-01 4.4578433036804199e-01</leafValues></_>
    <_>
      <internalNodes>
        0 -1 285532 -114657345 1945687871 1651995378 1882402454
        893166463 -1104542082 1207375602 -148701974</internalNodes>
      <leafValues>
        -3.2260209321975708e-01 4.0259224176406860e-01</leafValues></_>
    <_>
      <internalNodes>
        0 -1 670069 -71832173 -979697993 368115889 -174790853
        -1778569471 335658500 66533187 -942145789</internalNodes>
      <leafValues>
        -3.1789842247962952e-01 4.0832659602165222e-01</leafValues></_></weakClassifiers></stage19>
</opencv_storage>
