<?xml version="1.0"?>
<opencv_storage>
<stage3>
  <maxWeakCount>6</maxWeakCount>
  <stageThreshold>-1.0262069702148438e+00</stageThreshold>
  <weakClassifiers>
    <_>
      <internalNodes>
        0 -1 509807 -257238533 355012586 858993659 1073036147 993768379
        267352063 931117055 -1073760273</internalNodes>
      <leafValues>
        -5.2776461839675903e-01 5.5130684375762939e-01</leafValues></_>
    <_>
      <internalNodes>
        0 -1 547240 -92881101 -81724645 -1629913737 -1090343392
        -399857878 -1164823285 -385971669 -1430312414</internalNodes>
      <leafValues>
        -5.2495568990707397e-01 4.8652830719947815e-01</leafValues></_>
    <_>
      <internalNodes>
        0 -1 575571 212077941 708589365 -32843 -1090736267 -1644414147
        -16990209 -753676 -1342226666</internalNodes>
      <leafValues>
        -4.6219280362129211e-01 5.6081175804138184e-01</leafValues></_>
    <_>
      <internalNodes>
        0 -1 372263 -1682239307 1538198143 142544639 1543440639
        -1086999411 -536904881 745842922 -285265937</internalNodes>
      <leafValues>
        -4.8290356993675232e-01 5.0735586881637573e-01</leafValues></_>
    <_>
      <internalNodes>
        0 -1 454551 -1430605841 816197427 -1929390755 -171597985
        -975704643 -525226128 -856292148 -520881071</internalNodes>
      <leafValues>
        -4.8177409172058105e-01 5.2288359403610229e-01</leafValues></_>
    <_>
      <internalNodes>
        0 -1 334754 243216167 179109871 1717010080 -2030371906
        1891454724 1157463934 -171498236 -454791307</internalNodes>
      <leafValues>
        -5.4153335094451904e-01 4.5821270346641541e-01</leafValues></_></weakClassifiers></stage3>
</opencv_storage>
