<?xml version="1.0"?>
<opencv_storage>
<stage10>
  <maxWeakCount>11</maxWeakCount>
  <stageThreshold>-1.0003845691680908e+00</stageThreshold>
  <weakClassifiers>
    <_>
      <internalNodes>
        0 -1 398845 -6187791 1069526783 419396350 1610599167 1995914831
        -813699201 -385880322 -67110145</internalNodes>
      <leafValues>
        -3.5184779763221741e-01 4.4076332449913025e-01</leafValues></_>
    <_>
      <internalNodes>
        0 -1 499148 -249504276 1231576492 -1221381652 2139050208
        -1489838968 87744381 355717326 401300623</internalNodes>
      <leafValues>
        -6.2312632799148560e-01 2.4901200830936432e-01</leafValues></_>
    <_>
      <internalNodes>
        0 -1 411981 -81136657 -105902852 1937766079 1576946431 993063699
        -861165197 -26510277 -1645216202</internalNodes>
      <leafValues>
        -3.5280293226242065e-01 4.2470332980155945e-01</leafValues></_>
    <_>
      <internalNodes>
        0 -1 46976 242251637 -1417740299 -1314817 -1360068679 1072790397
        -117637125 -67278859 -1091543692</internalNodes>
      <leafValues>
        -4.5183914899826050e-01 3.6736392974853516e-01</leafValues></_>
    <_>
      <internalNodes>
        0 -1 465340 -1325870894 -639606848 930014708 1438724082
        -1300634491 -1389658809 920352751 1061108059</internalNodes>
      <leafValues>
        -5.8466106653213501e-01 2.4616384506225586e-01</leafValues></_>
    <_>
      <internalNodes>
        0 -1 13447 -745396441 1979111935 -1543340117 -1221919906
        557068463 -1796166755 606121903 -325</internalNodes>
      <leafValues>
        -4.3671402335166931e-01 3.5347253084182739e-01</leafValues></_>
    <_>
      <internalNodes>
        0 -1 401462 -6172512 -922375168 318749375 1373591165 -1397621105
        -1879511697 -1507345157 588993538</internalNodes>
      <leafValues>
        -5.3158670663833618e-01 2.9637140035629272e-01</leafValues></_>
    <_>
      <internalNodes>
        0 -1 481383 247209845 -2089223809 -423633057 -318836868
        -143826955 -805961857 -1130907 -2135684064</internalNodes>
      <leafValues>
        -4.5921385288238525e-01 3.4163272380828857e-01</leafValues></_>
    <_>
      <internalNodes>
        0 -1 430515 -268435457 -1878556420 1429810940 -1613010724
        -803361384 -767236084 -1431785794 -1346638001</internalNodes>
      <leafValues>
        -3.3572402596473694e-01 4.8746597766876221e-01</leafValues></_>
    <_>
      <internalNodes>
        0 -1 120862 -1057259097 62620757 -268461073 1653679130
        -715807119 -822737577 -287830640 -336975886</internalNodes>
      <leafValues>
        -4.0079218149185181e-01 4.0703704953193665e-01</leafValues></_>
    <_>
      <internalNodes>
        0 -1 590910 -1071526704 -575005235 506830516 892562929
        -541327393 -1083544658 672529146 741863343</internalNodes>
      <leafValues>
        -5.1775544881820679e-01 3.2187885046005249e-01</leafValues></_></weakClassifiers></stage10>
</opencv_storage>
