<?xml version="1.0"?>
<opencv_storage>
<stage4>
  <maxWeakCount>7</maxWeakCount>
  <stageThreshold>-8.4919309616088867e-01</stageThreshold>
  <weakClassifiers>
    <_>
      <internalNodes>
        0 -1 412808 808605144 1005258731 1060859883 536552363 2139056015
        779059195 2105503679 -1342210049</internalNodes>
      <leafValues>
        -6.3085037469863892e-01 3.7048193812370300e-01</leafValues></_>
    <_>
      <internalNodes>
        0 -1 50359 -1065359851 13085367 -1501747689 -1526748497
        -495460251 611299135 -2073226236 -2063601985</internalNodes>
      <leafValues>
        -4.9851477146148682e-01 4.5452910661697388e-01</leafValues></_>
    <_>
      <internalNodes>
        0 -1 671791 68166965 615413628 1073741821 -84886156 -1082163371
        -1091026948 -1075044400 -1431032784</internalNodes>
      <leafValues>
        -5.3177016973495483e-01 4.0066364407539368e-01</leafValues></_>
    <_>
      <internalNodes>
        0 -1 675580 -834673359 104250647 31437104 1915809536 69160705
        84208901 -151567103 -1491601614</internalNodes>
      <leafValues>
        -4.7445309162139893e-01 4.4569295644760132e-01</leafValues></_>
    <_>
      <internalNodes>
        0 -1 13097 -164223211 -168757313 28342079 -1087307779 3408173
        -251723873 -2122305345 -1145634885</internalNodes>
      <leafValues>
        -4.7769254446029663e-01 4.3418294191360474e-01</leafValues></_>
    <_>
      <internalNodes>
        0 -1 357546 -1146891019 -1966403605 444596142 535773183
        -1270907507 -289461889 779566763 -1393872913</internalNodes>
      <leafValues>
        -5.2657347917556763e-01 4.1156524419784546e-01</leafValues></_>
    <_>
      <internalNodes>
        0 -1 575953 616041853 788359029 -8488193 710461356 -374311147
        1056816693 -268675916 -1530636208</internalNodes>
      <leafValues>
        -4.7949889302253723e-01 4.4920909404754639e-01</leafValues></_></weakClassifiers></stage4>
</opencv_storage>
