<?xml version="1.0"?>
<opencv_storage>
<stage15>
  <maxWeakCount>11</maxWeakCount>
  <stageThreshold>-1.4371380805969238e+00</stageThreshold>
  <weakClassifiers>
    <_>
      <internalNodes>
        0 -1 411669 -205843243 900575150 440368767 452964088 -16826806
        -806441139 2053111515 -1728091533</internalNodes>
      <leafValues>
        -4.2716193199157715e-01 3.1142857670783997e-01</leafValues></_>
    <_>
      <internalNodes>
        0 -1 441735 -1570787393 -143151201 -1909125539 1364683133
        -1598576864 -247996621 -50872200 -192950676</internalNodes>
      <leafValues>
        -3.5116204619407654e-01 3.8364264369010925e-01</leafValues></_>
    <_>
      <internalNodes>
        0 -1 313699 -88902146 -1028962068 679473092 1342136245
        -1137443746 -839585 1015012524 -293912581</internalNodes>
      <leafValues>
        -3.9974161982536316e-01 3.3461421728134155e-01</leafValues></_>
    <_>
      <internalNodes>
        0 -1 577904 -904873165 -1307529421 -1685677973 -1694457296
        -327218626 -1999573133 -1560466758 -1459640773</internalNodes>
      <leafValues>
        -4.0104290843009949e-01 3.6137482523918152e-01</leafValues></_>
    <_>
      <internalNodes>
        0 -1 267769 1552088018 -35655261 1945286522 1970459122
        1048573943 1048575103 1910846615 2010379970</internalNodes>
      <leafValues>
        -4.7669056057929993e-01 2.7693265676498413e-01</leafValues></_>
    <_>
      <internalNodes>
        0 -1 581341 -2131033871 2334397 -454008716 -1205783020
        -1222224023 -402424010 -269010446 -4575968</internalNodes>
      <leafValues>
        -4.6837371587753296e-01 2.8366094827651978e-01</leafValues></_>
    <_>
      <internalNodes>
        0 -1 398585 -35992756 -173483784 1935143130 -36714310 -279328693
        -1649680393 574095103 -1796743201</internalNodes>
      <leafValues>
        -3.7142041325569153e-01 3.7657627463340759e-01</leafValues></_>
    <_>
      <internalNodes>
        0 -1 150908 762316661 2130657279 -1073872897 -285270676
        -1258393803 -16908289 -1074495676 -1419501712</internalNodes>
      <leafValues>
        -4.8966726660728455e-01 2.8290966153144836e-01</leafValues></_>
    <_>
      <internalNodes>
        0 -1 479912 -268578817 -1020360580 402078717 1572686948
        1178250168 -1309347308 -1447514213 -33816773</internalNodes>
      <leafValues>
        -2.6654586195945740e-01 5.1570808887481689e-01</leafValues></_>
    <_>
      <internalNodes>
        0 -1 63150 -1595717905 -1869267707 787430143 -1254884862
        1142395071 -1318594730 -922973956 -1476923465</internalNodes>
      <leafValues>
        -3.4458750486373901e-01 4.2331367731094360e-01</leafValues></_>
    <_>
      <internalNodes>
        0 -1 403313 -1494229330 1464585838 -495786494 -307238110
        -1512573746 269080135 -50400020 -453642633</internalNodes>
      <leafValues>
        -4.9034711718559265e-01 2.9458096623420715e-01</leafValues></_></weakClassifiers></stage15>
</opencv_storage>
