<?xml version="1.0"?>
<opencv_storage>
<stage14>
  <maxWeakCount>13</maxWeakCount>
  <stageThreshold>-1.0735139846801758e+00</stageThreshold>
  <weakClassifiers>
    <_>
      <internalNodes>
        0 -1 402976 -13520976 1588768496 -1880222444 -39602672
        1579158922 953813208 706763166 1666405187</internalNodes>
      <leafValues>
        -4.1766631603240967e-01 3.4398806095123291e-01</leafValues></_>
    <_>
      <internalNodes>
        0 -1 10844 -223152257 -2222298 -285380609 -1237800134 2070170893
        -4755625 1853709183 -50893793</internalNodes>
      <leafValues>
        -3.4056580066680908e-01 3.5111674666404724e-01</leafValues></_>
    <_>
      <internalNodes>
        0 -1 532492 -779364897 1073526781 -1076068355 -1080164355
        -2138241 -1075019779 -4236290 -122969430</internalNodes>
      <leafValues>
        -2.3131215572357178e-01 4.8833575844764709e-01</leafValues></_>
    <_>
      <internalNodes>
        0 -1 314979 -1087021584 -544967196 -924849099 1365605989
        -1447503142 -1728290512 5176559 455761405</internalNodes>
      <leafValues>
        -4.5501607656478882e-01 2.5434222817420959e-01</leafValues></_>
    <_>
      <internalNodes>
        0 -1 590336 -138424062 -1308062836 -406652107 -945029217
        2113400077 -1485832939 -304550696 -2068062737</internalNodes>
      <leafValues>
        -3.4899216890335083e-01 3.2739555835723877e-01</leafValues></_>
    <_>
      <internalNodes>
        0 -1 617036 -1359490011 339871487 -1427129200 166444252
        449772814 -2031686924 -1024080768 -1060121391</internalNodes>
      <leafValues>
        -3.8310402631759644e-01 2.9756522178649902e-01</leafValues></_>
    <_>
      <internalNodes>
        0 -1 488767 403725516 1435520741 1323233245 1561942237
        -1368223440 -1075658818 1059779370 260574472</internalNodes>
      <leafValues>
        -6.7637270689010620e-01 1.7731118202209473e-01</leafValues></_>
    <_>
      <internalNodes>
        0 -1 411614 -41974433 1744486395 -16878083 -5128383 1027129279
        -369827854 -101402722 -100946245</internalNodes>
      <leafValues>
        -2.7802145481109619e-01 4.8463106155395508e-01</leafValues></_>
    <_>
      <internalNodes>
        0 -1 589979 -382827344 -1254618800 -1678067721 -1275195656
        -1149370595 -1375932740 -1426084103 -1461604141</internalNodes>
      <leafValues>
        -3.9207154512405396e-01 2.9986780881881714e-01</leafValues></_>
    <_>
      <internalNodes>
        0 -1 446790 -633390827 1423277328 -1269792867 -1666128841
        475153919 -60828177 -327255925 -2001044101</internalNodes>
      <leafValues>
        -3.8845610618591309e-01 2.8760752081871033e-01</leafValues></_>
    <_>
      <internalNodes>
        0 -1 165117 -1130306 -1113126784 -1292446562 -1091158596
        2001760852 2031048148 1633156331 1803254089</internalNodes>
      <leafValues>
        -5.0273877382278442e-01 2.2313991189002991e-01</leafValues></_>
    <_>
      <internalNodes>
        0 -1 357257 -114723404 -1729098000 1060822519 503267317
        -326847332 -1469063683 2138230175 901320513</internalNodes>
      <leafValues>
        -5.2955341339111328e-01 2.3108696937561035e-01</leafValues></_>
    <_>
      <internalNodes>
        0 -1 268003 -1702172014 1600665426 419127218 -1327688624
        -1263610035 -347943622 1807561445 935003399</internalNodes>
      <leafValues>
        -4.6309688687324524e-01 2.6213479042053223e-01</leafValues></_></weakClassifiers></stage14>
</opencv_storage>
